#include "separable_model.h"

// Initialization function prototypes
conv2d_layer_t init_conv2d_5_data(void);
batch_normalization_layer_t init_batch_normalization_398_data(void);
separable_conv2d_layer_t init_separable_conv2d_9_data(void);
batch_normalization_layer_t init_batch_normalization_399_data(void);
separable_conv2d_layer_t init_separable_conv2d_10_data(void);
batch_normalization_layer_t init_batch_normalization_400_data(void);
separable_conv2d_layer_t init_separable_conv2d_11_data(void);
batch_normalization_layer_t init_batch_normalization_401_data(void);
dense_layer_t init_dense_81_data(void);


// Global Variables
conv2d_layer_t conv2d_5_data;
batch_normalization_layer_t batch_normalization_398_data;
separable_conv2d_layer_t separable_conv2d_9_data;
batch_normalization_layer_t batch_normalization_399_data;
separable_conv2d_layer_t separable_conv2d_10_data;
batch_normalization_layer_t batch_normalization_400_data;
separable_conv2d_layer_t separable_conv2d_11_data;
batch_normalization_layer_t batch_normalization_401_data;
dense_layer_t dense_81_data;


void model_init(){
    conv2d_5_data = init_conv2d_5_data();
    batch_normalization_398_data = init_batch_normalization_398_data();
    separable_conv2d_9_data = init_separable_conv2d_9_data();
    batch_normalization_399_data = init_batch_normalization_399_data();
    separable_conv2d_10_data = init_separable_conv2d_10_data();
    batch_normalization_400_data = init_batch_normalization_400_data();
    separable_conv2d_11_data = init_separable_conv2d_11_data();
    batch_normalization_401_data = init_batch_normalization_401_data();
    dense_81_data = init_dense_81_data();

}

void model_predict(data3d_t input, data1d_t * output){
  
    prepare_buffers();
    
    //*************** LAYER 0 **************//
    // Layer name: conv2d_5
    data3d_t output0;
    // convert image for first EmbedIA Conv2d layer
    channel_adapt_layer(input, &output0);
    input = output0;
    
     conv2d_layer(conv2d_5_data, input, &output0);
    
    //*************** LAYER 1 **************//
    // Layer name: max_pooling2d_132
    input = output0;
    static const pooling2d_layer_t max_pooling2d_132_data = { 2, 2 };
    max_pooling2d_layer(max_pooling2d_132_data, input, &output0);
    
    //*************** LAYER 2 **************//
    // Layer name: batch_normalization_398
    batch_normalization3d_layer(batch_normalization_398_data, &output0);
    
    //*************** LAYER 3 **************//
    // Layer name: activation_406
    tanh_activation(output0.data, 3600);
    //tanh_activation(output0.data, 3600);
    
    //*************** LAYER 4 **************//
    // Layer name: separable_conv2d_9
    input = output0;
    // convert image for first EmbedIA Conv2d layer
    channel_adapt_layer(input, &output0);
    input = output0;
    
    separable_conv2d_layer(separable_conv2d_9_data, input, &output0);
    
    //*************** LAYER 5 **************//
    // Layer name: batch_normalization_399
    batch_normalization3d_layer(batch_normalization_399_data, &output0);
    
    //*************** LAYER 6 **************//
    // Layer name: activation_407
    tanh_activation(output0.data, 10816);
    //tanh_activation(output0.data, 10816);
    
    //*************** LAYER 7 **************//
    // Layer name: separable_conv2d_10
    input = output0;
    separable_conv2d_layer(separable_conv2d_10_data, input, &output0);
    
    //*************** LAYER 8 **************//
    // Layer name: max_pooling2d_133
    input = output0;
    static const pooling2d_layer_t max_pooling2d_133_data = { 2, 2 };
    max_pooling2d_layer(max_pooling2d_133_data, input, &output0);
    
    //*************** LAYER 9 **************//
    // Layer name: batch_normalization_400
    batch_normalization3d_layer(batch_normalization_400_data, &output0);
    
    //*************** LAYER 10 **************//
    // Layer name: activation_408
    tanh_activation(output0.data, 2400);
    //tanh_activation(output0.data, 2400);
    
    //*************** LAYER 11 **************//
    // Layer name: separable_conv2d_11
    input = output0;
    separable_conv2d_layer(separable_conv2d_11_data, input, &output0);
    
    //*************** LAYER 12 **************//
    // Layer name: average_pooling2d_20
    input = output0;
    static const pooling2d_layer_t average_pooling2d_20_data = { 3, 3 };
    avg_pooling2d_layer(average_pooling2d_20_data, input, &output0);
    
    //*************** LAYER 13 **************//
    // Layer name: batch_normalization_401
    batch_normalization3d_layer(batch_normalization_401_data, &output0);
    
    //*************** LAYER 14 **************//
    // Layer name: activation_409
    tanh_activation(output0.data, 512);
    //tanh_activation(output0.data, 512);
    
    //*************** LAYER 15 **************//
    // Layer name: flatten_82
    input = output0;
    data1d_t output1;
    flatten3d_layer(input, &output1);
    
    //*************** LAYER 16 **************//
    // Layer name: dropout_82
    data1d_t input1;
    input1 = output1;
    
    
    //*************** LAYER 17 **************//
    // Layer name: dense_81
    input1 = output1;
    dense_layer(dense_81_data, input1, &output1);
    
    
    //*************** LAYER 18 **************//
    // Layer name: activation_410
    softmax_activation(output1.data, 10);
    //softmax_activation(output1.data, 10);
    

    *output = output1;

}

int model_predict_class(data3d_t input, data1d_t * results){
  
   
    model_predict(input, results);
    
    return argmax(*results);
    //return argmax(data1d_t);

}

// Implementation of initialization functions



conv2d_layer_t init_conv2d_5_data(void){

        static filter_t filters[16];
        
        static const float weights0[]={ 
    0.04528091102838516, 0.09607056528329849, 0.04086925834417343, 
    -0.11391977220773697, 0.09802494198083878, -0.11373698711395264, 
    0.00931574497371912, -0.11655083298683167, 0.044611040502786636, 

    0.13811470568180084, 0.07607405632734299, 0.1446206271648407, 
    -0.12311355769634247, -0.1229059025645256, 0.04890056326985359, 
    -0.12757615745067596, -0.14515523612499237, 0.08839151263237, 

    0.17696569859981537, 0.1498536467552185, -0.15202020108699799, 
    0.055797725915908813, -0.08110608905553818, 0.06437749415636063, 
    -0.13405278325080872, -0.0014801386278122663, -0.1714087873697281, 

        };
        static filter_t filter0 = {3, 3, weights0, -0.0027171713300049305};
        filters[0]=filter0;
            
        static const float weights1[]={ 
    -0.03574298694729805, 0.03658844158053398, -0.06052921339869499, 
    0.05885067582130432, 0.06411655247211456, -0.032884448766708374, 
    -0.11345977336168289, 0.16741861402988434, 0.005750421434640884, 

    -0.047299109399318695, -0.11266221106052399, 0.0037671702448278666, 
    -0.013402708806097507, 0.12346723675727844, -0.18687790632247925, 
    -0.008412453345954418, 0.1766667664051056, 0.06365352123975754, 

    0.059495557099580765, 0.14076034724712372, -0.10034363716840744, 
    0.05280415713787079, 0.038674309849739075, 0.006975522264838219, 
    0.10288538783788681, 0.029372798278927803, -0.22854699194431305, 

        };
        static filter_t filter1 = {3, 3, weights1, 0.02202921360731125};
        filters[1]=filter1;
            
        static const float weights2[]={ 
    0.07469861209392548, 0.06264086067676544, 0.16299980878829956, 
    -0.0957578644156456, -0.035136863589286804, 0.12340888381004333, 
    0.0811554417014122, 0.03555948659777641, 0.17048512399196625, 

    -0.14722760021686554, 0.11012287437915802, -0.031317807734012604, 
    -0.2058383822441101, -0.08006778359413147, 0.16138315200805664, 
    -0.24926869571208954, 0.16475063562393188, 0.18477264046669006, 

    0.08376144617795944, -0.0599740669131279, -0.1486649364233017, 
    -0.2055986076593399, -0.109303779900074, -0.02366410382091999, 
    -0.030754422768950462, 0.04180808737874031, -0.051171984523534775, 

        };
        static filter_t filter2 = {3, 3, weights2, 0.007697495631873608};
        filters[2]=filter2;
            
        static const float weights3[]={ 
    0.052023787051439285, 0.16469837725162506, -0.0631837323307991, 
    0.06192832440137863, -0.17198555171489716, 0.027027269825339317, 
    -0.08488129079341888, 0.16779732704162598, -0.06850283592939377, 

    -0.06133830174803734, 0.029901107773184776, -0.011975802481174469, 
    0.08405692875385284, -0.14552320539951324, 0.19325199723243713, 
    -0.06318601220846176, 0.11558762192726135, -0.021556369960308075, 

    -0.18935638666152954, 0.07059701532125473, 0.03388204798102379, 
    0.14882247149944305, -0.08213984966278076, 0.18894264101982117, 
    0.15586943924427032, 0.14453989267349243, -0.10190444439649582, 

        };
        static filter_t filter3 = {3, 3, weights3, -0.001252416637726128};
        filters[3]=filter3;
            
        static const float weights4[]={ 
    -0.0565485842525959, 0.02815701998770237, 0.05617186799645424, 
    0.0690525621175766, 0.06888090074062347, -0.07518482953310013, 
    0.17307010293006897, -0.011410134844481945, -0.08738458901643753, 

    0.12936343252658844, 0.10625451803207397, 0.17523035407066345, 
    0.0690157487988472, 0.09382018446922302, -0.06257779896259308, 
    -0.04965406283736229, 0.08669514209032059, -0.0720328837633133, 

    -0.15211327373981476, -0.07298987358808517, 0.05811888724565506, 
    -0.06167767196893692, -0.0033890956547111273, -0.1900704801082611, 
    -0.0462355837225914, -0.10925044119358063, 0.09421632438898087, 

        };
        static filter_t filter4 = {3, 3, weights4, 0.0169485155493021};
        filters[4]=filter4;
            
        static const float weights5[]={ 
    0.14350761473178864, -0.1066698357462883, -0.17010973393917084, 
    0.06409178674221039, -0.035583943128585815, 0.05794573947787285, 
    -0.0749758929014206, -0.03862128406763077, 0.21425378322601318, 

    -0.15039315819740295, 0.09381572902202606, -0.13660378754138947, 
    0.0480993390083313, -0.16943249106407166, 0.02597385086119175, 
    0.11213631927967072, 0.06375301629304886, 0.062479741871356964, 

    0.05255322903394699, -0.059842728078365326, 0.10121382772922516, 
    0.10990093648433685, -0.04034436121582985, -0.11789937317371368, 
    -0.06831656396389008, -0.1615089625120163, 0.16222049295902252, 

        };
        static filter_t filter5 = {3, 3, weights5, -0.02461482398211956};
        filters[5]=filter5;
            
        static const float weights6[]={ 
    -0.07259790599346161, -0.022894037887454033, 0.05735908821225166, 
    -0.018092771992087364, -0.21947026252746582, -0.0659889280796051, 
    0.10075458884239197, -0.15203969180583954, -0.04849238693714142, 

    -0.1560787409543991, -0.2140544205904007, -0.17221404612064362, 
    0.13220828771591187, 0.14363284409046173, 0.09545353055000305, 
    -0.010020616464316845, 0.1911107748746872, 0.011072523891925812, 

    0.16136328876018524, 0.11943177133798599, 0.12349283695220947, 
    0.13906070590019226, -0.1056724488735199, -0.013540140353143215, 
    0.0031268696766346693, 0.07900246232748032, 0.008227132260799408, 

        };
        static filter_t filter6 = {3, 3, weights6, -0.004757891409099102};
        filters[6]=filter6;
            
        static const float weights7[]={ 
    0.037626609206199646, -0.05608309060335159, -0.08063782006502151, 
    0.1519908308982849, -0.12011060118675232, -0.06371066719293594, 
    0.1399892270565033, 0.15224036574363708, -0.09335168451070786, 

    -0.04526019096374512, 0.1328078657388687, -0.057591307908296585, 
    0.12759199738502502, 0.07847360521554947, -0.1232571080327034, 
    -0.16196796298027039, -0.1187063530087471, 0.11757542192935944, 

    0.021003618836402893, 0.1253909170627594, 0.0869448259472847, 
    -0.07152532041072845, 0.14053508639335632, -0.1485450714826584, 
    -0.15668706595897675, 0.17505447566509247, -0.10053596645593643, 

        };
        static filter_t filter7 = {3, 3, weights7, -0.012363645248115063};
        filters[7]=filter7;
            
        static const float weights8[]={ 
    -0.19019530713558197, -0.14200671017169952, -0.014754458330571651, 
    -0.1030363067984581, 0.14392392337322235, -0.015771551057696342, 
    0.1099209412932396, 0.16436606645584106, 0.23018890619277954, 

    0.15829800069332123, -0.13087241351604462, -0.09236545860767365, 
    0.14025549590587616, -0.12475751340389252, -0.08924956619739532, 
    -0.02886410616338253, 0.07483723759651184, -0.06774221360683441, 

    -0.2022935301065445, -0.006902205757796764, 0.18741747736930847, 
    -0.03887559100985527, 0.1438205987215042, 0.12045573443174362, 
    0.00619015097618103, -0.03754444792866707, -0.020844638347625732, 

        };
        static filter_t filter8 = {3, 3, weights8, -0.020424315705895424};
        filters[8]=filter8;
            
        static const float weights9[]={ 
    0.08337371796369553, 0.0567241832613945, -0.0887506976723671, 
    0.11136947572231293, -0.1418442279100418, -0.16583500802516937, 
    -0.01442724373191595, -0.197516068816185, 0.054068535566329956, 

    -0.15517674386501312, 0.07594192028045654, 0.11859240382909775, 
    -0.062287673354148865, 0.11362866312265396, 0.15517030656337738, 
    0.10484935343265533, 0.1603647619485855, 0.03354242816567421, 

    0.13840974867343903, -0.1458835005760193, -0.030929120257496834, 
    -0.17608216404914856, -0.1256830096244812, -0.007304426748305559, 
    0.019114132970571518, 0.007610427215695381, 0.08416217565536499, 

        };
        static filter_t filter9 = {3, 3, weights9, 0.008107689209282398};
        filters[9]=filter9;
            
        static const float weights10[]={ 
    0.18011224269866943, -0.004480608738958836, -0.0806707888841629, 
    -0.006665881257504225, 0.1789976805448532, 0.04177817329764366, 
    -0.01988038420677185, -0.01373564638197422, -0.0548996739089489, 

    0.187810480594635, 0.07068776339292526, -0.130422905087471, 
    0.04423510283231735, -0.03790134936571121, -0.1515207588672638, 
    0.20759642124176025, 0.07266487181186676, -0.1554821878671646, 

    0.025619657710194588, -0.1664324849843979, -0.22280137240886688, 
    -0.11673310399055481, -0.004711734596639872, -0.007937200367450714, 
    -0.09698938578367233, -0.1076730489730835, -0.15316349267959595, 

        };
        static filter_t filter10 = {3, 3, weights10, -0.007138432469218969};
        filters[10]=filter10;
            
        static const float weights11[]={ 
    -0.053138960152864456, -0.11331174522638321, -0.009995691478252411, 
    0.015190551057457924, 0.06124333664774895, 0.09635208547115326, 
    -0.11976481974124908, -0.17327004671096802, 0.02889084629714489, 

    0.06267088651657104, 0.11680416017770767, 0.042836304754018784, 
    0.1539430469274521, -0.14654774963855743, 0.1882815808057785, 
    0.10661071538925171, 0.06105955317616463, 0.0274235587567091, 

    0.11138841509819031, -0.16561470925807953, 0.026538200676441193, 
    -0.1739077866077423, -0.2021813839673996, 0.11229948699474335, 
    -0.13547314703464508, 0.04910030588507652, -7.574021583423018e-05, 

        };
        static filter_t filter11 = {3, 3, weights11, -0.0048723672516644};
        filters[11]=filter11;
            
        static const float weights12[]={ 
    -0.06269481778144836, 0.05570344999432564, -0.19031976163387299, 
    -0.04643221199512482, 0.1322779357433319, 0.18203118443489075, 
    0.11157923191785812, 0.05265193432569504, 0.2057182341814041, 

    0.12897799909114838, -0.07745914906263351, -0.018732858821749687, 
    0.04041450098156929, 0.04447457566857338, -0.13801556825637817, 
    -0.12969136238098145, 0.12664979696273804, -0.01984947733581066, 

    -0.0825067088007927, 0.1656326800584793, 0.13945482671260834, 
    0.11595235019922256, -0.14155256748199463, -0.15097972750663757, 
    0.1294211447238922, -0.06572194397449493, -0.22439570724964142, 

        };
        static filter_t filter12 = {3, 3, weights12, 0.0022307911422103643};
        filters[12]=filter12;
            
        static const float weights13[]={ 
    0.20165982842445374, -0.14107659459114075, -0.13829761743545532, 
    0.07879291474819183, -0.10139305889606476, 0.09865336120128632, 
    -0.013188719749450684, -0.10605497658252716, -0.014835329726338387, 

    0.20067547261714935, -0.0759715884923935, -0.015723327174782753, 
    0.1590440571308136, -0.07193678617477417, -0.15011389553546906, 
    -0.01103917695581913, -0.06165914237499237, 0.04891020432114601, 

    0.011039022356271744, -0.004506299737840891, 0.01590621843934059, 
    0.10801909863948822, -0.21059966087341309, 0.008503861725330353, 
    0.053300321102142334, 0.020418681204319, 0.035885319113731384, 

        };
        static filter_t filter13 = {3, 3, weights13, -0.012762526050209999};
        filters[13]=filter13;
            
        static const float weights14[]={ 
    -0.10230571031570435, 0.17655345797538757, 0.032393794506788254, 
    0.0567002035677433, -0.1688353419303894, -0.1639927178621292, 
    -0.12478075921535492, -0.07614462822675705, -0.0782352089881897, 

    -0.032172076404094696, -0.09573926031589508, 0.006610807962715626, 
    0.17389945685863495, 0.001944506075233221, 0.08324798941612244, 
    0.14485850930213928, 0.08836337178945541, -0.07466904819011688, 

    -0.12150998413562775, 0.0752662792801857, 0.14423277974128723, 
    0.16222018003463745, 0.13151748478412628, -0.10254795104265213, 
    -0.11980544775724411, 0.015917310491204262, 0.1660119593143463, 

        };
        static filter_t filter14 = {3, 3, weights14, 0.0029245801270008087};
        filters[14]=filter14;
            
        static const float weights15[]={ 
    0.14124001562595367, 0.2311347872018814, 0.12160655111074448, 
    -0.1503007560968399, 0.08459354192018509, 0.22384145855903625, 
    -0.11928458511829376, 0.11383137851953506, 0.08833760768175125, 

    0.11858046054840088, 0.215907484292984, 0.0762791782617569, 
    -0.03274805098772049, -0.03457745164632797, 0.23989368975162506, 
    -0.10433509200811386, -0.05208497494459152, 0.043805431574583054, 

    0.1274857372045517, -0.08285894989967346, -0.04579811543226242, 
    0.12373899668455124, 0.0265942495316267, -0.054749276489019394, 
    0.19166426360607147, 0.06424792855978012, 0.03442711383104324, 

        };
        static filter_t filter15 = {3, 3, weights15, -0.003349057398736477};
        filters[15]=filter15;
            
        conv2d_layer_t layer = {16,filters};
        return layer;
        }
        
batch_normalization_layer_t init_batch_normalization_398_data(void){

    static const float inv_gamma_dev[] ={
    0.797973/sqrt(0.035839+0.001000), 0.796394/sqrt(0.018272+0.001000), 0.657573/sqrt(0.063074+0.001000), 
    0.727301/sqrt(0.073067+0.001000), 0.890640/sqrt(0.021991+0.001000), 1.138503/sqrt(0.009945+0.001000), 
    0.889492/sqrt(0.029524+0.001000), 0.869745/sqrt(0.010713+0.001000), 0.698400/sqrt(0.024431+0.001000), 
    1.097948/sqrt(0.007043+0.001000), 0.793679/sqrt(0.112746+0.001000), 0.818812/sqrt(0.014366+0.001000), 
    0.731428/sqrt(0.027542+0.001000), 0.898251/sqrt(0.021662+0.001000), 0.808165/sqrt(0.028902+0.001000), 
    0.816902/sqrt(0.485857+0.001000)
    };
    static const float std_beta[] ={
    -0.394308-(0.103775*0.797973/sqrt(0.035839+0.001000)), -0.076941-(0.062233*0.796394/sqrt(0.018272+0.001000)), 
    0.155074-(0.151568*0.657573/sqrt(0.063074+0.001000)), -0.055484-(0.002965*0.727301/sqrt(0.073067+0.001000)), 
    0.171583-(0.096992*0.890640/sqrt(0.021991+0.001000)), 0.150301-(0.037616*1.138503/sqrt(0.009945+0.001000)), 
    -0.092826-(-0.007892*0.889492/sqrt(0.029524+0.001000)), 0.269514-(0.036144*0.869745/sqrt(0.010713+0.001000)), 
    -0.169540-(0.031237*0.698400/sqrt(0.024431+0.001000)), 0.174746-(0.051771*1.097948/sqrt(0.007043+0.001000)), 
    -0.231566-(0.169713*0.793679/sqrt(0.112746+0.001000)), -0.089081-(0.070526*0.818812/sqrt(0.014366+0.001000)), 
    -0.312378-(0.050384*0.731428/sqrt(0.027542+0.001000)), -0.135933-(0.064935*0.898251/sqrt(0.021662+0.001000)), 
    -0.063945-(0.006608*0.808165/sqrt(0.028902+0.001000)), -0.060371-(0.047387*0.816902/sqrt(0.485857+0.001000)), 
  
    };

    static const batch_normalization_layer_t norm = { 16, inv_gamma_dev, std_beta };
    return norm;
}


        separable_conv2d_layer_t init_separable_conv2d_9_data(void){

        
        static const float depth_weights[]={
    0.010170918889343739, -0.16127754747867584, -0.10675094276666641, 
    -0.025381013751029968, -0.029313132166862488, -0.017686037346720695, 
    -0.2000412791967392, -0.044488437473773956, -0.21035324037075043, 
  
    0.024692559614777565, -0.07234800606966019, 0.03689182549715042, 
    0.2021046280860901, -0.1995593011379242, -0.194441556930542, 
    -0.04783184826374054, 0.028216609731316566, 0.06430137157440186, 
  
    0.1378716677427292, -0.17104759812355042, -0.171827495098114, 
    0.16266776621341705, -0.029921049252152443, -0.12131219357252121, 
    0.18762262165546417, -0.03265153989195824, 0.07360135018825531, 
  
    -0.028968336060643196, -0.035630203783512115, -0.058282725512981415, 
    -0.13164915144443512, 0.10190369188785553, -0.1628745049238205, 
    0.09609484672546387, 0.10037899762392044, 0.19688135385513306, 
  
    0.07588258385658264, -0.0022395446430891752, 0.05857324227690697, 
    -0.016319643706083298, -0.15639494359493256, -0.09600533545017242, 
    0.1769481748342514, -0.15547631680965424, -0.10965961962938309, 
  
    -0.07084102183580399, -0.11909328401088715, 0.05847235396504402, 
    0.016354558989405632, -0.08360479772090912, 0.025083428248763084, 
    -0.06118663772940636, -0.08464765548706055, -0.11671239882707596, 
  
    -0.08178778737783432, -0.19013778865337372, 0.04007615149021149, 
    0.06735116243362427, -0.0759304091334343, 0.12938007712364197, 
    -0.12378950417041779, -0.11535044759511948, 0.002843578113242984, 
  
    0.1156245768070221, -0.0031659759115427732, -0.08023533970117569, 
    0.016045130789279938, 0.1059199795126915, -0.01951470412313938, 
    0.09983399510383606, 0.16298352181911469, 0.06263495236635208, 
  
    -0.14681629836559296, -0.2153080254793167, 0.11105650663375854, 
    -0.18009711802005768, 0.07692494988441467, 0.04773401841521263, 
    0.09562583267688751, 0.1673019528388977, 0.10752349346876144, 
  
    -0.04426589235663414, 0.19999797642230988, 0.046231709420681, 
    0.06235196441411972, 0.109893798828125, -0.05856563150882721, 
    -0.03561403974890709, -0.0543697327375412, 0.022853083908557892, 
  
    0.03386908397078514, -0.08636898547410965, -0.16842105984687805, 
    0.15733376145362854, -0.2118130922317505, 0.11515577137470245, 
    0.06604689359664917, 0.14390739798545837, 0.1301543414592743, 
  
    -0.007445813622325659, 0.12541745603084564, -0.037384990602731705, 
    -0.1744362711906433, -0.1923801749944687, 0.0343884639441967, 
    0.125510111451149, -0.23068775236606598, -0.006635644938796759, 
  
    -0.1679549366235733, -0.14673815667629242, 0.1701703518629074, 
    -0.13003619015216827, -0.1681203842163086, 0.17446675896644592, 
    0.03705623000860214, -0.06247356906533241, 0.03752953186631203, 
  
    -0.02405465580523014, 0.11720017343759537, -0.010569862090051174, 
    0.022771760821342468, 0.2602487802505493, -0.0032106139697134495, 
    0.04577845707535744, 0.11432183533906937, 0.12176886200904846, 
  
    0.05439891293644905, -0.09247928112745285, -0.07751474529504776, 
    0.06858424097299576, -0.15370044112205505, -0.14571858942508698, 
    -0.14895975589752197, -0.03607805445790291, 0.09440305083990097, 
  
    -0.16310565173625946, 0.17814193665981293, 0.15281662344932556, 
    0.04160177335143089, -0.15226030349731445, -0.054814472794532776, 
    -0.2142469882965088, 0.12669247388839722, 0.027874063700437546, 
  
        };
        static filter_t depth_filter = {16, 3, depth_weights, 0};

        static filter_t point_filters[64];
        
        static const float point_weights0[]={-0.23114413022994995, -0.01824929751455784, 0.05548028647899628, 0.28475043177604675, -0.19587264955043793, -0.08890864998102188, 0.21624790132045746, -0.12479385733604431, 0.012894170358777046, -0.11847997456789017, -0.07465251535177231, -0.31870320439338684, 0.21633754670619965, 0.051646638661623, 0.04541401565074921, 0.004816373810172081, 
        };
        static filter_t point_filter0 = {16, 1, point_weights0, -0.00025356514379382133};
        point_filters[0] = point_filter0;
        
        static const float point_weights1[]={0.10315012186765671, -0.19024524092674255, 0.2589915096759796, -0.09902198612689972, -0.14081110060214996, -0.12827932834625244, -0.14427682757377625, 0.051053620874881744, -0.14598804712295532, 0.04095452278852463, -0.05696544423699379, 0.024917833507061005, 0.06103368476033211, 0.08566640317440033, 0.15295863151550293, 0.2837536036968231, 
        };
        static filter_t point_filter1 = {16, 1, point_weights1, -0.04495387524366379};
        point_filters[1] = point_filter1;
        
        static const float point_weights2[]={-0.05590794235467911, -0.10150401294231415, -0.2566642463207245, 0.058522846549749374, -0.13869942724704742, -0.14387235045433044, 0.1828586310148239, -0.18744663894176483, -0.012029110454022884, 0.05300470069050789, 0.03560551255941391, -0.22349224984645844, 0.2792358696460724, 0.16743060946464539, 0.0399789921939373, 0.4900721609592438, 
        };
        static filter_t point_filter2 = {16, 1, point_weights2, 0.00013513046724256128};
        point_filters[2] = point_filter2;
        
        static const float point_weights3[]={0.16465021669864655, -0.04182780906558037, 0.10767798870801926, 0.11097734421491623, 0.107650987803936, -0.19010721147060394, 0.2670120596885681, 0.0022061539348214865, -0.07158928364515305, 0.0656646117568016, 0.1204569935798645, -0.30958089232444763, 0.06239553168416023, 0.12999151647090912, -0.16769585013389587, 0.0964125320315361, 
        };
        static filter_t point_filter3 = {16, 1, point_weights3, 0.02009221352636814};
        point_filters[3] = point_filter3;
        
        static const float point_weights4[]={-0.1388278752565384, -0.03803576901555061, -0.32412219047546387, -0.12086991965770721, 0.022326748818159103, -0.19797925651073456, -0.01462701428681612, -0.11611246317625046, 0.11183702945709229, 0.13614386320114136, 0.2482648491859436, -0.005737836007028818, 0.07235800474882126, -0.10306543856859207, -0.17843620479106903, -0.09303562343120575, 
        };
        static filter_t point_filter4 = {16, 1, point_weights4, 0.007236363831907511};
        point_filters[4] = point_filter4;
        
        static const float point_weights5[]={0.0951322540640831, -0.10856093466281891, -0.07771782577037811, -0.2811565101146698, -0.0911218449473381, -0.14795927703380585, -0.07499895244836807, -0.15675893425941467, -0.0018158397870138288, 0.30592960119247437, 0.10406264662742615, 0.23218566179275513, -0.11267545074224472, -0.06437192112207413, -0.20755140483379364, 0.24052058160305023, 
        };
        static filter_t point_filter5 = {16, 1, point_weights5, 0.0005605366895906627};
        point_filters[5] = point_filter5;
        
        static const float point_weights6[]={-0.2198738008737564, -0.13783836364746094, -0.04290293902158737, -0.30485519766807556, -0.1005653515458107, 0.04916432127356529, -0.17644795775413513, 0.11372160911560059, 0.19739384949207306, -0.06908755749464035, 0.37513408064842224, 0.05624380707740784, -0.05865086615085602, -0.17352724075317383, -0.1368803083896637, 0.285211443901062, 
        };
        static filter_t point_filter6 = {16, 1, point_weights6, -0.0011806782567873597};
        point_filters[6] = point_filter6;
        
        static const float point_weights7[]={0.09604517370462418, 0.16813133656978607, 0.38742631673812866, 0.1275763362646103, -0.1854010820388794, 0.025053352117538452, -0.0646909549832344, -0.16265875101089478, -0.04193353280425072, 0.0704183429479599, 0.31914931535720825, 0.16204151511192322, 0.0512424111366272, -0.09823058545589447, -0.013618307188153267, -0.15037676692008972, 
        };
        static filter_t point_filter7 = {16, 1, point_weights7, -0.009760280139744282};
        point_filters[7] = point_filter7;
        
        static const float point_weights8[]={-0.13882037997245789, 0.07182351499795914, 0.09279365092515945, -0.019540615379810333, 0.23095303773880005, -0.023997649550437927, 0.024905826896429062, -0.12783373892307281, -0.10237570852041245, 0.035380955785512924, 0.15613022446632385, -0.19718198478221893, -0.007689993362873793, -0.21165302395820618, 0.1941564679145813, 0.2224835902452469, 
        };
        static filter_t point_filter8 = {16, 1, point_weights8, 0.0010188552550971508};
        point_filters[8] = point_filter8;
        
        static const float point_weights9[]={-0.24613702297210693, -0.12022660672664642, -0.21020562946796417, -0.11067080497741699, -0.12668722867965698, -0.0373404286801815, -0.3055154085159302, -0.026890374720096588, 0.004954344592988491, 0.19542816281318665, -0.14750789105892181, 0.2278851717710495, -0.31922513246536255, -0.06739111989736557, -0.2396591454744339, -0.017240868881344795, 
        };
        static filter_t point_filter9 = {16, 1, point_weights9, -0.002084423089399934};
        point_filters[9] = point_filter9;
        
        static const float point_weights10[]={0.23602822422981262, 0.04139326140284538, -0.19063355028629303, 0.22114434838294983, -0.005849247332662344, 0.11869362741708755, 0.22733348608016968, -0.024888822808861732, -0.18035006523132324, 0.13800519704818726, 0.14257816970348358, -0.19522938132286072, -0.09232664853334427, 0.017908023670315742, 0.12685242295265198, -0.03227042034268379, 
        };
        static filter_t point_filter10 = {16, 1, point_weights10, 0.013941080309450626};
        point_filters[10] = point_filter10;
        
        static const float point_weights11[]={-0.10281272232532501, 0.3648768365383148, 0.22737807035446167, -0.13049469888210297, 0.1300346553325653, 0.027177155017852783, 0.06569680571556091, 0.0629177987575531, -0.2020060122013092, 0.04471411183476448, 0.1639755368232727, 0.2125280201435089, 0.0340399406850338, -0.05414963513612747, -0.14295488595962524, -0.10708744823932648, 
        };
        static filter_t point_filter11 = {16, 1, point_weights11, -0.005838065408170223};
        point_filters[11] = point_filter11;
        
        static const float point_weights12[]={0.20716054737567902, 0.07116339355707169, -0.24247510731220245, -0.1501704454421997, 0.05103549361228943, 0.05015183240175247, -0.1615954339504242, -0.2924045920372009, 0.17658181488513947, -0.06023327261209488, -0.08235404640436172, -0.2585396468639374, -0.24805453419685364, 0.22581583261489868, -0.2315617948770523, 0.1555500030517578, 
        };
        static filter_t point_filter12 = {16, 1, point_weights12, -0.0027839946560561657};
        point_filters[12] = point_filter12;
        
        static const float point_weights13[]={-0.06350074708461761, -0.2824127674102783, -0.20329217612743378, 0.035258520394563675, 0.17033304274082184, -0.21841846406459808, 0.21532543003559113, -0.03241262584924698, -0.0470464788377285, 0.1405254304409027, -0.19067583978176117, 0.10715504735708237, 0.18677708506584167, -0.039888396859169006, -0.17733043432235718, -0.2619366943836212, 
        };
        static filter_t point_filter13 = {16, 1, point_weights13, -0.00014523317804560065};
        point_filters[13] = point_filter13;
        
        static const float point_weights14[]={-0.029710033908486366, 0.24623680114746094, 0.14426502585411072, -0.1786867380142212, -0.17283615469932556, -0.06093549355864525, -0.020102661103010178, -0.029778648167848587, 0.22725141048431396, 0.17713665962219238, 0.04782789573073387, -0.19920417666435242, -0.025530178099870682, -0.02746393345296383, -0.2523227334022522, -0.21989455819129944, 
        };
        static filter_t point_filter14 = {16, 1, point_weights14, -0.008891182020306587};
        point_filters[14] = point_filter14;
        
        static const float point_weights15[]={0.07378935813903809, 0.043764784932136536, 0.19302837550640106, 0.25577348470687866, -0.01660120114684105, 0.3531619608402252, 0.19736337661743164, 0.044131163507699966, -0.03696180880069733, -0.10622835159301758, 0.09426399320363998, 0.16884078085422516, -0.009097227826714516, -0.12436467409133911, -0.06768164038658142, -0.1903577595949173, 
        };
        static filter_t point_filter15 = {16, 1, point_weights15, 0.010703512467443943};
        point_filters[15] = point_filter15;
        
        static const float point_weights16[]={-0.04742699861526489, 0.28613775968551636, 0.13709096610546112, -0.11639737337827682, -0.2294127196073532, 0.13060009479522705, 0.05516389384865761, -0.23288139700889587, -0.14458392560482025, -0.23864059150218964, -0.05077449977397919, -0.28298819065093994, 0.12612968683242798, 0.170512393116951, 0.11651477217674255, -0.043061405420303345, 
        };
        static filter_t point_filter16 = {16, 1, point_weights16, -0.0051056877709925175};
        point_filters[16] = point_filter16;
        
        static const float point_weights17[]={0.18976011872291565, 0.19249394536018372, -0.055329207330942154, 0.02994908206164837, -0.0006365731824189425, 0.3338600695133209, -0.05645120143890381, 0.11321298778057098, 0.20441420376300812, 0.3094364404678345, -0.12185798585414886, -0.0844033733010292, -0.15021735429763794, -0.2453252673149109, -0.18076179921627045, -0.12153501063585281, 
        };
        static filter_t point_filter17 = {16, 1, point_weights17, -0.01138745341449976};
        point_filters[17] = point_filter17;
        
        static const float point_weights18[]={-0.1620459109544754, 0.01793874055147171, -0.06941806524991989, -0.05100366473197937, -0.1174599900841713, -0.08469536155462265, 0.20353716611862183, -0.09482823312282562, -0.015681201592087746, -0.2629631459712982, 0.012292232364416122, 0.18069665133953094, 0.12937535345554352, -0.1450013816356659, 0.1946616768836975, -0.030440373346209526, 
        };
        static filter_t point_filter18 = {16, 1, point_weights18, -0.004751886241137981};
        point_filters[18] = point_filter18;
        
        static const float point_weights19[]={0.13057847321033478, -0.2869788706302643, 0.14747893810272217, 0.02629483863711357, -0.15883103013038635, -0.14102816581726074, -0.19418342411518097, 0.20184192061424255, -0.19340531527996063, 0.026327650994062424, 0.10294743627309799, -0.2294471114873886, 0.212956041097641, 0.0794140100479126, -0.09029559046030045, -0.020446516573429108, 
        };
        static filter_t point_filter19 = {16, 1, point_weights19, -0.015362286940217018};
        point_filters[19] = point_filter19;
        
        static const float point_weights20[]={-0.09215253591537476, 0.39005714654922485, -0.27926746010780334, -0.152787983417511, -0.028591245412826538, 0.21587076783180237, 0.14328338205814362, -0.17680279910564423, 0.05158296972513199, -0.10436540096998215, 0.08367368578910828, -0.1801021546125412, -0.2575526535511017, 0.21969512104988098, -0.02864084020256996, -0.025317486375570297, 
        };
        static filter_t point_filter20 = {16, 1, point_weights20, -0.00782657042145729};
        point_filters[20] = point_filter20;
        
        static const float point_weights21[]={0.18194855749607086, 0.007175256032496691, -0.17810332775115967, -0.07215147465467453, 0.11560320109128952, 0.14811889827251434, 0.011441633105278015, -0.197345569729805, -0.16925399005413055, -0.14739246666431427, 0.327350378036499, 0.1584140956401825, -0.04386386275291443, -0.18088670074939728, -0.008538477122783661, 0.2912941575050354, 
        };
        static filter_t point_filter21 = {16, 1, point_weights21, -0.0019299878040328622};
        point_filters[21] = point_filter21;
        
        static const float point_weights22[]={0.03777211904525757, 0.04776135832071304, -0.119716115295887, -0.2907961905002594, 0.269598126411438, 0.055235788226127625, -0.11694446951150894, -0.020905764773488045, 0.14967727661132812, -0.2837353050708771, -0.3386937975883484, 0.1954057812690735, -0.21983058750629425, -0.09332801401615143, 0.04149235785007477, -0.0017650515073910356, 
        };
        static filter_t point_filter22 = {16, 1, point_weights22, 0.007599421311169863};
        point_filters[22] = point_filter22;
        
        static const float point_weights23[]={-0.036182038486003876, 0.21138715744018555, -0.1945781707763672, 0.13408607244491577, 0.1661367118358612, -0.12324930727481842, -0.04607529565691948, 0.15379822254180908, 0.3483213186264038, 0.22083285450935364, 0.047431543469429016, 0.06802289187908173, 0.27136000990867615, 0.02141493372619152, -0.02322744019329548, -0.07877537608146667, 
        };
        static filter_t point_filter23 = {16, 1, point_weights23, 0.011188249103724957};
        point_filters[23] = point_filter23;
        
        static const float point_weights24[]={0.2833574712276459, -0.027189740911126137, -0.1790705919265747, 0.33413270115852356, -0.18622535467147827, 0.255485862493515, 0.0755029246211052, -0.3178088366985321, -0.052761804312467575, 0.03175104781985283, -0.2172265201807022, 0.005771351046860218, 0.07402490824460983, 0.14763890206813812, -0.14480501413345337, -0.10710409283638, 
        };
        static filter_t point_filter24 = {16, 1, point_weights24, 0.0012899625580757856};
        point_filters[24] = point_filter24;
        
        static const float point_weights25[]={-0.0927848219871521, -0.18234123289585114, -0.09054796397686005, 0.2754457890987396, -0.13450612127780914, -0.16044563055038452, 0.08825235068798065, -0.2114740014076233, -0.05450142174959183, 0.33195364475250244, 0.09987625479698181, 0.12031680345535278, 0.17202165722846985, 0.23617655038833618, 0.16829124093055725, 0.19275158643722534, 
        };
        static filter_t point_filter25 = {16, 1, point_weights25, 0.0014725495129823685};
        point_filters[25] = point_filter25;
        
        static const float point_weights26[]={0.1859838217496872, -0.0865502581000328, 0.05775368958711624, -0.2271467000246048, -0.0217631496489048, -0.10676567256450653, 0.14849025011062622, 0.20433874428272247, 0.06063798442482948, 0.13578754663467407, 0.0640588104724884, -0.1608342081308365, -0.05730028450489044, -0.01414520014077425, -0.19699949026107788, 0.2683549225330353, 
        };
        static filter_t point_filter26 = {16, 1, point_weights26, -0.00798541959375143};
        point_filters[26] = point_filter26;
        
        static const float point_weights27[]={0.2305329442024231, -0.2316165566444397, -0.2306065708398819, -0.2757256031036377, -0.07370424270629883, 0.2633042633533478, -0.022340277209877968, -0.04492519795894623, -0.15153133869171143, 0.17535312473773956, 0.07315203547477722, -0.019900480285286903, 0.1522604078054428, -0.031793367117643356, 0.0984414666891098, -0.07046189904212952, 
        };
        static filter_t point_filter27 = {16, 1, point_weights27, 0.004643199034035206};
        point_filters[27] = point_filter27;
        
        static const float point_weights28[]={-0.1256803721189499, 0.17501750588417053, -0.12396996468305588, 0.12146269530057907, 0.0971645787358284, 0.24202285706996918, -0.23160366714000702, 0.22378411889076233, 0.04258190095424652, -0.11168786138296127, 0.19247879087924957, -0.06001865491271019, 0.025983044877648354, 0.19636276364326477, 0.24287909269332886, -0.1284809708595276, 
        };
        static filter_t point_filter28 = {16, 1, point_weights28, 0.004597864579409361};
        point_filters[28] = point_filter28;
        
        static const float point_weights29[]={-0.11088351905345917, -0.22509559988975525, -0.0750240683555603, 0.03864245489239693, 0.1589788943529129, 0.007366094272583723, -0.15639163553714752, 0.16731663048267365, -0.14540636539459229, -0.40198391675949097, 0.18015199899673462, -0.23464637994766235, 0.23217357695102692, 0.2997027337551117, 0.21296526491641998, 0.19091960787773132, 
        };
        static filter_t point_filter29 = {16, 1, point_weights29, -0.000119877076940611};
        point_filters[29] = point_filter29;
        
        static const float point_weights30[]={-0.2572976350784302, 0.10466257482767105, -0.022732779383659363, -0.10253515839576721, -0.07923537492752075, 0.012193691916763783, -0.29149574041366577, 0.028635045513510704, 0.11283871531486511, -0.07314740866422653, -0.04954400658607483, -0.0319315567612648, -0.05085635185241699, -0.20352274179458618, 0.15362350642681122, -0.26888176798820496, 
        };
        static filter_t point_filter30 = {16, 1, point_weights30, 0.01702279783785343};
        point_filters[30] = point_filter30;
        
        static const float point_weights31[]={-0.12906095385551453, 0.14056499302387238, 0.0729261040687561, -0.13542325794696808, 0.06914471089839935, -0.036969710141420364, 0.20064565539360046, 0.20852375030517578, 0.22741807997226715, -0.07059142738580704, 0.09129857271909714, 0.1513873040676117, -0.20594561100006104, -0.14361941814422607, 0.021571943536400795, 0.18196721374988556, 
        };
        static filter_t point_filter31 = {16, 1, point_weights31, 0.005844890605658293};
        point_filters[31] = point_filter31;
        
        static const float point_weights32[]={0.04151878133416176, -0.15611156821250916, -0.06436636298894882, 0.032381393015384674, -0.24094530940055847, -0.268526166677475, -0.06981120258569717, 0.0836203396320343, -0.0987934023141861, 0.2364521324634552, -0.1465897113084793, -0.013702086172997952, 0.0817369669675827, 0.1817772388458252, 0.18037553131580353, -0.036853380501270294, 
        };
        static filter_t point_filter32 = {16, 1, point_weights32, 0.005784623324871063};
        point_filters[32] = point_filter32;
        
        static const float point_weights33[]={0.2829234004020691, -0.14530454576015472, 0.0015504800248891115, -0.007593250367790461, 0.12292438000440598, -0.09368740022182465, -0.15630950033664703, -0.15950970351696014, -0.21740557253360748, 0.14628005027770996, 0.07869911938905716, -0.26638758182525635, -0.15158599615097046, 0.1275559961795807, 0.22785846889019012, 0.019546963274478912, 
        };
        static filter_t point_filter33 = {16, 1, point_weights33, 0.019218429923057556};
        point_filters[33] = point_filter33;
        
        static const float point_weights34[]={-0.09138859808444977, -0.008785495534539223, -0.2429671287536621, 0.01745741069316864, -0.2705635726451874, 0.1589859426021576, 0.09771215915679932, 0.03125476837158203, 0.061679575592279434, -0.026967298239469528, 0.06359576433897018, -0.1276468187570572, -0.014672646299004555, 0.1550721973180771, -0.06832102686166763, 0.023124029859900475, 
        };
        static filter_t point_filter34 = {16, 1, point_weights34, -0.012242443859577179};
        point_filters[34] = point_filter34;
        
        static const float point_weights35[]={0.28603678941726685, -0.06883727759122849, -0.1223330870270729, 0.033061183989048004, -0.16861321032047272, 0.1357543170452118, 0.1656433343887329, -0.1623806208372116, -0.07609765976667404, 0.14507345855236053, 0.11230088025331497, 0.08055676519870758, 0.16874809563159943, -0.25542429089546204, -0.18596185743808746, 0.07402017712593079, 
        };
        static filter_t point_filter35 = {16, 1, point_weights35, -0.003921554423868656};
        point_filters[35] = point_filter35;
        
        static const float point_weights36[]={0.1630464494228363, -0.021689247339963913, -0.2491668313741684, -0.1311967670917511, -0.13602504134178162, 0.08273095637559891, 0.04130956903100014, 0.2275066375732422, 0.013202805072069168, 0.012840940617024899, -0.06300856918096542, 0.11426306515932083, 0.011290513910353184, 0.23551799356937408, 0.014547991566359997, 0.2260414958000183, 
        };
        static filter_t point_filter36 = {16, 1, point_weights36, 0.0018078968860208988};
        point_filters[36] = point_filter36;
        
        static const float point_weights37[]={0.264557421207428, 0.08667632192373276, 0.17388086020946503, 0.07439319789409637, 0.08392421901226044, -0.2020619660615921, -0.0523393377661705, -0.03209048509597778, -0.020100224763154984, 0.09348323196172714, 0.18897151947021484, -0.13543054461479187, 0.0693298950791359, -0.2030460685491562, 0.2636636793613434, 0.1766650378704071, 
        };
        static filter_t point_filter37 = {16, 1, point_weights37, 0.0043940008617937565};
        point_filters[37] = point_filter37;
        
        static const float point_weights38[]={-0.11227579414844513, 0.219635009765625, -0.15986204147338867, 0.1984502524137497, 0.2802490293979645, -0.20699363946914673, -0.15800566971302032, 0.2798181176185608, -0.022730190306901932, 0.053597498685121536, 0.022043127566576004, -0.0005922763957642019, 0.18339572846889496, -0.12029390037059784, 0.0020173247903585434, 0.10329143702983856, 
        };
        static filter_t point_filter38 = {16, 1, point_weights38, 0.00936975795775652};
        point_filters[38] = point_filter38;
        
        static const float point_weights39[]={0.15507565438747406, -0.1881045252084732, -0.06419797241687775, 0.18941347301006317, 0.0014888175064697862, -0.07130727171897888, 0.1412593275308609, -0.1461942046880722, -0.0038911711890250444, -0.08878171443939209, -0.2218676209449768, 0.27994537353515625, -0.18263615667819977, -0.20865249633789062, 0.215309277176857, 0.22706754505634308, 
        };
        static filter_t point_filter39 = {16, 1, point_weights39, 0.0029472142923623323};
        point_filters[39] = point_filter39;
        
        static const float point_weights40[]={0.21347488462924957, 0.03690124675631523, -0.3259403705596924, -0.0008796742185950279, 0.22593660652637482, 0.23625023663043976, 0.11197813600301743, -0.0037500220350921154, 0.12233216315507889, 0.07129964232444763, -0.10286645591259003, -0.1566755622625351, 0.04140567407011986, -0.11222025007009506, 0.16411276161670685, -0.15451687574386597, 
        };
        static filter_t point_filter40 = {16, 1, point_weights40, -0.011658042669296265};
        point_filters[40] = point_filter40;
        
        static const float point_weights41[]={-0.06576994806528091, -0.2086552232503891, -3.897430724464357e-05, 0.1338818073272705, 0.2652459740638733, 0.20924144983291626, -0.0463414341211319, 0.0567915253341198, -0.10233927518129349, 0.18379952013492584, 0.04294232651591301, -0.14076729118824005, -0.28945428133010864, -0.10741062462329865, 0.13740657269954681, 0.2552596926689148, 
        };
        static filter_t point_filter41 = {16, 1, point_weights41, 0.006853788625448942};
        point_filters[41] = point_filter41;
        
        static const float point_weights42[]={-0.11670992523431778, -0.033063262701034546, 0.23103664815425873, -0.010395265184342861, 0.2530290186405182, 0.14816461503505707, -0.14719215035438538, 0.1823352873325348, 0.10031738132238388, 0.1719360202550888, -0.2586985230445862, 0.13499201834201813, -0.11066582798957825, -0.047448042780160904, 0.2757740020751953, 0.25615593791007996, 
        };
        static filter_t point_filter42 = {16, 1, point_weights42, 0.0037004221230745316};
        point_filters[42] = point_filter42;
        
        static const float point_weights43[]={0.0965891107916832, 0.22434674203395844, -0.21292266249656677, 0.19128760695457458, -0.15542271733283997, 0.045550040900707245, 0.04823977127671242, 0.2639019787311554, -0.0009241220541298389, -0.20312531292438507, -0.07871679216623306, -0.27790549397468567, 0.09247200191020966, 0.3034294545650482, 0.11482812464237213, 0.21798431873321533, 
        };
        static filter_t point_filter43 = {16, 1, point_weights43, 0.00235551199875772};
        point_filters[43] = point_filter43;
        
        static const float point_weights44[]={0.1497105360031128, -0.1993359476327896, -0.1124679297208786, -0.11520712822675705, 0.028273796662688255, 0.06568505614995956, 0.09131120890378952, -0.11805927753448486, 0.2815415561199188, -0.05884240195155144, 0.19116152822971344, -0.12493591755628586, 0.11988018453121185, -0.056164681911468506, 0.12635201215744019, 0.23059991002082825, 
        };
        static filter_t point_filter44 = {16, 1, point_weights44, -0.0026822274085134268};
        point_filters[44] = point_filter44;
        
        static const float point_weights45[]={0.075788214802742, -0.2210799753665924, 0.22011907398700714, -0.2904612421989441, 0.04461964592337608, 0.16341307759284973, 0.13544131815433502, 0.13195420801639557, 0.14461851119995117, 0.11953455209732056, 0.21154356002807617, 0.3267272412776947, 0.23028139770030975, 0.26612648367881775, 0.05540648102760315, -0.36617904901504517, 
        };
        static filter_t point_filter45 = {16, 1, point_weights45, -0.006270215846598148};
        point_filters[45] = point_filter45;
        
        static const float point_weights46[]={0.2017851173877716, 0.10964544117450714, 0.23805376887321472, -0.16916435956954956, 0.055192381143569946, 0.1012624204158783, 0.09573692083358765, 0.2518875300884247, 0.01318078488111496, 0.1974654495716095, 0.04956967756152153, -0.1586725413799286, -0.19728977978229523, 0.09540726244449615, 0.16321255266666412, 0.27597692608833313, 
        };
        static filter_t point_filter46 = {16, 1, point_weights46, -0.008459043689072132};
        point_filters[46] = point_filter46;
        
        static const float point_weights47[]={0.059331659227609634, 0.03550991788506508, 0.030833924189209938, -0.02387929894030094, -0.13227687776088715, -0.03527748957276344, 0.1792784482240677, 0.23095375299453735, -0.06611236184835434, 0.012096928432583809, 0.23005540668964386, 0.0644814670085907, 0.002436920301988721, 0.2827972173690796, -0.2956031858921051, 0.14617767930030823, 
        };
        static filter_t point_filter47 = {16, 1, point_weights47, 0.0026107497978955507};
        point_filters[47] = point_filter47;
        
        static const float point_weights48[]={0.050944894552230835, -0.11149551719427109, -0.05728631839156151, -0.1613534688949585, -0.10493440926074982, 0.09137731790542603, 0.13198813796043396, -0.057904645800590515, 0.26580220460891724, 0.07663065195083618, 0.3096246123313904, 0.0604323074221611, -0.051616594195365906, 0.2441955953836441, -0.1880650669336319, -0.04274551942944527, 
        };
        static filter_t point_filter48 = {16, 1, point_weights48, -0.01156617421656847};
        point_filters[48] = point_filter48;
        
        static const float point_weights49[]={-0.04277385026216507, 0.29568371176719666, 0.18576675653457642, -0.40150925517082214, 0.0927102118730545, -0.17600689828395844, 0.21959716081619263, 0.16282810270786285, -0.2955716848373413, -0.06054117530584335, 0.013220318593084812, -0.1732596755027771, 0.1397387683391571, -0.043066687881946564, -0.06868435442447662, -0.2591920793056488, 
        };
        static filter_t point_filter49 = {16, 1, point_weights49, -0.0024573749396950006};
        point_filters[49] = point_filter49;
        
        static const float point_weights50[]={-0.0012253184104338288, -0.2609821856021881, 0.061983101069927216, 0.20036594569683075, -0.044298458844423294, -0.07319055497646332, 0.05212101712822914, -0.11393421143293381, -0.29485946893692017, 0.1680179387331009, 0.03381916880607605, 0.11138033866882324, -0.09838762134313583, -0.22286896407604218, -0.05005712807178497, -0.002241388661786914, 
        };
        static filter_t point_filter50 = {16, 1, point_weights50, 0.0064424434676766396};
        point_filters[50] = point_filter50;
        
        static const float point_weights51[]={0.06342193484306335, 0.13569368422031403, -0.16120485961437225, -0.030796809121966362, -0.03429973125457764, 0.046521443873643875, -0.20551103353500366, -0.22954265773296356, -0.003940597642213106, -0.0998053103685379, -0.25578880310058594, -0.07842814177274704, 0.12637324631214142, 0.175733745098114, -0.2691386640071869, 0.048211127519607544, 
        };
        static filter_t point_filter51 = {16, 1, point_weights51, -0.0030058352276682854};
        point_filters[51] = point_filter51;
        
        static const float point_weights52[]={-0.050196949392557144, 0.0035405082162469625, -0.006252548657357693, 0.21672756969928741, -0.11337532103061676, -0.23009219765663147, 0.030546436086297035, 0.20373590290546417, 0.18100428581237793, -0.36232027411460876, 0.17696577310562134, 0.22581207752227783, -0.14770226180553436, 0.13871914148330688, 0.20393477380275726, 0.3155866265296936, 
        };
        static filter_t point_filter52 = {16, 1, point_weights52, -0.0022500883787870407};
        point_filters[52] = point_filter52;
        
        static const float point_weights53[]={-0.08613727241754532, -0.08477660268545151, 0.13840188086032867, 0.0816868394613266, 0.003618028946220875, 0.040196795016527176, -0.20497579872608185, -0.0116958599537611, -0.1859073042869568, 0.22626559436321259, -0.14834362268447876, 0.2124178409576416, -0.1307952105998993, -0.16363658010959625, 0.14556707441806793, 0.09833230823278427, 
        };
        static filter_t point_filter53 = {16, 1, point_weights53, -0.014311089180409908};
        point_filters[53] = point_filter53;
        
        static const float point_weights54[]={0.14476463198661804, -0.15620507299900055, 0.19389739632606506, -0.20482772588729858, -0.04753660410642624, 0.10170382261276245, 0.05397063493728638, -0.090823233127594, 0.21547627449035645, 0.06982835382223129, 0.009468325413763523, -0.1831486076116562, 0.2312559187412262, 0.05727747082710266, -0.19957655668258667, 0.2587013840675354, 
        };
        static filter_t point_filter54 = {16, 1, point_weights54, 0.018728867173194885};
        point_filters[54] = point_filter54;
        
        static const float point_weights55[]={-0.2165476679801941, 0.025515040382742882, -0.1250758320093155, -0.33153462409973145, -0.06151605769991875, 0.26696813106536865, 0.1350838840007782, 0.027625029906630516, -0.27671578526496887, 0.019236326217651367, -0.27918797731399536, 0.17520447075366974, -0.22810015082359314, 0.13831084966659546, 0.005408774130046368, 0.03559255227446556, 
        };
        static filter_t point_filter55 = {16, 1, point_weights55, 0.001535634626634419};
        point_filters[55] = point_filter55;
        
        static const float point_weights56[]={-0.26014500856399536, 0.17447935044765472, -0.36068055033683777, 0.0940786600112915, 0.12507878243923187, -0.322378933429718, -0.13814477622509003, 0.20743949711322784, -0.27824851870536804, 0.11264582723379135, -0.09447485208511353, 0.23176828026771545, 0.21442055702209473, -0.24404366314411163, 0.12572816014289856, -0.2383560687303543, 
        };
        static filter_t point_filter56 = {16, 1, point_weights56, 0.004648600704967976};
        point_filters[56] = point_filter56;
        
        static const float point_weights57[]={0.07641250640153885, 0.22740772366523743, 0.04360562935471535, -0.019019216299057007, 0.19251634180545807, 0.14905250072479248, 0.15253832936286926, -0.10594523698091507, 0.1885049045085907, -0.257495254278183, -0.25987696647644043, 0.18512165546417236, 0.20313386619091034, -0.09877928346395493, 0.04718601331114769, -0.1391846388578415, 
        };
        static filter_t point_filter57 = {16, 1, point_weights57, -0.0013096787733957171};
        point_filters[57] = point_filter57;
        
        static const float point_weights58[]={-0.08186779916286469, -0.07375722378492355, -0.30247825384140015, 0.12368511408567429, 0.21610380709171295, -0.025385668501257896, 0.32606998085975647, -0.017693722620606422, 0.059440188109874725, -0.09351497888565063, 0.08558455109596252, -0.1987934708595276, 0.010965561494231224, -0.22309722006320953, -0.08317214995622635, -0.14660854637622833, 
        };
        static filter_t point_filter58 = {16, 1, point_weights58, -0.0036283275112509727};
        point_filters[58] = point_filter58;
        
        static const float point_weights59[]={-0.22929570078849792, 0.2323325127363205, -0.09941843152046204, -0.07932960242033005, -0.3043970465660095, 0.15744923055171967, 0.022346558049321175, -0.11897274106740952, 0.1049635261297226, -0.07795622944831848, -0.16603723168373108, -0.17421285808086395, -0.32626423239707947, -0.1642560362815857, 0.2681870758533478, -0.08235526084899902, 
        };
        static filter_t point_filter59 = {16, 1, point_weights59, 0.00651048356667161};
        point_filters[59] = point_filter59;
        
        static const float point_weights60[]={-0.17722129821777344, -0.06538907438516617, 0.09090643376111984, 0.08218203485012054, -0.11807405948638916, -0.15661868453025818, 0.18974432349205017, 0.12674863636493683, -0.15150801837444305, -0.160789355635643, -0.08680762350559235, 0.21848644316196442, 0.029643218964338303, -0.11078346520662308, 0.009389220736920834, -0.25994935631752014, 
        };
        static filter_t point_filter60 = {16, 1, point_weights60, 0.0096804304048419};
        point_filters[60] = point_filter60;
        
        static const float point_weights61[]={-0.22913895547389984, 0.019331585615873337, -0.06335574388504028, 0.13162411749362946, -0.26240673661231995, 0.014013027772307396, -0.039695680141448975, -0.22166752815246582, -0.1451171338558197, -0.10092226415872574, 0.144642174243927, 0.23377977311611176, -0.24356301128864288, 0.02551412023603916, -0.005171114578843117, -0.09585470706224442, 
        };
        static filter_t point_filter61 = {16, 1, point_weights61, 0.01964450441300869};
        point_filters[61] = point_filter61;
        
        static const float point_weights62[]={-0.15960274636745453, -0.25273874402046204, -0.19930632412433624, -0.14020992815494537, -0.04468654841184616, -0.13243143260478973, -0.08697394281625748, -0.09232985228300095, 0.3562716245651245, -0.10044776648283005, 0.18346360325813293, 0.007781874854117632, 0.04119407385587692, -0.12610946595668793, -0.03001832589507103, -0.02531549707055092, 
        };
        static filter_t point_filter62 = {16, 1, point_weights62, -0.019162267446517944};
        point_filters[62] = point_filter62;
        
        static const float point_weights63[]={0.21109794080257416, -0.2151266485452652, -0.05474545434117317, 0.05731981620192528, 0.1825723946094513, 0.2374396175146103, -0.28074491024017334, 0.15031622350215912, 0.11117897182703018, -0.0954616367816925, 0.22960631549358368, 0.11917495727539062, -0.12221912294626236, -0.0462782122194767, 0.050864968448877335, -0.08596698194742203, 
        };
        static filter_t point_filter63 = {16, 1, point_weights63, -0.0015148086240515113};
        point_filters[63] = point_filter63;
        
        separable_conv2d_layer_t layer = {64, depth_filter, point_filters};
        return layer;
        }
        
batch_normalization_layer_t init_batch_normalization_399_data(void){

    static const float inv_gamma_dev[] ={
    0.830899/sqrt(0.018248+0.001000), 0.874488/sqrt(0.005833+0.001000), 0.919120/sqrt(0.028434+0.001000), 
    0.947931/sqrt(0.009057+0.001000), 0.978447/sqrt(0.010749+0.001000), 1.117661/sqrt(0.006121+0.001000), 
    1.010559/sqrt(0.015690+0.001000), 0.977333/sqrt(0.009568+0.001000), 0.872220/sqrt(0.016252+0.001000), 
    0.989009/sqrt(0.019606+0.001000), 0.799457/sqrt(0.011196+0.001000), 0.980669/sqrt(0.011973+0.001000), 
    0.967903/sqrt(0.014890+0.001000), 0.982144/sqrt(0.006787+0.001000), 0.949035/sqrt(0.008431+0.001000), 
    1.056078/sqrt(0.012872+0.001000), 0.965694/sqrt(0.014882+0.001000), 0.975442/sqrt(0.023333+0.001000), 
    1.009090/sqrt(0.015691+0.001000), 0.981991/sqrt(0.016232+0.001000), 0.883096/sqrt(0.019604+0.001000), 
    0.932331/sqrt(0.017161+0.001000), 1.016363/sqrt(0.017055+0.001000), 0.985019/sqrt(0.021046+0.001000), 
    0.932919/sqrt(0.018057+0.001000), 1.012956/sqrt(0.015547+0.001000), 0.925102/sqrt(0.006663+0.001000), 
    0.934813/sqrt(0.011226+0.001000), 0.867573/sqrt(0.012754+0.001000), 1.003359/sqrt(0.020255+0.001000), 
    0.829814/sqrt(0.004625+0.001000), 0.917368/sqrt(0.010081+0.001000), 0.932018/sqrt(0.011028+0.001000), 
    1.019910/sqrt(0.010535+0.001000), 1.043364/sqrt(0.006377+0.001000), 0.893066/sqrt(0.026128+0.001000), 
    0.863429/sqrt(0.005680+0.001000), 0.964856/sqrt(0.017124+0.001000), 1.015396/sqrt(0.009785+0.001000), 
    0.859962/sqrt(0.020445+0.001000), 0.970212/sqrt(0.015569+0.001000), 0.942246/sqrt(0.005435+0.001000), 
    1.085310/sqrt(0.007207+0.001000), 1.012381/sqrt(0.010231+0.001000), 1.028816/sqrt(0.017788+0.001000), 
    0.988786/sqrt(0.010870+0.001000), 0.920285/sqrt(0.008377+0.001000), 0.930463/sqrt(0.011999+0.001000), 
    0.943545/sqrt(0.005580+0.001000), 0.997754/sqrt(0.014727+0.001000), 0.869262/sqrt(0.012355+0.001000), 
    1.240922/sqrt(0.014681+0.001000), 0.941440/sqrt(0.020355+0.001000), 0.945383/sqrt(0.006660+0.001000), 
    0.965208/sqrt(0.014673+0.001000), 0.981740/sqrt(0.024094+0.001000), 0.849774/sqrt(0.013976+0.001000), 
    0.941153/sqrt(0.018508+0.001000), 0.950871/sqrt(0.010560+0.001000), 1.058829/sqrt(0.019516+0.001000), 
    0.924326/sqrt(0.010168+0.001000), 1.002380/sqrt(0.010093+0.001000), 0.885755/sqrt(0.010663+0.001000), 
    0.848990/sqrt(0.013961+0.001000)
    };
    static const float std_beta[] ={
    0.178518-(-0.051761*0.830899/sqrt(0.018248+0.001000)), 0.130466-(-0.005897*0.874488/sqrt(0.005833+0.001000)), 
    0.123858-(-0.018004*0.919120/sqrt(0.028434+0.001000)), 0.087873-(0.042214*0.947931/sqrt(0.009057+0.001000)), 
    0.017825-(-0.024620*0.978447/sqrt(0.010749+0.001000)), 0.133676-(0.019299*1.117661/sqrt(0.006121+0.001000)), 
    0.081348-(-0.040654*1.010559/sqrt(0.015690+0.001000)), 0.149121-(0.018720*0.977333/sqrt(0.009568+0.001000)), 
    -0.023699-(-0.029237*0.872220/sqrt(0.016252+0.001000)), -0.027777-(-0.068193*0.989009/sqrt(0.019606+0.001000)), 
    -0.081880-(0.060760*0.799457/sqrt(0.011196+0.001000)), -0.220003-(-0.010527*0.980669/sqrt(0.011973+0.001000)), 
    -0.256569-(-0.031001*0.967903/sqrt(0.014890+0.001000)), 0.333180-(-0.003546*0.982144/sqrt(0.006787+0.001000)), 
    0.108288-(-0.021820*0.949035/sqrt(0.008431+0.001000)), 0.091554-(0.033309*1.056078/sqrt(0.012872+0.001000)), 
    -0.113920-(-0.033939*0.965694/sqrt(0.014882+0.001000)), 0.603896-(0.043061*0.975442/sqrt(0.023333+0.001000)), 
    0.134562-(-0.007792*1.009090/sqrt(0.015691+0.001000)), 0.182098-(0.023914*0.981991/sqrt(0.016232+0.001000)), 
    0.019721-(-0.074753*0.883096/sqrt(0.019604+0.001000)), -0.124994-(0.033334*0.932331/sqrt(0.017161+0.001000)), 
    -0.166928-(0.009993*1.016363/sqrt(0.017055+0.001000)), -0.066182-(0.020241*0.985019/sqrt(0.021046+0.001000)), 
    -0.240809-(0.029741*0.932919/sqrt(0.018057+0.001000)), -0.139123-(-0.029401*1.012956/sqrt(0.015547+0.001000)), 
    0.060874-(0.051572*0.925102/sqrt(0.006663+0.001000)), -0.262253-(0.064336*0.934813/sqrt(0.011226+0.001000)), 
    -0.273903-(-0.038212*0.867573/sqrt(0.012754+0.001000)), -0.035070-(-0.046965*1.003359/sqrt(0.020255+0.001000)), 
    0.000603-(-0.034397*0.829814/sqrt(0.004625+0.001000)), 0.018921-(0.003775*0.917368/sqrt(0.010081+0.001000)), 
    0.127164-(0.029419*0.932018/sqrt(0.011028+0.001000)), -0.315890-(0.042056*1.019910/sqrt(0.010535+0.001000)), 
    0.235355-(-0.047642*1.043364/sqrt(0.006377+0.001000)), 0.386395-(0.084564*0.893066/sqrt(0.026128+0.001000)), 
    -0.009926-(0.039397*0.863429/sqrt(0.005680+0.001000)), 0.245580-(0.083940*0.964856/sqrt(0.017124+0.001000)), 
    -0.046418-(0.011198*1.015396/sqrt(0.009785+0.001000)), 0.015608-(0.052826*0.859962/sqrt(0.020445+0.001000)), 
    0.114621-(0.038647*0.970212/sqrt(0.015569+0.001000)), -0.093663-(-0.023141*0.942246/sqrt(0.005435+0.001000)), 
    -0.072492-(-0.010198*1.085310/sqrt(0.007207+0.001000)), 0.178783-(0.017978*1.012381/sqrt(0.010231+0.001000)), 
    -0.170068-(0.028793*1.028816/sqrt(0.017788+0.001000)), 0.270058-(0.020662*0.988786/sqrt(0.010870+0.001000)), 
    -0.144237-(0.042617*0.920285/sqrt(0.008377+0.001000)), 0.267944-(0.011618*0.930463/sqrt(0.011999+0.001000)), 
    -0.193462-(-0.029530*0.943545/sqrt(0.005580+0.001000)), -0.072176-(0.014768*0.997754/sqrt(0.014727+0.001000)), 
    0.062675-(0.017149*0.869262/sqrt(0.012355+0.001000)), -0.234132-(-0.024759*1.240922/sqrt(0.014681+0.001000)), 
    0.061187-(-0.009265*0.941440/sqrt(0.020355+0.001000)), -0.131358-(-0.020625*0.945383/sqrt(0.006660+0.001000)), 
    -0.246009-(0.039779*0.965208/sqrt(0.014673+0.001000)), -0.504007-(-0.053151*0.981740/sqrt(0.024094+0.001000)), 
    -0.040370-(0.006277*0.849774/sqrt(0.013976+0.001000)), 0.134078-(0.032161*0.941153/sqrt(0.018508+0.001000)), 
    -0.056613-(-0.016484*0.950871/sqrt(0.010560+0.001000)), 0.028775-(-0.047079*1.058829/sqrt(0.019516+0.001000)), 
    0.120092-(0.004509*0.924326/sqrt(0.010168+0.001000)), -0.293571-(-0.056522*1.002380/sqrt(0.010093+0.001000)), 
    -0.021494-(-0.056481*0.885755/sqrt(0.010663+0.001000)), -0.085431-(0.031253*0.848990/sqrt(0.013961+0.001000)), 
  
    };

    static const batch_normalization_layer_t norm = { 64, inv_gamma_dev, std_beta };
    return norm;
}


        separable_conv2d_layer_t init_separable_conv2d_10_data(void){

        
        static const float depth_weights[]={
    -0.02532998099923134, -0.03908669948577881, -0.06587578356266022, 
    0.04481787979602814, 0.06808718293905258, 0.10609245300292969, 
    -0.10972480475902557, -0.05475471541285515, 0.15824922919273376, 
  
    -0.006812836043536663, 0.021701335906982422, 0.0823158398270607, 
    -0.0372818186879158, -0.0412633903324604, 0.07754560559988022, 
    0.04253525286912918, 0.0740516185760498, 0.18841104209423065, 
  
    0.06271098554134369, -0.049714382737874985, -0.018809771165251732, 
    -0.0016875631408765912, 0.07562363147735596, -0.08303922414779663, 
    0.008676931262016296, -0.04593310132622719, -0.03747043386101723, 
  
    -0.10231323540210724, 0.015413995832204819, -0.033158257603645325, 
    -0.02166401781141758, -0.03875136002898216, -0.024436013773083687, 
    -0.1113877221941948, 0.11573068797588348, 0.09470877796411514, 
  
    -0.10136181861162186, -0.0347164124250412, -0.05319799482822418, 
    0.10422055423259735, 0.0407412014901638, 0.035856395959854126, 
    -0.052930012345314026, 0.09312920272350311, -0.05394357070326805, 
  
    0.024289535358548164, -0.0496031679213047, -0.03225105255842209, 
    0.06269483268260956, 0.0399993434548378, -0.011420664377510548, 
    -0.006323915906250477, -0.0052854749374091625, -0.10658988356590271, 
  
    -0.07557953149080276, 0.09319266676902771, 0.03265603259205818, 
    0.0536406934261322, 0.10541830956935883, 0.017371609807014465, 
    -0.04801272600889206, 0.08125293999910355, -0.03471798077225685, 
  
    -0.06035591661930084, 0.012583350762724876, 0.0727701261639595, 
    0.02611035481095314, 0.016445353627204895, 0.11333000659942627, 
    0.07355206459760666, -0.013474858365952969, 0.0641244500875473, 
  
    -0.08046310395002365, -0.06123337894678116, 0.12661021947860718, 
    0.02750582806766033, -0.015272125601768494, 0.0028244268614798784, 
    0.09008614718914032, 0.03281323239207268, 0.005960489623248577, 
  
    -0.0853399783372879, 0.10987298935651779, 0.06580103188753128, 
    -0.02076088637113571, 0.0755702555179596, -0.06800244748592377, 
    -0.010781848803162575, -0.058624956756830215, 0.010242288932204247, 
  
    -0.04688117280602455, -0.07147013396024704, -0.09329446405172348, 
    -0.06753082573413849, 0.062470678240060806, -0.09328259527683258, 
    0.04535612091422081, 0.07563478499650955, -0.07766745239496231, 
  
    0.003064526477828622, -0.0767292007803917, -0.04514443874359131, 
    0.044898323714733124, -0.07227175682783127, -0.12021119892597198, 
    -0.10370134562253952, 0.07024368643760681, 0.06629003584384918, 
  
    0.09197188913822174, 0.03774280473589897, 0.00642481679096818, 
    -0.009246901609003544, 0.09936477988958359, -0.028879566118121147, 
    -0.05023200437426567, 0.01353219710290432, 0.019030869007110596, 
  
    0.02171897143125534, 0.0197704266756773, -0.06351528316736221, 
    -0.04903508722782135, -0.03128621727228165, -0.06673631072044373, 
    -0.0740773156285286, -0.05011405423283577, 0.004307401366531849, 
  
    -0.09131653606891632, -0.0897202119231224, -0.021779226139187813, 
    0.002047870075330138, -0.03603913635015488, 0.030030161142349243, 
    -0.0465887226164341, -0.07692442089319229, 0.04046577960252762, 
  
    -0.05193331837654114, -0.08282874524593353, -0.07808087766170502, 
    0.13888883590698242, -0.12379595637321472, 0.02751155197620392, 
    0.06171206757426262, -0.05713368579745293, -0.041883066296577454, 
  
    -0.08114545047283173, -0.065000019967556, -0.06775963306427002, 
    0.03597938269376755, -0.0838865414261818, -0.022497601807117462, 
    0.06505823135375977, -0.0167065542191267, 0.036328624933958054, 
  
    -0.045123204588890076, 0.031155580654740334, 0.04280734807252884, 
    -0.023091629147529602, -0.03987056389451027, -0.05052976310253143, 
    0.03998362272977829, -0.0329999215900898, -0.10253589600324631, 
  
    0.020941060036420822, 0.07136338949203491, 0.05091707408428192, 
    0.0006524446071125567, 0.07080838829278946, -0.0025816026609390974, 
    -0.05908828228712082, -0.09171273559331894, 0.06793421506881714, 
  
    0.10039735585451126, -0.060759902000427246, -0.04152890294790268, 
    -0.04117418825626373, -0.06863733381032944, -0.05694131180644035, 
    -0.1097179502248764, -0.12495746463537216, 0.0477251261472702, 
  
    0.03656496852636337, 0.11835583299398422, -0.11902985721826553, 
    -0.030480334535241127, -0.04350362718105316, 0.03376176208257675, 
    0.09931743890047073, 0.02225332334637642, -0.01620473712682724, 
  
    0.0785093754529953, -0.027666283771395683, 0.11900649219751358, 
    -0.05396939814090729, 0.08686825633049011, 0.11038298159837723, 
    -0.05301807075738907, -0.051239486783742905, -0.0087064728140831, 
  
    0.016837600618600845, 0.0039106206968426704, 0.05715092271566391, 
    -0.06916278600692749, 0.05793403834104538, 0.0754624754190445, 
    -0.11404211074113846, 0.08538227528333664, -0.09548614919185638, 
  
    0.05577857419848442, 0.011750818230211735, 0.12448049336671829, 
    0.04355344921350479, 0.007035745773464441, 0.027174372225999832, 
    0.06808503717184067, 0.048272211104631424, -0.04888370633125305, 
  
    0.02782386727631092, -0.03327273949980736, 0.07639297842979431, 
    -0.053998470306396484, 0.051809925585985184, 0.037459325045347214, 
    -0.12689296901226044, -0.05549725517630577, -0.03416196256875992, 
  
    0.03857768699526787, -0.08596394211053848, -0.0558433011174202, 
    -0.0007705390453338623, 0.026412177830934525, -0.07999266684055328, 
    0.022475821897387505, 0.11846091598272324, 0.005411696154624224, 
  
    0.0835314691066742, 0.06504657864570618, 0.07303024083375931, 
    -0.0001448795956093818, -0.0633964017033577, -0.003860003314912319, 
    -0.126736581325531, -0.016761619597673416, -0.025216519832611084, 
  
    0.03705775365233421, 0.05743253231048584, -0.008112499490380287, 
    0.02041424810886383, 0.13393326103687286, -0.07871704548597336, 
    -0.07709570974111557, 0.07763957977294922, 0.07038985192775726, 
  
    -0.03259952366352081, -0.03218439966440201, 0.0201181098818779, 
    0.02658895030617714, -0.07365509867668152, -0.04891252890229225, 
    -0.10909053683280945, -0.011517327278852463, -0.010109753347933292, 
  
    0.032510291785001755, 0.05715528503060341, -0.060673657804727554, 
    0.05006118491292, -0.06766063719987869, -0.10899224877357483, 
    0.09660718590021133, 0.06849075108766556, -0.016986222937703133, 
  
    0.0547635555267334, -0.022814443334937096, -0.11361877620220184, 
    -0.09540426731109619, 0.020430942997336388, -0.07567721605300903, 
    0.1500364989042282, 0.0999704971909523, -0.11604264378547668, 
  
    0.08600658178329468, 0.03218892961740494, 0.0730748325586319, 
    -0.020460138097405434, -0.024405794218182564, 0.000871655938681215, 
    -0.010978820733726025, -0.049150776118040085, 0.020084194839000702, 
  
    0.08447697013616562, -0.06466200947761536, 0.13941293954849243, 
    -0.005378676578402519, 0.05618344992399216, -0.007401900365948677, 
    -0.03542161360383034, -0.1120598167181015, -0.10068640112876892, 
  
    -0.053880225867033005, 0.06707193702459335, -0.039935145527124405, 
    -0.01986600272357464, -0.09109251946210861, -0.035386133939027786, 
    0.014354274608194828, -0.14578551054000854, 0.035014353692531586, 
  
    -0.06590134650468826, 0.018089715391397476, 0.0460779182612896, 
    -0.025848353281617165, 0.07323569059371948, -0.04145140200853348, 
    0.09939222782850266, 0.03667835146188736, 0.021369555965065956, 
  
    0.03926088660955429, 0.05195501446723938, -0.016932575032114983, 
    0.017173070460557938, -0.07007110863924026, 0.08796628564596176, 
    0.0694049596786499, -0.07574614137411118, 0.1358535885810852, 
  
    0.12569043040275574, 0.06291603296995163, -0.020803486928343773, 
    0.10114428400993347, 0.04941188171505928, 0.0658964216709137, 
    0.023161975666880608, 0.05835738033056259, 0.0075011285953223705, 
  
    -0.09890110790729523, 0.009596765972673893, 0.026843681931495667, 
    -0.09698829054832458, 0.07432016730308533, 0.03600350767374039, 
    0.04752141982316971, 0.14558099210262299, 0.06310294568538666, 
  
    0.032077424228191376, 0.08584631234407425, -0.11145337671041489, 
    0.008142468519508839, 0.07379604130983353, 0.04998956620693207, 
    0.06585274636745453, 0.038252342492341995, -0.005595279857516289, 
  
    0.03683475777506828, 0.06363233178853989, 0.10097124427556992, 
    0.05614710971713066, -0.0365975946187973, 0.06943720579147339, 
    0.0012710089795291424, 0.013437633402645588, -0.020877927541732788, 
  
    0.037731561809778214, -0.061652205884456635, 0.07936134189367294, 
    0.031022274866700172, -0.11622243374586105, 0.01670457050204277, 
    0.028725095093250275, -0.11595671623945236, -0.01661154441535473, 
  
    -0.04090579226613045, 0.10340311378240585, -0.034090954810380936, 
    -0.0263361893594265, -0.06445927917957306, -0.030571995303034782, 
    0.009928805753588676, 0.08921758085489273, 0.06089959293603897, 
  
    -0.06955349445343018, 0.06790117919445038, -0.024252377450466156, 
    -0.07801046222448349, 0.0520562082529068, 0.022916154935956, 
    -0.05427926778793335, -0.015422402881085873, 0.1119532361626625, 
  
    0.0027601062320172787, -0.058169033378362656, 0.1032649353146553, 
    0.09585358202457428, -0.07271025329828262, 0.01528518833220005, 
    0.059312961995601654, 0.09571260958909988, 0.048104312270879745, 
  
    0.05555080622434616, -0.003781245555728674, 0.041143909096717834, 
    0.07091527432203293, 0.045406773686409, 0.05548480898141861, 
    -0.0783470943570137, 0.060352470725774765, 0.08589136600494385, 
  
    0.13752500712871552, -0.04327307268977165, -0.04647091031074524, 
    -0.060939207673072815, -0.06147254258394241, 0.06958712637424469, 
    -0.005290865898132324, -0.10717566311359406, -0.042976923286914825, 
  
    0.05202045664191246, -0.017610499635338783, 0.06649786978960037, 
    0.06455091387033463, 0.06365040689706802, 0.014953617937862873, 
    0.0315275639295578, -0.044830501079559326, -0.006340499967336655, 
  
    -0.04665718972682953, -0.08891554176807404, -0.02780213952064514, 
    0.12071491032838821, 0.1450914591550827, -0.08767957985401154, 
    -0.015041440725326538, -0.0066778287291526794, -0.029039114713668823, 
  
    0.013724683783948421, -0.0028230894822627306, -0.11089440435171127, 
    0.03927368298172951, -0.08618143945932388, -0.06839986145496368, 
    -0.026955226436257362, -0.08717792481184006, 0.008088541217148304, 
  
    0.08115791529417038, 0.0071634817868471146, 0.03421158716082573, 
    0.018236590549349785, -0.0748380720615387, 0.08419262617826462, 
    0.10299492627382278, -0.06115846708416939, 0.0364837609231472, 
  
    -0.10743806511163712, 0.09402225911617279, 0.11876575648784637, 
    0.000573338009417057, 0.06781099736690521, 0.041213855147361755, 
    0.005612502805888653, -0.14867576956748962, -0.05772753059864044, 
  
    -0.007714664097875357, 0.04657699167728424, 0.0022506953682750463, 
    0.04702404513955116, -0.006735978648066521, 0.0961051881313324, 
    -0.14020924270153046, 0.038499049842357635, -0.09514328837394714, 
  
    0.06047878414392471, -0.0928216427564621, 0.004829712677747011, 
    0.041689611971378326, 0.021090824156999588, -0.0561080127954483, 
    0.11003494262695312, 0.042242422699928284, -0.07904649525880814, 
  
    -0.010098675265908241, -0.11353982239961624, -0.003832988440990448, 
    -0.038401003926992416, -0.09268086403608322, -0.06346640735864639, 
    0.04114992171525955, 0.004953357856720686, -0.08630605787038803, 
  
    0.08468645066022873, -0.030066214501857758, 0.10074777901172638, 
    -0.1222146525979042, -0.03527486324310303, 0.03220095857977867, 
    -0.10788022726774216, 0.039408862590789795, 0.021950699388980865, 
  
    -0.06721924245357513, -0.11922386288642883, 0.001256476854905486, 
    -0.11845269054174423, 0.048082392662763596, 0.006370910909026861, 
    -0.015125107020139694, -0.04781123623251915, 0.05855422839522362, 
  
    -0.07108624279499054, 0.014975531958043575, -0.02417856641113758, 
    -0.07816029340028763, -0.10040614008903503, -0.002504998818039894, 
    -0.07031194865703583, -0.08834902942180634, 0.0195175614207983, 
  
    -0.05477982014417648, 0.018905609846115112, -0.14049413800239563, 
    0.06900126487016678, 0.08038654923439026, -0.015065259300172329, 
    0.03335576131939888, -0.05795124173164368, 0.09896194189786911, 
  
    0.08689172565937042, -0.06362978368997574, -0.04896235838532448, 
    -0.03048490546643734, 0.05778924375772476, -0.06420521438121796, 
    0.08174354583024979, 0.10179434716701508, -0.01192998606711626, 
  
    0.013216860592365265, -0.015226970426738262, -0.0808877944946289, 
    0.09857668727636337, -0.03525327518582344, -0.07725983113050461, 
    0.017534274607896805, 0.10624571889638901, 0.11750024557113647, 
  
    -0.0616244301199913, 0.09075839072465897, -0.028089631348848343, 
    -0.043868351727724075, -0.022268027067184448, 0.051490668207407, 
    -0.1398637443780899, -0.030817775055766106, -0.06090356409549713, 
  
    0.09607163816690445, -0.054831501096487045, -0.04670288413763046, 
    -0.04932597652077675, 0.12874962389469147, 0.004818969871848822, 
    -0.10574859380722046, -0.08660297840833664, -0.011541076004505157, 
  
    0.024062957614660263, -0.04845193028450012, 0.04620968550443649, 
    0.11015689373016357, -0.11016405373811722, 0.09725598990917206, 
    0.05682451277971268, -0.04868883267045021, 0.07890452444553375, 
  
    0.1356114149093628, 0.019213533028960228, 0.09788099676370621, 
    -0.029793517664074898, -0.0003561109188012779, 0.013323376886546612, 
    -0.05696035549044609, 0.007333619985729456, -0.03188605606555939, 
  
        };
        static filter_t depth_filter = {64, 3, depth_weights, 0};

        static filter_t point_filters[96];
        
        static const float point_weights0[]={-0.0884699746966362, 0.0151996910572052, -0.04300124570727348, -0.041148483753204346, -0.07804902642965317, 0.15670424699783325, -0.12867489457130432, -0.03826313838362694, 0.012443017214536667, -0.08736647665500641, -0.005032005254179239, -0.043102722615003586, -0.002376871882006526, 0.19066080451011658, -0.04634758457541466, -0.12268664687871933, 0.03520284593105316, 0.1352410465478897, -0.10923594236373901, 0.14467741549015045, -0.2088516354560852, -0.20238327980041504, -0.11611670255661011, -0.01985100843012333, 0.04590708389878273, 0.08710066974163055, -0.12011474370956421, -0.10079052299261093, -0.11458189785480499, 0.004944717511534691, -0.3579901158809662, 0.19958636164665222, -0.04974300041794777, -0.16779877245426178, 0.061738308519124985, -0.10427511483430862, -0.0036060120910406113, 0.08760009706020355, 0.01744268648326397, 0.08986687660217285, -0.04611428827047348, 0.08043406903743744, -0.024791227653622627, -0.0955815240740776, -0.012704223394393921, -0.04326832294464111, 0.0269156526774168, 0.24204768240451813, 0.19425517320632935, -0.1374397575855255, -0.13416625559329987, 0.0887480229139328, -0.046095069497823715, -0.21433477103710175, 0.13557299971580505, -0.1986030638217926, 0.09617355465888977, -0.04036666452884674, -0.18146875500679016, -0.14698432385921478, -0.042223721742630005, -0.021784236654639244, -0.04307779669761658, 0.1934761255979538, 
        };
        static filter_t point_filter0 = {64, 1, point_weights0, 0.004892269615083933};
        point_filters[0] = point_filter0;
        
        static const float point_weights1[]={0.09695722907781601, -0.10681471228599548, 0.09791367501020432, -0.254137247800827, 0.024760959669947624, -0.042191702872514725, 0.1941690742969513, -0.027446165680885315, 0.06694156676530838, 0.12032470852136612, -0.07244627922773361, -0.0427745059132576, 0.07277695089578629, -0.1402519941329956, 0.14009900391101837, -0.07034209370613098, 0.16308946907520294, 0.14268486201763153, -0.11863377690315247, -0.07887478917837143, -0.11040294915437698, 0.06344087421894073, 0.29330122470855713, 0.14571453630924225, 0.02755790948867798, 0.02068915031850338, -0.11751943081617355, 0.10947006195783615, 0.19580402970314026, -0.04460439085960388, -0.0445532463490963, -0.0033064032904803753, 0.0868339017033577, -0.0013793986290693283, -0.09434481710195541, 0.12507405877113342, 0.06895732879638672, -0.10680326074361801, -0.1901521235704422, -0.13037990033626556, -0.09179127216339111, 0.14797243475914001, 0.13355408608913422, 0.1827232986688614, 0.07703481614589691, -0.07529754936695099, 0.15347562730312347, -0.14174598455429077, 0.2042558342218399, 0.041120778769254684, -0.027765285223722458, 0.13129310309886932, 0.0027224940713495016, 0.09942273795604706, 0.1767784059047699, -0.0926373302936554, 0.21802496910095215, 0.07732982188463211, -0.10766986757516861, -0.13753190636634827, -0.03488781675696373, 0.056257136166095734, -0.19548502564430237, -0.09824159741401672, 
        };
        static filter_t point_filter1 = {64, 1, point_weights1, -0.007461749017238617};
        point_filters[1] = point_filter1;
        
        static const float point_weights2[]={-0.13550235331058502, -0.0390801839530468, 0.23840099573135376, -0.03841002658009529, 0.07548956573009491, 0.10779570043087006, -0.3071208894252777, 0.07044675201177597, -0.12561537325382233, -0.022135376930236816, 0.028481576591730118, -0.16500918567180634, 0.013047452084720135, 0.13109438121318817, 0.13912145793437958, -0.002691331086680293, -0.0814618244767189, -0.03563450276851654, 0.04509710520505905, -0.16956476867198944, -0.19486434757709503, 0.09720004349946976, 0.15650632977485657, -0.11456497013568878, -0.24912741780281067, 0.0932498350739479, -0.001587585429660976, 0.13283327221870422, -0.0653148666024208, -0.2833094596862793, -0.006116148550063372, -0.09205851703882217, -0.11256306618452072, 0.14004863798618317, 0.03038887493312359, 0.09060405939817429, -0.1977105736732483, -0.10829194635152817, 0.09508286416530609, 0.020981233566999435, -0.0970504879951477, 0.2252313196659088, -0.2237016260623932, -0.11468505859375, -0.13376368582248688, 0.011934760957956314, -0.04483700171113014, -0.1395469605922699, -0.08491238206624985, 0.10009630769491196, -0.06901963800191879, 0.06233995035290718, -0.1375449001789093, 0.033806584775447845, -0.16784490644931793, -0.016112901270389557, 0.1344771832227707, 0.12323131412267685, -0.08181410282850266, 0.04640328139066696, -0.13802777230739594, -0.029705893248319626, 0.1031118705868721, -0.09819773584604263, 
        };
        static filter_t point_filter2 = {64, 1, point_weights2, 0.009984738193452358};
        point_filters[2] = point_filter2;
        
        static const float point_weights3[]={-0.0036648670211434364, 0.15136250853538513, -0.13035248219966888, -0.09259805828332901, 0.14326439797878265, -0.0981813445687294, -0.08797582238912582, -0.0772777572274208, 0.1913212537765503, -0.021966012194752693, -0.13028103113174438, -0.004520145244896412, -0.1456761658191681, 0.006065194960683584, 0.10995721071958542, -0.10219467431306839, 0.20513500273227692, 0.09821300953626633, 0.000982097233645618, -0.05970890820026398, 0.08945749700069427, -0.14118631184101105, -0.14582794904708862, -0.05306364223361015, 0.08356073498725891, -0.03644711524248123, 0.024981968104839325, -0.07884541153907776, 0.14182597398757935, -0.035908043384552, -0.10077109932899475, -0.16470062732696533, 0.14506927132606506, 0.14181272685527802, -0.028739312663674355, -0.13931971788406372, 0.05040564388036728, -0.023867208510637283, 0.024777250364422798, -0.04831675812602043, -0.10038632154464722, -0.16148893535137177, -0.018376750871539116, 0.23766101896762848, -0.044761817902326584, 0.19908937811851501, -0.07989659160375595, -0.038849152624607086, 0.1456894427537918, -0.1471632421016693, 0.08390112221240997, -0.12253119796514511, 0.09121464937925339, 0.21232302486896515, 0.10653981566429138, 0.020679276436567307, 0.13735124468803406, -0.09820990264415741, 0.13469639420509338, 0.2039879709482193, 0.022686535492539406, -0.10798872262239456, -0.030792269855737686, 0.16460728645324707, 
        };
        static filter_t point_filter3 = {64, 1, point_weights3, 0.000801706628408283};
        point_filters[3] = point_filter3;
        
        static const float point_weights4[]={-0.07547982037067413, 0.18948012590408325, -0.029282240197062492, 0.07838194817304611, -0.04131757467985153, -0.1036958172917366, 0.09718499332666397, 0.04947685822844505, -0.16786357760429382, 0.034205399453639984, -0.10038913041353226, -0.20817270874977112, -0.11118536442518234, -0.11140688508749008, 0.15941475331783295, -0.12338347733020782, -0.13714338839054108, 0.10025611519813538, 0.13078200817108154, -0.13015121221542358, 0.11758176982402802, 0.03178322687745094, 0.20219631493091583, 0.07365307956933975, -0.021630240604281425, -0.17893975973129272, -0.1449548900127411, -0.25229528546333313, 0.05665380507707596, 0.06069513037800789, 0.028236260637640953, 0.20055191218852997, 0.17969495058059692, -0.03571580350399017, 0.005896871909499168, 0.1868409663438797, -0.03779170289635658, -0.07053562998771667, -0.06733688712120056, 0.05704332888126373, 0.2771309018135071, 0.011614887975156307, -0.09528401494026184, -0.02471187524497509, 0.12346621602773666, -0.11991651356220245, -0.0592256560921669, -0.12146671116352081, -0.05967104807496071, -0.04664479196071625, 0.08999758213758469, -0.15562811493873596, 0.15395709872245789, 0.07139688730239868, 0.06711860001087189, 0.018038123846054077, -0.01304816547781229, 0.12908700108528137, -0.15932022035121918, 0.018994195386767387, -0.10028265416622162, 0.09711264073848724, 0.04036426916718483, -0.076225645840168, 
        };
        static filter_t point_filter4 = {64, 1, point_weights4, -0.004739376250654459};
        point_filters[4] = point_filter4;
        
        static const float point_weights5[]={0.13843178749084473, -0.08572635799646378, -0.15731583535671234, 0.06451219320297241, 0.29562386870384216, -0.058634091168642044, -0.03642023727297783, -0.0027478712145239115, 0.09746240824460983, 0.1700078248977661, -0.12198489159345627, 0.1110028475522995, 0.12749360501766205, -0.0797736719250679, 0.02119603008031845, -0.045806799083948135, -0.03472982719540596, -0.06855737417936325, -0.131177619099617, -0.10985369980335236, 0.0284881591796875, 0.15514002740383148, 0.03285009786486626, -0.15107831358909607, -0.06703490763902664, 0.15867699682712555, -0.1590159386396408, 0.09356669336557388, -0.1106468141078949, -0.0862184464931488, -0.12452147901058197, -0.10733302682638168, -0.1727304607629776, 0.042046673595905304, 0.17710019648075104, -0.21595092117786407, 0.02185215801000595, 0.01445851195603609, 0.057017263025045395, -0.007876971736550331, 0.13657733798027039, -0.03931324928998947, 0.18645240366458893, -0.06675481796264648, 0.10608457773923874, 0.0821925699710846, -0.06718634814023972, 0.13014809787273407, 0.04190783202648163, 0.16640987992286682, 0.10762583464384079, -0.33892983198165894, 0.09831637144088745, 0.0669899508357048, -0.13837483525276184, -0.12060441821813583, 0.1469612419605255, -0.20687922835350037, -0.010189163498580456, -0.0730452835559845, 0.015201430767774582, 0.1472173035144806, -0.2476222962141037, 0.13701577484607697, 
        };
        static filter_t point_filter5 = {64, 1, point_weights5, -0.005328263621777296};
        point_filters[5] = point_filter5;
        
        static const float point_weights6[]={0.03623618930578232, 0.1165756955742836, -0.25131914019584656, 0.07831921428442001, -0.13752394914627075, 0.09431003779172897, -0.21501292288303375, -0.0759694054722786, -0.059313323348760605, 0.10312972217798233, -0.07447755336761475, -0.06056387349963188, -0.11705499142408371, -0.09907257556915283, 0.1397055685520172, -0.08693977445363998, 0.014994358643889427, 0.06300085037946701, 0.14381325244903564, 0.10790995508432388, -0.04152536392211914, -0.010437256656587124, -0.022328276187181473, -0.014081225730478764, -0.09614326804876328, 0.1716827154159546, 0.225640207529068, -0.21631626784801483, 0.012127801775932312, 0.1731584519147873, 0.002226975979283452, 0.12497719377279282, 0.10070417076349258, -0.18497584760189056, -0.03765721991658211, 0.05179279297590256, -0.140078604221344, 0.037007223814725876, -0.115107960999012, 0.10290322452783585, -0.053526733070611954, -0.09327144920825958, 0.052731454372406006, 0.060077518224716187, -0.08846273273229599, 0.07898718118667603, 0.09724145382642746, -0.09710916131734848, -0.03297442942857742, 0.2377738058567047, 0.10504931211471558, -0.2983205318450928, 0.10425009578466415, 0.2305838018655777, 0.09902035444974899, 0.09047652781009674, -0.1280849277973175, -0.012920653447508812, -0.24544231593608856, 0.11064787209033966, 0.006303431931883097, -0.11744170635938644, 0.12933367490768433, 0.02993268519639969, 
        };
        static filter_t point_filter6 = {64, 1, point_weights6, -0.0003574920410756022};
        point_filters[6] = point_filter6;
        
        static const float point_weights7[]={-0.04063418507575989, -0.10520103573799133, 0.10671121627092361, -0.29573652148246765, -0.1449304074048996, -0.13832366466522217, 0.17834487557411194, 0.09901785105466843, 0.0597677156329155, -0.014668420888483524, -0.11539946496486664, -0.07507780194282532, 0.01349472627043724, 0.16192731261253357, 0.11986944079399109, -0.08396768569946289, 0.130447655916214, 0.15309952199459076, 0.08208072185516357, 0.04584312066435814, 0.05887383967638016, 0.022460605949163437, 0.13335664570331573, 0.18146057426929474, -0.1964074820280075, 0.11647111922502518, 0.1904107928276062, 0.12522824108600616, 0.008514580316841602, 0.10510493814945221, -0.09227363765239716, 0.21373814344406128, 0.046479374170303345, 0.03262372314929962, -0.18161411583423615, -0.08800636976957321, -0.11832914501428604, -0.05009843036532402, -0.13873715698719025, -0.02819894813001156, -0.03562953323125839, -0.018835656344890594, 0.04674053564667702, -0.013539507985115051, -0.1500580906867981, 0.21727153658866882, 0.02042344957590103, 0.10941587388515472, 0.05043043941259384, 0.17586083710193634, 0.11273803561925888, -0.01513467077165842, 0.04259578138589859, -0.1617320477962494, 0.08450275659561157, 0.21503221988677979, -0.09084637463092804, -0.1031075268983841, -0.14978158473968506, -0.0538933128118515, 0.0751986876130104, -0.14932499825954437, -0.05821288377046585, -0.11932337284088135, 
        };
        static filter_t point_filter7 = {64, 1, point_weights7, 0.003533872775733471};
        point_filters[7] = point_filter7;
        
        static const float point_weights8[]={0.2672312557697296, 0.051625099033117294, -0.0622895173728466, 0.09064055979251862, 0.050678547471761703, -0.1132940724492073, 0.021980784833431244, 0.007584348786622286, -0.19557145237922668, -0.18925577402114868, 0.12785784900188446, 0.17626994848251343, 0.10157078504562378, 0.1912558674812317, -0.12901721894741058, -0.05100849270820618, -0.18498577177524567, -0.1411646008491516, 0.10861273854970932, -0.03874816745519638, 0.14957430958747864, 0.009364644065499306, -0.03465824946761131, 0.02460409887135029, 0.00969819538295269, 0.06510674208402634, -0.14559771120548248, 0.15600883960723877, -0.015794511884450912, 0.23037907481193542, -0.1481551080942154, -0.09619221091270447, -0.11910634487867355, 0.11241860687732697, 0.18825596570968628, 0.06468310207128525, -0.22737573087215424, -0.010516433045268059, -0.0922531932592392, 0.017417341470718384, 0.04075739160180092, 0.19864985346794128, -0.013356675393879414, 0.1591925472021103, -0.0851077139377594, 0.010968498885631561, -0.09293105453252792, 0.08411118388175964, 0.054053910076618195, 0.1619023084640503, 0.07860786467790604, -0.02658897265791893, 0.05632561817765236, 0.10818959772586823, -0.008954353630542755, -0.19024695456027985, 0.08210428804159164, -0.05806558579206467, -0.03119511343538761, 0.08402951806783676, -0.10665071755647659, 0.05606972053647041, -0.06450643390417099, -0.1338394284248352, 
        };
        static filter_t point_filter8 = {64, 1, point_weights8, 0.0009309995220974088};
        point_filters[8] = point_filter8;
        
        static const float point_weights9[]={-0.07504851371049881, -0.0055052367970347404, -0.17759199440479279, -0.08313854783773422, -0.028679419308900833, -0.07857385277748108, 0.04683905839920044, 0.005032105837017298, 0.17337825894355774, -0.09481736272573471, -0.03209900110960007, 0.05245164781808853, -0.08557616174221039, 0.062381889671087265, 0.1248016431927681, -0.1361442655324936, -0.16867710649967194, -0.11813382804393768, 0.14950856566429138, -0.042502883821725845, 0.08901739865541458, 0.006533150561153889, 0.08579637855291367, 0.1350851058959961, 0.28506144881248474, -0.07757271826267242, 0.06933370977640152, 0.15844157338142395, -0.14790967106819153, 0.010948593728244305, 0.06220836937427521, 0.13460244238376617, -0.0516505092382431, 0.24390210211277008, 0.009686332195997238, -0.020583122968673706, 0.19180642068386078, 0.12931029498577118, 0.10722363740205765, -0.07274928689002991, -0.10507722944021225, 0.0672420933842659, 0.014715504832565784, 0.11567226052284241, -0.05574809014797211, 0.09001544117927551, 0.016367457807064056, 0.06399354338645935, -0.035698626190423965, 0.06730072945356369, 0.038604237139225006, 0.023260250687599182, 0.10017918050289154, -0.18307369947433472, 0.12778687477111816, 0.1764077991247177, -0.013019637204706669, 0.1979493796825409, 0.05342310294508934, -0.0944826602935791, 0.14714756608009338, 0.019679108634591103, 0.12178995460271835, 0.07624613493680954, 
        };
        static filter_t point_filter9 = {64, 1, point_weights9, -0.002506854012608528};
        point_filters[9] = point_filter9;
        
        static const float point_weights10[]={0.15681803226470947, -0.07994402945041656, 0.14031971991062164, 0.10431031882762909, -0.03822241351008415, 0.011062919162213802, -0.2290317267179489, -0.23188838362693787, 0.1584615260362625, -0.0028512633871287107, -0.14918586611747742, 0.0805312916636467, 0.21363264322280884, -0.12272271513938904, 0.11511624604463577, 0.18419192731380463, 0.07063949853181839, -0.07746489346027374, -0.14198046922683716, -0.06794174015522003, -0.1167193278670311, 0.21269267797470093, 0.12032239884138107, -0.0112391896545887, -0.027915097773075104, 0.04870975762605667, -0.1622159779071808, -0.11706993728876114, 0.12125783413648605, -0.1301998347043991, -0.14844775199890137, -0.033974114805459976, 0.03792174533009529, 0.028758881613612175, -0.009611574932932854, 0.18454816937446594, -0.1834021806716919, -0.15760718286037445, -0.3018817901611328, -0.08828113973140717, -0.037488531321287155, 0.15996234118938446, 0.15841010212898254, -0.017778528854250908, 0.13920195400714874, -0.09760577976703644, -0.10511663556098938, -0.18883101642131805, -0.0821620300412178, -0.05038350075483322, 0.03793032839894295, 0.09608949720859528, 0.10231180489063263, 0.02974427491426468, -0.15945400297641754, -0.1893862783908844, -0.03351622819900513, -0.08211608231067657, -0.09872604161500931, -0.20545996725559235, 0.058940038084983826, -0.039007555693387985, -0.03527482971549034, 0.05594843998551369, 
        };
        static filter_t point_filter10 = {64, 1, point_weights10, 0.0006643481901846826};
        point_filters[10] = point_filter10;
        
        static const float point_weights11[]={-0.13484814763069153, 0.21560700237751007, 0.04995036497712135, -0.005905630998313427, 0.03688395395874977, -0.05881175771355629, -0.04519538953900337, -0.02603447437286377, 0.07620493322610855, 0.034113917499780655, 0.1637980192899704, 0.005717647261917591, -0.15062326192855835, 0.06792283058166504, -0.03578289970755577, -0.12068608403205872, -0.07511477172374725, 0.05837062746286392, -0.1601499617099762, -0.0447063110768795, -0.0546390637755394, 0.061019446700811386, -0.09403304755687714, -0.09345724433660507, -0.19106636941432953, 0.012417580001056194, -0.11827138811349869, 0.05240438133478165, -0.05138905346393585, -0.03697195276618004, 0.10286248475313187, -0.11437734216451645, 0.044738829135894775, 0.06250163912773132, 0.10782153159379959, -0.24459777772426605, -0.1222948357462883, -0.013246869668364525, -0.03646981343626976, 0.18028418719768524, -0.022332405671477318, -0.09778346121311188, 0.03222910687327385, 0.18530400097370148, -0.08240261673927307, -0.10606095939874649, 0.21725843846797943, -0.3636185824871063, 0.03046482428908348, -0.20483531057834625, -0.022081995382905006, 0.09310609847307205, -0.07068756222724915, 0.07290344685316086, 0.07118044048547745, -0.010290248319506645, 0.1074572503566742, -0.08285313844680786, -0.019582239910960197, -0.12759704887866974, -0.17102646827697754, -0.17364643514156342, 0.03393935412168503, -0.013686742633581161, 
        };
        static filter_t point_filter11 = {64, 1, point_weights11, 0.0045024193823337555};
        point_filters[11] = point_filter11;
        
        static const float point_weights12[]={-0.1179923415184021, -0.083563432097435, -0.05500667914748192, -0.025504138320684433, -0.029252508655190468, 0.15280401706695557, -0.00893250759691, 0.06809554249048233, -0.16394157707691193, -0.22331121563911438, -0.20104080438613892, -0.07650318741798401, -0.11282792687416077, -0.19170185923576355, -0.016303662210702896, 0.06857560575008392, -0.10446212440729141, 0.09220117330551147, -0.06216670572757721, 0.029326554387807846, 0.31409910321235657, -0.06985381245613098, -0.09196276217699051, 0.07338868081569672, -0.12755367159843445, -0.022616975009441376, 0.030084729194641113, 0.15822507441043854, 0.19547481834888458, -0.34416666626930237, -0.052622050046920776, -0.06402496248483658, 0.1541513204574585, 0.047811031341552734, 0.13447855412960052, 0.061561282724142075, 0.11398084461688995, 0.10702919960021973, -0.12543576955795288, -0.059072043746709824, -0.02272975817322731, -0.12383067607879639, -0.08495146036148071, -0.04058157280087471, -0.04924615100026131, -0.2658262550830841, -0.04034266248345375, -0.12075670063495636, 0.21091453731060028, -0.08919761329889297, 0.1997404843568802, -0.052879251539707184, -0.15591301023960114, -0.0946703553199768, 0.013083075173199177, 0.011597976088523865, -0.0007883219514042139, -0.18749669194221497, 0.07181477546691895, 0.07661639899015427, 0.014516975730657578, -0.017564736306667328, -0.17985935509204865, 0.10059083998203278, 
        };
        static filter_t point_filter12 = {64, 1, point_weights12, -0.009333373978734016};
        point_filters[12] = point_filter12;
        
