#include "mnist_model.h"
#include "embedia_debug.h"

// Prototipos inicialización
conv2d_layer_t init_conv2d_data(void);
conv2d_layer_t init_conv2d_1_data(void);
dense_layer_t init_dense_data(void);
dense_layer_t init_dense_1_data(void);


// Variables Globales
conv2d_layer_t conv2d_data;
conv2d_layer_t conv2d_1_data;
dense_layer_t dense_data;
dense_layer_t dense_1_data;


void model_init(){
    conv2d_data = init_conv2d_data();
    conv2d_1_data = init_conv2d_1_data();
    dense_data = init_dense_data();
    dense_1_data = init_dense_1_data();

}

void model_predict(data3d_t input, data1d_t * output){
  
    
    //*************** LAYER 0 **************//
    // Layer name: conv2d
    data3d_t output0;
        // convert image for first EmbedIA Conv2d layer
        image_adapt_layer(input, &output0);
        input = output0;
    
     conv2d_layer(conv2d_data, input, &output0);
    // Activation layer for conv2d
    relu_activation(output0.data, 1352);
    // Debug function for layer conv2d
    print_data3d_t("conv2d", output0);
    
    //*************** LAYER 1 **************//
    // Layer name: conv2d_1
    input = output0;
    conv2d_layer(conv2d_1_data, input, &output0);
    // Activation layer for conv2d_1
    relu_activation(output0.data, 1152);
    // Debug function for layer conv2d_1
    print_data3d_t("conv2d_1", output0);
    
    //*************** LAYER 2 **************//
    // Layer name: max_pooling2d
    input = output0;
    static const pooling2d_layer_t max_pooling2d_data = { 4, 4 };
    max_pooling2d_layer(max_pooling2d_data, input, &output0);
    // Debug function for layer max_pooling2d
    print_data3d_t("max_pooling2d", output0);
    
    //*************** LAYER 3 **************//
    // Layer name: flatten
    input = output0;
    data1d_t output1;
    flatten3d_layer(input, &output1);
    // Debug function for layer flatten
    print_data1d_t("flatten", output1);
    
    //*************** LAYER 4 **************//
    // Layer name: dense
    data1d_t input1;
    input1 = output1;
    dense_layer(dense_data, input1, &output1);
    
    // Activation layer for dense
    relu_activation(output1.data, 16);
    // Debug function for layer dense
    print_data1d_t("dense", output1);
    
    //*************** LAYER 5 **************//
    // Layer name: dense_1
    input1 = output1;
    dense_layer(dense_1_data, input1, &output1);
    
    // Activation layer for dense_1
    softmax_activation(output1.data, 10);
    // Debug function for layer dense_1
    print_data1d_t("dense_1", output1);
    

    *output = output1;

}

int model_predict_class(data3d_t input, data1d_t * results){
  
   
    model_predict(input, results);
    
    return argmax(*results);
    //return argmax(data1d_t);

}

// Implementación de funciones de inicialización



conv2d_layer_t init_conv2d_data(void){

        static filter_t filters[8];
        
        static const float weights0[]={ 
    0.6455968022346497, 0.6712082028388977, 
    0.6242635846138, 0.7646536231040955, 

        };
        static filter_t filter0 = {1, 2, weights0, -0.0011786812683567405};
        filters[0]=filter0;
            
        static const float weights1[]={ 
    0.9445703625679016, 0.5963233709335327, 
    0.395017147064209, -1.4882872104644775, 

        };
        static filter_t filter1 = {1, 2, weights1, 0.1487036943435669};
        filters[1]=filter1;
            
        static const float weights2[]={ 
    0.9949567317962646, 0.8420343995094299, 
    -0.3080386817455292, 0.1186409518122673, 

        };
        static filter_t filter2 = {1, 2, weights2, 0.11506713926792145};
        filters[2]=filter2;
            
        static const float weights3[]={ 
    0.8466624617576599, -0.07062707096338272, 
    0.7797873020172119, 1.155040979385376, 

        };
        static filter_t filter3 = {1, 2, weights3, 0.04306696727871895};
        filters[3]=filter3;
            
        static const float weights4[]={ 
    0.2763848900794983, -0.6845678091049194, 
    1.126334309577942, 0.19441337883472443, 

        };
        static filter_t filter4 = {1, 2, weights4, 0.12807732820510864};
        filters[4]=filter4;
            
        static const float weights5[]={ 
    -0.5701690912246704, 0.7658334970474243, 
    -0.528307318687439, 0.9633393287658691, 

        };
        static filter_t filter5 = {1, 2, weights5, -0.0020559742115437984};
        filters[5]=filter5;
            
        static const float weights6[]={ 
    0.8635550141334534, -0.4678120017051697, 
    -0.08265552669763565, 0.8641232252120972, 

        };
        static filter_t filter6 = {1, 2, weights6, 0.006213909946382046};
        filters[6]=filter6;
            
        static const float weights7[]={ 
    1.2145519256591797, 0.7240957021713257, 
    -0.22510969638824463, 0.326993465423584, 

        };
        static filter_t filter7 = {1, 2, weights7, 0.03856578841805458};
        filters[7]=filter7;
            
        conv2d_layer_t layer = {8,filters};
        return layer;
        }
        

conv2d_layer_t init_conv2d_1_data(void){

        static filter_t filters[8];
        
        static const float weights0[]={ 
    0.2723371982574463, 0.22213143110275269, 
    -0.7845034599304199, -0.20301252603530884, 

    0.2062065601348877, 0.34234386682510376, 
    0.04935602471232414, 1.003537654876709, 

    0.018107064068317413, 0.685514509677887, 
    0.2376614212989807, 0.4675331711769104, 

    -0.2995026707649231, 0.4317130446434021, 
    -1.027252435684204, -0.8567916750907898, 

    -0.3346041142940521, 0.09085822850465775, 
    -1.4608633518218994, -0.9188582897186279, 

    -0.1081230416893959, 0.3875715732574463, 
    -0.2226208597421646, -0.411028116941452, 

    -0.017117029055953026, 0.5403449535369873, 
    -0.7769246697425842, -0.22473232448101044, 

    0.24310903251171112, 0.22408093512058258, 
    -0.13606764376163483, -0.023192843422293663, 

        };
        static filter_t filter0 = {8, 2, weights0, 0.009528770111501217};
        filters[0]=filter0;
            
        static const float weights1[]={ 
    -0.4232029318809509, -0.5966436862945557, 
    0.5874251127243042, 0.047570083290338516, 

    -0.8879738450050354, 0.060627397149801254, 
    0.28130263090133667, -0.6026066541671753, 

    -1.3204145431518555, -0.26483193039894104, 
    0.5094623565673828, 0.1070994958281517, 

    -0.1767251342535019, -0.3015521466732025, 
    0.24123451113700867, 0.4734390079975128, 

    0.22309185564517975, 0.18361149728298187, 
    0.39929765462875366, 0.5902445912361145, 

    -0.20097847282886505, -0.9460980296134949, 
    0.2651900351047516, 0.046379756182432175, 

    -0.8577560782432556, -0.802031934261322, 
    0.16725420951843262, 0.4119053781032562, 

    -1.5581387281417847, -0.6257644891738892, 
    0.17625829577445984, 0.27655550837516785, 

        };
        static filter_t filter1 = {8, 2, weights1, 0.16396464407444};
        filters[1]=filter1;
            
        static const float weights2[]={ 
    0.4750097393989563, -0.19372157752513885, 
    0.2903572618961334, 0.1116878092288971, 

    -0.17455582320690155, -0.3521820902824402, 
    -0.3631221354007721, -1.1365904808044434, 

    0.07641372829675674, -0.35931405425071716, 
    0.0009166757226921618, 0.0432773195207119, 

    0.4070505201816559, -0.16557225584983826, 
    0.005515478551387787, 0.6266132593154907, 

    0.22005921602249146, 0.20800773799419403, 
    -0.19787263870239258, 0.503924548625946, 

    -0.24326960742473602, -0.9127262830734253, 
    -0.2010604739189148, 0.11419402807950974, 

    0.3030868172645569, -0.038902800530195236, 
    0.3211343586444855, 0.8712695837020874, 

    0.2576102316379547, -0.364900678396225, 
    0.13956820964813232, 0.4444188177585602, 

        };
        static filter_t filter2 = {8, 2, weights2, 0.08934541791677475};
        filters[2]=filter2;
            
        static const float weights3[]={ 
    -0.16287413239479065, 0.27524659037590027, 
    0.3718447983264923, 0.3224755823612213, 

    -1.3241171836853027, -0.38918352127075195, 
    -0.5319932699203491, -0.09628447145223618, 

    -0.1330810785293579, 0.6438966393470764, 
    0.019721196964383125, 0.4953618347644806, 

    -0.3039739727973938, 0.19967693090438843, 
    0.06971009075641632, 0.6373835802078247, 

    0.22771961987018585, -0.17340728640556335, 
    0.15503261983394623, 0.39614564180374146, 

    -0.5176828503608704, 0.7022263407707214, 
    -0.007619507145136595, 0.7339461445808411, 

    -0.03817101567983627, 0.11033231765031815, 
    0.38869500160217285, 0.19057874381542206, 

    -0.4970169961452484, 0.18651679158210754, 
    0.2139091193675995, 0.570385217666626, 

        };
        static filter_t filter3 = {8, 2, weights3, 0.023627659305930138};
        filters[3]=filter3;
            
        static const float weights4[]={ 
    0.19616658985614777, 0.09075383841991425, 
    0.012511761859059334, 0.26157987117767334, 

    -1.359757900238037, 0.5577847361564636, 
    -0.9309282302856445, -0.3023495674133301, 

    0.14626465737819672, 0.12487917393445969, 
    -0.18126997351646423, -0.02251291647553444, 

    -0.12328294664621353, -0.06343141943216324, 
    -0.3048184812068939, 0.27250775694847107, 

    -0.6734544038772583, 0.15444742143154144, 
    -0.9933785200119019, 0.4563167989253998, 

    0.3748522400856018, 0.060610368847846985, 
    0.6300331950187683, -0.12394615262746811, 

    0.11164329200983047, 0.12698106467723846, 
    -0.6105907559394836, 0.3407003581523895, 

    -0.08157283067703247, 0.4036860167980194, 
    0.2919653654098511, 0.06227291002869606, 

        };
        static filter_t filter4 = {8, 2, weights4, -0.0743052288889885};
        filters[4]=filter4;
            
        static const float weights5[]={ 
    -0.14739450812339783, -0.1095312163233757, 
    0.5198891758918762, 0.17509016394615173, 

    0.4241883158683777, -0.1802084594964981, 
    -0.9904438257217407, -0.7971938252449036, 

    0.08388666808605194, 0.11569420248270035, 
    -0.03466460481286049, 0.17008085548877716, 

    -0.08780508488416672, 0.10054739564657211, 
    0.7160993218421936, 0.21177546679973602, 

    0.3390663266181946, -0.1758205145597458, 
    0.7998474836349487, 0.07665998488664627, 

    -0.09810694307088852, 0.5004885792732239, 
    -0.9172149896621704, -0.03005029633641243, 

    -0.421619713306427, 0.2140752375125885, 
    0.6424718499183655, 0.36093324422836304, 

    0.12439879029989243, 0.2643657922744751, 
    -0.10248278081417084, -0.2086714506149292, 

        };
        static filter_t filter5 = {8, 2, weights5, -0.10302971303462982};
        filters[5]=filter5;
            
        static const float weights6[]={ 
    0.24778540432453156, 0.28715500235557556, 
    0.20620685815811157, -0.33085131645202637, 

    0.22988298535346985, 0.6112898588180542, 
    0.7749766707420349, 0.4978567063808441, 

    -0.40267398953437805, 0.5729450583457947, 
    0.2714605927467346, 0.021231159567832947, 

    0.1521683782339096, 0.24351364374160767, 
    0.19009186327457428, -0.014081687666475773, 

    0.494430273771286, 0.20215009152889252, 
    0.5247530937194824, -0.4725339412689209, 

    0.42591235041618347, 0.17100079357624054, 
    0.07910839468240738, -0.2909834086894989, 

    -0.01868758164346218, 0.048182565718889236, 
    -0.006548956502228975, -0.36140763759613037, 

    -0.018373366445302963, 0.17193928360939026, 
    0.3053099513053894, 0.30672815442085266, 

        };
        static filter_t filter6 = {8, 2, weights6, -0.23118270933628082};
        filters[6]=filter6;
            
        static const float weights7[]={ 
    0.21472196280956268, -0.16120025515556335, 
    -0.10170554369688034, 0.004255841486155987, 

    -0.5810624361038208, -0.5204201340675354, 
    0.40206411480903625, -0.8657738566398621, 

    0.3248109221458435, 0.46473369002342224, 
    0.30796271562576294, 0.4374624192714691, 

    0.20980608463287354, 0.22704847157001495, 
    -0.25052908062934875, 0.37373605370521545, 

    0.42253410816192627, -0.21352770924568176, 
    -1.2295907735824585, -0.46381402015686035, 

    0.2469979226589203, -0.3263416290283203, 
    -0.11741825938224792, 0.19862022995948792, 

    -0.1439378708600998, 0.15946142375469208, 
    -0.036789342761039734, 0.384202241897583, 

    0.4434497058391571, 0.04958675801753998, 
    0.22141127288341522, 0.35533609986305237, 

        };
        static filter_t filter7 = {8, 2, weights7, 0.13880644738674164};
        filters[7]=filter7;
            
        conv2d_layer_t layer = {8,filters};
        return layer;
        }
        
dense_layer_t init_dense_data(void){

    static neuron_t neurons[16];

    static const float weights0[] ={
    0.2806238532066345, -0.10867777466773987, 0.04176991060376167, 0.08301142603158951, 
    0.4051749110221863, -0.3954741060733795, 0.19737818837165833, 0.22712387144565582, 
    0.10662128776311874, 0.05137905105948448, 0.007135619875043631, 0.30583077669143677, 
    0.4003332257270813, -0.1513192057609558, 0.19663038849830627, 0.0038032515440136194, 
    -0.3074558675289154, -0.39671650528907776, -0.5521517395973206, 0.5699754953384399, 
    -0.20567968487739563, -0.41600868105888367, 0.3840278387069702, -0.06092012673616409, 
    0.11946563422679901, 0.530961275100708, -0.07335327565670013, -0.11717287451028824, 
    -0.009043675847351551, -0.19518399238586426, -0.22917431592941284, -0.17653587460517883, 
    0.17540529370307922, 0.09538479149341583, 0.061583708971738815, -0.0599859319627285, 
    0.11337146162986755, 0.2585277259349823, 0.3717624843120575, 0.4581216275691986, 
    0.05234683305025101, 0.11895313858985901, -0.05225846916437149, -0.26657596230506897, 
    -0.372080534696579, 0.025827806442975998, 0.03245396167039871, 0.20598208904266357, 
    0.05009870231151581, 0.5313519239425659, 0.22970350086688995, 0.10409555584192276, 
    0.2068663388490677, -0.06444837152957916, -0.228221133351326, -0.06302612274885178, 
    0.13673128187656403, -0.034662146121263504, -0.13170550763607025, 0.16837574541568756, 
    -0.14881891012191772, 0.263381689786911, -0.1287412792444229, 0.10769974440336227, 
    -0.32733872532844543, 0.01314731314778328, 0.15054836869239807, 0.019711758941411972, 
    0.23050644993782043, -0.15458214282989502, 0.18723201751708984, -0.06373830139636993, 
  
    };
    static const neuron_t neuron0 = {weights0, -0.06994275003671646};
    neurons[0]=neuron0;

    static const float weights1[] ={
    0.14506623148918152, 0.18669521808624268, -0.0285517405718565, 0.21945901215076447, 
    0.026475615799427032, 0.31223827600479126, 0.33427929878234863, 0.01907828077673912, 
    0.3657696843147278, 0.2690873444080353, -0.2570186257362366, -0.22993753850460052, 
    -0.17562715709209442, 0.353633314371109, -0.008888010866940022, 0.01864919811487198, 
    -0.02371678315103054, 0.40539267659187317, 0.12508288025856018, -0.08557265996932983, 
    -0.46018552780151367, 0.05637604370713234, 0.28903234004974365, 0.38079631328582764, 
    0.3900655210018158, 0.510578453540802, 0.30310407280921936, -0.03546309098601341, 
    -0.11326124519109726, -0.1613631397485733, -0.11113835126161575, 0.030596904456615448, 
    0.03842230886220932, 0.12918627262115479, 0.24733634293079376, -0.14199912548065186, 
    0.10446241497993469, 0.050538137555122375, 0.29548048973083496, 0.40558433532714844, 
    -0.08725941181182861, 0.34336915612220764, -0.07243019342422485, 0.08560346066951752, 
    -0.3273836374282837, -0.048921648412942886, -0.04142855852842331, 0.3711030185222626, 
    -0.22866004705429077, 0.1787761002779007, 0.19707344472408295, 0.024538196623325348, 
    -0.29122865200042725, -0.03988754004240036, 0.041701339185237885, -0.25295212864875793, 
    -0.09891358762979507, 0.08883121609687805, -0.14536139369010925, 0.23291215300559998, 
    -0.10117003321647644, -0.10653483867645264, -0.023623846471309662, -0.31393444538116455, 
    -0.8111957311630249, -0.39411377906799316, 0.28525617718696594, 0.039765145629644394, 
    0.28081417083740234, -0.01025888416916132, 0.18554148077964783, -0.13917869329452515, 
  
    };
    static const neuron_t neuron1 = {weights1, -0.2720659673213959};
    neurons[1]=neuron1;

    static const float weights2[] ={
    -0.1423298716545105, 0.08511202782392502, 0.15472567081451416, 0.2957177758216858, 
    0.02553819678723812, -0.03762945160269737, -0.1373997926712036, 0.036389488726854324, 
    0.17124143242835999, -0.13875067234039307, 0.12296426296234131, 0.14977334439754486, 
    0.3270423412322998, 0.0646115243434906, 0.13374845683574677, -0.056047700345516205, 
    0.24046234786510468, 0.011290464550256729, -0.1546614170074463, 0.032574381679296494, 
    -0.29321226477622986, 0.028725484386086464, -0.06633380055427551, 0.07078269869089127, 
    0.293003648519516, 0.0658075138926506, 0.18283767998218536, 0.06608216464519501, 
    0.009289080277085304, 0.17537792026996613, 0.11149676889181137, -0.16046692430973053, 
    0.20098553597927094, 0.07130789756774902, -0.34957608580589294, 0.37561503052711487, 
    0.11867747455835342, 0.23777949810028076, -0.2789763808250427, -0.27017462253570557, 
    -0.09765361994504929, -0.3422592282295227, -0.01662965677678585, -7.112456660252064e-05, 
    -0.08313997089862823, 0.2762669622898102, 0.29064828157424927, -0.3622811436653137, 
    -0.04680542275309563, 0.15802907943725586, -0.034562740474939346, 0.008346639573574066, 
    0.2078598141670227, -0.4490756690502167, 0.2720603942871094, -0.298902302980423, 
    0.005231969989836216, -0.1995532512664795, -0.3718262314796448, 0.42574381828308105, 
    0.40512269735336304, -0.4333483576774597, 0.1517239809036255, -0.18115220963954926, 
    0.5908687114715576, 0.11745970696210861, -0.24388135969638824, 0.16868194937705994, 
    -0.05357172712683678, 0.24915069341659546, -0.311833918094635, 0.057787783443927765, 
  
    };
    static const neuron_t neuron2 = {weights2, 0.27695509791374207};
    neurons[2]=neuron2;

    static const float weights3[] ={
    -0.42118310928344727, -0.06410383433103561, 0.2441524714231491, 0.2549111843109131, 
    -0.3839106559753418, 0.0966842770576477, 0.10445460677146912, 0.01699139177799225, 
    0.34909704327583313, 0.36912280321121216, 0.252280592918396, -0.36049482226371765, 
    -0.3138374388217926, 0.1548544466495514, 0.22521378099918365, 0.30199530720710754, 
    0.3860134482383728, 0.21440714597702026, 0.21480950713157654, -0.2519284784793854, 
    0.16751068830490112, 0.02853427454829216, -0.21246398985385895, 0.11245764791965485, 
    0.09195096045732498, 0.06063433736562729, -0.04443155229091644, -0.45941486954689026, 
    0.11468943953514099, -0.03328985720872879, -0.19409896433353424, 0.09239562600851059, 
    0.13037540018558502, -0.13418346643447876, -0.015183101408183575, 0.1322886347770691, 
    -0.011827770620584488, 0.06497621536254883, 0.09174500405788422, 0.06892532110214233, 
    -0.23064769804477692, -0.2588036060333252, 0.01155830081552267, 0.06024950370192528, 
    -0.013078379444777966, 0.026670627295970917, 0.2306181639432907, 0.024377740919589996, 
    0.03983159735798836, -0.5941241383552551, 0.06322532147169113, 0.17925460636615753, 
    0.08914710581302643, 0.07926464825868607, 0.07617565244436264, 0.21782581508159637, 
    -0.018191169947385788, 0.11822914332151413, -0.05291014909744263, -0.2362082153558731, 
    0.0780591145157814, 0.3442135453224182, -0.25269007682800293, -0.19206883013248444, 
    0.010033995844423771, 0.3697817921638489, 0.050153207033872604, -0.1458011120557785, 
    -0.0008930101757869124, -0.1442614197731018, -0.22912637889385223, -0.07674165815114975, 
  
    };
    static const neuron_t neuron3 = {weights3, 0.011264699511229992};
    neurons[3]=neuron3;

    static const float weights4[] ={
    0.1444266438484192, -0.02786015160381794, -0.03798830881714821, 0.04915784299373627, 
    -0.24687781929969788, -0.06135275214910507, -0.21019521355628967, -0.09128405898809433, 
    -0.2770633101463318, -0.15215997397899628, -0.022306056693196297, 0.1636059582233429, 
    0.07120495289564133, -3.093909253948368e-05, -0.23513133823871613, 0.23639124631881714, 
    -0.20904704928398132, 0.13039080798625946, 0.17283156514167786, -0.2707202434539795, 
    -0.28005221486091614, 0.143400639295578, 0.10703444480895996, 0.07945764064788818, 
    -0.11294987797737122, -0.1969064474105835, 0.14834801852703094, 0.08156444132328033, 
    -0.12812146544456482, 0.13229547441005707, -0.009596982970833778, 0.1004466563463211, 
    0.11776456236839294, 0.06679759919643402, 0.07302136719226837, -0.1749032437801361, 
    -0.29420414566993713, -0.06726132333278656, 0.08947282284498215, 0.17453719675540924, 
    -0.27883225679397583, -0.09107612073421478, -0.2066299170255661, -0.015455804765224457, 
    0.01782776229083538, -0.20262962579727173, -0.27229323983192444, 0.05501978471875191, 
    -0.05763610079884529, -0.016784770414233208, -0.09818065166473389, 0.09354052692651749, 
    0.034621477127075195, -0.22473976016044617, 0.21061448752880096, -0.2641063928604126, 
    0.19501420855522156, -0.08272351324558258, 0.11176735162734985, -0.24776136875152588, 
    0.15126629173755646, -0.2577720582485199, -0.09857811033725739, -0.24294669926166534, 
    -0.1425701528787613, -0.1759931743144989, 0.09467177093029022, 0.09448029100894928, 
    -0.21643231809139252, -0.011397058144211769, 0.0874096155166626, -0.16217833757400513, 
  
    };
    static const neuron_t neuron4 = {weights4, -0.020140070468187332};
    neurons[4]=neuron4;

    static const float weights5[] ={
    -0.1418367624282837, -0.1701182723045349, -0.01367906667292118, 0.07828729599714279, 
    -0.03065616823732853, -0.14484970271587372, 0.07273739576339722, 0.28431227803230286, 
    0.13927119970321655, 0.04627317935228348, -0.22035729885101318, 0.10605614632368088, 
    -0.2360079437494278, 0.10940533131361008, 0.02871326543390751, -0.017813555896282196, 
    -0.08181771636009216, 0.098140187561512, 0.04522864148020744, 0.06611061841249466, 
    -0.03086726740002632, 0.1256220042705536, 0.02328576147556305, 0.058966100215911865, 
    -0.09768183529376984, -0.4332842230796814, 0.14735287427902222, 0.2775358259677887, 
    0.07468465715646744, -0.2463001012802124, 0.24329370260238647, -0.13727007806301117, 
    0.07249155640602112, -0.1040327250957489, -0.1311826854944229, -0.17011123895645142, 
    -0.0537513829767704, 0.16995768249034882, -0.13966438174247742, -0.1155342161655426, 
    0.3117792308330536, 0.31629514694213867, 0.2561050057411194, 0.006827692035585642, 
    0.26151320338249207, 0.3357461988925934, -0.0205339714884758, 0.15344400703907013, 
    0.1379219889640808, -0.8577616810798645, -0.13715451955795288, -0.06467234343290329, 
    0.23069818317890167, 0.2556973397731781, -0.4327719211578369, 0.0742328092455864, 
    0.2497522085905075, -0.2539929747581482, 0.2183631956577301, 0.0742601826786995, 
    0.18601076304912567, 0.21184396743774414, -0.13562633097171783, -0.08133602887392044, 
    -0.360590398311615, -0.34968531131744385, -0.2872190475463867, -0.1948065459728241, 
    -0.1645132154226303, 0.00917487870901823, 0.34105151891708374, 0.08337388932704926, 
  
    };
    static const neuron_t neuron5 = {weights5, 0.10647733509540558};
    neurons[5]=neuron5;

    static const float weights6[] ={
    0.2846623361110687, 0.42264416813850403, -0.02868468500673771, -0.04663573578000069, 
    -0.24105104804039001, -0.14132630825042725, 0.04485101252794266, -0.03180329501628876, 
    0.14861787855625153, 0.4656538665294647, 0.3496885895729065, 0.18555809557437897, 
    0.16459715366363525, -0.22905787825584412, -0.05673472583293915, 0.5624874234199524, 
    -0.3099985122680664, -0.27354395389556885, 0.12989239394664764, -0.23032037913799286, 
    0.5088176131248474, -0.1087527647614479, 0.12568995356559753, 0.07053902745246887, 
    0.3486267626285553, 0.4576653838157654, -0.1476861983537674, -0.11181873083114624, 
    -0.1288275420665741, 0.06548970937728882, 0.4102943241596222, -0.04493650048971176, 
    0.3662077784538269, -0.014832125045359135, -0.08461292088031769, 0.2332117259502411, 
    -0.3700089752674103, -0.0020468824077397585, -0.14339856803417206, 0.3553466498851776, 
    -0.12665705382823944, -0.7937746644020081, 0.07494723051786423, 0.05663628876209259, 
    0.039795782417058945, 0.1235833540558815, 0.16319236159324646, -0.24479065835475922, 
    0.033907949924468994, 0.22434912621974945, 0.06180524826049805, 0.1627519279718399, 
    -0.07852892577648163, 0.1563309282064438, 0.10107214748859406, 0.11900543421506882, 
    0.24915850162506104, 0.3044077455997467, -0.0014565861783921719, -0.30651989579200745, 
    -0.3738968074321747, -0.14016301929950714, -0.10223282128572464, 0.011165345087647438, 
    -0.07597145438194275, 0.16293200850486755, 0.15720021724700928, 0.17080999910831451, 
    -0.4327772855758667, 0.05349509045481682, 0.07850205153226852, -0.0028602106031030416, 
  
    };
    static const neuron_t neuron6 = {weights6, -0.22079476714134216};
    neurons[6]=neuron6;

    static const float weights7[] ={
    -0.25686487555503845, -0.26364755630493164, 0.31674525141716003, 0.10658171772956848, 
    -0.16699035465717316, -0.21730445325374603, -0.07477658987045288, 0.24986541271209717, 
    -0.09205082058906555, 0.15407942235469818, -0.08175291866064072, -0.2692623734474182, 
    0.31229931116104126, 0.0992082878947258, 0.07993593066930771, 0.23608098924160004, 
    -0.139560729265213, -0.16560600697994232, 0.1625543236732483, -0.29157671332359314, 
    0.6972542405128479, 0.03983960673213005, 0.17846247553825378, 0.12164059281349182, 
    0.15158766508102417, -0.6369870901107788, 0.34596362709999084, 0.23829437792301178, 
    0.20467495918273926, 0.09888806194067001, -0.24575592577457428, 0.282588392496109, 
    0.2356535941362381, -0.4720984399318695, 0.20384955406188965, 0.09030656516551971, 
    0.12005212157964706, 0.4091373383998871, -0.25752073526382446, 0.12663200497627258, 
    -0.19567057490348816, -0.6064388155937195, 0.03058060072362423, 0.10729452222585678, 
    0.2937564551830292, 0.22986119985580444, 0.45838165283203125, -0.03060966543853283, 
    0.19856560230255127, -0.3467608094215393, -0.0879250094294548, -0.21606044471263885, 
    0.16785188019275665, -0.09004434943199158, -0.16414044797420502, 0.06541785597801208, 
    -0.02174631878733635, -0.11421506106853485, -0.1286618858575821, 0.13991260528564453, 
    0.06467197090387344, -0.04219932481646538, -0.30023065209388733, -0.24668645858764648, 
    -0.14632974565029144, -0.3166983425617218, 0.1544826328754425, 0.10551168024539948, 
    0.21802298724651337, 0.03440235182642937, -0.17199982702732086, -0.0526932030916214, 
  
    };
    static const neuron_t neuron7 = {weights7, 0.02023940719664097};
    neurons[7]=neuron7;

    static const float weights8[] ={
    0.27834612131118774, 0.31110167503356934, 0.18223325908184052, 0.10444475710391998, 
    0.39190950989723206, 0.02609403431415558, 0.018851635977625847, 0.12149209529161453, 
    -0.25736725330352783, -0.06468013674020767, 0.035049792379140854, 0.09474042803049088, 
    0.5224074125289917, -0.10811012238264084, -0.2542334198951721, -0.0599234402179718, 
    -0.2614806294441223, -0.3032950460910797, 0.017789939418435097, 0.10290855914354324, 
    0.6974867582321167, 0.1839384287595749, 0.29568392038345337, -0.1783895641565323, 
    -0.06578616052865982, 0.15290164947509766, -0.09722112119197845, -0.10266322642564774, 
    -0.37675410509109497, -0.03717600554227829, 0.26787611842155457, 0.05138276144862175, 
    0.12031254917383194, -0.11920792609453201, 0.3000791668891907, -0.009225787594914436, 
    0.11820690333843231, -0.27701446413993835, 0.3138078451156616, -0.23315991461277008, 
    -0.04148434102535248, -0.3992276191711426, -0.009684884920716286, 0.18644979596138, 
    -0.10263755917549133, 0.49599671363830566, 0.14088019728660583, 0.11035066843032837, 
    -0.4965645670890808, -0.4803948402404785, -0.34386029839515686, 0.27941423654556274, 
    0.3188301622867584, 0.13718774914741516, 0.12626133859157562, -0.060560259968042374, 
    -0.055844325572252274, -0.5613576769828796, 0.14101415872573853, -0.11354781687259674, 
    0.4563727080821991, 0.21709685027599335, 0.06780529022216797, -0.20989905297756195, 
    0.4756453037261963, 0.413827121257782, 0.04056672751903534, -0.19686144590377808, 
    -0.038339585065841675, -0.20892401039600372, -0.1623886078596115, -0.08849623054265976, 
  
    };
    static const neuron_t neuron8 = {weights8, -0.05607752501964569};
    neurons[8]=neuron8;

    static const float weights9[] ={
    -0.1638798713684082, -0.19761252403259277, 0.13111253082752228, 0.04878058284521103, 
    -0.12973229587078094, -0.07484471052885056, 0.22915638983249664, 0.1268642693758011, 
    -0.09004335105419159, -0.1704704314470291, 0.1816868782043457, -0.2227313220500946, 
    -0.28333619236946106, 0.16644957661628723, -0.0573677122592926, -0.2662116289138794, 
    0.08467891067266464, -0.11289581656455994, 0.01106931734830141, -0.06928615272045135, 
    -0.0009571664850227535, -0.1589398831129074, 0.14970166981220245, -0.19047626852989197, 
    0.024647416546940804, -0.16287347674369812, 0.08434862643480301, -0.02666652947664261, 
    -0.06290986388921738, -0.20701554417610168, -0.17875874042510986, -0.09088577330112457, 
    -0.06405442208051682, -0.2418232411146164, -0.13673275709152222, 0.0683269053697586, 
    0.09983046352863312, -0.24222242832183838, 0.14907324314117432, 0.1896219104528427, 
    -0.16610386967658997, -0.058488719165325165, 0.1979876458644867, 0.2227744162082672, 
    -0.14612005650997162, -0.09206449240446091, -0.09753817319869995, -0.2740945518016815, 
    -0.06230628862977028, 0.13346755504608154, -0.0383232943713665, 0.1630624383687973, 
    0.2230786681175232, -0.1296006143093109, -0.19411559402942657, -0.12501807510852814, 
    0.026444779708981514, -0.07433577626943588, 0.09709856659173965, -0.2606555223464966, 
    0.03958762809634209, -0.1651468575000763, -0.18988977372646332, 0.20733800530433655, 
    -0.09851895272731781, 0.16542726755142212, -0.19923420250415802, -0.24353204667568207, 
    0.22392788529396057, -0.07315453141927719, -0.014868450351059437, -0.19758661091327667, 
  
    };
    static const neuron_t neuron9 = {weights9, -0.017542580142617226};
    neurons[9]=neuron9;

    static const float weights10[] ={
    -0.2787175476551056, -0.1863395869731903, -0.29089653491973877, 0.08232898265123367, 
    0.10015427321195602, -0.07919692993164062, 0.08677066117525101, -0.09708018600940704, 
    -0.04245278611779213, 0.03551701828837395, -0.10393552482128143, -0.10734181851148605, 
    0.11448259651660919, 0.48645153641700745, -0.11342907696962357, 0.042294617742300034, 
    0.04388288035988808, -0.011407679878175259, -0.027047455310821533, 0.19330410659313202, 
    -0.09091874212026596, 0.13852708041667938, -0.009883629158139229, 0.2249918431043625, 
    0.42983323335647583, -0.6136806011199951, 0.43516266345977783, -0.2148507982492447, 
    -0.1695857048034668, 0.26903092861175537, -0.4874202013015747, 0.16361573338508606, 
    0.15527205169200897, -0.48446178436279297, 0.46209201216697693, 0.006375339813530445, 
    0.4008309841156006, 0.4563715159893036, 0.0062184883281588554, 0.24939119815826416, 
    0.20110470056533813, 0.04904099553823471, -0.011923560872673988, -0.20016802847385406, 
    -0.3525879681110382, -0.3382014334201813, 0.1407829225063324, -0.07874052971601486, 
    -0.12370838969945908, -0.019836649298667908, 0.26247283816337585, -0.11069737374782562, 
    -0.2310788482427597, 0.1604396551847458, -0.15266072750091553, 0.1783069372177124, 
    -0.1210096925497055, 0.2902988791465759, 0.3026152551174164, -0.07683564722537994, 
    -0.16998136043548584, 0.346312940120697, 0.008588749915361404, -0.36598268151283264, 
    -0.6635628938674927, 0.45365414023399353, 0.16756542026996613, 0.4397827088832855, 
    0.2944265604019165, -0.026033245027065277, -0.03339581564068794, -0.3171713948249817, 
  
    };
    static const neuron_t neuron10 = {weights10, -0.1248096153140068};
    neurons[10]=neuron10;

    static const float weights11[] ={
    -0.21643593907356262, 0.2822013199329376, 0.2970285415649414, -0.09314747154712677, 
    -0.22078481316566467, -0.2135373055934906, 0.0734698474407196, 0.012901710346341133, 
    -0.09746753424406052, 0.46125325560569763, 0.07820682972669601, 0.37477555871009827, 
    -0.1117270365357399, 0.058666083961725235, -0.18329936265945435, -0.03158450126647949, 
    -0.158563032746315, 0.18052364885807037, -0.3845403790473938, 0.15640628337860107, 
    -0.22910159826278687, 0.08955065160989761, 0.19408801198005676, -0.16809797286987305, 
    0.11447836458683014, 0.1150091215968132, 0.03728241100907326, 0.10244525969028473, 
    -0.03141786903142929, -0.1429273784160614, -0.1004013791680336, -0.10283087193965912, 
    0.3620663285255432, -0.14034368097782135, -0.16962593793869019, -0.05203922092914581, 
    -0.10015945136547089, -0.11637099087238312, 0.04955264553427696, -0.030947012826800346, 
    -0.14857929944992065, -0.08958280086517334, 0.27814337611198425, -0.07769746333360672, 
    0.16818834841251373, -0.046899259090423584, 0.2791958153247833, 0.12896329164505005, 
    0.08182551711797714, 0.7238666415214539, -0.184392049908638, -0.09975320845842361, 
    -0.254527747631073, -0.1791827380657196, 0.04446747153997421, 0.11610689759254456, 
    -0.40578827261924744, 0.49014708399772644, -0.2827375531196594, 0.3757289946079254, 
    0.18235626816749573, -0.44026386737823486, 0.2506539821624756, 0.005733212921768427, 
    -0.563029944896698, -0.15513141453266144, 0.18276233971118927, -0.11047545075416565, 
    -0.3115321695804596, -0.14084646105766296, 0.09134095907211304, 0.07861315459012985, 
  
    };
    static const neuron_t neuron11 = {weights11, 0.012771413661539555};
    neurons[11]=neuron11;

    static const float weights12[] ={
    0.20628242194652557, 0.6651702523231506, -0.03642246872186661, 0.17218774557113647, 
    -0.22240598499774933, 0.034002210944890976, 0.48410525918006897, -0.389556884765625, 
    0.0733383446931839, 0.026367872953414917, 0.34231388568878174, 0.3738596439361572, 
    -0.10851868242025375, -0.08942630887031555, 0.13023926317691803, 0.7044501900672913, 
    -0.7178618907928467, -0.03368839994072914, 0.45985785126686096, 0.09032747894525528, 
    0.5138583779335022, -0.17477743327617645, -0.1821717768907547, 0.28140008449554443, 
    -0.1400909125804901, 0.2626802623271942, -0.04262072220444679, 0.02514559030532837, 
    -0.1340169757604599, -0.48731014132499695, -0.08971186727285385, -0.17307664453983307, 
    -0.14634262025356293, -0.40760213136672974, -0.37117528915405273, 0.09704218059778214, 
    0.14030717313289642, -0.28167957067489624, 0.3454824984073639, 0.09080284833908081, 
    -0.46898403763771057, -0.1703009158372879, 0.003069752361625433, -0.08977361768484116, 
    -0.2736676335334778, -0.02713988721370697, 0.1257602572441101, -0.22927546501159668, 
    -0.26910579204559326, 0.1362101137638092, 0.13602055609226227, 0.03205603361129761, 
    -0.16746094822883606, -0.03382524475455284, 0.03944851830601692, -0.21945098042488098, 
    -0.14334894716739655, -0.09880375117063522, 0.26798495650291443, 0.06756137311458588, 
    -0.012711144983768463, -0.03914162889122963, 0.014131763018667698, -0.006942896172404289, 
    -0.10734780877828598, -0.027348143979907036, -0.1298907995223999, 0.3059391975402832, 
    0.04236952215433121, 0.08610167354345322, -0.06596644222736359, -0.029954878613352776, 
  
    };
    static const neuron_t neuron12 = {weights12, 0.015660058706998825};
    neurons[12]=neuron12;

    static const float weights13[] ={
    -0.40482205152511597, -0.23806340992450714, 0.14862409234046936, 0.08790865540504456, 
    0.12017979472875595, -0.17251908779144287, 0.06669368594884872, -0.027627596631646156, 
    -0.4201553165912628, -0.4510214924812317, -0.08894636482000351, 0.37405848503112793, 
    0.3251645863056183, -0.1818607896566391, 0.29853713512420654, -0.26843440532684326, 
    0.449832022190094, 0.16743260622024536, 0.2467108815908432, 0.10536958277225494, 
    -0.09096316248178482, 0.012769618071615696, 0.002379843732342124, -0.04909202829003334, 
    -0.11338632553815842, -0.9336977601051331, 0.26165565848350525, -0.09188907593488693, 
    0.3687724471092224, 0.17722168564796448, 0.008396929129958153, 0.08936773985624313, 
    -0.21829618513584137, -0.061551354825496674, 0.15564286708831787, -0.1925477832555771, 
    0.2822524309158325, -0.04580989107489586, -0.15293928980827332, 0.1594017893075943, 
    -0.04223664477467537, -0.27894192934036255, 0.11807562410831451, 0.14437146484851837, 
    0.15508092939853668, -0.1432727426290512, 0.04879995808005333, 0.03535584732890129, 
    0.0023893702309578657, -0.052478134632110596, 0.1557989865541458, 0.04516348987817764, 
    -0.2740251421928406, 0.09093838185071945, -0.015752261504530907, 0.2683751583099365, 
    0.29071512818336487, 0.33363938331604004, 0.13962432742118835, -0.08197937160730362, 
    0.1311325877904892, -0.09048105031251907, 0.09781532734632492, -0.13322915136814117, 
    -0.07742276787757874, -0.6041296720504761, -0.19672852754592896, 0.12241489440202713, 
    -0.20288145542144775, 0.24559229612350464, 0.02969176694750786, 0.08525297045707703, 
  
    };
    static const neuron_t neuron13 = {weights13, 0.35311153531074524};
    neurons[13]=neuron13;

    static const float weights14[] ={
    -0.24211256206035614, 0.1282222867012024, -0.03871511295437813, 0.29314297437667847, 
    0.23818068206310272, 0.14657831192016602, 0.12957988679409027, -0.0059692771174013615, 
    0.1272476613521576, 0.5441163778305054, 0.5160629153251648, 0.11592612415552139, 
    0.05379185825586319, 0.19583871960639954, 0.020374782383441925, 0.019612738862633705, 
    0.538697361946106, 0.21235893666744232, -0.14341765642166138, 0.26961421966552734, 
    -0.7128802537918091, 0.16047640144824982, -0.06636638939380646, 0.15736836194992065, 
    -0.28645533323287964, 0.08999370038509369, -0.2893235981464386, 0.23091964423656464, 
    0.08434149622917175, 0.11486097425222397, 0.006413930561393499, -0.025253426283597946, 
    -0.06030155345797539, 0.3062625527381897, -0.11277978122234344, -0.5816851854324341, 
    0.1316821128129959, -0.2686004638671875, -0.016742751002311707, -0.2737964987754822, 
    0.5061779022216797, 0.13627107441425323, -0.018423739820718765, -0.05871221795678139, 
    0.3845745921134949, -0.29730603098869324, -0.11775479465723038, -0.026275333017110825, 
    -0.09037414938211441, -0.2393239587545395, 0.00827439408749342, 0.3168483078479767, 
    -0.17736005783081055, 0.14641302824020386, -0.0320865660905838, 0.18025332689285278, 
    0.3564330041408539, -0.2319486290216446, 0.5240610241889954, -0.04589425027370453, 
    -0.30046769976615906, 0.38232821226119995, 0.296097069978714, -0.10951721668243408, 
    -0.12179137766361237, 0.10864272713661194, 0.014844606630504131, -0.22378398478031158, 
    -0.1383998990058899, -0.26687076687812805, 0.10579980909824371, 0.24773399531841278, 
  
    };
    static const neuron_t neuron14 = {weights14, 0.20710158348083496};
    neurons[14]=neuron14;

    static const float weights15[] ={
    0.010273812338709831, -0.1186622753739357, -0.21135930716991425, -0.06263905018568039, 
    -0.23015348613262177, -0.27149227261543274, 0.4062940180301666, -0.1081467866897583, 
    0.055258989334106445, -0.23199781775474548, -0.12956616282463074, -0.09028629213571548, 
    -0.008132768794894218, -0.3164580166339874, -0.18105009198188782, 0.14017805457115173, 
    -0.17776641249656677, -0.0025932795833796263, 0.2654939889907837, -0.3349829316139221, 
    0.3749640882015228, -0.08552569895982742, -0.21146295964717865, 0.02312287501990795, 
    -0.11656896770000458, -0.12072022259235382, -0.35832107067108154, 0.1914791464805603, 
    -0.080887071788311, 0.13659103214740753, 0.027361851185560226, 0.19848142564296722, 
    -0.27582037448883057, 0.144023597240448, 0.24770593643188477, 0.1741717904806137, 
    0.04757002368569374, 0.29411453008651733, 0.12095876783132553, 0.07590146362781525, 
    -0.1812487542629242, 0.28576210141181946, 0.10304064303636551, 0.20967265963554382, 
    -0.17631633579730988, 0.11422653496265411, 0.13652099668979645, -0.07497493922710419, 
    -0.025690268725156784, -0.14936627447605133, 0.0047871945425868034, 0.18238535523414612, 
    -0.010888767428696156, 0.19173164665699005, -0.0887380838394165, 0.3600706458091736, 
    0.3658410906791687, 0.11723502725362778, 0.3769977390766144, -0.19394592940807343, 
    -0.2197173833847046, 0.2805255651473999, 0.17656706273555756, 0.13903528451919556, 
    0.3705311715602875, 0.3978291451931, -0.034119099378585815, -0.024139979854226112, 
    -0.28707316517829895, 0.16024671494960785, 0.3880702555179596, 0.09000930190086365, 
  
    };
    static const neuron_t neuron15 = {weights15, -0.03952576965093613};
    neurons[15]=neuron15;

    dense_layer_t layer= {16, neurons};
    return layer;
}

dense_layer_t init_dense_1_data(void){

    static neuron_t neurons[10];

    static const float weights0[] ={
    -0.491868257522583, -0.6068360805511475, -0.6512644290924072, -0.29258620738983154, 
    0.2554354667663574, 0.41241124272346497, 0.4294140934944153, 0.21433532238006592, 
    -0.19886881113052368, 0.3788054883480072, -0.3246001899242401, 0.11890250444412231, 
    0.2587050199508667, 0.41659143567085266, 0.6249167323112488, -0.20705538988113403, 
  
    };
    static const neuron_t neuron0 = {weights0, 0.07254721224308014};
    neurons[0]=neuron0;

    static const float weights1[] ={
    0.37358930706977844, -0.7314213514328003, 0.4585728049278259, -1.316285490989685, 
    -0.1001850813627243, -0.48176270723342896, 0.14453651010990143, -0.6351922750473022, 
    0.3658488392829895, -0.14033304154872894, -0.1581391990184784, 0.11781320720911026, 
    0.6787421703338623, -0.027098778635263443, -0.2389664500951767, -0.08609450608491898, 
  
    };
    static const neuron_t neuron1 = {weights1, 0.12379591912031174};
    neurons[1]=neuron1;

    static const float weights2[] ={
    -0.14800524711608887, -0.20926524698734283, 0.0647372379899025, 0.31947365403175354, 
    -0.042337339371442795, -0.12955740094184875, 0.49352195858955383, -0.3784154951572418, 
    0.1695411205291748, -0.03738660737872124, -0.4547218680381775, -0.3164263069629669, 
    0.1492571085691452, -0.5811972618103027, 0.02959916926920414, 0.5577996969223022, 
  
    };
    static const neuron_t neuron2 = {weights2, -0.020167123526334763};
    neurons[2]=neuron2;

    static const float weights3[] ={
    0.17497317492961884, 0.550176739692688, -0.7995238304138184, -0.24315513670444489, 
    0.19501611590385437, 0.06749120354652405, 0.4160458445549011, -0.08932909369468689, 
    -0.39864981174468994, -0.3651328980922699, 0.022856980562210083, 0.21043291687965393, 
    0.4582572281360626, -0.5066564083099365, -0.2966363728046417, 0.18318431079387665, 
  
    };
    static const neuron_t neuron3 = {weights3, -0.41154515743255615};
    neurons[3]=neuron3;

    static const float weights4[] ={
    0.09453806281089783, -0.29276418685913086, 0.280132532119751, -0.6392914652824402, 
    0.17294298112392426, 0.07496581971645355, 0.09927159547805786, 0.6950446367263794, 
    0.4400172829627991, -0.3766708970069885, -0.0005530563066713512, -0.0324615016579628, 
    -0.6058045625686646, 0.3067464232444763, -0.7514113783836365, -0.16337630152702332, 
  
    };
    static const neuron_t neuron4 = {weights4, -0.09798532724380493};
    neurons[4]=neuron4;

    static const float weights5[] ={
    0.3395548164844513, 0.45495542883872986, -0.25604113936424255, -0.5412288308143616, 
    0.2095998227596283, 0.10896282643079758, -0.0342605821788311, -0.22763685882091522, 
    -0.5990986824035645, -0.2381736934185028, 0.46106839179992676, 0.13903716206550598, 
    -0.6676811575889587, -0.012924199923872948, 0.40767279267311096, -0.31149807572364807, 
  
    };
    static const neuron_t neuron5 = {weights5, 0.22325563430786133};
    neurons[5]=neuron5;

    static const float weights6[] ={
    0.132765993475914, -0.09028246998786926, -0.3204738199710846, -0.10429152846336365, 
    0.3785379230976105, 0.42170244455337524, -0.7617641091346741, -0.3014237582683563, 
    -0.4209759831428528, -0.13020825386047363, -0.12735432386398315, -0.5122851729393005, 
    -0.27807167172431946, 0.5005369186401367, -0.07835032045841217, 0.6588379144668579, 
  
    };
    static const neuron_t neuron6 = {weights6, 0.3948538303375244};
    neurons[6]=neuron6;

    static const float weights7[] ={
    -0.14815795421600342, 0.3287458121776581, 0.2165815681219101, -0.08373285084962845, 
    0.3767368495464325, 0.27852606773376465, -0.10778024792671204, 0.13907773792743683, 
    0.4215857982635498, 0.15852759778499603, -0.8100014925003052, 0.5350097417831421, 
    0.43962302803993225, -0.6471601724624634, -0.02726309560239315, -0.5131748914718628, 
  
    };
    static const neuron_t neuron7 = {weights7, 0.1908385008573532};
    neurons[7]=neuron7;

    static const float weights8[] ={
    0.0293076504021883, 0.260662704706192, -0.5126546621322632, 0.423971027135849, 0.3678939938545227, 
    0.16945870220661163, -0.009597394615411758, 0.22068950533866882, 0.30407577753067017, 
    -0.44976845383644104, 0.6631190776824951, -0.8212593793869019, -0.03246301785111427, 
    -0.216774582862854, -0.09995852410793304, -0.10182633250951767
    };
    static const neuron_t neuron8 = {weights8, -0.1620233803987503};
    neurons[8]=neuron8;

    static const float weights9[] ={
    -0.30165231227874756, 0.09994270652532578, 0.4490478038787842, 0.6016201376914978, 
    0.21540580689907074, 0.03635452315211296, 0.06169462576508522, 0.5380445122718811, 
    -0.7014215588569641, -0.18625590205192566, 0.3293023705482483, 0.19267603754997253, 
    0.07295048236846924, 0.07277635484933853, -0.4396039843559265, -0.20680980384349823, 
  
    };
    static const neuron_t neuron9 = {weights9, -0.07987590879201889};
    neurons[9]=neuron9;

    dense_layer_t layer= {10, neurons};
    return layer;
}
