#include "common.h"
#include "neural_net.h"
#include "cifar10_model.h"
#include "embedia_debug.h"

// Initialization function prototypes
conv2d_layer_t init_conv2d_4_data(void);
conv2d_layer_t init_conv2d_5_data(void);
batch_normalization_layer_t init_batch_normalization_4_data(void);
conv2d_layer_t init_conv2d_6_data(void);
batch_normalization_layer_t init_batch_normalization_5_data(void);
conv2d_layer_t init_conv2d_7_data(void);
batch_normalization_layer_t init_batch_normalization_6_data(void);
dense_layer_t init_dense_2_data(void);
batch_normalization_layer_t init_batch_normalization_7_data(void);
dense_layer_t init_dense_3_data(void);


// Global Variables
conv2d_layer_t conv2d_4_data;
conv2d_layer_t conv2d_5_data;
batch_normalization_layer_t batch_normalization_4_data;
conv2d_layer_t conv2d_6_data;
batch_normalization_layer_t batch_normalization_5_data;
conv2d_layer_t conv2d_7_data;
batch_normalization_layer_t batch_normalization_6_data;
dense_layer_t dense_2_data;
batch_normalization_layer_t batch_normalization_7_data;
dense_layer_t dense_3_data;


void model_init(){
    conv2d_4_data = init_conv2d_4_data();
    conv2d_5_data = init_conv2d_5_data();
    batch_normalization_4_data = init_batch_normalization_4_data();
    conv2d_6_data = init_conv2d_6_data();
    batch_normalization_5_data = init_batch_normalization_5_data();
    conv2d_7_data = init_conv2d_7_data();
    batch_normalization_6_data = init_batch_normalization_6_data();
    dense_2_data = init_dense_2_data();
    batch_normalization_7_data = init_batch_normalization_7_data();
    dense_3_data = init_dense_3_data();

}

void model_predict(data3d_t input, data1d_t * output){
  
    prepare_buffers();
    
    //<<<<<<<<<<<<<<<<<<<<< INTERNAL LAYER >>>>>>>>>>>>>>>>>>>>>//
    // Layer name: channels_adapter
    data3d_t output0;
    channel_adapt_layer(input, &output0);
    // Debug function for layer channels_adapter
    print_data3d_t("channels_adapter", output0);
    
    //******************** LAYER 0 *******************//
    // Layer name: conv2d_4
    input = output0;
    conv2d_layer(conv2d_4_data, input, &output0);
    // Debug function for layer conv2d_4
    print_data3d_t("conv2d_4", output0);
    
    //******************** LAYER 1 *******************//
    // Layer name: conv2d_41
    relu_activation(output0.data, 14400);
    // Debug function for layer conv2d_41
    print_data3d_t("conv2d_41", output0);
    
    //******************** LAYER 2 *******************//
    // Layer name: conv2d_5
    input = output0;
    conv2d_layer(conv2d_5_data, input, &output0);
    // Debug function for layer conv2d_5
    print_data3d_t("conv2d_5", output0);
    
    //******************** LAYER 3 *******************//
    // Layer name: conv2d_51
    relu_activation(output0.data, 12544);
    // Debug function for layer conv2d_51
    print_data3d_t("conv2d_51", output0);
    
    //******************** LAYER 4 *******************//
    // Layer name: batch_normalization_4
    batch_normalization3d_layer(batch_normalization_4_data, &output0);
    // Debug function for layer batch_normalization_4
    print_data3d_t("batch_normalization_4", output0);
    
    //******************** LAYER 5 *******************//
    // Layer name: max_pooling2d_3
    input = output0;
    static const pooling2d_layer_t max_pooling2d_3_data = { 2, 2 };
    max_pooling2d_layer(max_pooling2d_3_data, input, &output0);
    // Debug function for layer max_pooling2d_3
    print_data3d_t("max_pooling2d_3", output0);
    
    //******************** LAYER 6 *******************//
    // Layer name: conv2d_6
    input = output0;
    conv2d_layer(conv2d_6_data, input, &output0);
    // Debug function for layer conv2d_6
    print_data3d_t("conv2d_6", output0);
    
    //******************** LAYER 7 *******************//
    // Layer name: conv2d_61
    relu_activation(output0.data, 4608);
    // Debug function for layer conv2d_61
    print_data3d_t("conv2d_61", output0);
    
    //******************** LAYER 8 *******************//
    // Layer name: batch_normalization_5
    batch_normalization3d_layer(batch_normalization_5_data, &output0);
    // Debug function for layer batch_normalization_5
    print_data3d_t("batch_normalization_5", output0);
    
    //******************** LAYER 9 *******************//
    // Layer name: max_pooling2d_4
    input = output0;
    static const pooling2d_layer_t max_pooling2d_4_data = { 2, 2 };
    max_pooling2d_layer(max_pooling2d_4_data, input, &output0);
    // Debug function for layer max_pooling2d_4
    print_data3d_t("max_pooling2d_4", output0);
    
    //******************** LAYER 10 *******************//
    // Layer name: conv2d_7
    input = output0;
    conv2d_layer(conv2d_7_data, input, &output0);
    // Debug function for layer conv2d_7
    print_data3d_t("conv2d_7", output0);
    
    //******************** LAYER 11 *******************//
    // Layer name: conv2d_71
    relu_activation(output0.data, 1024);
    // Debug function for layer conv2d_71
    print_data3d_t("conv2d_71", output0);
    
    //******************** LAYER 12 *******************//
    // Layer name: batch_normalization_6
    batch_normalization3d_layer(batch_normalization_6_data, &output0);
    // Debug function for layer batch_normalization_6
    print_data3d_t("batch_normalization_6", output0);
    
    //******************** LAYER 13 *******************//
    // Layer name: max_pooling2d_5
    input = output0;
    static const pooling2d_layer_t max_pooling2d_5_data = { 2, 2 };
    max_pooling2d_layer(max_pooling2d_5_data, input, &output0);
    // Debug function for layer max_pooling2d_5
    print_data3d_t("max_pooling2d_5", output0);
    
    //******************** LAYER 14 *******************//
    // Layer name: flatten_1
    input = output0;
    data1d_t output1;
    flatten3d_layer(input, &output1);
    // Debug function for layer flatten_1
    print_data1d_t("flatten_1", output1);
    
    //******************** LAYER 15 *******************//
    // Layer name: dense_2
    data1d_t input1;
    input1 = output1;
    dense_layer(dense_2_data, input1, &output1);
    
    // Debug function for layer dense_2
    print_data1d_t("dense_2", output1);
    
    //******************** LAYER 16 *******************//
    // Layer name: dense_21
    relu_activation(output1.data, 100);
    // Debug function for layer dense_21
    print_data1d_t("dense_21", output1);
    
    //******************** LAYER 17 *******************//
    // Layer name: batch_normalization_7
    batch_normalization1d_layer(batch_normalization_7_data, &output1);
    // Debug function for layer batch_normalization_7
    print_data1d_t("batch_normalization_7", output1);
    
    //******************** LAYER 18 *******************//
    // Layer name: dense_3
    input1 = output1;
    dense_layer(dense_3_data, input1, &output1);
    
    // Debug function for layer dense_3
    print_data1d_t("dense_3", output1);
    
    //******************** LAYER 19 *******************//
    // Layer name: dense_31
    softmax_activation(output1.data, 10);
    // Debug function for layer dense_31
    print_data1d_t("dense_31", output1);
    

    *output = output1;

}

int model_predict_class(data3d_t input, data1d_t * results){
  
   
    model_predict(input, results);
    
    return argmax(*results);
    //return argmax(data1d_t);

}

// Implementation of initialization functions



conv2d_layer_t init_conv2d_4_data(void){

        static filter_t filters[16];
        
        static const quant8 weights0[]={
           126,    104,    139, /* [-0.00792528 -0.13624145  0.06764716] */
           64,    128,    68, /* [-0.36962757  0.00534    -0.34391171] */
           90,    186,    103, /* [-0.21639889  0.34761447 -0.14365613] */
           169,    179,    166, /* [0.24897712 0.30218959 0.22949284] */
           79,    255,    75, /* [-0.28141531  0.74961036 -0.30446613] */
           77,    203,    86, /* [-0.29561347  0.44818825 -0.23879364] */
           82,    46,    141, /* [-0.26580286 -0.47331017  0.08356871] */
           181,    227,    85, /* [ 0.31567892  0.58710313 -0.2439636 ] */
           150,    91,    120 /* [ 0.13513647 -0.20965168 -0.04354336] */
        };
        static filter_t filter0 = { weights0, 145};  //0.10620876401662827
        filters[0]=filter0;
            
        static const quant8 weights1[]={
           231,    68,    69, /* [ 0.60750926 -0.34650648 -0.34101945] */
           155,    101,    219, /* [ 0.16287853 -0.15432701  0.54143882] */
           121,    153,    116, /* [-0.0342517   0.15287641 -0.0661087 ] */
           114,    3,    88, /* [-0.07454169 -0.7267673  -0.23062757] */
           116,    153,    161, /* [-0.0616805   0.15352672  0.20164716] */
           142,    146,    98, /* [ 0.08627088  0.10924015 -0.17267035] */
           191,    75,    151, /* [ 0.37832496 -0.30481663  0.13856214] */
           168,    104,    87, /* [ 0.2390299  -0.13637863 -0.23558323] */
           109,    121,    190 /* [-0.10333817 -0.03417673  0.36904836] */
        };
        static filter_t filter1 = { weights1, 141};  //0.0843619629740715
        filters[1]=filter1;
            
        static const quant8 weights2[]={
           108,    224,    32, /* [-0.10863981  0.56659329 -0.55454719] */
           127,    134,    92, /* [-0.00063071  0.0424244  -0.20712797] */
           115,    63,    102, /* [-0.07222341 -0.37602875 -0.14686131] */
           179,    205,    57, /* [ 0.30704179  0.45814216 -0.41263902] */
           126,    183,    178, /* [-0.00303811  0.32736424  0.29956356] */
           200,    61,    114, /* [ 0.43051639 -0.3874808  -0.07871608] */
           48,    200,    108, /* [-0.46373016  0.42743891 -0.11094955] */
           96,    142,    167, /* [-0.17968373  0.09022941  0.23465984] */
           108,    66,    218 /* [-0.11219252 -0.35561657  0.53257346] */
        };
        static filter_t filter2 = { weights2, 152};  //0.14662641286849976
        filters[2]=filter2;
            
        static const quant8 weights3[]={
           101,    179,    189, /* [-0.15503383  0.30276999  0.36239383] */
           97,    247,    213, /* [-0.17391236  0.70179075  0.50325108] */
           40,    162,    29, /* [-0.51235527  0.20577091 -0.5745303 ] */
           135,    74,    139, /* [ 0.04487761 -0.31057408  0.07137303] */
           196,    203,    35, /* [ 0.40259594  0.44785735 -0.54008728] */
           97,    166,    88, /* [-0.17556964  0.22883056 -0.22960079] */
           123,    96,    145, /* [-0.02290908 -0.17987007  0.10700527] */
           165,    78,    183, /* [ 0.22568616 -0.28890181  0.32712176] */
           154,    56,    103 /* [ 0.15975969 -0.4141537  -0.14353286] */
        };
        static filter_t filter3 = { weights3, 139};  //0.07205590605735779
        filters[3]=filter3;
            
        static const quant8 weights4[]={
           62,    161,    104, /* [-0.38342825  0.19864865 -0.13656922] */
           198,    126,    128, /* [ 0.41807556 -0.00541825  0.00659208] */
           164,    143,    172, /* [0.21924509 0.09676302 0.26178804] */
           210,    79,    126, /* [ 0.4892408  -0.28192791 -0.00490793] */
           92,    153,    120, /* [-0.20593065  0.14972971 -0.03858776] */
           50,    7,    73, /* [-0.44934583 -0.70631444 -0.31414074] */
           94,    98,    124, /* [-0.19298358 -0.17156422 -0.01708356] */
           206,    177,    182, /* [0.46197706 0.29206869 0.32344976] */
           119,    155,    40 /* [-0.04880518  0.16268839 -0.50769836] */
        };
        static filter_t filter4 = { weights4, 143};  //0.09538188576698303
        filters[4]=filter4;
            
        static const quant8 weights5[]={
           175,    110,    150, /* [ 0.28085309 -0.1015338   0.13450243] */
           123,    208,    145, /* [-0.0254881   0.47748032  0.10503849] */
           51,    53,    169, /* [-0.44808781 -0.43166876  0.24503003] */
           72,    169,    98, /* [-0.32441887  0.24443254 -0.16993873] */
           84,    188,    131, /* [-0.25469971  0.35711744  0.02565846] */
           30,    147,    211, /* [-0.57128638  0.11493051  0.49073157] */
           193,    175,    95, /* [ 0.38446549  0.28155974 -0.1891602 ] */
           147,    88,    90, /* [ 0.11522283 -0.2274864  -0.21716033] */
           75,    130,    131 /* [-0.30216551  0.01831655  0.02218409] */
        };
        static filter_t filter5 = { weights5, 150};  //0.1366070806980133
        filters[5]=filter5;
            
        static const quant8 weights6[]={
           165,    164,    159, /* [0.22008805 0.21720965 0.18592867] */
           90,    151,    149, /* [-0.2195152   0.14368346  0.12738375] */
           73,    145,    54, /* [-0.31943515  0.10338641 -0.42703623] */
           164,    148,    200, /* [0.2153368  0.12129394 0.42695421] */
           121,    54,    80, /* [-0.03623126 -0.42637396 -0.27672651] */
           118,    96,    149, /* [-0.05485019 -0.1817113   0.1304213 ] */
           89,    97,    63, /* [-0.22169247 -0.17536651 -0.37536296] */
           121,    76,    98, /* [-0.03675033 -0.29800105 -0.1699786 ] */
           185,    248,    171 /* [0.33740515 0.70773506 0.2569288 ] */
        };
        static filter_t filter6 = { weights6, 129};  //0.010152838192880154
        filters[6]=filter6;
            
        static const quant8 weights7[]={
           144,    86,    194, /* [ 0.09684749 -0.24271581  0.39088708] */
           77,    84,    97, /* [-0.29413617 -0.25222364 -0.17801744] */
           118,    190,    70, /* [-0.05108389  0.36744437 -0.33255929] */
           133,    144,    111, /* [ 0.03613228  0.10134421 -0.0934305 ] */
           185,    97,    129, /* [ 0.3430025  -0.17689875  0.01174495] */
           188,    238,    137, /* [0.35967398 0.64847398 0.06052168] */
           165,    186,    89, /* [ 0.22278649  0.34673038 -0.22438429] */
           67,    53,    98, /* [-0.35335553 -0.4318372  -0.17032909] */
           110,    137,    74 /* [-0.09847462  0.05874489 -0.31186679] */
        };
        static filter_t filter7 = { weights7, 158};  //0.18128380179405212
        filters[7]=filter7;
            
        static const quant8 weights8[]={
           212,    167,    75, /* [ 0.50054121  0.23759197 -0.30520982] */
           73,    72,    100, /* [-0.31524062 -0.32520351 -0.15792824] */
           165,    143,    97, /* [ 0.22451103  0.09425095 -0.17604643] */
           92,    65,    131, /* [-0.20314601 -0.36447096  0.02492695] */
           65,    76,    58, /* [-0.36277351 -0.298062   -0.40640751] */
           86,    150,    109, /* [-0.24343531  0.13421245 -0.1039657 ] */
           88,    158,    203, /* [-0.2300453   0.18087952  0.44348055] */
           233,    209,    167, /* [0.62276238 0.47928083 0.23478058] */
           129,    140,    174 /* [0.01169999 0.07595099 0.27820054] */
        };
        static filter_t filter8 = { weights8, 118};  //-0.055212341248989105
        filters[8]=filter8;
            
        static const quant8 weights9[]={
           72,    153,    141, /* [-0.32418218  0.15500046  0.0841914 ] */
           166,    160,    69, /* [ 0.22920625  0.19395515 -0.33780572] */
           117,    133,    155, /* [-0.05785491  0.03507167  0.16296633] */
           127,    191,    174, /* [0.00236724 0.37650001 0.2740624 ] */
           72,    215,    115, /* [-0.32231402  0.51635855 -0.07007784] */
           110,    51,    54, /* [-0.09970558 -0.44386104 -0.42741629] */
           211,    185,    162, /* [0.49515259 0.33882314 0.20593549] */
           102,    166,    133, /* [-0.14694323  0.23053977  0.0375356 ] */
           50,    41,    93 /* [-0.45389345 -0.50206977 -0.19683805] */
        };
        static filter_t filter9 = { weights9, 130};  //0.014673556201159954
        filters[9]=filter9;
            
        static const quant8 weights10[]={
           130,    127,    145, /* [0.01575265 0.00140676 0.10754458] */
           58,    82,    196, /* [-0.40276256 -0.26344827  0.40241665] */
           80,    185,    138, /* [-0.276761    0.3415345   0.06508484] */
           154,    107,    112, /* [ 0.15672742 -0.11817224 -0.08745915] */
           176,    65,    204, /* [ 0.2884163  -0.36317295  0.4543725 ] */
           85,    162,    82, /* [-0.24858084  0.20759767 -0.26614612] */
           95,    126,    127, /* [-0.18973912 -0.00544733  0.00092061] */
           40,    114,    198, /* [-0.5129444  -0.07743257  0.41369352] */
           111,    84,    242 /* [-0.09453448 -0.25348824  0.67640257] */
        };
        static filter_t filter10 = { weights10, 127};  //-0.002276985440403223
        filters[10]=filter10;
            
        static const quant8 weights11[]={
           122,    73,    139, /* [-0.03164401 -0.3163324   0.06965389] */
           52,    98,    154, /* [-0.43781167 -0.16929054  0.1583429 ] */
           189,    89,    99, /* [ 0.366537   -0.22254288 -0.16317765] */
           166,    148,    145, /* [0.22726485 0.12118061 0.10415765] */
           113,    71,    71, /* [-0.07988758 -0.3284643  -0.33038443] */
           93,    109,    132, /* [-0.19672905 -0.10517836  0.02933848] */
           90,    185,    110, /* [-0.21462485  0.3399224  -0.09900311] */
           174,    149,    189, /* [0.27418384 0.13073146 0.36193451] */
           159,    191,    130 /* [0.18728085 0.37717038 0.0191037 ] */
        };
        static filter_t filter11 = { weights11, 159};  //0.18615008890628815
        filters[11]=filter11;
            
        static const quant8 weights12[]={
           79,    51,    104, /* [-0.27875039 -0.44810209 -0.13239138] */
           176,    187,    133, /* [0.28897321 0.35000145 0.0350068 ] */
           156,    111,    104, /* [ 0.1686065  -0.0911321  -0.13298345] */
           58,    135,    171, /* [-0.40713984  0.04517373  0.25581449] */
           172,    146,    152, /* [0.26383221 0.11207402 0.14682986] */
           90,    179,    148, /* [-0.21928111  0.3026368   0.1206325 ] */
           180,    175,    147, /* [0.31058067 0.28404573 0.11736593] */
           164,    47,    56, /* [ 0.21682066 -0.46912691 -0.41858903] */
           116,    75,    173 /* [-0.0631083  -0.30653933  0.27007857] */
        };
        static filter_t filter12 = { weights12, 130};  //0.015250030905008316
        filters[12]=filter12;
            
        static const quant8 weights13[]={
           136,    77,    121, /* [ 0.0526639  -0.29554448 -0.03366378] */
           102,    97,    119, /* [-0.14541602 -0.17504504 -0.04427237] */
           114,    131,    202, /* [-0.07767314  0.02297909  0.44159237] */
           165,    89,    184, /* [ 0.22397998 -0.22160217  0.3354125 ] */
           138,    102,    214, /* [ 0.06725026 -0.1442804   0.50976801] */
           83,    117,    137, /* [-0.2578896  -0.05953901  0.05672142] */
           60,    96,    126, /* [-0.39278904 -0.17998272 -0.00552357] */
           84,    157,    224, /* [-0.25366893  0.17777458  0.56652045] */
           58,    120,    177 /* [-0.4019497  -0.0426389   0.29441693] */
        };
        static filter_t filter13 = { weights13, 162};  //0.2061471790075302
        filters[13]=filter13;
            
        static const quant8 weights14[]={
           59,    143,    140, /* [-0.39606145  0.0959178   0.07754277] */
           49,    74,    57, /* [-0.4561314  -0.30971238 -0.40970933] */
           84,    64,    161, /* [-0.25048184 -0.36669239  0.19964917] */
           137,    143,    59, /* [ 0.05668761  0.09357697 -0.39878881] */
           71,    100,    169, /* [-0.32868794 -0.16124457  0.24366507] */
           112,    121,    45, /* [-0.08586036 -0.03662785 -0.48379436] */
           66,    77,    188, /* [-0.35895139 -0.29358414  0.35846931] */
           57,    106,    99, /* [-0.4128007  -0.12580496 -0.16496609] */
           54,    62,    115 /* [-0.42781457 -0.38399014 -0.07147501] */
        };
        static filter_t filter14 = { weights14, 120};  //-0.040277205407619476
        filters[14]=filter14;
            
        static const quant8 weights15[]={
           76,    124,    187, /* [-0.2982882  -0.01694526  0.35356075] */
           43,    236,    176, /* [-0.48990297  0.6385746   0.28881368] */
           215,    198,    51, /* [ 0.51802182  0.41581044 -0.44449338] */
           125,    143,    50, /* [-0.01035663  0.09669201 -0.45028919] */
           0,    65,    177, /* [-0.74643677 -0.36399364  0.2939299 ] */
           106,    162,    51, /* [-0.12267862  0.20697352 -0.44648367] */
           146,    195,    108, /* [ 0.10959834  0.40038708 -0.11350252] */
           103,    174,    141, /* [-0.1418861   0.2735523   0.08350711] */
           68,    200,    115 /* [-0.34634903  0.42885402 -0.07145932] */
        };
        static filter_t filter15 = { weights15, 144};  //0.0975409522652626
        filters[15]=filter15;
            
        conv2d_layer_t layer = {16, filters, 3, { 3, 3 }, 0, {1, 1},{ 0.005866851526148179, 127 } };
        return layer;
}
        

conv2d_layer_t init_conv2d_5_data(void){

        static filter_t filters[16];
        
        static const quant8 weights0[]={
           94,    145,    125, /* [-0.12671158  0.15686582  0.04708921] */
           117,    72,    157, /* [-0.00173305 -0.251041    0.22257517] */
           130,    95,    98, /* [ 0.06978784 -0.1216818  -0.10728254] */
           92,    102,    128, /* [-0.14004673 -0.08129022  0.0607537 ] */
           166,    122,    125, /* [0.26933458 0.0252468  0.04225113] */
           136,    140,    125, /* [0.10658079 0.12710957 0.04249881] */
           125,    134,    102, /* [ 0.04342976  0.09199784 -0.08388723] */
           75,    121,    125, /* [-0.23418744  0.0206805   0.04641955] */
           112,    48,    101, /* [-0.03004617 -0.38515872 -0.08684225] */
           99,    139,    114, /* [-0.1015543   0.12093379 -0.01766753] */
           114,    81,    110, /* [-0.01706531 -0.19955245 -0.04075155] */
           143,    81,    120, /* [ 0.14673969 -0.19941157  0.01821382] */
           114,    111,    138, /* [-0.01437339 -0.03253367  0.11786579] */
           111,    157,    87, /* [-0.03335577  0.22351004 -0.16365729] */
           99,    106,    88, /* [-0.09759349 -0.05841965 -0.15986979] */
           97,    97,    130, /* [-0.11277518 -0.1083948   0.07316098] */
           159,    99,    69, /* [ 0.23010835 -0.09888773 -0.26377037] */
           126,    107,    101, /* [ 0.04993179 -0.05577785 -0.08950877] */
           110,    94,    114, /* [-0.03754505 -0.12956467 -0.01564562] */
           198,    97,    138, /* [ 0.44663015 -0.11126233  0.11392403] */
           132,    120,    130, /* [0.08194869 0.01494116 0.07475309] */
           141,    136,    133, /* [0.13144314 0.10725703 0.08854613] */
           161,    155,    86, /* [ 0.2429665   0.20970742 -0.16966571] */
           78,    141,    115, /* [-0.2180033   0.13449532 -0.01073542] */
           100,    70,    88, /* [-0.09528562 -0.25926399 -0.1629073 ] */
           179,    139,    124, /* [0.34594619 0.12008762 0.03834967] */
           97,    154,    108, /* [-0.10928099  0.20677924 -0.04837828] */
           140,    56,    130, /* [ 0.1263137  -0.33734718  0.07184426] */
           163,    117,    109, /* [ 2.53381610e-01 -2.24886811e-04 -4.50305901e-02] */
           81,    123,    100, /* [-0.19880396  0.03542914 -0.09328839] */
           134,    102,    107, /* [ 0.09631461 -0.08287377 -0.05800989] */
           63,    160,    147, /* [-0.29909042  0.23558873  0.16494182] */
           103,    165,    125, /* [-0.07961433  0.26469287  0.04681698] */
           143,    147,    168, /* [0.14417106 0.16795954 0.28440681] */
           110,    142,    131, /* [-0.0409864   0.13613367  0.07704691] */
           53,    67,    87, /* [-0.35476515 -0.27858156 -0.16483273] */
           88,    82,    80, /* [-0.16132034 -0.1935937  -0.20746446] */
           139,    170,    117, /* [ 0.11968599  0.29505035 -0.0013218 ] */
           23,    160,    158, /* [-0.51925302  0.23717566  0.228324  ] */
           152,    123,    123, /* [0.19624099 0.03393525 0.03421585] */
           104,    124,    128, /* [-0.06961661  0.03795282  0.05868556] */
           58,    86,    109, /* [-0.32663622 -0.1743757  -0.04267737] */
           91,    139,    119, /* [-0.14255518  0.12059489  0.01165027] */
           142,    111,    130, /* [ 0.14001167 -0.03096209  0.06954227] */
           144,    128,    151, /* [0.15123028 0.05979781 0.18896422] */
           140,    122,    129, /* [0.12873334 0.02672576 0.06903265] */
           58,    100,    159, /* [-0.32467186 -0.09372534  0.23023483] */
           107,    118,    157 /* [-0.05507351  0.00673175  0.22081771] */
        };
        static filter_t filter0 = { weights0, 103};  //-0.07770435512065887
        filters[0]=filter0;
            
        static const quant8 weights1[]={
           145,    117,    133, /* [ 0.15653045 -0.00197624  0.08713784] */
           152,    195,    111, /* [ 0.19250718  0.43233526 -0.03066162] */
           89,    139,    133, /* [-0.15537329  0.12228808  0.08875654] */
           127,    139,    123, /* [0.05493932 0.12028253 0.03363877] */
           111,    104,    84, /* [-0.03565486 -0.07400969 -0.18392523] */
           134,    92,    63, /* [ 0.09398963 -0.13622233 -0.29910129] */
           99,    127,    142, /* [-0.09954706  0.05634544  0.14026245] */
           129,    159,    149, /* [0.06687023 0.23240192 0.1799148 ] */
           111,    111,    131, /* [-0.0325945  -0.03233144  0.07610328] */
           122,    123,    165, /* [0.02535142 0.03173826 0.2662915 ] */
           61,    119,    159, /* [-0.30972239  0.01184353  0.2307394 ] */
           62,    92,    134, /* [-0.30737162 -0.13845859  0.09301193] */
           75,    95,    57, /* [-0.23193268 -0.12343726 -0.33353955] */
           100,    129,    80, /* [-0.09392522  0.06879832 -0.20471564] */
           132,    121,    97, /* [ 0.08209409  0.01966984 -0.11099583] */
           143,    125,    158, /* [0.14145292 0.0447808  0.22665404] */
           112,    151,    96, /* [-0.02985056  0.187466   -0.11670449] */
           128,    98,    137, /* [ 0.06242976 -0.10706408  0.11267788] */
           110,    35,    99, /* [-0.04062086 -0.45442447 -0.10142811] */
           135,    100,    67, /* [ 0.09761386 -0.09185719 -0.27905351] */
           129,    79,    149, /* [ 0.06521126 -0.21276665  0.17985459] */
           112,    191,    182, /* [-0.02824497  0.40756947  0.35772946] */
           120,    181,    136, /* [0.01642102 0.35299265 0.10581622] */
           67,    109,    75, /* [-0.27513337 -0.0449325  -0.23041001] */
           156,    147,    100, /* [ 0.21389715  0.16617455 -0.09591641] */
           139,    115,    105, /* [ 0.11923351 -0.00877005 -0.0658804 ] */
           167,    183,    110, /* [ 0.27758062  0.36671692 -0.03913284] */
           81,    96,    105, /* [-0.20086041 -0.1138917  -0.06570699] */
           128,    66,    109, /* [ 0.06330928 -0.28264582 -0.0458156 ] */
           97,    140,    94, /* [-0.11217844  0.12539279 -0.12546059] */
           100,    112,    116, /* [-0.0924312  -0.02777856 -0.00476922] */
           108,    82,    72, /* [-0.05224165 -0.19538821 -0.25190622] */
           87,    104,    91, /* [-0.16391048 -0.07268269 -0.14316151] */
           132,    116,    56, /* [ 0.08461127 -0.00279719 -0.33912659] */
           116,    79,    107, /* [-0.00540627 -0.20916836 -0.05631363] */
           138,    110,    123, /* [ 0.11475165 -0.03734464  0.03456789] */
           130,    145,    98, /* [ 0.07300621  0.15659237 -0.10609662] */
           163,    146,    104, /* [ 0.25653079  0.16109703 -0.06943911] */
           141,    144,    68, /* [ 0.13303293  0.14907153 -0.26968217] */
           93,    140,    127, /* [-0.13541327  0.1277189   0.05599235] */
           134,    114,    151, /* [ 0.09682347 -0.01498372  0.18843094] */
           99,    141,    140, /* [-0.09788212  0.1334953   0.12724052] */
           98,    94,    144, /* [-0.10339307 -0.12668172  0.15065415] */
           125,    86,    153, /* [ 0.04287658 -0.1744175   0.19728415] */
           84,    115,    129, /* [-0.18071306 -0.00922279  0.06845173] */
           96,    145,    81, /* [-0.11664134  0.15373595 -0.19953705] */
           116,    69,    57, /* [-0.00514404 -0.26660267 -0.33008665] */
           142,    108,    117 /* [ 0.13794325 -0.05045725  0.00149209] */
        };
        static filter_t filter1 = { weights1, 105};  //-0.06449159979820251
        filters[1]=filter1;
            
        static const quant8 weights2[]={
           75,    137,    128, /* [-0.23276949  0.11302     0.06241523] */
           80,    139,    111, /* [-0.20619367  0.12261902 -0.03467472] */
           85,    125,    115, /* [-0.17556326  0.04501623 -0.01089136] */
           76,    83,    124, /* [-0.22743276 -0.19053605  0.0371078 ] */
           83,    78,    91, /* [-0.18764366 -0.21661738 -0.14608717] */
           91,    86,    74, /* [-0.14665547 -0.16950728 -0.24074322] */
           97,    144,    140, /* [-0.10982153  0.15178593  0.12950915] */
           99,    121,    98, /* [-0.09763778  0.02013966 -0.10706735] */
           77,    133,    86, /* [-0.22054066  0.08653527 -0.16991253] */
           115,    75,    130, /* [-0.0095204  -0.23145185  0.07348049] */
           143,    99,    94, /* [ 0.14283089 -0.09880285 -0.12600105] */
           99,    111,    120, /* [-0.09957127 -0.03401138  0.01415474] */
           82,    86,    81, /* [-0.19277433 -0.17243743 -0.19851342] */
           127,    113,    127, /* [ 0.05635669 -0.0239254   0.05607517] */
           84,    134,    102, /* [-0.18520397  0.09240542 -0.0827705 ] */
           84,    140,    86, /* [-0.18407273  0.12914334 -0.16911487] */
           105,    104,    125, /* [-0.06680515 -0.06966947  0.04221622] */
           114,    131,    143, /* [-0.01456446  0.07735239  0.14539868] */
           113,    141,    121, /* [-0.02346658  0.13437489  0.0236977 ] */
           124,    148,    123, /* [0.03668626 0.1707098  0.03245582] */
           151,    135,    100, /* [ 0.18783577  0.09957422 -0.09608099] */
           132,    107,    82, /* [ 0.08083367 -0.05482864 -0.19278847] */
           124,    95,    151, /* [ 0.04003337 -0.12469047  0.189871  ] */
           119,    86,    118, /* [ 0.01129318 -0.17028162  0.00790481] */
           81,    132,    113, /* [-0.19725128  0.0849246  -0.02169133] */
           93,    121,    139, /* [-0.13063593  0.01955704  0.11922197] */
           98,    121,    109, /* [-0.10769906  0.02427081 -0.04541162] */
           126,    96,    102, /* [ 0.05205559 -0.11783019 -0.08095016] */
           141,    111,    102, /* [ 0.13468418 -0.03535297 -0.08306899] */
           124,    114,    82, /* [ 0.04144673 -0.01416013 -0.1918055 ] */
           99,    118,    142, /* [-0.10235989  0.00582467  0.13771434] */
           80,    92,    133, /* [-0.20489353 -0.13847692  0.08917999] */
           129,    89,    86, /* [ 0.06894629 -0.15289044 -0.17278235] */
           138,    136,    129, /* [0.11437209 0.10429947 0.0678234 ] */
           122,    88,    82, /* [ 0.02531404 -0.15972739 -0.19369403] */
           90,    135,    137, /* [-0.15135382  0.10144036  0.11361764] */
           89,    113,    144, /* [-0.15741046 -0.02397884  0.15212786] */
           145,    103,    126, /* [ 0.15650451 -0.07968944  0.04987546] */
           95,    91,    85, /* [-0.12053641 -0.14576909 -0.17541765] */
           140,    80,    121, /* [ 0.12769307 -0.20291704  0.02249075] */
           75,    135,    73, /* [-0.23544781  0.10132074 -0.24545777] */
           147,    77,    136, /* [ 0.16698514 -0.22070642  0.10468511] */
           111,    81,    134, /* [-0.03320019 -0.19785798  0.09469511] */
           137,    121,    85, /* [ 0.10963735  0.02064139 -0.17494851] */
           126,    140,    103, /* [ 0.04989183  0.12582731 -0.07813781] */
           98,    135,    152, /* [-0.10460246  0.09913053  0.19255476] */
           117,    107,    112, /* [ 0.00117801 -0.05691722 -0.03031818] */
           133,    121,    135 /* [0.08607303 0.02035385 0.10057868] */
        };
        static filter_t filter2 = { weights2, 110};  //-0.04097394272685051
        filters[2]=filter2;
            
        static const quant8 weights3[]={
           137,    120,    127, /* [0.1131585  0.01777552 0.05538135] */
           131,    99,    135, /* [ 0.07875478 -0.10053339  0.09901283] */
           111,    121,    85, /* [-0.03262052  0.02128801 -0.18005426] */
           96,    83,    94, /* [-0.11824343 -0.1880814  -0.12648624] */
           113,    100,    141, /* [-0.0238405  -0.09677187  0.13406833] */
           98,    144,    150, /* [-0.10461076  0.14867549  0.18298449] */
           189,    165,    132, /* [0.39801517 0.26817164 0.082443  ] */
           140,    84,    73, /* [ 0.12609483 -0.18349071 -0.24498311] */
           77,    27,    67, /* [-0.22127612 -0.4984813  -0.27849951] */
           76,    113,    104, /* [-0.22754642 -0.02306296 -0.06941427] */
           90,    103,    115, /* [-0.14991701 -0.07539028 -0.01099152] */
           119,    178,    153, /* [0.00882272 0.33837801 0.19745086] */
           76,    149,    199, /* [-0.2246075   0.1777405   0.45389429] */
           87,    201,    175, /* [-0.16451432  0.46827161  0.31903443] */
           90,    136,    113, /* [-0.14833586  0.10775598 -0.02441824] */
           125,    69,    126, /* [ 0.0440077  -0.26590687  0.04808918] */
           85,    90,    149, /* [-0.17514844 -0.14986418  0.17868634] */
           121,    127,    151, /* [0.02318251 0.05773406 0.18568026] */
           88,    108,    85, /* [-0.15927227 -0.04789417 -0.17670164] */
           84,    103,    142, /* [-0.18067031 -0.07834975  0.13638662] */
           90,    145,    101, /* [-0.15045211  0.15350251 -0.08836757] */
           125,    146,    134, /* [0.04279346 0.1621636  0.09229048] */
           132,    95,    103, /* [ 0.08290879 -0.12440542 -0.08002087] */
           107,    96,    112, /* [-0.05689147 -0.11913438 -0.02590957] */
           108,    125,    96, /* [-0.04752714  0.04534504 -0.11748154] */
           137,    125,    117, /* [0.11086973 0.04411728 0.00249463] */
           112,    106,    100, /* [-0.02599502 -0.06225446 -0.09646299] */
           114,    131,    151, /* [-0.01919277  0.07901092  0.1883146 ] */
           131,    131,    99, /* [ 0.07542817  0.07519829 -0.09746915] */
           102,    125,    89, /* [-0.08248125  0.04449344 -0.15308087] */
           81,    92,    128, /* [-0.19894068 -0.13759169  0.06016319] */
           115,    148,    131, /* [-0.00841898  0.1726089   0.07897749] */
           146,    126,    105, /* [ 0.16107909  0.04984341 -0.0687812 ] */
           130,    127,    123, /* [0.07295462 0.05637447 0.03541771] */
           129,    143,    124, /* [0.06841197 0.14313412 0.03848505] */
           141,    86,    71, /* [ 0.13186152 -0.17110063 -0.25601372] */
           102,    48,    99, /* [-0.0854063  -0.38200796 -0.10192952] */
           115,    142,    132, /* [-0.01069274  0.13890953  0.08509452] */
           158,    124,    196, /* [0.22959466 0.04035583 0.43543342] */
           154,    110,    99, /* [ 0.20380425 -0.03976797 -0.09749937] */
           148,    122,    101, /* [ 0.17293201  0.02801793 -0.09109513] */
           107,    90,    138, /* [-0.05702482 -0.15074438  0.11626858] */
           88,    135,    120, /* [-0.16054597  0.10128354  0.01447862] */
           89,    94,    144, /* [-0.15632634 -0.12962516  0.14952004] */
           130,    87,    125, /* [ 0.07019606 -0.16776231  0.0464845 ] */
           41,    42,    85, /* [-0.41885522 -0.41396332 -0.17936873] */
           121,    127,    167, /* [0.0212191 0.0533093 0.2788088] */
           133,    152,    188 /* [0.09000615 0.19485587 0.39421612] */
        };
        static filter_t filter3 = { weights3, 118};  //0.003858628449961543
        filters[3]=filter3;
            
        static const quant8 weights4[]={
           126,    159,    132, /* [0.04781708 0.23549362 0.08446919] */
           163,    129,    135, /* [0.25561905 0.0690899  0.10146856] */
           87,    109,    111, /* [-0.16729617 -0.04512484 -0.03107479] */
           148,    85,    78, /* [ 0.17254227 -0.17853993 -0.21676418] */
           90,    138,    112, /* [-0.14833528  0.11749937 -0.02874988] */
           153,    141,    68, /* [ 0.20057556  0.13163689 -0.26896629] */
           111,    124,    101, /* [-0.03111387  0.03622369 -0.08984637] */
           169,    125,    96, /* [ 0.28903142  0.04268689 -0.11573421] */
           153,    96,    159, /* [ 0.2015831  -0.11476275  0.23379919] */
           174,    169,    126, /* [0.31387535 0.2859067  0.04751298] */
           153,    126,    152, /* [0.19836356 0.05128203 0.19435035] */
           124,    145,    158, /* [0.03707418 0.15716662 0.22943944] */
           110,    100,    130, /* [-0.04003639 -0.09482284  0.07220363] */
           121,    96,    166, /* [ 0.02014999 -0.11510086  0.27102861] */
           99,    162,    129, /* [-0.10170859  0.24914072  0.06565778] */
           59,    92,    144, /* [-0.32046247 -0.14108613  0.15113191] */
           87,    117,    78, /* [-0.16875322 -0.00103273 -0.21669416] */
           69,    112,    124, /* [-0.26709062 -0.02985867  0.03625273] */
           110,    93,    196, /* [-0.0370339  -0.13458139  0.43542671] */
           129,    135,    120, /* [0.06506614 0.09875855 0.01845426] */
           86,    110,    130, /* [-0.1710525  -0.03788328  0.0698952 ] */
           122,    106,    133, /* [ 0.02892647 -0.06278907  0.08940709] */
           92,    167,    138, /* [-0.13974065  0.27705878  0.11661262] */
           169,    131,    57, /* [ 0.28844607  0.07588217 -0.33024126] */
           112,    136,    139, /* [-0.02682546  0.1078055   0.12053929] */
           88,    110,    137, /* [-0.15798651 -0.03979381  0.11166217] */
           113,    137,    179, /* [-0.02444224  0.11260737  0.34154791] */
           114,    140,    133, /* [-0.01837848  0.12628838  0.09015245] */
           115,    139,    133, /* [-0.01229192  0.12379181  0.09044309] */
           135,    103,    124, /* [ 0.1012377  -0.07492091  0.03959116] */
           141,    83,    173, /* [ 0.1333742  -0.19044033  0.30927524] */
           61,    204,    155, /* [-0.3122184   0.48269817  0.20904234] */
           205,    190,    79, /* [ 0.48769775  0.40404233 -0.20811969] */
           132,    143,    102, /* [ 0.08437032  0.14317679 -0.08402666] */
           74,    81,    116, /* [-0.23590754 -0.20096697 -0.00381797] */
           98,    85,    94, /* [-0.10680573 -0.17961161 -0.1275322 ] */
           82,    223,    177, /* [-0.19422667  0.58833551  0.33146557] */
           158,    185,    90, /* [ 0.22621201  0.37557158 -0.1472525 ] */
           156,    157,    138, /* [0.21855065 0.22145832 0.11473591] */
           154,    104,    121, /* [ 0.20438747 -0.07436828  0.02316342] */
           76,    101,    91, /* [-0.22624925 -0.08809684 -0.14430057] */
           103,    103,    104, /* [-0.07774808 -0.07583692 -0.07352401] */
           95,    131,    84, /* [-0.12190218  0.0766544  -0.18079098] */
           139,    149,    150, /* [0.11934938 0.17750733 0.18359424] */
           123,    89,    111, /* [ 0.03584122 -0.15617995 -0.03198371] */
           180,    55,    69, /* [ 0.35021767 -0.34615329 -0.26659241] */
           91,    122,    113, /* [-0.14469369  0.02779855 -0.02069375] */
           101,    133,    93 /* [-0.08679168  0.09098787 -0.13079244] */
        };
        static filter_t filter4 = { weights4, 154};  //0.2049829363822937
        filters[4]=filter4;
            
        static const quant8 weights5[]={
           146,    96,    99, /* [ 0.16122562 -0.11874155 -0.09919366] */
           102,    139,    83, /* [-0.08241449  0.12305955 -0.18928955] */
           139,    146,    126, /* [0.12229583 0.16081862 0.05118227] */
           162,    93,    129, /* [ 0.25207701 -0.13068374  0.06567045] */
           142,    153,    88, /* [ 0.13732149  0.20124239 -0.16335115] */
           130,    123,    122, /* [0.07360704 0.03539364 0.0304349 ] */
           104,    97,    169, /* [-0.07248443 -0.11279596  0.28591701] */
           182,    69,    81, /* [ 0.36183304 -0.26860893 -0.19808637] */
           173,    123,    35, /* [ 0.31267008  0.03368381 -0.45654598] */
           96,    134,    119, /* [-0.11449167  0.09543812  0.01228501] */
           93,    161,    115, /* [-0.1326144   0.24515314 -0.00840507] */
           143,    103,    127, /* [ 0.14331885 -0.07923121  0.05753266] */
           113,    116,    101, /* [-0.02188734 -0.00532332 -0.08955446] */
           133,    131,    118, /* [0.09063538 0.07505166 0.00688357] */
           113,    149,    135, /* [-0.02312227  0.17610469  0.09878318] */
           93,    62,    161, /* [-0.13116358 -0.30643088  0.24609125] */
           113,    113,    42, /* [-0.01979033 -0.02447919 -0.41432333] */
           114,    142,    112, /* [-0.01708006  0.14089671 -0.0283014 ] */
           98,    115,    136, /* [-0.1027436  -0.01055484  0.10256124] */
           65,    96,    160, /* [-0.29096657 -0.11781573  0.23937845] */
           96,    68,    141, /* [-0.11591848 -0.27053899  0.13357086] */
           125,    157,    87, /* [ 0.04471381  0.22141983 -0.16750872] */
           117,    112,    155, /* [ 0.00257854 -0.03041801  0.21019702] */
           120,    109,    142, /* [ 0.01938982 -0.04342863  0.13604036] */
           89,    100,    123, /* [-0.15710603 -0.09353542  0.0308398 ] */
           121,    119,    94, /* [ 0.01986254  0.00973446 -0.12930198] */
           148,    114,    74, /* [ 0.1740692  -0.01697515 -0.23692757] */
           117,    102,    133, /* [-0.00031743 -0.08541565  0.08871444] */
           128,    61,    129, /* [ 0.06070244 -0.30998769  0.06763861] */
           91,    105,    65, /* [-0.14552166 -0.06792814 -0.28841907] */
           149,    167,    140, /* [0.17877205 0.27713001 0.12620769] */
           149,    144,    144, /* [0.1777491  0.14779891 0.14727098] */
           141,    166,    217, /* [0.13407409 0.27354822 0.55604631] */
           121,    114,    98, /* [ 0.02146981 -0.01469925 -0.10459884] */
           149,    81,    131, /* [ 0.17663927 -0.19782063  0.07802972] */
           157,    154,    101, /* [ 0.22347988  0.2069626  -0.09005044] */
           146,    75,    129, /* [ 0.16064037 -0.23124081  0.06693406] */
           99,    142,    107, /* [-0.09902503  0.13991268 -0.0527734 ] */
           109,    103,    148, /* [-0.04458982 -0.0754425   0.17026761] */
           101,    58,    159, /* [-0.08714529 -0.32950267  0.23485136] */
           100,    70,    27, /* [-0.09188515 -0.25846812 -0.50126296] */
           113,    89,    51, /* [-0.02418139 -0.15344326 -0.3650071 ] */
           150,    144,    79, /* [ 0.18101481  0.1494538  -0.20961721] */
           133,    134,    91, /* [ 0.0866195   0.09455236 -0.14614309] */
           135,    111,    147, /* [ 0.09808619 -0.03437988  0.16851546] */
           93,    75,    105, /* [-0.13257761 -0.23382497 -0.06830459] */
           137,    82,    78, /* [ 0.10984547 -0.19666132 -0.21764442] */
           144,    160,    88 /* [ 0.14862902  0.24025333 -0.16281699] */
        };
        static filter_t filter5 = { weights5, 173};  //0.3102567195892334
        filters[5]=filter5;
            
        static const quant8 weights6[]={
           133,    178,    106, /* [ 0.08628127  0.33925056 -0.06048736] */
           42,    125,    116, /* [-0.41372001  0.04245681 -0.00629757] */
           98,    83,    157, /* [-0.10382195 -0.1899191   0.22059807] */
           92,    102,    108, /* [-0.14045146 -0.08257139 -0.04782157] */
           27,    95,    124, /* [-0.49993756 -0.12045904  0.03841303] */
           114,    59,    125, /* [-0.0180806  -0.32145134  0.04515114] */
           158,    76,    160, /* [ 0.22530916 -0.22751214  0.23559482] */
           156,    115,    87, /* [ 0.21579075 -0.00890232 -0.16673665] */
           101,    144,    120, /* [-0.09079849  0.14856745  0.01486713] */
           85,    126,    124, /* [-0.17546326  0.0506353   0.03885353] */
           76,    100,    153, /* [-0.22682293 -0.09407506  0.20106305] */
           104,    67,    111, /* [-0.07424158 -0.27465394 -0.03131701] */
           67,    104,    124, /* [-0.2784802  -0.07436575  0.03807536] */
           123,    118,    116, /* [ 0.03458714  0.00364576 -0.00811397] */
           171,    126,    149, /* [0.29999754 0.05123204 0.17570791] */
           189,    140,    106, /* [ 0.39677122  0.1279033  -0.05973182] */
           119,    147,    162, /* [0.00938128 0.16699387 0.25049686] */
           95,    134,    208, /* [-0.12155852  0.09530108  0.50696397] */
           147,    119,    72, /* [ 0.1638274   0.00832174 -0.24665943] */
           118,    129,    135, /* [0.0041898  0.06739703 0.09857632] */
           96,    125,    140, /* [-0.1190195   0.04483921  0.12692584] */
           55,    137,    121, /* [-0.34453538  0.10906856  0.02019029] */
           63,    68,    121, /* [-0.30150482 -0.27013665  0.02153819] */
           125,    93,    88, /* [ 0.0418066  -0.13419992 -0.15917885] */
           102,    138,    141, /* [-0.08077914  0.11910171  0.13202263] */
           71,    109,    132, /* [-0.25304285 -0.04398712  0.08240618] */
           82,    118,    156, /* [-0.19345537  0.00312202  0.21365274] */
           136,    136,    112, /* [ 0.10588928  0.10519803 -0.02668827] */
           113,    150,    129, /* [-0.02080937  0.18278925  0.06534   ] */
           77,    132,    115, /* [-0.2236807   0.08048716 -0.00992326] */
           51,    66,    139, /* [-0.36781266 -0.28204581  0.12042657] */
           102,    55,    80, /* [-0.08084505 -0.34509504 -0.20603509] */
           104,    130,    125, /* [-0.07098429  0.07034399  0.04279485] */
           145,    165,    134, /* [0.15334405 0.26359206 0.09300447] */
           141,    104,    109, /* [ 0.13184988 -0.07365964 -0.04225286] */
           118,    103,    94, /* [ 0.004596   -0.08027218 -0.12474862] */
           112,    159,    154, /* [-0.02748759  0.23160188  0.20741093] */
           132,    111,    123, /* [ 0.08530562 -0.0331184   0.03106211] */
           147,    102,    126, /* [ 0.1659276  -0.08241948  0.05226763] */
           150,    116,    152, /* [ 0.18123227 -0.00568937  0.19153318] */
           181,    169,    147, /* [0.35436156 0.29004964 0.16854103] */
           167,    126,    151, /* [0.27732334 0.05133517 0.18681076] */
           120,    106,    118, /* [ 0.01584585 -0.06162414  0.00481471] */
           131,    93,    126, /* [ 0.07775921 -0.13139567  0.04854539] */
           148,    153,    113, /* [ 0.1722624   0.19761735 -0.02272359] */
           150,    101,    129, /* [ 0.1850135  -0.08972402  0.06560436] */
           175,    112,    93, /* [ 0.32094717 -0.0254547  -0.13329791] */
           117,    191,    136 /* [0.00068304 0.40899244 0.10352252] */
        };
        static filter_t filter6 = { weights6, 95};  //-0.12007144838571548
        filters[6]=filter6;
            
        static const quant8 weights7[]={
           128,    96,    146, /* [ 0.06076969 -0.11426456  0.16332097] */
           131,    91,    131, /* [ 0.0788523  -0.14445117  0.07717365] */
           105,    125,    105, /* [-0.06545884  0.04551122 -0.06908188] */
           97,    114,    123, /* [-0.11151997 -0.01866112  0.03435595] */
           100,    144,    121, /* [-0.09422465  0.15033928  0.02193952] */
           113,    116,    108, /* [-0.02238159 -0.00810805 -0.0487638 ] */
           46,    86,    99, /* [-0.39483553 -0.1703214  -0.09972357] */
           120,    142,    134, /* [0.01895126 0.13759124 0.09533731] */
           123,    133,    131, /* [0.0320936  0.08672259 0.07638425] */
           90,    123,    73, /* [-0.15006529  0.0338992  -0.24400467] */
           148,    88,    98, /* [ 0.17250827 -0.16238597 -0.10781515] */
           144,    134,    123, /* [0.14719599 0.09539448 0.03330921] */
           102,    83,    89, /* [-0.08234409 -0.1865169  -0.15575683] */
           113,    144,    97, /* [-0.01951398  0.15094259 -0.11323875] */
           135,    111,    124, /* [ 0.10140646 -0.0346952   0.03992908] */
           64,    77,    96, /* [-0.29616717 -0.22380956 -0.11412363] */
           87,    93,    152, /* [-0.16635123 -0.13551366  0.19257271] */
           117,    91,    123, /* [-0.00155663 -0.14398696  0.034275  ] */
           157,    96,    100, /* [ 0.22009307 -0.11844605 -0.09185293] */
           101,    118,    146, /* [-0.08759242  0.00506007  0.16156305] */
           148,    101,    106, /* [ 0.17251986 -0.09014227 -0.05949767] */
           124,    81,    89, /* [ 0.04061168 -0.19903661 -0.15248609] */
           115,    93,    106, /* [-0.01328545 -0.13332215 -0.06129245] */
           93,    147,    81, /* [-0.13345854  0.16502877 -0.19685274] */
           79,    121,    130, /* [-0.20954141  0.02448056  0.06951522] */
           125,    119,    128, /* [0.04662176 0.01225199 0.05998484] */
           133,    126,    90, /* [ 0.09104957  0.05232554 -0.14961743] */
           84,    74,    76, /* [-0.18159212 -0.2400597  -0.22928852] */
           120,    119,    103, /* [ 0.01396265  0.01135686 -0.07807809] */
           99,    96,    123, /* [-0.09740236 -0.11506981  0.03123473] */
           149,    150,    99, /* [ 0.17788436  0.18511137 -0.09822947] */
           150,    95,    147, /* [ 0.18139352 -0.12423781  0.16490014] */
           96,    115,    138, /* [-0.11494077 -0.01043015  0.11371105] */
           104,    102,    93, /* [-0.0730214  -0.08583907 -0.13096689] */
           141,    105,    118, /* [ 0.1309841  -0.06634352  0.00730553] */
           156,    115,    86, /* [ 0.21650134 -0.0115777  -0.17426689] */
           117,    102,    103, /* [ 0.0024782  -0.08071935 -0.07526675] */
           153,    140,    136, /* [0.19692893 0.12748893 0.10432191] */
           100,    99,    128, /* [-0.09543648 -0.0974305   0.06316077] */
           67,    102,    129, /* [-0.27602658 -0.08169464  0.06709981] */
           65,    139,    130, /* [-0.28789878  0.12386262  0.07177673] */
           103,    121,    85, /* [-0.07925808  0.02476119 -0.17974874] */
           113,    114,    106, /* [-0.02214882 -0.01759027 -0.06114627] */
           151,    143,    104, /* [ 0.18981795  0.14200029 -0.0732734 ] */
           85,    106,    97, /* [-0.17930099 -0.06002549 -0.10833799] */
           94,    79,    117, /* [-0.12695073 -0.21115236 -0.00257695] */
           133,    75,    98, /* [ 0.08884256 -0.23493607 -0.10288791] */
           109,    95,    120 /* [-0.0468648  -0.12240677  0.01394768] */
        };
        static filter_t filter7 = { weights7, 122};  //0.029536135494709015
        filters[7]=filter7;
            
        static const quant8 weights8[]={
           71,    88,    83, /* [-0.25540543 -0.16103318 -0.18585835] */
           127,    158,    128, /* [0.05268874 0.22834265 0.05908271] */
           110,    138,    155, /* [-0.0371544   0.11730171  0.21053414] */
           143,    136,    138, /* [0.14204642 0.10367621 0.11678384] */
           111,    175,    126, /* [-0.0314252   0.32003173  0.04779174] */
           96,    89,    88, /* [-0.1139785  -0.15473761 -0.16255654] */
           71,    120,    142, /* [-0.25684312  0.0156823   0.14105074] */
           124,    140,    142, /* [0.04055182 0.1288242  0.13735294] */
           103,    123,    158, /* [-0.07993831  0.03417144  0.22597794] */
           49,    67,    100, /* [-0.37780547 -0.27661651 -0.0960351 ] */
           101,    77,    105, /* [-0.09072012 -0.21923555 -0.06794276] */
           130,    116,    98, /* [ 0.07051574 -0.0034487  -0.10642415] */
           177,    138,    119, /* [0.3320969  0.11866261 0.009389  ] */
           169,    114,    115, /* [ 0.29062212 -0.01847228 -0.00915458] */
           137,    92,    47, /* [ 0.10818943 -0.1379845  -0.38592657] */
           112,    109,    112, /* [-0.02695205 -0.04681553 -0.0263209 ] */
           107,    115,    101, /* [-0.05634112 -0.01353868 -0.09101991] */
           109,    136,    89, /* [-0.044435    0.10276997 -0.15336165] */
           119,    174,    225, /* [0.01204199 0.31795478 0.6010285 ] */
           155,    149,    121, /* [0.21114928 0.1760397  0.02477278] */
           153,    160,    195, /* [0.20095517 0.23852979 0.43467444] */
           105,    115,    138, /* [-0.06615443 -0.0118033   0.11376622] */
           101,    127,    97, /* [-0.08714685  0.05744362 -0.11216187] */
           173,    151,    169, /* [0.31043229 0.18712386 0.29078838] */
           100,    81,    121, /* [-0.09406381 -0.20114106  0.02334684] */
           99,    73,    129, /* [-0.10016283 -0.24127828  0.06628421] */
           111,    135,    116, /* [-0.03067985  0.10119823 -0.00350432] */
           124,    158,    115, /* [ 0.04035969  0.22595015 -0.00989862] */
           114,    125,    198, /* [-0.01617135  0.04628891  0.45050976] */
           153,    129,    176, /* [0.19710025 0.06699247 0.32484144] */
           94,    67,    87, /* [-0.12598908 -0.27738157 -0.16878383] */
           118,    141,    149, /* [0.00298651 0.13179213 0.17470348] */
           146,    131,    100, /* [ 0.1626453   0.07694872 -0.09405093] */
           71,    155,    181, /* [-0.2534405   0.20951518  0.35650229] */
           84,    106,    167, /* [-0.18295135 -0.05829923  0.2767739 ] */
           104,    127,    159, /* [-0.07419712  0.05818792  0.23136245] */
           113,    91,    62, /* [-0.02481616 -0.14659929 -0.30208251] */
           86,    98,    132, /* [-0.17346153 -0.10290913  0.08480652] */
           86,    186,    207, /* [-0.17356622  0.38074601  0.49850643] */
           87,    110,    123, /* [-0.16699091 -0.04038104  0.03389674] */
           147,    162,    125, /* [0.16692983 0.25109389 0.04313891] */
           106,    109,    112, /* [-0.06098029 -0.04233336 -0.02923482] */
           134,    108,    92, /* [ 0.09621697 -0.05222041 -0.13787325] */
           83,    96,    101, /* [-0.18624809 -0.11538368 -0.08958096] */
           100,    146,    93, /* [-0.09332374  0.15969856 -0.13058212] */
           164,    140,    97, /* [ 0.26015991  0.12678377 -0.11243566] */
           144,    130,    85, /* [ 0.14818797  0.07289515 -0.17572209] */
           90,    64,    113 /* [-0.14987378 -0.29581869 -0.02144875] */
        };
        static filter_t filter8 = { weights8, 168};  //0.2808105945587158
        filters[8]=filter8;
            
        static const quant8 weights9[]={
           110,    116,    118, /* [-0.03714033 -0.00326993  0.00434747] */
           129,    113,    154, /* [ 0.06412562 -0.0207725   0.20425782] */
           133,    103,    128, /* [ 0.09085057 -0.07696391  0.05901915] */
           168,    152,    145, /* [0.28082255 0.19222644 0.15412231] */
           129,    125,    145, /* [0.06441789 0.04210512 0.15377381] */
           150,    161,    113, /* [ 0.18540233  0.24499781 -0.02179384] */
           128,    112,    118, /* [ 0.05872717 -0.02535004  0.00609331] */
           118,    163,    152, /* [0.00507427 0.25438914 0.19161327] */
           181,    176,    142, /* [0.3521376  0.32878035 0.13899113] */
           147,    166,    168, /* [0.16783857 0.27302688 0.28352165] */
           161,    134,    129, /* [0.24342182 0.09291995 0.06725717] */
           103,    132,    134, /* [-0.07600989  0.08181264  0.09594561] */
           114,    113,    94, /* [-0.01579867 -0.02203129 -0.12922332] */
           89,    126,    129, /* [-0.15705058  0.05161083  0.06384551] */
           107,    102,    118, /* [-0.05680637 -0.08084767  0.00295608] */
           134,    132,    107, /* [ 0.0938006   0.08099    -0.05711927] */
           125,    111,    90, /* [ 0.04449532 -0.03293764 -0.14924788] */
           95,    111,    91, /* [-0.12203579 -0.03226984 -0.14596954] */
           148,    149,    163, /* [0.17201367 0.17961721 0.25579029] */
           120,    106,    109, /* [ 0.01859732 -0.06008373 -0.04159848] */
           133,    73,    79, /* [ 0.08646467 -0.24255872 -0.20788909] */
           135,    94,    56, /* [ 0.10210157 -0.12677693 -0.33674076] */
           71,    76,    112, /* [-0.25522211 -0.22907415 -0.02584983] */
           81,    73,    62, /* [-0.20051129 -0.24496847 -0.3052963 ] */
           114,    119,    121, /* [-0.01838692  0.00956841  0.02056325] */
           108,    82,    68, /* [-0.05017045 -0.19422981 -0.27414769] */
           56,    109,    92, /* [-0.33797637 -0.04504931 -0.13974874] */
           161,    126,    114, /* [ 0.24224785  0.04872715 -0.01712107] */
           134,    149,    80, /* [ 0.09346683  0.17804025 -0.2043066 ] */
           111,    125,    101, /* [-0.03535065  0.04610271 -0.09076395] */
           76,    145,    125, /* [-0.22836113  0.15747264  0.04193267] */
           106,    132,    115, /* [-0.06249838  0.08270606 -0.01012192] */
           119,    80,    109, /* [ 0.01355306 -0.20265722 -0.0438958 ] */
           184,    144,    160, /* [0.37019858 0.14978616 0.23899229] */
           146,    179,    121, /* [0.15855016 0.34580293 0.01978092] */
           213,    213,    191, /* [0.52990431 0.53282565 0.40748131] */
           95,    104,    132, /* [-0.11991116 -0.07346582  0.0811011 ] */
           90,    155,    152, /* [-0.14894103  0.2088622   0.19370936] */
           119,    165,    108, /* [ 0.01056443  0.26714581 -0.05102408] */
           85,    147,    150, /* [-0.17680286  0.1635607   0.18543305] */
           63,    123,    103, /* [-0.30094665  0.03302715 -0.07715668] */
           131,    72,    94, /* [ 0.07716715 -0.24793568 -0.12779756] */
           104,    135,    86, /* [-0.07441565  0.1005684  -0.17347796] */
           103,    113,    99, /* [-0.08019348 -0.02409361 -0.0976865 ] */
           82,    151,    119, /* [-0.19121774  0.18651795  0.01294953] */
           114,    169,    125, /* [-0.0144104   0.28864151  0.04302999] */
           163,    142,    126, /* [0.25312883 0.13642441 0.05152348] */
           88,    95,    149 /* [-0.16044909 -0.12228829  0.17946465] */
        };
        static filter_t filter9 = { weights9, 113};  //-0.02127525582909584
        filters[9]=filter9;
            
        static const quant8 weights10[]={
           140,    90,    120, /* [ 0.1248472  -0.14825708  0.01400938] */
           87,    128,    124, /* [-0.16895956  0.06362462  0.03638867] */
           102,    97,    97, /* [-0.08481251 -0.10948753 -0.11193563] */
           158,    119,    119, /* [0.22502802 0.00858304 0.0106775 ] */
           90,    126,    146, /* [-0.14744115  0.0514398   0.15933546] */
           136,    133,    87, /* [ 0.10713394  0.09070329 -0.16733482] */
           140,    125,    88, /* [ 0.1255337   0.04304355 -0.16185094] */
           113,    87,    120, /* [-0.02330458 -0.16724072  0.01777632] */
           118,    72,    114, /* [ 0.00649986 -0.25099498 -0.01927245] */
           102,    65,    91, /* [-0.08450917 -0.28749496 -0.14203687] */
           144,    132,    114, /* [ 0.14710407  0.08563907 -0.01408105] */
           77,    110,    110, /* [-0.22031692 -0.03779973 -0.03824371] */
           113,    141,    152, /* [-0.01940483  0.1316788   0.1915638 ] */
           109,    95,    148, /* [-0.0467834  -0.11928447  0.17099522] */
           132,    97,    108, /* [ 0.08152056 -0.11166879 -0.04803341] */
           104,    130,    68, /* [-0.07218024  0.07253908 -0.27234626] */
           96,    114,    109, /* [-0.11601168 -0.01856304 -0.04266262] */
           110,    102,    118, /* [-0.03638968 -0.08482111  0.00479118] */
           93,    138,    123, /* [-0.1320577   0.11617137  0.03250483] */
           99,    135,    119, /* [-0.09705879  0.09944982  0.01287027] */
           125,    98,    115, /* [ 0.04286353 -0.10391622 -0.01295996] */
           129,    110,    156, /* [ 0.06412532 -0.0368647   0.21377717] */
           150,    93,    120, /* [ 0.18183292 -0.13197644  0.01642533] */
           130,    73,    143, /* [ 0.0712574  -0.24554136  0.14569528] */
           133,    89,    80, /* [ 0.08998745 -0.15589631 -0.20262679] */
           137,    111,    108, /* [ 0.1100508  -0.03140666 -0.04990971] */
           103,    126,    131, /* [-0.07795674  0.04971828  0.07667108] */
           76,    86,    101, /* [-0.22511549 -0.17373542 -0.08999792] */
           98,    118,    121, /* [-0.10671896  0.00824855  0.02397146] */
           89,    143,    90, /* [-0.15711954  0.14338213 -0.14842536] */
           72,    124,    130, /* [-0.24709716  0.03671314  0.07119247] */
           92,    112,    115, /* [-0.13609704 -0.02916645 -0.00955588] */
           123,    98,    114, /* [ 0.03181049 -0.1053834  -0.01650964] */
           126,    136,    75, /* [ 0.05158088  0.10327003 -0.23499534] */
           91,    101,    63, /* [-0.14370783 -0.08600849 -0.30167013] */
           110,    95,    75, /* [-0.0378589  -0.11996286 -0.23503695] */
           122,    107,    82, /* [ 0.02636118 -0.05741169 -0.19272606] */
           96,    108,    115, /* [-0.11671928 -0.05009608 -0.01131226] */
           105,    141,    126, /* [-0.06862923  0.13264236  0.04737461] */
           91,    79,    104, /* [-0.14444807 -0.2123782  -0.0697905 ] */
           118,    140,    97, /* [ 0.00635184  0.1252688  -0.11157106] */
           101,    165,    109, /* [-0.09132905  0.26640424 -0.042349  ] */
           105,    133,    102, /* [-0.06918971  0.08816156 -0.08559141] */
           95,    84,    99, /* [-0.12324863 -0.18219486 -0.09795765] */
           105,    122,    111, /* [-0.06863514  0.02880477 -0.03515638] */
           110,    139,    105, /* [-0.04075488  0.12300343 -0.06583256] */
           91,    99,    98, /* [-0.14443436 -0.09931462 -0.1027111 ] */
           70,    130,    153 /* [-0.26170027  0.06987736  0.20129837] */
        };
        static filter_t filter10 = { weights10, 119};  //0.013848595321178436
        filters[10]=filter10;
            
        static const quant8 weights11[]={
           107,    156,    119, /* [-0.05669213  0.21423325  0.00991235] */
           151,    155,    71, /* [ 0.18826301  0.20993435 -0.25381985] */
           126,    26,    102, /* [ 0.05221497 -0.50444305 -0.08544594] */
           119,    118,    101, /* [ 0.01065565  0.00328437 -0.09090184] */
           167,    28,    161, /* [ 0.27503535 -0.49148545  0.2436704 ] */
           62,    132,    140, /* [-0.30681488  0.08165313  0.12930909] */
           168,    102,    132, /* [ 0.28534901 -0.08433175  0.08463136] */
           69,    88,    160, /* [-0.26432452 -0.16047524  0.2383766 ] */
           145,    115,    70, /* [ 0.15751645 -0.00834004 -0.26090121] */
           127,    155,    135, /* [0.0531018  0.20906717 0.09740551] */
           170,    125,    80, /* [ 0.29359707  0.04321698 -0.20355408] */
           92,    63,    102, /* [-0.13887402 -0.30131805 -0.08193641] */
           113,    137,    98, /* [-0.02087896  0.11178078 -0.10342116] */
           138,    117,    81, /* [ 0.11533441  0.00166894 -0.1983832 ] */
           124,    122,    56, /* [ 0.03648881  0.02584152 -0.34060103] */
           94,    65,    93, /* [-0.1297189  -0.29047227 -0.13342766] */
           82,    136,    170, /* [-0.19289108  0.10452989  0.29230717] */
           151,    147,    135, /* [0.18857051 0.16772737 0.09873199] */
           85,    95,    116, /* [-0.17692643 -0.12279823 -0.00544606] */
           113,    153,    110, /* [-0.02299708  0.20163387 -0.03695781] */
           138,    133,    63, /* [ 0.1181259   0.09081277 -0.30109832] */
           131,    141,    113, /* [ 0.07574082  0.13542601 -0.01980556] */
           120,    89,    116, /* [ 0.01444287 -0.15385534 -0.00596407] */
           95,    97,    136, /* [-0.11998729 -0.11040197  0.10432769] */
           192,    126,    109, /* [ 0.41640422  0.04923306 -0.04592269] */
           138,    61,    93, /* [ 0.11566618 -0.31154498 -0.13522387] */
           120,    84,    125, /* [ 0.01834581 -0.18224894  0.0416254 ] */
           115,    147,    92, /* [-0.01292095  0.1646625  -0.13875744] */
           117,    110,    102, /* [-0.00157341 -0.04113777 -0.08493192] */
           120,    110,    101, /* [ 0.01864239 -0.03637635 -0.08869671] */
           79,    165,    84, /* [-0.20968184  0.26387072 -0.18228297] */
           181,    90,    147, /* [ 0.35525751 -0.1471391   0.16584358] */
           116,    107,    55, /* [-0.00332692 -0.05453541 -0.34178609] */
           111,    108,    103, /* [-0.03583265 -0.05183998 -0.07495491] */
           123,    115,    143, /* [ 0.03441577 -0.01203893  0.14585446] */
           132,    128,    107, /* [ 0.08450163  0.06197917 -0.05295413] */
           121,    104,    106, /* [ 0.01985227 -0.0742609  -0.06371021] */
           73,    103,    154, /* [-0.24488096 -0.07971573  0.20425586] */
           108,    117,    84, /* [-0.05200616  0.00130583 -0.18030557] */
           129,    99,    82, /* [ 0.06699044 -0.09895236 -0.1954674 ] */
           78,    91,    173, /* [-0.21801792 -0.14246427  0.31015626] */
           96,    141,    135, /* [-0.11791511  0.1323646   0.10161094] */
           103,    132,    108, /* [-0.0763388   0.08196447 -0.04903352] */
           92,    139,    121, /* [-0.14130236  0.12201671  0.02322911] */
           107,    96,    82, /* [-0.05519378 -0.11466979 -0.19351713] */
           111,    195,    84, /* [-0.03248882  0.43170601 -0.18016464] */
           175,    62,    54, /* [ 0.32144609 -0.30504006 -0.34770605] */
           72,    97,    197 /* [-0.25215825 -0.10892554  0.44454059] */
        };
        static filter_t filter11 = { weights11, 140};  //0.12798865139484406
        filters[11]=filter11;
            
        static const quant8 weights12[]={
           99,    87,    72, /* [-0.09768098 -0.16394041 -0.2493118 ] */
           80,    86,    142, /* [-0.20705132 -0.17083097  0.14050661] */
           133,    145,    112, /* [ 0.0859485   0.15567449 -0.02537774] */
           120,    120,    121, /* [0.0153411  0.01807526 0.02319853] */
           113,    162,    116, /* [-0.0230187   0.24682097 -0.00579374] */
           126,    91,    162, /* [ 0.05136983 -0.14561287  0.25137725] */
           121,    158,    132, /* [0.01944887 0.22502984 0.082463  ] */
           80,    78,    167, /* [-0.20733687 -0.21774529  0.27625641] */
           102,    108,    123, /* [-0.08566385 -0.048733    0.03296804] */
           137,    62,    53, /* [ 0.10836858 -0.30637079 -0.35369918] */
           89,    76,    138, /* [-0.15599439 -0.22837391  0.11761487] */
           71,    133,    100, /* [-0.25770512  0.08817452 -0.09470303] */
           182,    115,    120, /* [ 0.35838526 -0.01345755  0.01432247] */
           187,    114,    103, /* [ 0.38738278 -0.01652416 -0.07993086] */
           120,    121,    86, /* [ 0.01589099  0.01957772 -0.17353109] */
           118,    165,    174, /* [0.00817916 0.26418909 0.31692201] */
           131,    115,    93, /* [ 0.07591236 -0.01322158 -0.13370588] */
           127,    90,    110, /* [ 0.05577786 -0.14810875 -0.03871511] */
           146,    146,    131, /* [0.1595626  0.15994322 0.07801789] */
           140,    95,    107, /* [ 0.1290957  -0.12176938 -0.05389277] */
           89,    152,    121, /* [-0.15791444  0.19184308  0.02148676] */
           116,    149,    151, /* [-0.00801325  0.17684001  0.18795924] */
           92,    149,    136, /* [-0.13730821  0.17669833  0.10516176] */
           91,    125,    126, /* [-0.14340457  0.04182845  0.04899056] */
           115,    74,    150, /* [-0.01248683 -0.23893699  0.18489562] */
           75,    100,    111, /* [-0.23356183 -0.09635479 -0.0309097 ] */
           145,    0,    103, /* [ 0.15533766 -0.64695269 -0.07679135] */
           151,    138,    147, /* [0.18652019 0.11498582 0.16366266] */
           126,    120,    142, /* [0.04968349 0.01848215 0.14125586] */
           82,    85,    134, /* [-0.19303092 -0.1774471   0.09237247] */
           135,    169,    110, /* [ 0.10095359  0.28562811 -0.03673489] */
           69,    104,    126, /* [-0.26598927 -0.07320707  0.04982515] */
           98,    96,    142, /* [-0.10622723 -0.11858466  0.13714027] */
           135,    63,    102, /* [ 0.10182422 -0.30077541 -0.08438415] */
           118,    92,    98, /* [ 0.00449877 -0.1371451  -0.10739197] */
           147,    90,    84, /* [ 0.16666059 -0.15231022 -0.1805966 ] */
           153,    116,    148, /* [ 0.2004182  -0.00451403  0.17268357] */
           123,    146,    85, /* [ 0.03331796  0.161833   -0.1749703 ] */
           101,    85,    57, /* [-0.08863643 -0.17471898 -0.33136794] */
           106,    129,    146, /* [-0.06071101  0.06927011  0.15989502] */
           91,    121,    110, /* [-0.14619498  0.02409914 -0.03793172] */
           140,    121,    119, /* [0.12659214 0.02046476 0.00937882] */
           124,    136,    82, /* [ 0.03638281  0.10473833 -0.19176199] */
           108,    110,    144, /* [-0.04829213 -0.03928985  0.14975336] */
           130,    143,    148, /* [0.06984001 0.14199756 0.17028707] */
           115,    168,    92, /* [-0.0093638   0.28241965 -0.13852885] */
           104,    98,    74, /* [-0.07471897 -0.10681255 -0.23735122] */
           143,    78,    88 /* [ 0.14500399 -0.21556658 -0.16091348] */
        };
        static filter_t filter12 = { weights12, 120};  //0.015715591609477997
        filters[12]=filter12;
            
        static const quant8 weights13[]={
           160,    39,    153, /* [ 0.23575829 -0.43259895  0.20103024] */
           179,    26,    159, /* [ 0.34581685 -0.5062291   0.23528402] */
           135,    31,    165, /* [ 0.0985167  -0.47685778  0.26471058] */
           138,    135,    114, /* [ 0.11675767  0.10072098 -0.01772862] */
           98,    157,    56, /* [-0.10788841  0.22332881 -0.33720022] */
           121,    168,    46, /* [ 0.0224253   0.2849865  -0.39525956] */
           122,    103,    114, /* [ 0.02534578 -0.07959601 -0.01820645] */
           152,    84,    132, /* [ 0.19646929 -0.18033299  0.08409719] */
           139,    83,    140, /* [ 0.12262101 -0.18921496  0.12495541] */
           154,    107,    124, /* [ 0.2068536  -0.05292439  0.03770502] */
           119,    95,    102, /* [ 0.01158155 -0.12289286 -0.08508856] */
           171,    97,    110, /* [ 0.29669744 -0.11314898 -0.03842176] */
           144,    92,    135, /* [ 0.14760815 -0.1410501   0.09834922] */
           138,    86,    108, /* [ 0.11531506 -0.17418979 -0.05248015] */
           130,    106,    129, /* [ 0.07172564 -0.06185585  0.06633941] */
           105,    86,    157, /* [-0.0652969  -0.17402403  0.22296941] */
           82,    103,    150, /* [-0.19132017 -0.07904853  0.18166244] */
           96,    111,    166, /* [-0.11434392 -0.03265638  0.2702508 ] */
           134,    59,    130, /* [ 0.09649902 -0.32204056  0.07132681] */
           126,    35,    129, /* [ 0.05025817 -0.45429742  0.06823753] */
           125,    88,    108, /* [ 0.04688109 -0.16009827 -0.04729845] */
           139,    96,    114, /* [ 0.12169699 -0.11427744 -0.01397597] */
           158,    79,    94, /* [ 0.22971939 -0.2133556  -0.12668943] */
           159,    114,    79, /* [ 0.23198862 -0.01654488 -0.21206488] */
           107,    129,    130, /* [-0.05531212  0.06597675  0.07194246] */
           85,    96,    135, /* [-0.17569606 -0.11636025  0.10151862] */
           102,    130,    126, /* [-0.08347072  0.07371169  0.05091283] */
           137,    88,    109, /* [ 0.11235421 -0.15926142 -0.04331853] */
           124,    69,    111, /* [ 0.03644233 -0.26492393 -0.03532267] */
           123,    84,    130, /* [ 0.03380719 -0.18165588  0.07212427] */
           137,    105,    95, /* [ 0.10944469 -0.06857684 -0.12317482] */
           124,    88,    115, /* [ 0.04026961 -0.16134836 -0.0123137 ] */
           153,    84,    118, /* [ 0.19958396 -0.18275702  0.0064141 ] */
           127,    123,    103, /* [ 0.05307063  0.03596053 -0.07710841] */
           110,    106,    139, /* [-0.03759957 -0.05953399  0.12094467] */
           110,    104,    138, /* [-0.038043   -0.07297596  0.11564241] */
           108,    97,    135, /* [-0.05223118 -0.11346027  0.09973369] */
           83,    134,    124, /* [-0.18954922  0.0963897   0.0392323 ] */
           72,    122,    138, /* [-0.2474674   0.02664293  0.11582033] */
           82,    142,    120, /* [-0.19140863  0.13905315  0.01850003] */
           73,    141,    117, /* [-0.24446681  0.1308029   0.00122184] */
           114,    189,    88, /* [-0.01879155  0.39660347 -0.16227265] */
           82,    121,    94, /* [-0.19319101  0.01978029 -0.12749325] */
           121,    111,    104, /* [ 0.02339186 -0.03153692 -0.07061824] */
           108,    98,    134, /* [-0.05046845 -0.10516879  0.09153749] */
           135,    50,    174, /* [ 0.09731733 -0.37363911  0.31792811] */
           155,    41,    165, /* [ 0.21193111 -0.42219681  0.26371893] */
           134,    37,    167 /* [ 0.09259353 -0.44486329  0.2751177 ] */
        };
        static filter_t filter13 = { weights13, 116};  //-0.00774453254416585
        filters[13]=filter13;
            
        static const quant8 weights14[]={
           118,    114,    160, /* [ 0.00450592 -0.01389013  0.24023308] */
           144,    106,    99, /* [ 0.1478208  -0.06231318 -0.09972353] */
           54,    138,    72, /* [-0.34939703  0.11700727 -0.24875574] */
           105,    83,    126, /* [-0.06730434 -0.18850945  0.04960968] */
           103,    106,    85, /* [-0.07601485 -0.06089157 -0.17555782] */
           107,    153,    182, /* [-0.0540087   0.20226336  0.359193  ] */
           107,    151,    115, /* [-0.05602827  0.19011775 -0.00946818] */
           101,    26,    136, /* [-0.08603456 -0.50564432  0.10372104] */
           155,    140,    90, /* [ 0.20898503  0.12584369 -0.14695661] */
           105,    98,    121, /* [-0.0677442  -0.1062867   0.01984876] */
           78,    99,    34, /* [-0.21805699 -0.09916855 -0.46012834] */
           145,    173,    169, /* [0.15502024 0.31210175 0.28612649] */
           125,    89,    126, /* [ 0.04373948 -0.15285581  0.04912055] */
           133,    127,    98, /* [ 0.08903348  0.05358082 -0.10308719] */
           79,    111,    105, /* [-0.20950899 -0.03531659 -0.06545334] */
           106,    88,    159, /* [-0.05889329 -0.16004331  0.23536964] */
           141,    41,    73, /* [ 0.13434954 -0.41944623 -0.24192946] */
           100,    149,    90, /* [-0.09365602  0.17706883 -0.147622  ] */
           87,    99,    141, /* [-0.16395657 -0.10071677  0.13215151] */
           145,    71,    99, /* [ 0.15513577 -0.25281572 -0.10242528] */
           142,    152,    155, /* [0.13844432 0.19458762 0.21292454] */
           139,    121,    74, /* [ 0.12055951  0.02245476 -0.23893529] */
           127,    137,    161, /* [0.05636302 0.11194016 0.24290462] */
           72,    75,    102, /* [-0.25113219 -0.2316453  -0.08377174] */
           103,    125,    103, /* [-0.07988811  0.0445064  -0.07651515] */
           143,    110,    125, /* [ 0.14544897 -0.0383263   0.04610381] */
           133,    100,    124, /* [ 0.0891887  -0.09601197  0.03654074] */
           135,    143,    123, /* [0.10162484 0.14664562 0.0349957 ] */
           116,    72,    118, /* [-0.00600124 -0.25080383  0.00403864] */
           104,    153,    131, /* [-0.07011944  0.20111956  0.07579566] */
           60,    82,    76, /* [-0.31627205 -0.19270772 -0.2290538 ] */
           116,    105,    114, /* [-0.00397168 -0.06547042 -0.01606191] */
           91,    59,    64, /* [-0.14176552 -0.31914207 -0.29423463] */
           95,    137,    102, /* [-0.12198317  0.10846739 -0.08227278] */
           86,    135,    113, /* [-0.17452633  0.09742232 -0.0223811 ] */
           161,    98,    80, /* [ 0.24344763 -0.10303552 -0.20623459] */
           83,    102,    137, /* [-0.19019215 -0.08589233  0.11360875] */
           150,    155,    90, /* [ 0.18485841  0.21142076 -0.14967483] */
           109,    137,    156, /* [-0.04228977  0.10956228  0.21761106] */
           108,    128,    135, /* [-0.04729909  0.06205233  0.09919599] */
           142,    118,    84, /* [ 0.13922435  0.00354195 -0.18470147] */
           118,    176,    162, /* [0.00502285 0.32853946 0.24973825] */
           94,    97,    102, /* [-0.12683839 -0.11162911 -0.08539463] */
           125,    119,    96, /* [ 0.04374296  0.01281951 -0.11825781] */
           85,    142,    86, /* [-0.17712276  0.13872585 -0.17232908] */
           132,    130,    113, /* [ 0.08327813  0.07016692 -0.02360198] */
           72,    106,    171, /* [-0.24676648 -0.06144354  0.29831737] */
           144,    103,    100 /* [ 0.15162066 -0.07976759 -0.09209388] */
        };
        static filter_t filter14 = { weights14, 136};  //0.1055746078491211
        filters[14]=filter14;
            
        static const quant8 weights15[]={
           93,    120,    118, /* [-0.13203964  0.01390485  0.00286371] */
           118,    118,    106, /* [ 0.00758549  0.00317745 -0.05843867] */
           158,    131,    103, /* [ 0.22477844  0.07624916 -0.07828971] */
           110,    107,    161, /* [-0.03697799 -0.05430998  0.2457872 ] */
           93,    118,    132, /* [-0.13067955  0.0037583   0.08449705] */
           109,    79,    91, /* [-0.04158406 -0.21084291 -0.1451112 ] */
           88,    86,    89, /* [-0.1593359  -0.17452151 -0.15539812] */
           94,    64,    122, /* [-0.12829857 -0.29498801  0.02592246] */
           144,    133,    128, /* [0.14896446 0.08688838 0.0600058 ] */
           135,    96,    135, /* [ 0.09839781 -0.1149903   0.10236488] */
           129,    133,    116, /* [ 0.06540982  0.08968426 -0.00592755] */
           97,    143,    203, /* [-0.10880025  0.14411835  0.47525573] */
           126,    183,    119, /* [0.04994395 0.36578983 0.01074409] */
           94,    136,    96, /* [-0.12505654  0.10802571 -0.117492  ] */
           62,    141,    159, /* [-0.30645576  0.13128081  0.23303683] */
           181,    155,    175, /* [0.35553315 0.21005443 0.32014775] */
           106,    160,    202, /* [-0.06364826  0.23801714  0.47224197] */
           109,    54,    152, /* [-0.04201619 -0.35055253  0.19188783] */
           255,    201,    130, /* [0.76637596 0.4636175  0.07369329] */
           174,    223,    201, /* [0.31698689 0.58904219 0.46445897] */
           92,    160,    235, /* [-0.13738382  0.23726825  0.65500891] */
           152,    80,    94, /* [ 0.19431296 -0.20416538 -0.12619413] */
           152,    125,    119, /* [0.19380361 0.04198503 0.01247316] */
           150,    162,    99, /* [ 0.18124606  0.25017431 -0.10203555] */
           151,    172,    186, /* [0.1865723  0.30756918 0.38374206] */
           84,    128,    123, /* [-0.18143947  0.05984115  0.03169116] */
           58,    76,    78, /* [-0.32716674 -0.22797801 -0.21457654] */
           142,    125,    123, /* [0.13795137 0.0436527  0.03145146] */
           122,    117,    122, /* [ 0.02838643 -0.00185345  0.02976683] */
           178,    167,    170, /* [0.33955097 0.27869663 0.29435179] */
           89,    95,    85, /* [-0.15296368 -0.12160333 -0.17704573] */
           111,    75,    122, /* [-0.035347   -0.23311426  0.02806641] */
           112,    124,    121, /* [-0.02533357  0.03682442  0.02214766] */
           132,    87,    118, /* [ 0.08358186 -0.16841443  0.00402597] */
           133,    129,    84, /* [ 0.09086943  0.06866363 -0.18021204] */
           158,    121,    137, /* [0.22645339 0.02319101 0.11119146] */
           113,    97,    118, /* [-0.0219478  -0.11067678  0.00602893] */
           132,    125,    80, /* [ 0.08551326  0.04646134 -0.20720746] */
           128,    114,    104, /* [ 0.06302024 -0.01679569 -0.07176817] */
           108,    106,    133, /* [-0.05086285 -0.06020197  0.0866749 ] */
           98,    113,    96, /* [-0.10265192 -0.02130427 -0.11647317] */
           144,    108,    70, /* [ 0.14699319 -0.05248177 -0.25858855] */
           149,    90,    122, /* [ 0.1774856  -0.14947189  0.02582102] */
           141,    126,    87, /* [ 0.13570996  0.0476314  -0.1659787 ] */
           125,    101,    91, /* [ 0.04418083 -0.08832712 -0.14293697] */
           70,    91,    132, /* [-0.26255497 -0.14280243  0.08230586] */
           113,    101,    115, /* [-0.02409663 -0.08847456 -0.01123946] */
           106,    89,    131 /* [-0.06171121 -0.15592916  0.07540468] */
        };
        static filter_t filter15 = { weights15, 134};  //0.0927768424153328
        filters[15]=filter15;
            
        conv2d_layer_t layer = {16, filters, 16, { 3, 3 }, 0, {1, 1},{ 0.005542465284758923, 117 } };
        return layer;
}
        
batch_normalization_layer_t init_batch_normalization_4_data(void){

    static const quant8 inv_gamma_dev[] ={
    71, 51, 24, 64, 32, 51, 29, 180, 46, 25, 226, 63, 65, 52, 58, 33
    };
    static const quant8 std_beta[] ={
    214, 131, 230, 200, 37, 165, 129, 255, 58, 0, 207, 196, 222, 202, 187, 102
    };

    static const batch_normalization_layer_t norm = { 16, inv_gamma_dev, std_beta , { 0.10716339587910975, 0 }, { 0.011543750761216366, 230 } };
    return norm;
}


conv2d_layer_t init_conv2d_6_data(void){

        static filter_t filters[32];
        
        static const quant8 weights0[]={
           184,    164,    182, /* [ 0.08724635 -0.06026764  0.07337853] */
           153,    147,    167, /* [-0.14039825 -0.18639141 -0.03510167] */
           186,    178,    168, /* [ 0.10597572  0.04743588 -0.03015483] */
           156,    141,    189, /* [-0.11941475 -0.23475103  0.12746555] */
           111,    123,    177, /* [-0.45957619 -0.37028998  0.03581762] */
           115,    171,    208, /* [-0.43414465 -0.0063845   0.27060807] */
           179,    162,    184, /* [ 0.05649488 -0.07286269  0.09022815] */
           188,    165,    154, /* [ 0.12434615 -0.05679221 -0.13457616] */
           184,    156,    163, /* [ 0.09117351 -0.11922653 -0.06839692] */
           181,    171,    177, /* [ 0.07014848 -0.00860522  0.03968602] */
           123,    139,    190, /* [-0.37460384 -0.24678698  0.13720782] */
           117,    162,    197, /* [-0.41974959 -0.07951947  0.19064784] */
           225,    185,    185, /* [0.39878166 0.09543616 0.10091329] */
           198,    145,    205, /* [ 0.1986628  -0.20262048  0.24619253] */
           157,    170,    198, /* [-0.11565624 -0.01805376  0.19866869] */
           169,    169,    184, /* [-0.02411553 -0.0253277   0.08962196] */
           176,    177,    172, /* [ 0.02823043  0.04105477 -0.00175588] */
           212,    189,    178, /* [0.30179554 0.12981422 0.04490445] */
           162,    173,    187, /* [-0.07369189  0.01058869  0.11696503] */
           189,    198,    191, /* [0.12738159 0.19800985 0.14338669] */
           216,    233,    186, /* [0.33679786 0.46054873 0.10690346] */
           144,    172,    184, /* [-0.21544552 -0.00257528  0.09429313] */
           145,    191,    158, /* [-0.20270309  0.14417771 -0.10757978] */
           178,    190,    185, /* [0.04781581 0.13700889 0.09605101] */
           144,    193,    203, /* [-0.21126507  0.16276173  0.23132883] */
           149,    156,    171, /* [-0.17470184 -0.12389906 -0.00440138] */
           195,    166,    192, /* [ 0.17403847 -0.04533435  0.15257186] */
           123,    156,    150, /* [-0.37077343 -0.12360112 -0.16441117] */
           129,    150,    181, /* [-0.32453665 -0.16724578  0.06918629] */
           195,    191,    195, /* [0.17786025 0.142051   0.1775092 ] */
           168,    158,    178, /* [-0.03169494 -0.1024731   0.04879637] */
           181,    190,    158, /* [ 0.06445824  0.13820663 -0.10507058] */
           181,    177,    176, /* [0.07124179 0.03798835 0.03157197] */
           207,    188,    158, /* [ 0.26675612  0.12468575 -0.10908751] */
           170,    161,    166, /* [-0.01395119 -0.08237129 -0.0435407 ] */
           169,    183,    193, /* [-0.02170252  0.08631818  0.15587755] */
           158,    177,    173, /* [-0.10459431  0.03651812  0.00926888] */
           136,    130,    186, /* [-0.27051318 -0.31708294  0.10282569] */
           158,    138,    169, /* [-0.10488152 -0.25513583 -0.02028599] */
           179,    177,    172, /* [0.05287806 0.03844144 0.0009381 ] */
           172,    178,    175, /* [0.00119648 0.04498757 0.02072898] */
           171,    179,    161, /* [-0.00456943  0.0495651  -0.08213451] */
           122,    133,    158, /* [-0.37573734 -0.2948471  -0.10906815] */
           126,    103,    155, /* [-0.3481479  -0.51979023 -0.13219708] */
           161,    149,    153, /* [-0.08281796 -0.1753073  -0.14389959] */
           171,    168,    189, /* [-0.00389716 -0.03122059  0.13101636] */
           158,    137,    161, /* [-0.10933205 -0.26255909 -0.08439273] */
           180,    160,    166 /* [ 0.05685014 -0.08922748 -0.04760127] */
        };
        static filter_t filter0 = { weights0, 180};  //0.06426296383142471
        filters[0]=filter0;
            
        static const quant8 weights1[]={
           163,    152,    171, /* [-0.06498618 -0.14909342 -0.00616519] */
           215,    177,    191, /* [0.32429197 0.04033642 0.14101769] */
           188,    191,    173, /* [0.12386814 0.14413655 0.00413539] */
           162,    132,    200, /* [-0.07440551 -0.30573201  0.2101519 ] */
           189,    180,    174, /* [0.12671323 0.0584321  0.01836614] */
           173,    180,    164, /* [ 0.00554873  0.05886739 -0.06212126] */
           159,    168,    168, /* [-0.0961687  -0.02997871 -0.0271478 ] */
           166,    201,    161, /* [-0.04430179  0.22302674 -0.08216913] */
           159,    183,    157, /* [-0.09873657  0.08262801 -0.11614379] */
           216,    173,    169, /* [ 0.33665895  0.00772627 -0.01999965] */
           164,    193,    171, /* [-0.06189943  0.15590711 -0.00424938] */
           159,    177,    159, /* [-0.10138787  0.03504705 -0.10021315] */
           169,    151,    159, /* [-0.02443221 -0.1584273  -0.09871458] */
           204,    159,    142, /* [ 0.24259514 -0.10221247 -0.22950082] */
           198,    166,    175, /* [ 0.19337186 -0.0425821   0.02424337] */
           168,    203,    190, /* [-0.02858565  0.23428932  0.14007251] */
           139,    176,    200, /* [-0.24929366  0.0283599   0.21150054] */
           146,    151,    181, /* [-0.19656482 -0.16084905  0.07140788] */
           119,    162,    224, /* [-0.40022051 -0.07886225  0.39618114] */
           161,    176,    206, /* [-0.0828988   0.02867152  0.26069096] */
           170,    193,    157, /* [-0.01787602  0.16212893 -0.11373158] */
           170,    161,    202, /* [-0.01396762 -0.08013345  0.22345981] */
           209,    147,    215, /* [ 0.28116336 -0.19201592  0.32465523] */
           152,    157,    174, /* [-0.14915273 -0.11676691  0.01715005] */
           238,    192,    176, /* [0.49896958 0.14797063 0.02996281] */
           210,    188,    123, /* [ 0.28983608  0.11874636 -0.36814517] */
           140,    129,    138, /* [-0.24086425 -0.32800999 -0.25413737] */
           181,    166,    169, /* [ 0.06811655 -0.04256841 -0.02218308] */
           201,    169,    169, /* [ 0.22057979 -0.02055665 -0.02198105] */
           156,    158,    158, /* [-0.12411758 -0.1040866  -0.10745436] */
           184,    193,    167, /* [ 0.09441338  0.15606105 -0.04041476] */
           175,    212,    193, /* [0.01915546 0.30538785 0.16145854] */
           170,    182,    209, /* [-0.01745974  0.07815936  0.28127444] */
           196,    163,    167, /* [ 0.17962392 -0.06454407 -0.04044448] */
           130,    126,    161, /* [-0.32073921 -0.35154685 -0.08240247] */
           155,    160,    164, /* [-0.12753341 -0.08879395 -0.05748108] */
           163,    135,    132, /* [-0.071525   -0.28355074 -0.30220237] */
           172,    168,    151, /* [ 0.00302063 -0.0322715  -0.16168973] */
           159,    158,    148, /* [-0.09671804 -0.10610748 -0.18059471] */
           144,    150,    177, /* [-0.21456504 -0.16843383  0.0359253 ] */
           172,    171,    179, /* [ 0.00251314 -0.00477054  0.05486275] */
           175,    183,    185, /* [0.02501257 0.08412941 0.10076042] */
           211,    255,    173, /* [0.29278189 0.62770069 0.00391595] */
           157,    144,    141, /* [-0.1163205  -0.2152961  -0.23112525] */
           167,    139,    128, /* [-0.03484245 -0.25355843 -0.33378574] */
           176,    173,    181, /* [0.03364054 0.0050153  0.06940524] */
           134,    171,    190, /* [-0.28657845 -0.00385149  0.13726929] */
           199,    192,    179 /* [0.20154506 0.15376371 0.05389   ] */
        };
        static filter_t filter1 = { weights1, 152};  //-0.14825627207756042
        filters[1]=filter1;
            
        static const quant8 weights2[]={
           155,    144,    181, /* [-0.1300554  -0.21056692  0.06454972] */
           137,    136,    178, /* [-0.26832032 -0.27058223  0.04802878] */
           143,    153,    170, /* [-0.21667098 -0.14747705 -0.01336631] */
           158,    187,    192, /* [-0.10640597  0.10985592  0.15028085] */
           179,    206,    181, /* [0.05085635 0.25698534 0.0700933 ] */
           167,    162,    153, /* [-0.03728351 -0.07251503 -0.14292142] */
           166,    154,    174, /* [-0.04710386 -0.13854818  0.01892107] */
           169,    173,    170, /* [-0.02461345  0.00490906 -0.01633742] */
           141,    181,    185, /* [-0.2377746   0.06695725  0.09585507] */
           184,    184,    175, /* [0.08826192 0.08759407 0.02241289] */
           169,    166,    166, /* [-0.02468687 -0.04345398 -0.04373613] */
           176,    173,    193, /* [0.02701021 0.00757863 0.16091919] */
           176,    168,    172, /* [ 0.03317647 -0.02993761 -0.00275849] */
           160,    136,    161, /* [-0.09105705 -0.27212527 -0.08640023] */
           187,    170,    202, /* [ 0.11062513 -0.01488061  0.22601499] */
           180,    207,    171, /* [ 0.05715009  0.26422584 -0.00565884] */
           187,    203,    155, /* [ 0.11302989  0.23388161 -0.12811214] */
           192,    210,    156, /* [ 0.15114829  0.28486472 -0.11830056] */
           193,    202,    158, /* [ 0.16283041  0.22565264 -0.10540997] */
           179,    175,    137, /* [ 0.04942033  0.01996568 -0.26520619] */
           184,    185,    180, /* [0.09350253 0.10159327 0.05914319] */
           200,    171,    167, /* [ 0.21396744 -0.00757797 -0.03468897] */
           176,    169,    189, /* [ 0.03255779 -0.02232803  0.12822244] */
           183,    191,    190, /* [0.08271624 0.14352196 0.13530691] */
           161,    133,    148, /* [-0.08011511 -0.29227379 -0.17812569] */
           157,    136,    183, /* [-0.11161251 -0.27034584  0.08428084] */
           161,    146,    188, /* [-0.07997037 -0.20020357  0.12344931] */
           204,    205,    189, /* [0.24400006 0.25175944 0.12992495] */
           182,    153,    164, /* [ 0.07417734 -0.14178999 -0.06155703] */
           126,    133,    126, /* [-0.34808195 -0.29597065 -0.35012996] */
           145,    187,    139, /* [-0.20094733  0.11308689 -0.25286523] */
           142,    139,    148, /* [-0.22891192 -0.24893229 -0.1807328 ] */
           178,    169,    168, /* [ 0.04478603 -0.02622837 -0.03313643] */
           174,    155,    153, /* [ 0.01338543 -0.13215494 -0.14431711] */
           168,    150,    150, /* [-0.03333962 -0.16489179 -0.16582416] */
           176,    166,    163, /* [ 0.03084939 -0.04775699 -0.06717319] */
           167,    187,    182, /* [-0.0343454   0.11703359  0.07812915] */
           159,    170,    185, /* [-0.10183983 -0.01266194  0.10058358] */
           166,    173,    188, /* [-0.04404126  0.00660019  0.11779865] */
           215,    213,    194, /* [0.32541102 0.30964357 0.16652428] */
           197,    197,    180, /* [0.18701968 0.19207011 0.06055899] */
           213,    204,    182, /* [0.31029877 0.24006061 0.07849015] */
           150,    118,    171, /* [-0.16421315 -0.40575403 -0.01061855] */
           126,    125,    202, /* [-0.34694415 -0.3538678   0.22564203] */
           144,    133,    191, /* [-0.21357024 -0.29733029  0.14353906] */
           143,    139,    154, /* [-0.21786225 -0.24741152 -0.1362741 ] */
           114,    138,    191, /* [-0.44153059 -0.2555196   0.1464718 ] */
           145,    170,    198 /* [-0.2014107  -0.01845578  0.19684801] */
        };
        static filter_t filter2 = { weights2, 222};  //0.3792271316051483
        filters[2]=filter2;
            
        static const quant8 weights3[]={
           144,    170,    144, /* [-0.2130499  -0.01274486 -0.20869161] */
           153,    124,    148, /* [-0.14527102 -0.36594862 -0.18414816] */
           141,    132,    169, /* [-0.2384008  -0.30196065 -0.02542763] */
           208,    175,    130, /* [ 0.27510467  0.02311333 -0.3173683 ] */
           178,    138,    161, /* [ 0.0444049  -0.25693479 -0.08670448] */
           152,    164,    168, /* [-0.15305375 -0.05914826 -0.02919718] */
           175,    176,    178, /* [0.01908583 0.02809427 0.04750696] */
           173,    176,    175, /* [0.00532665 0.02753321 0.02080654] */
           184,    174,    151, /* [ 0.08974922  0.01693102 -0.1556713 ] */
           178,    214,    207, /* [0.04589309 0.32014757 0.26400495] */
           204,    189,    178, /* [0.24382558 0.13135269 0.04212969] */
           207,    172,    163, /* [ 0.26157901 -0.00123687 -0.06719175] */
           244,    175,    192, /* [0.54397416 0.0238845  0.15029731] */
           209,    178,    175, /* [0.27963293 0.04645508 0.02148411] */
           186,    191,    172, /* [ 0.10707451  0.14231117 -0.00020475] */
           164,    166,    142, /* [-0.05804387 -0.04480299 -0.23070522] */
           147,    151,    168, /* [-0.19253284 -0.1619878  -0.02654864] */
           153,    177,    174, /* [-0.14691572  0.04000544  0.01245656] */
           138,    129,    132, /* [-0.25973585 -0.32213148 -0.30321592] */
           133,    126,    164, /* [-0.29327622 -0.34766299 -0.05744566] */
           160,    154,    193, /* [-0.08817441 -0.13597116  0.15911007] */
           188,    195,    162, /* [ 0.12481353  0.17095986 -0.07731766] */
           197,    190,    197, /* [0.18872207 0.13467659 0.19089651] */
           194,    197,    178, /* [0.1674514  0.19274318 0.04441364] */
           189,    190,    181, /* [0.12677068 0.13753696 0.06442506] */
           189,    193,    162, /* [ 0.12678394  0.16265841 -0.07286558] */
           195,    186,    150, /* [ 0.17487529  0.10724754 -0.16678414] */
           198,    169,    155, /* [ 0.19831026 -0.0237769  -0.12994608] */
           189,    157,    146, /* [ 0.13040385 -0.11086397 -0.19640781] */
           194,    174,    185, /* [0.16524209 0.01755935 0.10108618] */
           183,    186,    152, /* [ 0.08275907  0.10360046 -0.14945279] */
           195,    181,    175, /* [0.17081712 0.06617347 0.02129288] */
           157,    203,    211, /* [-0.11291978  0.23716173  0.29759508] */
           181,    214,    214, /* [0.06951951 0.31811759 0.31616819] */
           216,    200,    192, /* [0.33398354 0.21129081 0.1548543 ] */
           211,    183,    177, /* [0.29525509 0.08515187 0.04144954] */
           199,    171,    167, /* [ 0.20704584 -0.00684396 -0.03582765] */
           185,    156,    157, /* [ 0.10069107 -0.12367468 -0.11136881] */
           173,    172,    187, /* [0.01106938 0.00044682 0.1135769 ] */
           166,    156,    148, /* [-0.04427111 -0.12204069 -0.17827053] */
           163,    165,    183, /* [-0.06888749 -0.04960554  0.08446566] */
           174,    179,    172, /* [ 0.01150071  0.05087361 -0.00038905] */
           145,    135,    162, /* [-0.20665574 -0.27912852 -0.07666423] */
           121,    129,    144, /* [-0.38311255 -0.32598519 -0.21388237] */
           127,    148,    161, /* [-0.3373726  -0.18058251 -0.08571693] */
           180,    165,    156, /* [ 0.06022369 -0.05630271 -0.12155146] */
           158,    124,    154, /* [-0.10692208 -0.36722592 -0.13598932] */
           135,    154,    145 /* [-0.28299138 -0.137982   -0.20166491] */
        };
        static filter_t filter3 = { weights3, 197};  //0.19240029156208038
        filters[3]=filter3;
            
        static const quant8 weights4[]={
           147,    141,    138, /* [-0.18891788 -0.23673269 -0.25852445] */
           142,    138,    136, /* [-0.22729288 -0.25561684 -0.27014738] */
           178,    150,    149, /* [ 0.0483281  -0.16350976 -0.1708885 ] */
           178,    180,    206, /* [0.04323662 0.05748748 0.25787014] */
           134,    181,    186, /* [-0.28757584  0.07116247  0.10718405] */
           78,    107,    129, /* [-0.70961678 -0.49165258 -0.32824793] */
           162,    170,    142, /* [-0.07683679 -0.01262198 -0.23028834] */
           184,    139,    153, /* [ 0.08918248 -0.25051388 -0.14698938] */
           172,    176,    191, /* [-0.00142995  0.02718851  0.14741799] */
           154,    173,    171, /* [-0.13896696  0.01101274 -0.00915302] */
           124,    121,    145, /* [-0.36564493 -0.38293386 -0.20653012] */
           130,    141,    134, /* [-0.3174597  -0.23514991 -0.28608757] */
           175,    170,    171, /* [ 0.02208363 -0.013669   -0.0098243 ] */
           140,    141,    158, /* [-0.24430959 -0.23777254 -0.10825179] */
           130,    165,    160, /* [-0.31545115 -0.05239708 -0.08937959] */
           156,    159,    182, /* [-0.12386451 -0.09634422  0.0767446 ] */
           182,    189,    182, /* [0.07748107 0.13195314 0.07312057] */
           187,    160,    173, /* [ 0.11473444 -0.0940007   0.00901673] */
           172,    157,    201, /* [ 0.00269556 -0.11175518  0.22291771] */
           184,    162,    191, /* [ 0.08875336 -0.0758533   0.14734836] */
           200,    182,    171, /* [ 0.21452636  0.07460412 -0.0068473 ] */
           172,    182,    177, /* [-0.00054336  0.07667926  0.03504554] */
           177,    171,    183, /* [ 0.03460121 -0.00619059  0.08568371] */
           189,    187,    149, /* [ 0.12802757  0.11687845 -0.17459761] */
           210,    190,    175, /* [0.289754   0.13726237 0.02470328] */
           183,    185,    169, /* [ 0.08532475  0.10008252 -0.02119809] */
           183,    174,    145, /* [ 0.08591368  0.01359597 -0.20249461] */
           172,    179,    178, /* [0.00180886 0.05139942 0.04256102] */
           168,    176,    146, /* [-0.03396184  0.02675829 -0.19742772] */
           144,    154,    127, /* [-0.20924006 -0.13603339 -0.3403112 ] */
           169,    167,    178, /* [-0.024929   -0.03904232  0.0481712 ] */
           206,    153,    181, /* [ 0.25818297 -0.14042394  0.06549616] */
           159,    200,    170, /* [-0.09703276  0.21533607 -0.01833925] */
           178,    170,    180, /* [ 0.04625995 -0.01460738  0.05828934] */
           209,    189,    187, /* [0.28369397 0.12817279 0.11633724] */
           186,    196,    222, /* [0.10348891 0.18516323 0.37503427] */
           150,    160,    181, /* [-0.16369121 -0.09188928  0.06687486] */
