#include <stdlib.h>
#include <stdio.h>
#include <math.h>
#include "../embedia/fixed8/embedia.h"
#include "../embedia/fixed8/fixed.h"
#include "../embedia/debug/embedia_debug.h"

dense_layer_t init_dense_7_data(void){

    static neuron_t neurons[50];

    /* [-0.1246186  -0.03306372 -0.12953684 -0.20508766  0.11591156  0.22799112
 -0.00128733 -0.12022157 -0.20730577 -0.24115096  0.20446576  0.04042955
  0.23691677  0.10175444  0.23901393 -0.20755433 -0.10971464 -0.1050971
  0.23623358  0.18313952 -0.06033349 -0.12060993 -0.06422518  0.13604464
 -0.19456293 -0.11057505 -0.14216073 -0.17339693  0.10635926  0.08131383
  0.23959856  0.17232968  0.1758727   0.2236187  -0.06879613  0.08754499
  0.14222373 -0.15504806  0.16410275  0.05417196 -0.00287808 -0.02094822
 -0.17699014 -0.05258037 -0.22920306 -0.18480141 -0.2016091   0.0354283
 -0.12648612 -0.08455412] -0.006290886085480452*/
    static const fixed weights0[] ={
    -1, 0, -1, -2, 1, 2, 0, -1, -2, -2, 2, 0, 2, 1, 2, -2, -1, -1, 2, 1, 0, -1, -1, 
    1, -2, -1, -1, -1, 1, 1, 2, 1, 1, 2, -1, 1, 1, -1, 1, 0, 0, 0, -1, 0, -2, -1, -2, 
    0, -1, -1
    };
    
    static const neuron_t neuron0 = {weights0, 0  };
    neurons[0]=neuron0;

    /* [ 0.08475544  0.22730516  0.19461958  0.18668951  0.17050944  0.0319273
  0.22324966 -0.09889288  0.21997719 -0.18377882  0.21472017  0.24377857
  0.19284461 -0.2404265  -0.11294805 -0.06044382 -0.18159313  0.15670429
 -0.16752197  0.11861695  0.19618373 -0.15530899  0.15489827 -0.18790388
  0.21453942  0.02079011  0.05244099 -0.02739544  0.23242395 -0.09793033
 -0.04742713 -0.22336751  0.18160833 -0.02506854  0.20248435 -0.22424434
 -0.19523016  0.09041537  0.1251737   0.13822244 -0.02941774  0.09292062
  0.18316527 -0.20410286  0.1449254  -0.06915686 -0.01487494 -0.1968587
 -0.2345353   0.1023597 ] 0.020273257046937943*/
    static const fixed weights1[] ={
    1, 2, 2, 1, 1, 0, 2, -1, 2, -1, 2, 2, 2, -2, -1, 0, -1, 1, -1, 1, 2, -1, 1, -2, 
    2, 0, 0, 0, 2, -1, 0, -2, 1, 0, 2, -2, -2, 1, 1, 1, 0, 1, 1, -2, 1, -1, 0, -2, -2, 
    1
    };
    
    static const neuron_t neuron1 = {weights1, 0  };
    neurons[1]=neuron1;

    /* [ 0.12259151  0.2259873   0.10805608  0.07353227  0.11630549 -0.16095035
  0.19362028  0.06298132 -0.03137544 -0.08330014  0.0425636   0.02622353
 -0.16026789  0.02149083 -0.0459847   0.0224532   0.11182459 -0.21638365
 -0.17430845 -0.2119531  -0.11519067  0.11995195  0.06835736  0.05183543
  0.0004098   0.14248566  0.22221212  0.13146915  0.21064617 -0.07816009
 -0.06713358 -0.19326638 -0.20126975 -0.01629218 -0.09141903  0.23654889
  0.22437696 -0.19756062 -0.22440219  0.12970166  0.20642562 -0.02604826
 -0.00724491  0.19814779  0.11554827  0.18860228  0.03239165 -0.2302424
  0.19904073 -0.12731758] 0.04110529646277428*/
    static const fixed weights2[] ={
    1, 2, 1, 1, 1, -1, 2, 1, 0, -1, 0, 0, -1, 0, 0, 0, 1, -2, -1, -2, -1, 1, 1, 0, 0, 
    1, 2, 1, 2, -1, -1, -2, -2, 0, -1, 2, 2, -2, -2, 1, 2, 0, 0, 2, 1, 2, 0, -2, 2, 
    -1
    };
    
    static const neuron_t neuron2 = {weights2, 0  };
    neurons[2]=neuron2;

    /* [ 0.08412142 -0.06352304  0.12375726 -0.10173856  0.11399089 -0.19497313
 -0.11595443  0.08226828 -0.06942217  0.24314703  0.1918772  -0.18328962
  0.22439991 -0.10657416  0.01651715  0.09873863 -0.16327333  0.11556776
  0.08303659  0.10407014  0.18085839 -0.16762312 -0.1605575  -0.1644191
  0.01279955 -0.00397     0.1779622  -0.01614916 -0.055279    0.08340393
  0.10163833 -0.13067174  0.20752887 -0.12875363 -0.0837246   0.00346957
  0.15094022  0.01211102 -0.18900888 -0.16487223 -0.06258699  0.17470445
 -0.18007302 -0.11082414  0.17227857  0.11285804  0.16483264 -0.13963461
 -0.12412874  0.17203502] -0.05637095123529434*/
    static const fixed weights3[] ={
    1, -1, 1, -1, 1, -2, -1, 1, -1, 2, 2, -1, 2, -1, 0, 1, -1, 1, 1, 1, 1, -1, -1, -1, 
    0, 0, 1, 0, 0, 1, 1, -1, 2, -1, -1, 0, 1, 0, -2, -1, -1, 1, -1, -1, 1, 1, 1, -1, 
    -1, 1
    };
    
    static const neuron_t neuron3 = {weights3, 0  };
    neurons[3]=neuron3;

    /* [ 0.06983753 -0.16548672  0.11299615 -0.20247361  0.23658423 -0.23960696
 -0.00392807 -0.08797416  0.19271801  0.10836612 -0.11292672  0.07455702
  0.04390021 -0.1739348  -0.14732817 -0.1607192  -0.0893186  -0.18334632
 -0.10477351 -0.12332988 -0.01718168  0.12329863  0.06656335 -0.00534113
 -0.17470376  0.11443789  0.05621324 -0.09982225 -0.02776209 -0.09048678
 -0.02121463  0.0322779  -0.21778607 -0.15530723 -0.20890361 -0.0166162
 -0.16720158  0.22192542 -0.04115668  0.05205904 -0.2221637  -0.12413247
  0.11833905  0.09121387 -0.22648884 -0.07000378 -0.11415605  0.19420622
  0.07409041  0.099364  ] 0.027421025559306145*/
    static const fixed weights4[] ={
    1, -1, 1, -2, 2, -2, 0, -1, 2, 1, -1, 1, 0, -1, -1, -1, -1, -1, -1, -1, 0, 1, 1, 
    0, -1, 1, 0, -1, 0, -1, 0, 0, -2, -1, -2, 0, -1, 2, 0, 0, -2, -1, 1, 1, -2, -1, 
    -1, 2, 1, 1
    };
    
    static const neuron_t neuron4 = {weights4, 0  };
    neurons[4]=neuron4;

    /* [ 0.06697385  0.23937045 -0.1598057   0.07986726  0.20718096 -0.22756791
  0.23440443  0.13641746 -0.17144011 -0.24318399 -0.19741298 -0.06091429
 -0.05779086  0.19898622  0.0906447   0.13552587 -0.18334796  0.12697376
 -0.17854942  0.06291066  0.02009089  0.19744433  0.06750102 -0.16139472
  0.07221927 -0.13299356  0.22657605  0.01157139  0.17602502  0.21786673
  0.2253231  -0.06969216 -0.14813964 -0.06112535  0.05421214  0.02745484
 -0.1091686   0.19350348  0.11801846  0.08932374 -0.12434867 -0.19515792
 -0.22118533 -0.05078796  0.24176596  0.08574404  0.0836954  -0.01032513
  0.23184837 -0.17530242] 0.015757037326693535*/
    static const fixed weights5[] ={
    1, 2, -1, 1, 2, -2, 2, 1, -1, -2, -2, 0, 0, 2, 1, 1, -1, 1, -1, 1, 0, 2, 1, -1, 
    1, -1, 2, 0, 1, 2, 2, -1, -1, 0, 0, 0, -1, 2, 1, 1, -1, -2, -2, 0, 2, 1, 1, 0, 2, 
    -1
    };
    
    static const neuron_t neuron5 = {weights5, 0  };
    neurons[5]=neuron5;

    /* [-0.0766633  -0.23545937 -0.08220625  0.03669973 -0.16736925 -0.04425406
  0.20077871  0.02623911  0.08784293 -0.03019983  0.18782113  0.04880001
  0.19605978 -0.01865454  0.09444757 -0.09197588 -0.18672068 -0.10883127
  0.08999552 -0.10778743 -0.05981928  0.21496095  0.24096389 -0.11813317
 -0.1528278   0.14330916  0.02735107 -0.19355698  0.1858962   0.22728957
 -0.14462382  0.10462435 -0.1379503   0.13271154 -0.03587086 -0.07314485
  0.02270736  0.19671877 -0.14875525 -0.2315549   0.22415797 -0.16417411
  0.0989597   0.21669404 -0.07126389  0.12744446 -0.19116963 -0.19711012
 -0.00833677  0.22759448] 0.010187683627009392*/
    static const fixed weights6[] ={
    -1, -2, -1, 0, -1, 0, 2, 0, 1, 0, 2, 0, 2, 0, 1, -1, -1, -1, 1, -1, 0, 2, 2, -1, 
    -1, 1, 0, -2, 1, 2, -1, 1, -1, 1, 0, -1, 0, 2, -1, -2, 2, -1, 1, 2, -1, 1, -2, -2, 
    0, 2
    };
    
    static const neuron_t neuron6 = {weights6, 0  };
    neurons[6]=neuron6;

    /* [ 2.00720772e-01 -2.38278419e-01 -4.23933715e-02 -2.23703206e-01
 -5.88588417e-03  1.83422402e-01  3.28940898e-02  1.75689980e-01
 -1.75714433e-01  2.42184713e-01  3.76518518e-02 -1.62407756e-04
  2.40111545e-01  7.12733418e-02  2.23205283e-01  6.14325255e-02
  1.01877436e-01 -1.82584837e-01  2.38986418e-01 -1.46720678e-01
  2.04464957e-01  1.88550785e-01 -7.64331967e-02  1.49096698e-02
  3.60471010e-03  1.82090595e-01  2.75239795e-02  1.46883622e-01
  2.87968665e-02 -9.00418907e-02 -9.45311785e-02 -1.80569500e-01
  1.00086406e-01  1.46419510e-01  4.29299921e-02  2.43865415e-01
  1.78063229e-01 -1.19279578e-01 -3.16489786e-02 -1.41636938e-01
 -1.84768483e-01  1.84526995e-01 -2.24723518e-01  1.61198840e-01
 -7.53566474e-02 -2.00035274e-02  2.09503487e-01  6.32762909e-04
  1.48495659e-01 -1.83858186e-01] 0.04509330168366432*/
    static const fixed weights7[] ={
    2, -2, 0, -2, 0, 1, 0, 1, -1, 2, 0, 0, 2, 1, 2, 0, 1, -1, 2, -1, 2, 2, -1, 0, 0, 
    1, 0, 1, 0, -1, -1, -1, 1, 1, 0, 2, 1, -1, 0, -1, -1, 1, -2, 1, -1, 0, 2, 0, 1, 
    -1
    };
    
    static const neuron_t neuron7 = {weights7, 0  };
    neurons[7]=neuron7;

    /* [-0.20315176 -0.16245311 -0.22686979  0.02859072 -0.07086524 -0.04697026
  0.21177275 -0.02168266  0.21646856  0.01149739  0.2136337  -0.00264898
  0.15959732  0.15476196 -0.03048851  0.18753748  0.00937916  0.16699894
 -0.17590529  0.05482353 -0.16199431 -0.0053128  -0.05396937  0.01895891
  0.11262847  0.10046174  0.08563937 -0.0837753  -0.1201929  -0.10837348
  0.1651734   0.15164278  0.0178109   0.08809219 -0.04908185 -0.04040296
  0.22738422  0.03662743  0.12881823 -0.14462411 -0.18017003  0.2292972
 -0.07414886 -0.17647475 -0.10087347 -0.11257206  0.23678984  0.07432319
  0.08589761 -0.1808368 ] 0.020147554576396942*/
    static const fixed weights8[] ={
    -2, -1, -2, 0, -1, 0, 2, 0, 2, 0, 2, 0, 1, 1, 0, 2, 0, 1, -1, 0, -1, 0, 0, 0, 1, 
    1, 1, -1, -1, -1, 1, 1, 0, 1, 0, 0, 2, 0, 1, -1, -1, 2, -1, -1, -1, -1, 2, 1, 1, 
    -1
    };
    
    static const neuron_t neuron8 = {weights8, 0  };
    neurons[8]=neuron8;

    /* [ 0.13224499 -0.21461248 -0.1297201   0.16006215 -0.21649875 -0.23714457
  0.18587498 -0.1391666   0.01756875 -0.06869572 -0.08056006 -0.04689756
  0.16782372 -0.19315068 -0.11483057 -0.00504965 -0.24404615 -0.2206519
  0.23335747  0.08338203  0.16120096  0.18945868 -0.20933864 -0.23887935
  0.06235205 -0.20245755  0.20655496  0.22009774  0.00746123  0.03816833
 -0.11299214  0.0145741  -0.09138101 -0.21730164 -0.22499432  0.11110194
 -0.03829536 -0.17304853 -0.23215503  0.11492507 -0.02991004  0.08167143
  0.24402933 -0.0066313  -0.1068591  -0.15665856 -0.016766    0.23934178
  0.01551582  0.08043076] 0.012536040507256985*/
    static const fixed weights9[] ={
    1, -2, -1, 1, -2, -2, 1, -1, 0, -1, -1, 0, 1, -2, -1, 0, -2, -2, 2, 1, 1, 2, -2, 
    -2, 0, -2, 2, 2, 0, 0, -1, 0, -1, -2, -2, 1, 0, -1, -2, 1, 0, 1, 2, 0, -1, -1, 0, 
    2, 0, 1
    };
    
    static const neuron_t neuron9 = {weights9, 0  };
    neurons[9]=neuron9;

    /* [-0.10860153  0.09505166  0.20858876 -0.0926584  -0.13367578 -0.20172778
  0.08311222  0.14992715  0.0837792   0.11043681  0.16536705  0.01945193
  0.10743813  0.0962363   0.2445838  -0.02445458  0.0830089   0.08555721
 -0.18434584 -0.1354107  -0.08581772 -0.14358822 -0.2440263  -0.2425865
  0.15709488  0.03675814 -0.11745918 -0.19550814  0.03525235  0.06607951
  0.09381612  0.211453   -0.19226423  0.13545491 -0.1713027   0.10372446
 -0.0528885  -0.23969895  0.03999229 -0.15276921  0.19747178 -0.16788861
  0.0444452   0.08479305 -0.18648247  0.24173863  0.16582076 -0.08844166
  0.21447931 -0.2348349 ] 0.012628014199435711*/
    static const fixed weights10[] ={
    -1, 1, 2, -1, -1, -2, 1, 1, 1, 1, 1, 0, 1, 1, 2, 0, 1, 1, -1, -1, -1, -1, -2, -2, 
    1, 0, -1, -2, 0, 1, 1, 2, -2, 1, -1, 1, 0, -2, 0, -1, 2, -1, 0, 1, -1, 2, 1, -1, 
    2, -2
    };
    
    static const neuron_t neuron10 = {weights10, 0  };
    neurons[10]=neuron10;

    /* [ 0.19455872  0.1483274  -0.11541505 -0.00088295  0.10835947  0.03043537
 -0.17574546  0.21530886  0.23370363 -0.18223286  0.09540294 -0.02468333
  0.12547906  0.00974827  0.20418166 -0.07678214  0.05728804  0.0459698
 -0.20699526 -0.17688105  0.00447026  0.02219485 -0.02710252  0.23149125
 -0.16692652 -0.22658555  0.11387964  0.11407439  0.22763811 -0.148001
 -0.10634004 -0.06366266  0.18426262 -0.04526812  0.01489513 -0.03759362
  0.17649566  0.23944397 -0.04645406  0.14239193  0.168712    0.16673912
 -0.09507711  0.1792896  -0.02172332 -0.03383315 -0.1902267   0.18767975
 -0.03228992 -0.2188704 ] 0.06665755808353424*/
    static const fixed weights11[] ={
    2, 1, -1, 0, 1, 0, -1, 2, 2, -1, 1, 0, 1, 0, 2, -1, 0, 0, -2, -1, 0, 0, 0, 2, -1, 
    -2, 1, 1, 2, -1, -1, -1, 1, 0, 0, 0, 1, 2, 0, 1, 1, 1, -1, 1, 0, 0, -2, 2, 0, -2, 
  
    };
    
    static const neuron_t neuron11 = {weights11, 1  };
    neurons[11]=neuron11;

    /* [-0.22576123  0.23166947 -0.02045637 -0.23954442  0.19349618 -0.14946532
 -0.23657149 -0.02777977  0.02938445 -0.18214239  0.19117354 -0.12169536
  0.21028541  0.07221429 -0.15453255  0.15810959  0.21618707 -0.04346664
 -0.17270449  0.00852124 -0.15254882  0.03002252  0.00860231  0.23144545
 -0.1940952  -0.09115663  0.00660197  0.08503522  0.2390882  -0.13652673
 -0.09391056 -0.1890376  -0.03572725  0.00235488 -0.1793598   0.05779524
  0.07066615 -0.15528628  0.01405896 -0.01451822  0.17716415  0.07725804
 -0.21047926  0.02857654 -0.12655054 -0.07862888  0.2408468   0.07418345
 -0.16270179 -0.02888751] -0.03173231706023216*/
    static const fixed weights12[] ={
    -2, 2, 0, -2, 2, -1, -2, 0, 0, -1, 2, -1, 2, 1, -1, 1, 2, 0, -1, 0, -1, 0, 0, 2, 
    -2, -1, 0, 1, 2, -1, -1, -2, 0, 0, -1, 0, 1, -1, 0, 0, 1, 1, -2, 0, -1, -1, 2, 1, 
    -1, 0
    };
    
    static const neuron_t neuron12 = {weights12, 0  };
    neurons[12]=neuron12;

    /* [-0.17834432  0.10655378 -0.18524152  0.23793124  0.21630369  0.24093314
  0.08636694 -0.00983632  0.03108324 -0.16399202 -0.01757151 -0.04976256
  0.14755653 -0.1438336  -0.12199192  0.0491205  -0.22797741  0.2340035
 -0.15790524 -0.2220062   0.19777425 -0.09715505  0.02739476 -0.1447731
  0.09512548  0.17486729  0.23545225  0.16901855  0.00433214  0.03432472
  0.18385158 -0.10866414 -0.09183659  0.18622868 -0.19668052 -0.21581687
  0.1660522  -0.04325892 -0.00415613  0.04304554  0.14597748  0.22665884
  0.15599532  0.00025013 -0.18592119  0.2128037   0.20173772 -0.18771717
  0.09246294 -0.04317978] 0.02992083691060543*/
    static const fixed weights13[] ={
    -1, 1, -1, 2, 2, 2, 1, 0, 0, -1, 0, 0, 1, -1, -1, 0, -2, 2, -1, -2, 2, -1, 0, -1, 
    1, 1, 2, 1, 0, 0, 1, -1, -1, 1, -2, -2, 1, 0, 0, 0, 1, 2, 1, 0, -1, 2, 2, -2, 1, 
    0
    };
    
    static const neuron_t neuron13 = {weights13, 0  };
    neurons[13]=neuron13;

    /* [ 0.21759312  0.1292897   0.15475343  0.20915847  0.01174794  0.20964296
  0.16649373 -0.14230445 -0.22405075  0.11278446 -0.09395209  0.0812736
  0.11481656 -0.10358429 -0.00402723  0.10344033  0.14049031 -0.13789365
 -0.03343579 -0.08978418  0.10378303  0.06797694  0.21655606  0.00635578
 -0.09954025  0.18456788 -0.11667252 -0.04656327  0.11191948  0.10158898
 -0.15770552 -0.10993464 -0.08493191  0.04934676  0.05124603 -0.11383328
  0.21356373  0.16052099  0.18574516  0.18031101  0.0831386   0.03454103
 -0.04667692  0.16635047  0.20368342 -0.04533902 -0.12796108 -0.16764754
  0.23698367  0.10351487] -0.0476723276078701*/
    static const fixed weights14[] ={
    2, 1, 1, 2, 0, 2, 1, -1, -2, 1, -1, 1, 1, -1, 0, 1, 1, -1, 0, -1, 1, 1, 2, 0, -1, 
    1, -1, 0, 1, 1, -1, -1, -1, 0, 0, -1, 2, 1, 1, 1, 1, 0, 0, 1, 2, 0, -1, -1, 2, 1, 
  
    };
    
    static const neuron_t neuron14 = {weights14, 0  };
    neurons[14]=neuron14;

    /* [ 0.00897847 -0.18329796 -0.10757257 -0.11406519 -0.08334295  0.21915399
 -0.15636265  0.02970938 -0.09192215 -0.10941896 -0.09773187 -0.2340935
  0.06145115 -0.10464835 -0.08654517  0.15857093 -0.091415   -0.12758201
  0.1521685   0.01849301  0.18369992  0.01109953  0.20602728 -0.09753431
 -0.17303601  0.11931182  0.23861952 -0.07861194  0.21042703 -0.06550911
 -0.06083697 -0.02520397  0.15308364 -0.01918663 -0.07238254  0.05153643
  0.226627   -0.12726027  0.21194656  0.17584287 -0.06779023 -0.02322397
  0.09883343 -0.02161901 -0.12909761 -0.22713551 -0.03460433 -0.06709673
 -0.0653248   0.13157664] 0.00528737623244524*/
    static const fixed weights15[] ={
    0, -1, -1, -1, -1, 2, -1, 0, -1, -1, -1, -2, 0, -1, -1, 1, -1, -1, 1, 0, 1, 0, 2, 
    -1, -1, 1, 2, -1, 2, -1, 0, 0, 1, 0, -1, 0, 2, -1, 2, 1, -1, 0, 1, 0, -1, -2, 0, 
    -1, -1, 1
    };
    
    static const neuron_t neuron15 = {weights15, 0  };
    neurons[15]=neuron15;

    /* [-0.1783432   0.03346716 -0.110064    0.20408078 -0.0323467  -0.06578015
  0.06025968 -0.08654773 -0.10857256 -0.18429433  0.17041092  0.11616673
 -0.17628437 -0.11931881 -0.0491232  -0.09756981 -0.02911253  0.14049645
  0.01477121  0.2186472  -0.2257197  -0.11367483 -0.09706892 -0.06370261
  0.02192654  0.02714567  0.09650426  0.09366681 -0.02148463  0.04160748
  0.0885397   0.11767422 -0.17061707  0.12649114 -0.0160733   0.10862689
 -0.23828688 -0.16302222  0.09000205 -0.14311476 -0.06311738  0.00579576
  0.13550033 -0.20664322  0.00246455  0.05803297  0.24290104 -0.1046925
  0.22263338  0.06762742] 0.07735521346330643*/
    static const fixed weights16[] ={
    -1, 0, -1, 2, 0, -1, 0, -1, -1, -1, 1, 1, -1, -1, 0, -1, 0, 1, 0, 2, -2, -1, -1, 
    -1, 0, 0, 1, 1, 0, 0, 1, 1, -1, 1, 0, 1, -2, -1, 1, -1, -1, 0, 1, -2, 0, 0, 2, -1, 
    2, 1
    };
    
    static const neuron_t neuron16 = {weights16, 1  };
    neurons[16]=neuron16;

    /* [-0.02644311 -0.23371828  0.17908232  0.20651849  0.11953233  0.1639693
 -0.07882948  0.09515093  0.13482247 -0.19388542  0.11156069 -0.09609842
  0.22148545 -0.1710093  -0.13124272 -0.15665266  0.24371718 -0.22989802
  0.03119557 -0.09318529 -0.08237736 -0.20781432 -0.20176405 -0.06294978
 -0.22636609  0.02957909 -0.02529134 -0.18503006  0.18274169 -0.13044876
  0.06545679  0.08262281  0.22917001  0.08438937  0.02311482 -0.16366702
  0.1032023   0.209538    0.10131083 -0.0191402  -0.09610379  0.17645751
 -0.23614459 -0.1714807   0.06158952 -0.05552633 -0.1080344   0.22392969
 -0.18372971  0.12304096] -0.017842138186097145*/
    static const fixed weights17[] ={
    0, -2, 1, 2, 1, 1, -1, 1, 1, -2, 1, -1, 2, -1, -1, -1, 2, -2, 0, -1, -1, -2, -2, 
    -1, -2, 0, 0, -1, 1, -1, 1, 1, 2, 1, 0, -1, 1, 2, 1, 0, -1, 1, -2, -1, 0, 0, -1, 
    2, -1, 1
    };
    
    static const neuron_t neuron17 = {weights17, 0  };
    neurons[17]=neuron17;

    /* [ 0.1078961  -0.21587463  0.07127018  0.08745669 -0.04962146 -0.05470482
  0.03627248  0.0215884  -0.17928948  0.13870858 -0.15849788 -0.04510075
  0.13424776 -0.01760824 -0.03420143  0.22869952  0.10673563  0.19986491
  0.05971853  0.22961695  0.07890745  0.04837714  0.01275231 -0.12110815
  0.10415687 -0.1910043   0.0755621   0.07333301  0.00113221 -0.07268611
  0.04124983  0.12513159  0.05447243  0.09698354  0.21621673  0.09796204
  0.07466985 -0.22454229 -0.03472668 -0.04802316  0.07668082 -0.22937949
  0.03595699  0.05366983 -0.10747948  0.17575683 -0.0996394  -0.11239085
  0.13709076  0.16999201] 0.0025116403121501207*/
    static const fixed weights18[] ={
    1, -2, 1, 1, 0, 0, 0, 0, -1, 1, -1, 0, 1, 0, 0, 2, 1, 2, 0, 2, 1, 0, 0, -1, 1, -2, 
    1, 1, 0, -1, 0, 1, 0, 1, 2, 1, 1, -2, 0, 0, 1, -2, 0, 0, -1, 1, -1, -1, 1, 1
    };
    
    static const neuron_t neuron18 = {weights18, 0  };
    neurons[18]=neuron18;

    /* [-0.02642202  0.20321344 -0.10832787  0.09364338  0.18417723  0.14272062
 -0.05781655 -0.11249836  0.22193526  0.09619378 -0.2096318   0.00392994
 -0.05499168  0.20254917 -0.05357091  0.202103   -0.23773886 -0.05838923
  0.24465515 -0.08352213 -0.1044742   0.21347792 -0.21664032  0.04983987
  0.20413007  0.09890215  0.04047228 -0.07579646  0.17801921 -0.2206766
 -0.14235187 -0.15167445 -0.00654067 -0.22389412  0.12914966 -0.19538258
 -0.06207569  0.16573708 -0.0397723  -0.04906888  0.17325343  0.12713815
 -0.05799228 -0.1694761  -0.17948711  0.09650038 -0.18349296 -0.14037432
  0.06873621  0.10563515] 0.04056575149297714*/
    static const fixed weights19[] ={
    0, 2, -1, 1, 1, 1, 0, -1, 2, 1, -2, 0, 0, 2, 0, 2, -2, 0, 2, -1, -1, 2, -2, 0, 2, 
    1, 0, -1, 1, -2, -1, -1, 0, -2, 1, -2, 0, 1, 0, 0, 1, 1, 0, -1, -1, 1, -1, -1, 1, 
    1
    };
    
    static const neuron_t neuron19 = {weights19, 0  };
    neurons[19]=neuron19;

    /* [-0.07958426 -0.13445894 -0.19323087 -0.1640934   0.02979834  0.0041925
 -0.08013794  0.07937704  0.16656141 -0.0673003   0.18724231 -0.00281467
 -0.14794704  0.04579566  0.18950482 -0.07981978  0.15671743 -0.1954631
 -0.02806717 -0.12495305 -0.20079881  0.10748245 -0.24197534 -0.0702298
  0.18728904  0.14840467 -0.11258174  0.11153008 -0.12551194 -0.17464331
 -0.01334886 -0.02361092 -0.10580012 -0.10147196 -0.10483716  0.13032372
  0.21007957 -0.15007351  0.16134854  0.20861219  0.03736795  0.15165989
  0.24278267 -0.21880867 -0.0452033  -0.05126853  0.00157249 -0.04789171
 -0.18289277  0.13904105] -0.07640238851308823*/
    static const fixed weights20[] ={
    -1, -1, -2, -1, 0, 0, -1, 1, 1, -1, 1, 0, -1, 0, 2, -1, 1, -2, 0, -1, -2, 1, -2, 
    -1, 1, 1, -1, 1, -1, -1, 0, 0, -1, -1, -1, 1, 2, -1, 1, 2, 0, 1, 2, -2, 0, 0, 0, 
    0, -1, 1
    };
    
    static const neuron_t neuron20 = {weights20, -1  };
    neurons[20]=neuron20;

    /* [ 0.23187323  0.07959194  0.02557226 -0.12707065 -0.22728601 -0.06677815
 -0.18952537  0.11522694  0.02176403 -0.01341662 -0.2314158   0.17899813
  0.17103885  0.16153325  0.03816478  0.19283228 -0.01732232  0.18326105
  0.10723127 -0.1936864   0.02113695 -0.05245259  0.08591725  0.22064437
  0.02527095 -0.05975674  0.16967322 -0.0938343  -0.02488148 -0.10344915
 -0.2403973   0.14752044  0.18347509 -0.24150544 -0.0060928  -0.06340507
  0.11524574 -0.00535777  0.19121899  0.04319556  0.08733006 -0.12674256
 -0.15978602 -0.19788288  0.1674787   0.04445888 -0.23068765  0.05140676
  0.2016706  -0.16785368] -0.015009171329438686*/
    static const fixed weights21[] ={
    2, 1, 0, -1, -2, -1, -2, 1, 0, 0, -2, 1, 1, 1, 0, 2, 0, 1, 1, -2, 0, 0, 1, 2, 0, 
    0, 1, -1, 0, -1, -2, 1, 1, -2, 0, -1, 1, 0, 2, 0, 1, -1, -1, -2, 1, 0, -2, 0, 2, 
    -1
    };
    
    static const neuron_t neuron21 = {weights21, 0  };
    neurons[21]=neuron21;

    /* [-0.0409364  -0.22018912  0.18357395  0.04064684  0.17533343  0.19027562
 -0.11079651 -0.00412038  0.00130181  0.04858263 -0.19355598  0.0851769
 -0.2166489   0.02648474 -0.13796535  0.01493077 -0.03171964  0.1533357
  0.08272164 -0.1656225   0.21394472 -0.04206142  0.16306584 -0.03878316
  0.19834523  0.2060626  -0.22448751 -0.21199982 -0.10030903 -0.07304761
 -0.23704588 -0.12738088 -0.09276895 -0.06458382 -0.14453149 -0.19486609
 -0.15327181  0.23663943 -0.22564554  0.10060914  0.16473801  0.05737062
 -0.0264156   0.24398683 -0.20431714 -0.19049872  0.03264575 -0.21890129
  0.03752173 -0.15759613] 0.05065157637000084*/
    static const fixed weights22[] ={
    0, -2, 1, 0, 1, 2, -1, 0, 0, 0, -2, 1, -2, 0, -1, 0, 0, 1, 1, -1, 2, 0, 1, 0, 2, 
    2, -2, -2, -1, -1, -2, -1, -1, -1, -1, -2, -1, 2, -2, 1, 1, 0, 0, 2, -2, -2, 0, 
    -2, 0, -1
    };
    
    static const neuron_t neuron22 = {weights22, 0  };
    neurons[22]=neuron22;

    /* [ 0.21366121 -0.00485179 -0.17078614  0.2268521  -0.12783787  0.18371727
  0.14948373 -0.14445686 -0.07749812  0.15828736  0.21728595 -0.03324424
  0.1706538  -0.04098125  0.0430225   0.01640747 -0.00751281  0.23655011
  0.04759245  0.0036314  -0.0139153   0.07767127 -0.08826973 -0.14234838
 -0.19035184  0.02533679 -0.07387871 -0.10732017  0.09802948  0.08651899
 -0.03058369 -0.025442   -0.20836282 -0.04307893 -0.00829011  0.14494933
 -0.1450032  -0.17335933  0.10397686 -0.16555645 -0.23726985  0.00900219
  0.03808774  0.08795448 -0.02528766  0.07286476  0.1193253   0.1175458
 -0.23045154 -0.15029316] -0.03723109886050224*/
    static const fixed weights23[] ={
    2, 0, -1, 2, -1, 1, 1, -1, -1, 1, 2, 0, 1, 0, 0, 0, 0, 2, 0, 0, 0, 1, -1, -1, -2, 
    0, -1, -1, 1, 1, 0, 0, -2, 0, 0, 1, -1, -1, 1, -1, -2, 0, 0, 1, 0, 1, 1, 1, -2, 
    -1
    };
    
    static const neuron_t neuron23 = {weights23, 0  };
    neurons[23]=neuron23;

    /* [ 1.21863261e-01  1.18063495e-01  1.93447903e-01 -1.48765922e-01
 -1.55700743e-02  1.15842417e-01 -5.77970445e-02  1.43868700e-01
 -1.56591460e-01  1.51500419e-01  7.96264857e-02  2.09912762e-01
  2.12820396e-01 -1.40999496e-01 -3.53821665e-02  9.19550210e-02
 -2.87006348e-02  7.65127987e-02 -9.61107463e-02 -1.44493699e-01
 -1.50829554e-01 -1.38877451e-01 -8.96550715e-03  1.21264592e-01
 -4.72772121e-02 -1.49048999e-01  8.51453692e-02  9.75695103e-02
  1.48881212e-01  1.32754818e-01  3.13113630e-03 -2.65394151e-02
 -7.43339956e-02 -3.14260125e-02 -1.67147577e-01  4.21702862e-05
  7.05828220e-02  2.17866749e-02  1.84403136e-01 -2.37740427e-02
  5.12475520e-02  2.39618078e-01 -8.02804381e-02  2.27640852e-01
 -6.68063611e-02 -7.26293474e-02 -1.86200514e-01  1.80702522e-01
 -7.22162277e-02 -1.27905011e-02] -0.006998060736805201*/
    static const fixed weights24[] ={
    1, 1, 2, -1, 0, 1, 0, 1, -1, 1, 1, 2, 2, -1, 0, 1, 0, 1, -1, -1, -1, -1, 0, 1, 0, 
    -1, 1, 1, 1, 1, 0, 0, -1, 0, -1, 0, 1, 0, 1, 0, 0, 2, -1, 2, -1, -1, -1, 1, -1, 
    0
    };
    
    static const neuron_t neuron24 = {weights24, 0  };
    neurons[24]=neuron24;

    /* [ 0.07642497  0.11187582  0.1832159  -0.1883226   0.19871064  0.22085507
 -0.22015439  0.18563725  0.24032097 -0.18527277 -0.19502634 -0.19143885
  0.19696827  0.01330929 -0.10967627  0.2057768  -0.20468956  0.14124005
 -0.15006867  0.10905705  0.21623845 -0.00827195  0.10828011  0.03195406
 -0.05606863  0.01916812  0.1322486   0.16279317  0.24353854 -0.04562956
 -0.2104528   0.11710392 -0.08306223  0.18349646 -0.22452646  0.12102447
  0.13896163  0.12174721 -0.226402   -0.12671897  0.10658689  0.17407276
  0.20032401 -0.12123202  0.14807652 -0.12752858 -0.00203758 -0.00840399
  0.12142976 -0.05619997] -0.03201590105891228*/
    static const fixed weights25[] ={
    1, 1, 1, -2, 2, 2, -2, 1, 2, -1, -2, -2, 2, 0, -1, 2, -2, 1, -1, 1, 2, 0, 1, 0, 
    0, 0, 1, 1, 2, 0, -2, 1, -1, 1, -2, 1, 1, 1, -2, -1, 1, 1, 2, -1, 1, -1, 0, 0, 1, 
    0
    };
    
    static const neuron_t neuron25 = {weights25, 0  };
    neurons[25]=neuron25;

    /* [-0.09365956  0.06738926  0.05408798  0.07521345 -0.09141856 -0.14014171
 -0.0843242   0.08947225  0.17853512  0.1489159  -0.1270394   0.16598819
  0.14800607 -0.21544772 -0.22320084 -0.18043973  0.12141667  0.17657636
 -0.20963104  0.08644132  0.14554118  0.17057036  0.08954273  0.15371577
 -0.0697394  -0.1945196   0.00320174  0.13575216 -0.07413012 -0.22122988
  0.2188934  -0.23795488  0.09150855  0.08215146 -0.23570472 -0.14950499
 -0.14828238 -0.10671648  0.18636216  0.08063246 -0.07951838 -0.14531195
  0.10106684  0.09870215 -0.08389863 -0.17822683 -0.22053918 -0.047859
  0.18613185  0.1316471 ] -0.011490223929286003*/
    static const fixed weights26[] ={
    -1, 1, 0, 1, -1, -1, -1, 1, 1, 1, -1, 1, 1, -2, -2, -1, 1, 1, -2, 1, 1, 1, 1, 1, 
    -1, -2, 0, 1, -1, -2, 2, -2, 1, 1, -2, -1, -1, -1, 1, 1, -1, -1, 1, 1, -1, -1, -2, 
    0, 1, 1
    };
    
    static const neuron_t neuron26 = {weights26, 0  };
    neurons[26]=neuron26;

    /* [-0.20985933  0.00811578  0.22661094 -0.23125735 -0.12544245  0.08460556
 -0.07296889  0.19320698 -0.1690447  -0.05897364  0.02608301  0.11238857
  0.14231057  0.1368332  -0.15974829  0.1053165   0.06355287  0.02177061
  0.11125372 -0.17173123  0.08045365 -0.04395762  0.1493132   0.05718021
 -0.01296097  0.19462867 -0.11886896 -0.03212354 -0.1549465  -0.02023165
  0.20615144  0.09795152  0.04798321 -0.00561561  0.03167264 -0.03336689
 -0.10836045 -0.23037754  0.09264456 -0.10536107  0.04333331  0.01105876
 -0.12665245  0.19797702 -0.20120499 -0.04000327  0.02766268 -0.22923763
 -0.17253986 -0.23950219] -0.04968741163611412*/
    static const fixed weights27[] ={
    -2, 0, 2, -2, -1, 1, -1, 2, -1, 0, 0, 1, 1, 1, -1, 1, 1, 0, 1, -1, 1, 0, 1, 0, 0, 
    2, -1, 0, -1, 0, 2, 1, 0, 0, 0, 0, -1, -2, 1, -1, 0, 0, -1, 2, -2, 0, 0, -2, -1, 
    -2
    };
    
    static const neuron_t neuron27 = {weights27, 0  };
    neurons[27]=neuron27;

    /* [ 0.01213993  0.11244999  0.20181508 -0.11920314  0.11937962 -0.00132972
 -0.16348849 -0.04639508 -0.07952602  0.02023913  0.18004529  0.11055906
 -0.19563165 -0.13107142 -0.13808256 -0.00826214  0.1447814   0.16158055
 -0.00452772 -0.11150351 -0.15058884 -0.05242305  0.24171214  0.23517905
  0.20555516 -0.08501349 -0.01171079 -0.23783363 -0.23687366 -0.08673199
 -0.1739417  -0.21322465  0.03053816 -0.08376268  0.15839668  0.15849684
 -0.05513358 -0.13997264  0.13219775  0.22347479  0.16873817 -0.07297729
 -0.12122682 -0.14592113  0.06727059 -0.06264539  0.07062276  0.01184972
 -0.04611206  0.12801136] -0.02192874066531658*/
    static const fixed weights28[] ={
    0, 1, 2, -1, 1, 0, -1, 0, -1, 0, 1, 1, -2, -1, -1, 0, 1, 1, 0, -1, -1, 0, 2, 2, 
    2, -1, 0, -2, -2, -1, -1, -2, 0, -1, 1, 1, 0, -1, 1, 2, 1, -1, -1, -1, 1, -1, 1, 
    0, 0, 1
    };
    
    static const neuron_t neuron28 = {weights28, 0  };
    neurons[28]=neuron28;

    /* [ 0.11026897 -0.15403931 -0.10409635  0.09663121 -0.21337217 -0.1269201
 -0.04186724 -0.03104471  0.18536739  0.17822187  0.024859   -0.02615193
 -0.16213536 -0.17514333  0.09049292 -0.24150072  0.16431935 -0.23894249
  0.02609457 -0.22198051  0.00444824 -0.03777798 -0.10765123  0.11079066
  0.05325548 -0.07686554  0.04664718 -0.21274559 -0.04878926  0.17372446
  0.05021299 -0.05978617 -0.15428254 -0.2288415  -0.00500229  0.2113385
  0.22117399 -0.1879728  -0.16238448  0.23516347 -0.24115644 -0.17097962
 -0.17164989 -0.18353711  0.01940791 -0.11152762 -0.01991576 -0.12365341
  0.03727739 -0.00087169] 0.004151833709329367*/
    static const fixed weights29[] ={
    1, -1, -1, 1, -2, -1, 0, 0, 1, 1, 0, 0, -1, -1, 1, -2, 1, -2, 0, -2, 0, 0, -1, 1, 
    0, -1, 0, -2, 0, 1, 0, 0, -1, -2, 0, 2, 2, -2, -1, 2, -2, -1, -1, -1, 0, -1, 0, 
    -1, 0, 0
    };
    
    static const neuron_t neuron29 = {weights29, 0  };
    neurons[29]=neuron29;

    /* [-0.04098645  0.03868382  0.1909497  -0.10600634  0.02484117 -0.01594616
 -0.13812497  0.15942983  0.12998734  0.0143338   0.12992455  0.2000417
 -0.20128913  0.07936962  0.24423654 -0.12445058  0.19855721  0.08724831
 -0.23931952 -0.05396277  0.0324664  -0.06518528  0.09630667  0.03793351
  0.16496707 -0.09498717 -0.07424341 -0.16426194 -0.02276722  0.11634158
  0.07797877  0.24003218  0.00567423 -0.21193296 -0.05571204 -0.19495642
  0.09416099 -0.2357109   0.13033243 -0.13880306 -0.22892974 -0.1359241
 -0.21101426  0.03923373  0.12379684  0.1311556  -0.06705251 -0.19447778
  0.10341172 -0.02883157] 0.0358230322599411*/
    static const fixed weights30[] ={
    0, 0, 2, -1, 0, 0, -1, 1, 1, 0, 1, 2, -2, 1, 2, -1, 2, 1, -2, 0, 0, -1, 1, 0, 1, 
    -1, -1, -1, 0, 1, 1, 2, 0, -2, 0, -2, 1, -2, 1, -1, -2, -1, -2, 0, 1, 1, -1, -2, 
    1, 0
    };
    
    static const neuron_t neuron30 = {weights30, 0  };
    neurons[30]=neuron30;

    /* [ 0.15593009  0.05846854  0.07271047 -0.10629483 -0.20899366 -0.02689998
 -0.19869381  0.07545324 -0.22173364  0.04920636  0.03240864 -0.00314054
 -0.2098094  -0.06114492 -0.1967318  -0.05671653 -0.23599578 -0.04149762
 -0.12270773  0.14836444 -0.14543056 -0.2445053   0.18938012  0.17181756
 -0.05438571  0.15148808 -0.13305739  0.0893036  -0.15611356 -0.04139985
 -0.12860501 -0.17014262  0.0614299  -0.03371495  0.02952929 -0.1616643
 -0.15256663  0.04403098 -0.07696523 -0.15346926  0.06965436 -0.14460163
  0.1134112   0.16890834  0.06277855 -0.19848147  0.16105686  0.15361251
 -0.21313186 -0.09240273] -0.04647137597203255*/
    static const fixed weights31[] ={
    1, 0, 1, -1, -2, 0, -2, 1, -2, 0, 0, 0, -2, 0, -2, 0, -2, 0, -1, 1, -1, -2, 2, 1, 
    0, 1, -1, 1, -1, 0, -1, -1, 0, 0, 0, -1, -1, 0, -1, -1, 1, -1, 1, 1, 1, -2, 1, 1, 
    -2, -1
    };
    
    static const neuron_t neuron31 = {weights31, 0  };
    neurons[31]=neuron31;

    /* [ 0.13310347 -0.06365024 -0.11065331 -0.15124643  0.08760606  0.10643442
  0.09552224  0.00345817 -0.14632362  0.01187952 -0.1165469  -0.21820848
 -0.18971862 -0.16763918  0.18190028  0.22051208  0.17042004  0.18732233
  0.2316717   0.19555105 -0.1419026  -0.22638886 -0.09312555 -0.10249238
  0.08520697 -0.17919293 -0.13072067  0.21277095  0.22843616 -0.13952857
 -0.10590127 -0.18596002  0.20301114  0.2310303  -0.13570586 -0.0617556
  0.1036386   0.16484    -0.00713262 -0.03162363  0.03649761 -0.06276873
  0.07611023 -0.16563767 -0.03164268 -0.07610066 -0.12324513  0.13534574
 -0.0339638   0.09758781] 0.009886721149086952*/
    static const fixed weights32[] ={
    1, -1, -1, -1, 1, 1, 1, 0, -1, 0, -1, -2, -2, -1, 1, 2, 1, 1, 2, 2, -1, -2, -1, 
    -1, 1, -1, -1, 2, 2, -1, -1, -1, 2, 2, -1, 0, 1, 1, 0, 0, 0, -1, 1, -1, 0, -1, -1, 
    1, 0, 1
    };
    
    static const neuron_t neuron32 = {weights32, 0  };
    neurons[32]=neuron32;

    /* [ 0.20174052 -0.16687348  0.15049915 -0.22094782 -0.16926622 -0.01589967
  0.05982624  0.01156346  0.06968959 -0.23338008 -0.22473444 -0.18028778
 -0.09421022  0.24363618  0.068294   -0.0058641   0.23704676  0.15542169
  0.03756253 -0.08447972  0.10504256  0.12556122  0.06798179 -0.22625746
 -0.20690364 -0.16629376  0.22859563  0.24151252  0.07660298 -0.10887076
 -0.01157565  0.21120177  0.10733084  0.1431366  -0.07761686 -0.23638788
  0.21185423  0.02264176  0.21595721 -0.09336124  0.10402469  0.2357543
 -0.09634475 -0.13309798  0.1152149   0.22363855 -0.23330311 -0.20312646
 -0.23396263 -0.03302243] 0.003639328060671687*/
    static const fixed weights33[] ={
    2, -1, 1, -2, -1, 0, 0, 0, 1, -2, -2, -1, -1, 2, 1, 0, 2, 1, 0, -1, 1, 1, 1, -2, 
    -2, -1, 2, 2, 1, -1, 0, 2, 1, 1, -1, -2, 2, 0, 2, -1, 1, 2, -1, -1, 1, 2, -2, -2, 
    -2, 0
    };
    
    static const neuron_t neuron33 = {weights33, 0  };
    neurons[33]=neuron33;

    /* [-0.1705752   0.18523212  0.12224479  0.03625976 -0.12120346  0.03949888
  0.1546431  -0.11630051 -0.2373262  -0.18457863  0.12291972 -0.0715306
 -0.14460713  0.07139902 -0.20471507  0.00902404 -0.16614133 -0.11433049
  0.13391979 -0.15136983 -0.23484816 -0.01818757 -0.23997448 -0.22595507
 -0.08686888 -0.2286155  -0.02209526  0.12052093 -0.08727622  0.02570634
  0.03412889  0.09704982 -0.04588243 -0.18469828 -0.03583097  0.21423568
  0.16046067 -0.0076755   0.0119694   0.136544   -0.21011472  0.12748857
  0.04152302  0.20681135 -0.05684711  0.16499855 -0.00897521  0.11165039
  0.1407093   0.02029671] 0.00015822937712073326*/
    static const fixed weights34[] ={
    -1, 1, 1, 0, -1, 0, 1, -1, -2, -1, 1, -1, -1, 1, -2, 0, -1, -1, 1, -1, -2, 0, -2, 
    -2, -1, -2, 0, 1, -1, 0, 0, 1, 0, -1, 0, 2, 1, 0, 0, 1, -2, 1, 0, 2, 0, 1, 0, 1, 
    1, 0
    };
    
    static const neuron_t neuron34 = {weights34, 0  };
    neurons[34]=neuron34;

    /* [-0.14499782  0.121525   -0.03905118 -0.20462707 -0.24479     0.06243245
 -0.10744013 -0.02362944  0.05768569  0.03092481  0.09019144 -0.17031053
  0.13445316  0.12997492 -0.2365368  -0.13719383 -0.24400674  0.02963112
 -0.0279423  -0.04633528 -0.14685974  0.04567869  0.1556824   0.08570223
 -0.24394484 -0.19763432  0.2388549   0.16432871  0.19247775 -0.11879264
 -0.18861899 -0.2001505  -0.0174185  -0.11933692  0.16556509 -0.08553344
 -0.14021799  0.1312895   0.07853924  0.08503453  0.22978325 -0.10262863
 -0.09314014  0.10425223 -0.18988441 -0.04431106  0.07864191  0.08434106
  0.14041229  0.04937871] 0.03776349499821663*/
    static const fixed weights35[] ={
    -1, 1, 0, -2, -2, 0, -1, 0, 0, 0, 1, -1, 1, 1, -2, -1, -2, 0, 0, 0, -1, 0, 1, 1, 
    -2, -2, 2, 1, 2, -1, -2, -2, 0, -1, 1, -1, -1, 1, 1, 1, 2, -1, -1, 1, -2, 0, 1, 
    1, 1, 0
    };
    
    static const neuron_t neuron35 = {weights35, 0  };
    neurons[35]=neuron35;

    /* [-0.16391768 -0.00888392 -0.1497634  -0.20969832 -0.11159788  0.08551149
  0.12080868  0.05978133 -0.11586964  0.09780358  0.06762524  0.04825373
 -0.12035257  0.00103596  0.1206903   0.10332431 -0.17904466  0.08893065
  0.21191894  0.0540912   0.22097795 -0.13101816 -0.12754884 -0.17324813
 -0.06459095 -0.23747611 -0.12297054 -0.13241762 -0.13288201 -0.11788252
  0.11745836  0.03221528 -0.16913915 -0.13505451 -0.01728967 -0.10001305
 -0.04650737  0.20012252 -0.2244607   0.12435673  0.11686815  0.23158102
  0.19967757 -0.10667951 -0.14155734 -0.09194592  0.03319402 -0.2127168
 -0.14908287  0.01717387] -0.03020167350769043*/
    static const fixed weights36[] ={
    -1, 0, -1, -2, -1, 1, 1, 0, -1, 1, 1, 0, -1, 0, 1, 1, -1, 1, 2, 0, 2, -1, -1, -1, 
    -1, -2, -1, -1, -1, -1, 1, 0, -1, -1, 0, -1, 0, 2, -2, 1, 1, 2, 2, -1, -1, -1, 0, 
    -2, -1, 0
    };
    
    static const neuron_t neuron36 = {weights36, 0  };
    neurons[36]=neuron36;

    /* [-0.14765562 -0.20762336 -0.13005567 -0.05384001  0.21559443  0.04529165
 -0.16451779 -0.12876327 -0.01516378 -0.12042685 -0.09039275  0.0008391
  0.19671603 -0.13325554 -0.02046256 -0.10000792  0.23719417  0.03293256
 -0.06130195 -0.16252902  0.11363424 -0.23714674 -0.07933342 -0.18980972
 -0.02803388  0.0864255   0.22720577  0.12501778 -0.13439867  0.0157003
  0.15233462  0.08769728  0.01120068 -0.24115008 -0.0160837  -0.22450836
  0.19157235  0.17864425 -0.18765709  0.22883134  0.03780852  0.16213499
  0.15006627 -0.00340217  0.04261868  0.0438769  -0.1004705  -0.0218828
 -0.04645804  0.07874678] -0.05340171605348587*/
    static const fixed weights37[] ={
    -1, -2, -1, 0, 2, 0, -1, -1, 0, -1, -1, 0, 2, -1, 0, -1, 2, 0, 0, -1, 1, -2, -1, 
    -2, 0, 1, 2, 1, -1, 0, 1, 1, 0, -2, 0, -2, 2, 1, -2, 2, 0, 1, 1, 0, 0, 0, -1, 0, 
    0, 1
    };
    
    static const neuron_t neuron37 = {weights37, 0  };
    neurons[37]=neuron37;

    /* [ 0.05872737 -0.02081425  0.22612326 -0.2086467  -0.13424847  0.04596214
 -0.10831963 -0.1916151  -0.11013314  0.1631618   0.07699682 -0.10910705
 -0.23591582 -0.09394963  0.0897163   0.10443763  0.12993975  0.10455497
 -0.1671415   0.2134773  -0.13314447 -0.06123637 -0.04938862 -0.21829386
 -0.10190703 -0.05439277 -0.02731322 -0.18790732  0.20703731 -0.1688788
 -0.09152462 -0.14021587 -0.07677023  0.23535179 -0.10408899 -0.14518908
 -0.19158047  0.02092893 -0.11700079  0.09301372 -0.1422899   0.0913208
  0.15779649 -0.17086959 -0.02015333 -0.01393917  0.07537983  0.23334493
 -0.02555519  0.05564879] 0.028566617518663406*/
    static const fixed weights38[] ={
    0, 0, 2, -2, -1, 0, -1, -2, -1, 1, 1, -1, -2, -1, 1, 1, 1, 1, -1, 2, -1, 0, 0, -2, 
    -1, 0, 0, -2, 2, -1, -1, -1, -1, 2, -1, -1, -2, 0, -1, 1, -1, 1, 1, -1, 0, 0, 1, 
    2, 0, 0
    };
    
    static const neuron_t neuron38 = {weights38, 0  };
    neurons[38]=neuron38;

    /* [-0.22548972 -0.02325258 -0.2227542  -0.14194739  0.08237492  0.16281132
  0.11248697  0.14402907  0.06041749  0.13811053 -0.02431162  0.05798672
  0.0896221  -0.23263636 -0.06992039 -0.09072489  0.10351141  0.23483472
  0.21563138 -0.03557622  0.02192299  0.22320686  0.12717782 -0.23773424
  0.2387576   0.14003278  0.18012081 -0.15145847 -0.18373941  0.02321894
  0.12603275 -0.17355642 -0.02276886 -0.13205716 -0.06921865 -0.06690803
 -0.20646183  0.04243414 -0.16624096  0.1858563   0.01923077 -0.15976559
  0.04158704  0.18736432 -0.21442875  0.06207551 -0.03019324 -0.22661388
  0.05034535 -0.12968028] -0.03667893633246422*/
    static const fixed weights39[] ={
    -2, 0, -2, -1, 1, 1, 1, 1, 0, 1, 0, 0, 1, -2, -1, -1, 1, 2, 2, 0, 0, 2, 1, -2, 2, 
    1, 1, -1, -1, 0, 1, -1, 0, -1, -1, -1, -2, 0, -1, 1, 0, -1, 0, 1, -2, 0, 0, -2, 
    0, -1
    };
    
    static const neuron_t neuron39 = {weights39, 0  };
    neurons[39]=neuron39;

    /* [-0.03777407 -0.09750201  0.04980431 -0.07647927 -0.0552679  -0.13509907
 -0.05944079  0.10742925 -0.13807392  0.00043392  0.08298461  0.15611286
 -0.09497888  0.20180316 -0.07051238 -0.16741236 -0.06973128  0.05693378
 -0.19073711 -0.08339943 -0.10578762  0.11774664  0.1302018  -0.056187
  0.10891373 -0.06937756 -0.00335434  0.10113959 -0.05962709  0.1893564
  0.05094124  0.04142986 -0.13808946 -0.04780684 -0.17639983 -0.23294711
  0.07348667  0.1852438  -0.12238227 -0.14350633  0.20159627  0.09753828
 -0.05089973  0.17351069 -0.11265744 -0.17782316 -0.17082603  0.1196409
 -0.01863819 -0.14456454] -0.06506538391113281*/
    static const fixed weights40[] ={
    0, -1, 0, -1, 0, -1, 0, 1, -1, 0, 1, 1, -1, 2, -1, -1, -1, 0, -2, -1, -1, 1, 1, 
    0, 1, -1, 0, 1, 0, 2, 0, 0, -1, 0, -1, -2, 1, 1, -1, -1, 2, 1, 0, 1, -1, -1, -1, 
    1, 0, -1
    };
    
    static const neuron_t neuron40 = {weights40, -1  };
    neurons[40]=neuron40;

    /* [-0.17994198  0.15089773 -0.01993591 -0.02087159 -0.12779751 -0.14029023
 -0.19329727  0.10381065  0.00617217 -0.19356358 -0.03778797 -0.22143464
 -0.09602886  0.11234401 -0.11847377  0.11688061  0.05740051  0.09310295
 -0.02541906 -0.24229905 -0.20921674  0.19128455  0.22629227  0.12598382
  0.15976761 -0.18648902  0.03728427 -0.22035539 -0.18373147 -0.23075879
  0.19320832 -0.1101249  -0.01119979 -0.06844169 -0.04245999  0.10363032
 -0.12527105 -0.08217028 -0.22667934  0.15058176 -0.01816666 -0.02786329
 -0.17963065  0.0440513   0.15859805 -0.05474651 -0.22505996  0.10416953
  0.17009263  0.0284241 ] -0.04056714102625847*/
    static const fixed weights41[] ={
    -1, 1, 0, 0, -1, -1, -2, 1, 0, -2, 0, -2, -1, 1, -1, 1, 0, 1, 0, -2, -2, 2, 2, 1, 
    1, -1, 0, -2, -1, -2, 2, -1, 0, -1, 0, 1, -1, -1, -2, 1, 0, 0, -1, 0, 1, 0, -2, 
    1, 1, 0
    };
    
    static const neuron_t neuron41 = {weights41, 0  };
    neurons[41]=neuron41;

    /* [-0.16450664  0.2388661  -0.07889338  0.00781228  0.08582537  0.1772639
  0.12201749  0.00234103  0.15188392 -0.22539039  0.18311895  0.08690749
 -0.0649212  -0.18977952 -0.03731762 -0.17216235 -0.09326804  0.13008149
 -0.23850355  0.06158261 -0.11064723 -0.14608768  0.13904957 -0.13662139
  0.21363573 -0.14748871 -0.20415221 -0.20540765  0.19643857 -0.08767305
  0.19946413  0.08691718  0.13698225  0.16199227 -0.04837561 -0.22459514
  0.0400279  -0.00773449 -0.02159062 -0.05454193 -0.23547298 -0.15879187
  0.0848891   0.11055689 -0.01004218  0.17108376 -0.12654161 -0.13392791
  0.12920104 -0.03245975] -0.01982026919722557*/
    static const fixed weights42[] ={
    -1, 2, -1, 0, 1, 1, 1, 0, 1, -2, 1, 1, -1, -2, 0, -1, -1, 1, -2, 0, -1, -1, 1, -1, 
    2, -1, -2, -2, 2, -1, 2, 1, 1, 1, 0, -2, 0, 0, 0, 0, -2, -1, 1, 1, 0, 1, -1, -1, 
    1, 0
    };
    
    static const neuron_t neuron42 = {weights42, 0  };
    neurons[42]=neuron42;

    /* [-0.20404494  0.17499341  0.03564526  0.21981795 -0.06198418  0.06627275
 -0.1597886   0.02728467  0.17580612 -0.06499992  0.0317349   0.05005397
 -0.19051561 -0.20351437 -0.19270264 -0.11970362  0.23127241 -0.0898442
  0.03194962  0.19020872 -0.08965574 -0.00268099  0.1303337   0.11161019
  0.04305668 -0.10068074 -0.1452247   0.120088   -0.14844361 -0.16195449
  0.07606827  0.23418052 -0.1951057  -0.22731824 -0.09754126 -0.21889387
  0.0177633  -0.04462589 -0.04033265  0.08311553 -0.22523989  0.2070898
 -0.18111554  0.0359918   0.19994967 -0.04618198 -0.22264037  0.10637279
  0.19377206  0.01026286] -0.03560378775000572*/
    static const fixed weights43[] ={
    -2, 1, 0, 2, 0, 1, -1, 0, 1, -1, 0, 0, -2, -2, -2, -1, 2, -1, 0, 2, -1, 0, 1, 1, 
    0, -1, -1, 1, -1, -1, 1, 2, -2, -2, -1, -2, 0, 0, 0, 1, -2, 2, -1, 0, 2, 0, -2, 
    1, 2, 0
    };
    
    static const neuron_t neuron43 = {weights43, 0  };
    neurons[43]=neuron43;

    /* [ 0.10661907  0.22369988 -0.00380275  0.22202687 -0.22010896 -0.03190529
 -0.14474839  0.07679416  0.08347489 -0.23699729 -0.20490447  0.11200218
  0.00640588  0.10834797 -0.21524309 -0.19178909  0.10083102 -0.14447385
 -0.09831454 -0.10487868  0.11908458  0.07628487 -0.24441431  0.00800283
  0.04941188 -0.01132804  0.18349274  0.05827044  0.11358713 -0.23475787
  0.03331019  0.16107644  0.05972017 -0.08184499 -0.12783837 -0.08255805
  0.11379559 -0.14621547  0.17563187  0.24091981 -0.01083846  0.0039032
 -0.16912138 -0.20865464  0.05138357  0.12720953  0.14522348 -0.06906494
  0.12676202  0.02793829] 0.10410137474536896*/
    static const fixed weights44[] ={
    1, 2, 0, 2, -2, 0, -1, 1, 1, -2, -2, 1, 0, 1, -2, -2, 1, -1, -1, -1, 1, 1, -2, 0, 
    0, 0, 1, 0, 1, -2, 0, 1, 0, -1, -1, -1, 1, -1, 1, 2, 0, 0, -1, -2, 0, 1, 1, -1, 
    1, 0
    };
    
    static const neuron_t neuron44 = {weights44, 1  };
    neurons[44]=neuron44;

    /* [ 0.20116924 -0.2170501   0.2050667   0.20406549 -0.03926042  0.02160539
 -0.00429645 -0.07547256 -0.23264039  0.06820898  0.16415094  0.1336685
  0.16993193  0.10241069  0.19510956  0.14260481 -0.15948293  0.22211315
  0.01841737 -0.1800853  -0.23326264 -0.1183145   0.02297209 -0.1644271
  0.2109756  -0.08178671  0.20034824 -0.02924697  0.04613982 -0.21603703
 -0.00391778 -0.21674345  0.12109126 -0.02520894 -0.1820767   0.08611165
  0.16445427  0.1697249  -0.01409003 -0.03685415  0.23632838  0.06569694
  0.09156282 -0.19206993  0.10706334 -0.04966135  0.04009794  0.108187
 -0.13658571 -0.12162563] 0.05999605730175972*/
    static const fixed weights45[] ={
    2, -2, 2, 2, 0, 0, 0, -1, -2, 1, 1, 1, 1, 1, 2, 1, -1, 2, 0, -1, -2, -1, 0, -1, 
    2, -1, 2, 0, 0, -2, 0, -2, 1, 0, -1, 1, 1, 1, 0, 0, 2, 1, 1, -2, 1, 0, 0, 1, -1, 
    -1
    };
    
    static const neuron_t neuron45 = {weights45, 0  };
    neurons[45]=neuron45;

    /* [ 0.20928894  0.09051196  0.00486013 -0.06322163  0.09976767 -0.08070956
  0.14743914  0.00173081 -0.17452301  0.15469502 -0.21948278  0.21858172
  0.1041057   0.21045922  0.07744043  0.22162701  0.10325791  0.02460094
  0.13574137  0.18785016 -0.0825292  -0.17565271  0.21586873 -0.14158806
 -0.07035033 -0.13199708 -0.01302223 -0.10375768 -0.14589486  0.06184666
 -0.03734955  0.13344465 -0.02392997  0.04506896 -0.2101184  -0.19764677
 -0.18975581  0.06793331 -0.20797633 -0.21620728  0.21812053 -0.09943408
  0.19662867 -0.0225061  -0.00632891 -0.1044658   0.0708309  -0.11517549
 -0.16240972 -0.21043451] 0.06739646196365356*/
    static const fixed weights46[] ={
    2, 1, 0, -1, 1, -1, 1, 0, -1, 1, -2, 2, 1, 2, 1, 2, 1, 0, 1, 2, -1, -1, 2, -1, -1, 
    -1, 0, -1, -1, 0, 0, 1, 0, 0, -2, -2, -2, 1, -2, -2, 2, -1, 2, 0, 0, -1, 1, -1, 
    -1, -2
    };
    
    static const neuron_t neuron46 = {weights46, 1  };
    neurons[46]=neuron46;

    /* [-0.09591785  0.17849945  0.154575   -0.1085057   0.15616141  0.08805938
  0.16365196  0.17771576  0.16614704 -0.02290621  0.16360839  0.15538947
  0.0742075  -0.23587863 -0.03846191 -0.15200377  0.0112641  -0.15946534
  0.10506307  0.03414689  0.12126811 -0.01472186 -0.02693799  0.22386481
  0.23740263 -0.23473112 -0.11931369 -0.15944946  0.02433001  0.15965773
 -0.09182404  0.2171111  -0.07720198 -0.0984519  -0.02400769 -0.17215687
  0.14532505 -0.04727325 -0.151013    0.23989366  0.04940762 -0.16181788
 -0.19378585  0.2379321   0.21964927  0.09306948 -0.05120371  0.12329395
 -0.15157142 -0.03668274] 0.03659361973404884*/
    static const fixed weights47[] ={
    -1, 1, 1, -1, 1, 1, 1, 1, 1, 0, 1, 1, 1, -2, 0, -1, 0, -1, 1, 0, 1, 0, 0, 2, 2, 
    -2, -1, -1, 0, 1, -1, 2, -1, -1, 0, -1, 1, 0, -1, 2, 0, -1, -2, 2, 2, 1, 0, 1, -1, 
    0
    };
    
    static const neuron_t neuron47 = {weights47, 0  };
    neurons[47]=neuron47;

    /* [-0.10890965 -0.13907677  0.18452804 -0.00534989  0.06587313 -0.21488136
 -0.09250101 -0.05115278 -0.04502915  0.11937378  0.22881486 -0.22475675
  0.15157901 -0.03351365 -0.10150665 -0.0749097   0.03678145  0.01051287
 -0.1298386   0.12664     0.10673775 -0.11192907  0.01860298 -0.10434975
  0.07558416 -0.16741708 -0.18267956  0.03293543 -0.00461842 -0.22148953
 -0.08788078 -0.16228423  0.21297236  0.00086229 -0.07890593  0.18839104
 -0.20685807  0.0976152   0.03318392 -0.01740752  0.1568806   0.11108665
 -0.16985542  0.06130306 -0.20888504 -0.05960338  0.17173369  0.0127397
  0.2230319  -0.02668542] 0.005477484315633774*/
    static const fixed weights48[] ={
    -1, -1, 1, 0, 1, -2, -1, 0, 0, 1, 2, -2, 1, 0, -1, -1, 0, 0, -1, 1, 1, -1, 0, -1, 
    1, -1, -1, 0, 0, -2, -1, -1, 2, 0, -1, 2, -2, 1, 0, 0, 1, 1, -1, 0, -2, 0, 1, 0, 
    2, 0
    };
    
    static const neuron_t neuron48 = {weights48, 0  };
    neurons[48]=neuron48;

    /* [ 0.03992309  0.07445849 -0.04449788 -0.20243798  0.0254399   0.15334691
  0.08305211 -0.19405594 -0.08422989 -0.13074474  0.00847892 -0.12176112
 -0.07676403  0.23495619  0.22966103  0.22384308 -0.17103137 -0.05767815
 -0.24042007  0.07726751  0.1412902  -0.16565211  0.1034172   0.23534928
  0.20857073 -0.12276567 -0.14411037 -0.18722749 -0.24283078  0.05366524
 -0.08724101 -0.13014397 -0.15772104  0.07580207 -0.04422264  0.076712
  0.24334647  0.02464069  0.13257314  0.2164288   0.0378942   0.16051362
  0.1231517   0.15326981 -0.23016421  0.06921707  0.19013132  0.2291892
  0.00624503  0.12799425] -0.019607048481702805*/
    static const fixed weights49[] ={
    0, 1, 0, -2, 0, 1, 1, -2, -1, -1, 0, -1, -1, 2, 2, 2, -1, 0, -2, 1, 1, -1, 1, 2, 
    2, -1, -1, -1, -2, 0, -1, -1, -1, 1, 0, 1, 2, 0, 1, 2, 0, 1, 1, 1, -2, 1, 2, 2, 
    0, 1
    };
    
    static const neuron_t neuron49 = {weights49, 0  };
    neurons[49]=neuron49;

    dense_layer_t layer= { 50, neurons};
    return layer;
}


typedef struct{
    float acc_error;
    int match;
    int total;
} measures_info_t;

float measure_error(data1d_t o_real, data1d_t o_pred, float bnd_error, measures_info_t* info){
    int i;
    float error;

    info->total=o_real.length;
    info->match=0;
    info->acc_error=0;

    for (i=0; i<o_real.length; i++){
        printf("%f   %f\n", FX2FL(o_real.data[i]), FX2FL(o_pred.data[i]));
        error = fabs(FX2FL(o_real.data[i])-FX2FL(o_pred.data[i]));
        info->acc_error += error;
        if (error <= bnd_error)
            info->match++;
    }
}

data1d_t input = { 50, (fixed[]){  0,  8, 16, 16,  8, 16, 16,  8, 16,  8,  0,  0, 16, 16,  0,  0, 16,  8,
  0, 16,  0, 16,  0,  8,  0, 16, 16,  8,  0,  0,  8, 16,  8,  0, 16,  8,
 16, 16, 16, 16,  8,  8, 16,  0,  8,  8, 16,  8, 16, 16 } };

data1d_t real_output = { 50, (fixed[]){ -12,  13,   7,  -4,  -9,   8,  -2,   5,  18, -11,  -4,   7,  -8,  13,  22,
   0,   2,   9,  12,   7,   3,   2, -17,  -5,  -3,  15,   1, -13,  -4, -18,
  -7, -26, -10,   6,  -1,   1, -17,   6, -12,  -3, -16, -15,  -9,   2,  16,
   2, -11,   2,  -6,   6 } };

dense_layer_t dense_7_data;

data1d_t output;


#define ERROR_BOUND 0.5

measures_info_t info; 
  
int main(){

        dense_7_data = init_dense_7_data();

    
    //************************ LAYER  0 ***********************//
    dense_layer(dense_7_data, input, &output);


// Debug function for layer dense_7
print_data1d_t("dense_7", output);
    //************************ LAYER  1 ***********************//
    

// Debug function for layer dense_71
print_data1d_t("dense_71", output);

    measure_error(real_output, output, ERROR_BOUND, & info);
    printf("Test result: %7.3f %%\n", 100.0 * info.match / info.total);
    printf(" Acc. error: %7.3f \n", info.acc_error);
    printf(" Elem count: %3d \n", info.total);
    return 0;
}