#include "mnist_model.h"
#include "embedia_debug.h"

// Prototipos inicialización
conv2d_layer_t init_conv2d_1_data(void);
dense_layer_t init_dense_2_data(void);
dense_layer_t init_dense_3_data(void);


// Variables Globales
conv2d_layer_t conv2d_1_data;
dense_layer_t dense_2_data;
dense_layer_t dense_3_data;


void model_init(){
    conv2d_1_data = init_conv2d_1_data();
    dense_2_data = init_dense_2_data();
    dense_3_data = init_dense_3_data();

}

void model_predict(data3d_t input, data1d_t * output){
  
    data3d_t output0;

    //*************** LAYER 0 ***************//
    // Layer name: conv2d_1
    // convert image for first EmbedIA Conv2d layer
    channel_adapt_layer(input, &output0);
    input = output0;

    conv2d_layer(conv2d_1_data, input, &output0);
    // Activation layer for conv2d_1
    relu_activation(output0.data, 288);
    // Debug function for layer conv2d_1
    print_data3d_t("conv2d_1", output0);

    input = output0;

    //*************** LAYER 1 ***************//
    // Layer name: max_pooling2d_1

    static const pooling2d_layer_t max_pooling2d_1_data = { 3, 3 };
    max_pooling2d_layer(max_pooling2d_1_data, input, &output0);
    // Debug function for layer max_pooling2d_1
    print_data3d_t("max_pooling2d_1", output0);

    input = output0;
    data1d_t output1;

    //*************** LAYER 2 ***************//
    // Layer name: flatten_1
    flatten3d_layer(input, &output1);
    // Debug function for layer flatten_1
    print_data1d_t("flatten_1", output1);
    data1d_t input1;

    input1 = output1;

    //*************** LAYER 3 ***************//
    // Layer name: dense_2
    dense_layer(dense_2_data, input1, &output1);
    // Activation layer for dense_2
    relu_activation(output1.data, 16);
    // Debug function for layer dense_2
    print_data1d_t("dense_2", output1);

    input1 = output1;

    //*************** LAYER 4 ***************//
    // Layer name: dense_3
    dense_layer(dense_3_data, input1, &output1);
    // Activation layer for dense_3
    softmax_activation(output1.data, 10);
    // Debug function for layer dense_3
    print_data1d_t("dense_3", output1);


    *output = output1;

}

int model_predict_class(data3d_t input, data1d_t * results){
  
   
    model_predict(input, results);
    
        return argmax(*results); 
    //return argmax(data1d_t);

}

// Implementación de funciones de inicialización



conv2d_layer_t init_conv2d_1_data(void){

        static filter_t filters[2];
        
        static const float weights0[]={ 
    0.9764544367790222, 0.33683449029922485, 0.36902904510498047, 
    -0.4343154728412628, 0.23754186928272247, 0.8650258183479309, 
    -0.1855737566947937, 0.09644358605146408, 0.8595556616783142, 

    1.0818060636520386, 0.8719789981842041, 0.7508479356765747, 
    -0.42212527990341187, 0.4661608636379242, 0.5624790787696838, 
    -0.405330091714859, 0.2939265966415405, 0.29623088240623474, 

        };
        static filter_t filter0 = {2, 3, weights0, -8.722691563889384e-05};
        filters[0]=filter0;
            
        static const float weights1[]={ 
    0.6195400357246399, 0.6995689868927002, 1.2105120420455933, 
    -0.688978374004364, 0.9732571840286255, 0.18983498215675354, 
    -1.4793752431869507, -1.4054592847824097, -0.6349016427993774, 

    0.9357104897499084, 0.32492509484291077, 0.6816601753234863, 
    -0.27772581577301025, 0.787754237651825, -0.3405722975730896, 
    -1.481498122215271, -1.6683908700942993, -0.70023113489151, 

        };
        static filter_t filter1 = {2, 3, weights1, 0.0036598946899175644};
        filters[1]=filter1;
            
        conv2d_layer_t layer = {2,filters};
        return layer;
        }
        
dense_layer_t init_dense_2_data(void){

    static neuron_t neurons[16];

    static  float weights0[] ={
    -0.14272920787334442, -0.11988161504268646, 0.04006228968501091, 0.32660260796546936, 
    0.020304067060351372, -0.2550179362297058, -0.0677710473537445, -0.2913255989551544, 
    -0.19606764614582062, 0.11687684804201126, -0.056399405002593994, -0.29162168502807617, 
    -0.15809372067451477, -0.14158162474632263, -0.0527208149433136, 0.14461804926395416, 
    0.21502602100372314, -0.015219680964946747, -0.33576497435569763, -0.12704020738601685, 
    -0.25797218084335327, 0.29138728976249695, -0.22458383440971375, -0.08628533780574799, 
    -0.0577140636742115, -0.281162828207016, -0.32176414132118225, 0.2219133824110031, 
    0.0036736689507961273, 0.02412760630249977, 0.11477355659008026, 0.1500989943742752, 
  
    };
    static const neuron_t neuron0 = {weights0, 0.006959324236959219};
    neurons[0]=neuron0;

    static  float weights1[] ={
    -0.20444200932979584, -0.10050338506698608, 0.05861648544669151, 0.41218793392181396, 
    -0.18650376796722412, 0.42287176847457886, -0.24001167714595795, 0.14584259688854218, 
    0.15227141976356506, -0.06864211708307266, 0.6706345677375793, 0.34240520000457764, 
    0.2037845402956009, 0.6467202305793762, -0.24658623337745667, 0.16363820433616638, 
    -0.040982600301504135, 0.25813329219818115, -0.680466890335083, 0.6863778233528137, 
    -0.1281726062297821, -0.3855445683002472, -0.1318223923444748, -0.905246913433075, 
    0.27227070927619934, 0.540445864200592, 0.1530958116054535, 0.18986999988555908, 
    -0.093809112906456, 0.17879585921764374, 0.443193644285202, -0.140995591878891, 
  
    };
    static const neuron_t neuron1 = {weights1, 0.22860319912433624};
    neurons[1]=neuron1;

    static  float weights2[] ={
    0.11055412888526917, -0.05322082340717316, 0.22177347540855408, -0.34059494733810425, 
    -0.0929027646780014, 0.06866080313920975, 0.013996034860610962, 0.01823829859495163, 
    -0.27190330624580383, 0.13680152595043182, -0.36604347825050354, -0.1669205278158188, 
    -0.1354883313179016, 0.27349168062210083, -0.025722652673721313, -0.3100455105304718, 
    -0.3480991721153259, -0.30533432960510254, -0.07726120948791504, -0.3095743656158447, 
    -0.04860001429915428, -0.011957796290516853, -0.19847625494003296, -0.01896444708108902, 
    -0.023595571517944336, -0.198123037815094, -0.045546505600214005, -0.12290468066930771, 
    0.16987863183021545, 0.1532595008611679, -0.23232501745224, -0.11989056318998337, 
  
    };
    static const neuron_t neuron2 = {weights2, -0.022944971919059753};
    neurons[2]=neuron2;

    static  float weights3[] ={
    -0.1253625601530075, 0.03224851191043854, -0.11544066667556763, 0.29053694009780884, 
    -0.14310216903686523, -0.07676088809967041, -0.060247667133808136, 0.251149982213974, 
    -0.29975393414497375, -0.08381332457065582, 0.038092922419309616, -0.26656630635261536, 
    0.028800759464502335, 0.018410274758934975, -0.2019522488117218, -0.14753182232379913, 
    -0.2040606439113617, -0.20841526985168457, -0.19870604574680328, 0.0902969241142273, 
    -0.34947511553764343, -0.3520365059375763, 0.20045609772205353, 0.27361100912094116, 
    -0.2642044723033905, 0.071879081428051, -0.21083582937717438, 0.1701369434595108, 
    0.16144779324531555, -0.17896443605422974, -0.2719436287879944, 0.2825120985507965, 
  
    };
    static const neuron_t neuron3 = {weights3, -0.022927898913621902};
    neurons[3]=neuron3;

    static  float weights4[] ={
    -0.05253804475069046, -0.12992528080940247, -0.06820827722549438, 0.027747342362999916, 
    0.44255903363227844, -0.027543604373931885, -0.013515528291463852, -0.4942646324634552, 
    0.4367036521434784, 0.36875230073928833, 0.35686835646629333, 0.4706783890724182, 
    0.5771283507347107, -0.20744065940380096, 0.2988632321357727, 0.12635597586631775, 
    -0.09266651421785355, 0.04745841026306152, 0.23906487226486206, 0.6183993816375732, 
    0.3868957757949829, 0.13318505883216858, -0.06522412598133087, -0.6498864889144897, 
    0.492048978805542, -0.1492936909198761, -0.3616469204425812, -0.2715945541858673, 
    0.34880077838897705, -0.590539276599884, -0.16595491766929626, -0.17616839706897736, 
  
    };
    static const neuron_t neuron4 = {weights4, -0.8249184489250183};
    neurons[4]=neuron4;

    static  float weights5[] ={
    0.027996182441711426, -0.39375659823417664, 0.0918843150138855, 0.4194989800453186, 
    -0.10692346096038818, 0.9631674289703369, 0.2539561688899994, -0.20278231799602509, 
    0.07376305013895035, 0.7386122345924377, 0.237094447016716, 0.7095531225204468, 
    0.660882830619812, 0.5737529397010803, 0.2470473051071167, 0.18247030675411224, 
    0.4053853154182434, 0.2720620930194855, 0.03892673924565315, -0.33941829204559326, 
    -0.5015222430229187, -0.08568954467773438, -0.12308184802532196, 0.7193023562431335, 
    0.12754395604133606, -0.4461914300918579, -0.029267890378832817, -0.1692933738231659, 
    0.03367043286561966, 0.022112058475613594, 0.19850124418735504, 0.07662650942802429, 
  
    };
    static const neuron_t neuron5 = {weights5, -0.4491945803165436};
    neurons[5]=neuron5;

    static  float weights6[] ={
    0.18031078577041626, -0.495958149433136, 0.05945664271712303, -0.16664309799671173, 
    -0.22061553597450256, 0.06559749692678452, -0.6728394031524658, 1.08958101272583, 
    -0.0009994286810979247, -0.1585838496685028, 0.2911459505558014, 0.07543355971574783, 
    -0.3952610492706299, 0.37779948115348816, -0.28683608770370483, 0.8379952311515808, 
    0.04317100718617439, -0.046678151935338974, 0.13676971197128296, 0.1964646577835083, 
    0.19793784618377686, 0.2523329555988312, -0.35325101017951965, -0.17958632111549377, 
    0.08853662759065628, 0.09333785623311996, 0.13840311765670776, 0.0682159960269928, 
    0.22051043808460236, 0.12163376063108444, 0.048914022743701935, 0.5004271268844604, 
  
    };
    static const neuron_t neuron6 = {weights6, 0.24585817754268646};
    neurons[6]=neuron6;

    static  float weights7[] ={
    -0.38282904028892517, 0.00930725783109665, 0.07042254507541656, -0.06963665783405304, 
    -0.3053678870201111, 0.6299663782119751, -0.4607049822807312, 0.538391649723053, 
    0.19083109498023987, 0.08592866361141205, -0.3720115125179291, -0.30599600076675415, 
    0.4881157875061035, 0.4608076512813568, 0.5044881105422974, -0.9506381750106812, 
    0.744369626045227, -0.8049598932266235, 0.09316536039113998, -0.2751516103744507, 
    0.1458934098482132, -0.48177507519721985, 0.08285347372293472, -0.1007775142788887, 
    0.07276622951030731, -0.03695596382021904, 0.051636237651109695, 0.3968157470226288, 
    -0.061654143035411835, 0.28010955452919006, 0.33817002177238464, 0.46370360255241394, 
  
    };
    static const neuron_t neuron7 = {weights7, 0.005266021005809307};
    neurons[7]=neuron7;

    static  float weights8[] ={
    0.014779793098568916, -0.01207518670707941, 0.19582444429397583, -0.12999701499938965, 
    -0.4690186381340027, 0.402057021856308, -0.33565977215766907, 0.9722801446914673, 
    0.8067919611930847, -0.21870538592338562, 0.5345670580863953, -0.29416555166244507, 
    0.2596668601036072, 0.24476543068885803, 0.24004614353179932, 0.22290274500846863, 
    -0.23995216190814972, 0.34876784682273865, 0.21880389750003815, -0.5658184289932251, 
    0.1732240915298462, 0.02959250845015049, -0.1891223043203354, -0.03396925330162048, 
    0.00711932172998786, -0.14135287702083588, 0.37359899282455444, -0.5211915373802185, 
    0.32260453701019287, -0.360307902097702, -0.6433010101318359, 0.43895459175109863, 
  
    };
    static const neuron_t neuron8 = {weights8, 0.7060710191726685};
    neurons[8]=neuron8;

    static  float weights9[] ={
    0.3545995056629181, -0.08515682816505432, 0.2382785677909851, -0.2854057550430298, 
    -0.16138185560703278, -0.3141385316848755, -0.12707199156284332, 0.7632278203964233, 
    0.8309626579284668, -0.6556738018989563, -0.22261115908622742, -0.058932624757289886, 
    0.17098094522953033, 0.3435068428516388, 0.2741290330886841, 0.4631335735321045, 
    -0.09385418146848679, 0.026865564286708832, -0.3811391294002533, 0.26565754413604736, 
    0.32340332865715027, -0.13878734409809113, 0.6522189378738403, -0.3282778859138489, 
    -0.06757143139839172, -0.07635673135519028, 0.5790647864341736, -0.031125212088227272, 
    -0.13128012418746948, 0.3345886766910553, 0.03949611634016037, -0.4081974923610687, 
  
    };
    static const neuron_t neuron9 = {weights9, -0.08008363097906113};
    neurons[9]=neuron9;

    static  float weights10[] ={
    -0.27652624249458313, -0.06157848611474037, -0.12336420267820358, 0.28133347630500793, 
    -0.19303108751773834, 0.178119495511055, 0.2618231177330017, -0.19936434924602509, 
    0.5585814118385315, -0.8888297080993652, 0.4357617199420929, -0.8206176161766052, 
    0.11005060374736786, 0.4245413839817047, 0.041460055857896805, -0.073697030544281, 
    0.3148272633552551, 0.504574716091156, -0.5363197922706604, -0.11147016286849976, 
    0.12284786999225616, -0.5982076525688171, 0.15486747026443481, -0.34988871216773987, 
    0.04306190088391304, -0.2175569385290146, -0.07028373330831528, 0.162212535738945, 
    0.0764424204826355, 0.12354294955730438, 0.3778161108493805, -0.3412659168243408, 
  
    };
    static const neuron_t neuron10 = {weights10, 0.1022111177444458};
    neurons[10]=neuron10;

    static  float weights11[] ={
    0.20254133641719818, 0.3171563446521759, 0.5128519535064697, -0.06948347389698029, 
    0.00850691832602024, -0.05400505289435387, -0.021167654544115067, -0.16019268333911896, 
    0.4056304097175598, -0.17578189074993134, -0.7001851797103882, 0.6112277507781982, 
    0.20954719185829163, -0.16322392225265503, 0.5158283710479736, -0.7046152353286743, 
    0.4580306112766266, -0.03755463287234306, 0.2770199775695801, 0.3772200345993042, 
    0.422145813703537, 0.3106662929058075, -0.1691785305738449, 0.9873217940330505, 
    -0.6965935826301575, 0.16531547904014587, -0.030940216034650803, -0.053221043199300766, 
    0.1446780264377594, -0.1639452427625656, 0.4053821563720703, 0.13825440406799316, 
  
    };
    static const neuron_t neuron11 = {weights11, 0.24190275371074677};
    neurons[11]=neuron11;

    static  float weights12[] ={
    0.4119052290916443, -0.013211549259722233, 0.6055057644844055, 0.5217625498771667, 
    0.04650309309363365, 0.4542804956436157, 0.41183340549468994, 0.4051225185394287, 
    -0.43480297923088074, 0.8457167744636536, 0.2510082721710205, -0.1027708575129509, 
    -0.39048704504966736, 0.5851860642433167, 0.10903231054544449, 0.8161405920982361, 
    0.2648915648460388, 0.2731337547302246, -0.09543149918317795, -0.02441488951444626, 
    0.2486085146665573, 0.17415820062160492, 0.33747637271881104, -0.14655759930610657, 
    0.327755868434906, -0.21700431406497955, 0.12974441051483154, 0.4517859220504761, 
    0.23261573910713196, 0.8421317934989929, 0.5105366706848145, -0.07151687890291214, 
  
    };
    static const neuron_t neuron12 = {weights12, -0.7902076840400696};
    neurons[12]=neuron12;

    static  float weights13[] ={
    -0.2693956792354584, 0.3029906451702118, 0.25824564695358276, -0.4626634120941162, 
    0.6738889217376709, -0.9164268970489502, 0.46977049112319946, 0.08050403743982315, 
    0.6863264441490173, -0.2939286231994629, 0.5431137084960938, -0.6143364310264587, 
    -0.2529415786266327, -0.4105954170227051, 0.21652713418006897, -0.3247149586677551, 
    0.7548303604125977, -0.11258839070796967, 0.19411763548851013, -0.6216896176338196, 
    -0.384125292301178, -0.1756315678358078, -0.630773663520813, 0.6941589117050171, 
    -0.11483781784772873, 0.2583135962486267, 0.22353650629520416, -0.047893401235342026, 
    0.3727899193763733, 0.32960569858551025, 0.32618650794029236, 0.4295174181461334, 
  
    };
    static const neuron_t neuron13 = {weights13, 1.2678221464157104};
    neurons[13]=neuron13;

    static  float weights14[] ={
    0.16726931929588318, 0.8074846267700195, -0.24711908400058746, 1.0314619541168213, 
    0.1085035502910614, -1.178936243057251, -0.38220056891441345, -1.4259881973266602, 
    -0.36963504552841187, 0.80621737241745, 0.31508877873420715, 0.3976565897464752, 
    0.8116790056228638, -0.05714723467826843, -0.04472091794013977, -0.40144893527030945, 
    -0.427217036485672, -0.0012734206393361092, -0.27940821647644043, 0.04351268336176872, 
    -0.34680840373039246, 0.06808611005544662, -0.2702960669994354, 0.29867491126060486, 
    0.16034433245658875, 0.2298366129398346, 0.4040626287460327, -0.17466691136360168, 
    -0.03163599967956543, 0.1826549917459488, -0.1999392956495285, 0.2499401867389679, 
  
    };
    static const neuron_t neuron14 = {weights14, 0.1856890469789505};
    neurons[14]=neuron14;

    static  float weights15[] ={
    0.09541498869657516, 0.20435360074043274, 0.03702019900083542, -0.0469430536031723, 
    0.0096812192350626, -0.12367436289787292, 0.34557533264160156, -0.2639405131340027, 
    -0.4464210271835327, 0.9660765528678894, -0.21583302319049835, 0.466799259185791, 
    0.08166008442640305, -0.28337833285331726, -0.27349960803985596, -0.03238910064101219, 
    -0.21444393694400787, 0.6115371584892273, 0.23614831268787384, 0.2808431088924408, 
    0.013635510578751564, -0.14710783958435059, -0.38696759939193726, 0.3742145597934723, 
    0.011109424754977226, 0.8966529369354248, 0.019408751279115677, -0.1698802411556244, 
    0.5283114314079285, -0.6254211664199829, -0.11042208224534988, 0.6925719380378723, 
  
    };
    static const neuron_t neuron15 = {weights15, 0.6501567363739014};
    neurons[15]=neuron15;

    dense_layer_t layer= {16, neurons};
    return layer;
}

dense_layer_t init_dense_3_data(void){

    static neuron_t neurons[10];

    static  float weights0[] ={
    0.3365471065044403, 0.2279173731803894, 0.4050099551677704, 0.32275912165641785, 
    -0.483733206987381, 0.5473424792289734, -0.6851882338523865, 0.47444242238998413, 
    -0.5285999178886414, 0.5982987880706787, -0.6320517063140869, -0.17439401149749756, 
    -0.16936105489730835, 0.7042922377586365, 0.0755964070558548, -1.5581684112548828, 
  
    };
    static const neuron_t neuron0 = {weights0, 0.12067174166440964};
    neurons[0]=neuron0;

    static  float weights1[] ={
    -0.24406500160694122, -0.043270356953144073, -0.10711059719324112, -0.12692931294441223, 
    -0.4713708162307739, -0.575394332408905, 0.19532714784145355, -0.48863524198532104, 
    0.747653067111969, -0.9567548036575317, -1.1274933815002441, -0.6699327826499939, 
    -0.24496683478355408, 1.123069405555725, 0.5937827229499817, 0.8506085872650146, 
  
    };
    static const neuron_t neuron1 = {weights1, 0.9804543852806091};
    neurons[1]=neuron1;

    static  float weights2[] ={
    0.19891145825386047, -0.6072803735733032, 0.22756537795066833, -0.230874702334404, 
    -0.3443790376186371, 0.6107586026191711, -0.05859103426337242, 0.5894501805305481, 
    -0.6556219458580017, -1.1279531717300415, -0.4436856806278229, 0.5007854700088501, 
    0.24985268712043762, -0.07647465914487839, 0.38698309659957886, 0.649349570274353, 
  
    };
    static const neuron_t neuron2 = {weights2, 0.0155480382964015};
    neurons[2]=neuron2;

    static  float weights3[] ={
    -0.4032728672027588, -0.09242919087409973, -0.2164773941040039, 0.13708482682704926, 
    0.5642200708389282, -0.04198216646909714, -0.23410864174365997, -0.25663071870803833, 
    -0.7711387276649475, -0.26300737261772156, 0.5379740595817566, -0.3130727708339691, 
    0.7748203277587891, -0.6900055408477783, 0.5652109980583191, 0.1455702930688858, 
  
    };
    static const neuron_t neuron3 = {weights3, -0.4981929063796997};
    neurons[3]=neuron3;

    static  float weights4[] ={
    -0.28389349579811096, -1.0635275840759277, -0.28867384791374207, 0.42774444818496704, 
    0.21436691284179688, -0.8650444149971008, -0.061572395265102386, -0.6560124158859253, 
    0.15694694221019745, 0.47196048498153687, 0.018381737172603607, 0.5877119898796082, 
    -0.2981536090373993, 0.4472450911998749, -0.44661352038383484, 0.6127457618713379, 
  
    };
    static const neuron_t neuron4 = {weights4, 0.4158354699611664};
    neurons[4]=neuron4;

    static  float weights5[] ={
    -0.013488016091287136, 0.7055516839027405, -0.3298357427120209, 0.27273085713386536, 
    -0.3388883173465729, 0.17158374190330505, 0.7120794057846069, -0.5708619952201843, 
    0.022214610129594803, 0.4120035469532013, -0.2829382121562958, -0.44235268235206604, 
    0.4514804184436798, -0.6599006652832031, -0.792344331741333, -0.0871293842792511, 
  
    };
    static const neuron_t neuron5 = {weights5, -0.21856161952018738};
    neurons[5]=neuron5;

    static  float weights6[] ={
    -0.05342520773410797, -0.8002218008041382, 0.03381165489554405, -0.4572887122631073, 
    -0.8942491412162781, -0.6838002800941467, 0.45857399702072144, 0.8211580514907837, 
    0.27477192878723145, 0.35429272055625916, -0.6014639139175415, 0.11780761182308197, 
    0.521528959274292, 0.028710367158055305, -0.9735894799232483, -0.9219799041748047, 
  
    };
    static const neuron_t neuron6 = {weights6, 0.37001967430114746};
    neurons[6]=neuron6;

    static  float weights7[] ={
    0.08766116201877594, -0.4940762519836426, 0.07325085252523422, 0.011587457731366158, 
    -0.08103945106267929, 0.8911874294281006, -0.45106035470962524, -0.2473587989807129, 
    0.42186760902404785, 0.26143699884414673, 1.3948287963867188, 0.01525392197072506, 
    -0.6048048138618469, -0.6744434237480164, 0.9230156540870667, 0.3380860686302185, 
  
    };
    static const neuron_t neuron7 = {weights7, -0.21735906600952148};
    neurons[7]=neuron7;

    static  float weights8[] ={
    -0.3012068569660187, -0.5484221577644348, -0.4800567626953125, -0.4640219509601593, 
    0.5803267955780029, 0.48945337533950806, -0.034783948212862015, 0.0016275859670713544, 
    0.2473164200782776, -0.3240382671356201, -1.3115617036819458, -0.34937912225723267, 
    0.5330204367637634, 0.12043142318725586, -0.29824307560920715, -0.9104909300804138, 
  
    };
    static const neuron_t neuron8 = {weights8, -0.7270554304122925};
    neurons[8]=neuron8;

    static  float weights9[] ={
    0.41411182284355164, 0.060150764882564545, 0.22037695348262787, 0.16772189736366272, 
    0.5837758183479309, -0.25861960649490356, -0.15904153883457184, 0.6027462482452393, 
    0.6357134580612183, 0.2344646453857422, -0.3719047009944916, 0.2758713662624359, 
    -0.6691634654998779, -0.5007846355438232, -0.2583017647266388, -0.2285335212945938, 
  
    };
    static const neuron_t neuron9 = {weights9, 0.19828976690769196};
    neurons[9]=neuron9;

    dense_layer_t layer= {10, neurons};
    return layer;
}
