#include "mnist_model.h"
#include "embedia_debug.h"

// Prototipos inicialización
separable_conv2d_layer_t init_separable_conv2d_data(void);
separable_conv2d_layer_t init_separable_conv2d_1_data(void);
dense_layer_t init_dense_data(void);
dense_layer_t init_dense_1_data(void);


// Variables Globales
separable_conv2d_layer_t separable_conv2d_data;
separable_conv2d_layer_t separable_conv2d_1_data;
dense_layer_t dense_data;
dense_layer_t dense_1_data;


void model_init(){
    separable_conv2d_data = init_separable_conv2d_data();
    separable_conv2d_1_data = init_separable_conv2d_1_data();
    dense_data = init_dense_data();
    dense_1_data = init_dense_1_data();

}

void model_predict(data3d_t input, data1d_t * output){
  
    data3d_t output0;

    //*************** LAYER 0 ***************//
    // Layer name: separable_conv2d
    separable_conv2d_layer(separable_conv2d_data, input, &output0);
    // Activation layer for separable_conv2d
    relu_activation(output0.data, 1152);
    // Debug function for layer separable_conv2d
    print_data3d_t("separable_conv2d", output0);

    input = output0;

    //*************** LAYER 1 ***************//
    // Layer name: separable_conv2d_1
    separable_conv2d_layer(separable_conv2d_1_data, input, &output0);
    // Activation layer for separable_conv2d_1
    relu_activation(output0.data, 800);
    // Debug function for layer separable_conv2d_1
    print_data3d_t("separable_conv2d_1", output0);

    input = output0;

    //*************** LAYER 2 ***************//
    // Layer name: max_pooling2d

    static const pooling2d_layer_t max_pooling2d_data = { 3, 3 };
    max_pooling2d_layer(max_pooling2d_data, input, &output0);
    // Debug function for layer max_pooling2d
    print_data3d_t("max_pooling2d", output0);

    input = output0;
    data1d_t output1;

    //*************** LAYER 3 ***************//
    // Layer name: flatten
    flatten3d_layer(input, &output1);
    // Debug function for layer flatten
    print_data1d_t("flatten", output1);
    data1d_t input1;

    input1 = output1;

    //*************** LAYER 4 ***************//
    // Layer name: dense
    dense_layer(dense_data, input1, &output1);
    // Activation layer for dense
    relu_activation(output1.data, 16);
    // Debug function for layer dense
    print_data1d_t("dense", output1);

    input1 = output1;

    //*************** LAYER 5 ***************//
    // Layer name: dense_1
    dense_layer(dense_1_data, input1, &output1);
    // Activation layer for dense_1
    softmax_activation(output1.data, 10);
    // Debug function for layer dense_1
    print_data1d_t("dense_1", output1);


    *output = output1;

}

int model_predict_class(data3d_t input, data1d_t * results){
  
   
    model_predict(input, results);
    
        return argmax(*results); 
    //return argmax(data1d_t);

}

// Implementación de funciones de inicialización



        separable_conv2d_layer_t init_separable_conv2d_data(void){

        
        static const float depth_weights[]={
    0.8319064378738403, 0.8300049304962158, 1.1798628568649292, 
    0.4126482903957367, 0.793897807598114, 0.39961040019989014, 
    0.3238406181335449, -0.6520048975944519, -0.6858610510826111, 
  
        };
        static filter_t depth_filter = {1, 3, depth_weights, 0};

        static filter_t point_filters[8];
        
        static const float point_weights0[]={-0.6532430052757263, 
        };
        static filter_t point_filter0 = {1, 1, point_weights0, 0.43785345554351807};
        point_filters[0] = point_filter0;
        
        static const float point_weights1[]={0.56669020652771, 
        };
        static filter_t point_filter1 = {1, 1, point_weights1, -0.001160576706752181};
        point_filters[1] = point_filter1;
        
        static const float point_weights2[]={1.360800862312317, 
        };
        static filter_t point_filter2 = {1, 1, point_weights2, 0.7038905620574951};
        point_filters[2] = point_filter2;
        
        static const float point_weights3[]={-1.026752233505249, 
        };
        static filter_t point_filter3 = {1, 1, point_weights3, 0.5100281238555908};
        point_filters[3] = point_filter3;
        
        static const float point_weights4[]={-1.1436179876327515, 
        };
        static filter_t point_filter4 = {1, 1, point_weights4, 0.5507919192314148};
        point_filters[4] = point_filter4;
        
        static const float point_weights5[]={1.0959175825119019, 
        };
        static filter_t point_filter5 = {1, 1, point_weights5, 0.07805261015892029};
        point_filters[5] = point_filter5;
        
        static const float point_weights6[]={-1.254736304283142, 
        };
        static filter_t point_filter6 = {1, 1, point_weights6, 0.26225149631500244};
        point_filters[6] = point_filter6;
        
        static const float point_weights7[]={0.6007888913154602, 
        };
        static filter_t point_filter7 = {1, 1, point_weights7, 0.12709321081638336};
        point_filters[7] = point_filter7;
        
        separable_conv2d_layer_t layer = {8, depth_filter, point_filters};
        return layer;
        }
        

        separable_conv2d_layer_t init_separable_conv2d_1_data(void){

        
        static const float depth_weights[]={
    0.3412066102027893, 0.8208485841751099, 0.19893692433834076, 
    0.12114899605512619, 0.9796737432479858, -0.32696565985679626, 
    1.1125428676605225, 0.17682568728923798, 0.20230145752429962, 
  
    -0.3099979758262634, -0.33382654190063477, -0.037422798573970795, 
    -0.07638337463140488, -0.07340169697999954, 0.1037280336022377, 
    -0.3313874900341034, -0.309893399477005, -0.5301607847213745, 
  
    -0.0458606518805027, -0.016215868294239044, -0.27722349762916565, 
    0.40268516540527344, -0.27670592069625854, -0.8665611743927002, 
    0.30533233284950256, 0.6402730941772461, 0.2767144739627838, 
  
    -0.28335297107696533, 0.3941965401172638, -0.3897479176521301, 
    0.11019144207239151, 0.6536635756492615, -0.5307405591011047, 
    0.5525640249252319, -0.21429011225700378, -0.5496469140052795, 
  
    -0.13633885979652405, -0.7652698755264282, -0.8296285271644592, 
    0.7769871950149536, -0.20815429091453552, -0.210817351937294, 
    0.9733850955963135, 0.8065539002418518, 0.6408114433288574, 
  
    -0.08656051009893417, -0.5327519178390503, -0.11675745993852615, 
    -0.1581866443157196, -0.534903883934021, 0.3251900374889374, 
    -0.05007145181298256, 0.3038480281829834, 0.5024657249450684, 
  
    -0.670922040939331, -1.0026772022247314, -0.10615889728069305, 
    -0.24941310286521912, 0.2017296850681305, 0.04646484926342964, 
    0.4241933822631836, -0.10394001007080078, -0.32060131430625916, 
  
    -0.2592351734638214, -0.5339664816856384, 0.2765982151031494, 
    0.14411360025405884, -0.2714550793170929, -0.48570680618286133, 
    -0.4801580309867859, -0.8971056342124939, -0.3690509498119354, 
  
        };
        static filter_t depth_filter = {8, 3, depth_weights, 0};

        static filter_t point_filters[8];
        
        static const float point_weights0[]={-1.4353148937225342, -0.15907393395900726, 0.9978169202804565, -0.8163581490516663, -0.6777026057243347, -0.471966952085495, 1.2384170293807983, -0.38434016704559326, 
        };
        static filter_t point_filter0 = {8, 1, point_weights0, 0.29766690731048584};
        point_filters[0] = point_filter0;
        
        static const float point_weights1[]={0.08993492275476456, -0.5092887878417969, -0.20671527087688446, 0.32850807905197144, 0.4040968418121338, 0.685325562953949, 0.7009364366531372, -0.7771087884902954, 
        };
        static filter_t point_filter1 = {8, 1, point_weights1, -0.08043133467435837};
        point_filters[1] = point_filter1;
        
        static const float point_weights2[]={0.12125328928232193, 0.13999450206756592, -0.6064735651016235, 0.10287221521139145, 1.6078108549118042, -0.6980239152908325, 1.3252002000808716, 1.0814563035964966, 
        };
        static filter_t point_filter2 = {8, 1, point_weights2, -0.10242316126823425};
        point_filters[2] = point_filter2;
        
        static const float point_weights3[]={-0.28085091710090637, -0.3392965793609619, 1.227962851524353, 0.13145790994167328, -0.44824814796447754, 0.6754109263420105, 0.7977641224861145, -0.1476052850484848, 
        };
        static filter_t point_filter3 = {8, 1, point_weights3, 0.0638975203037262};
        point_filters[3] = point_filter3;
        
        static const float point_weights4[]={0.9501031041145325, 0.07322898507118225, -0.4675391912460327, 1.379547357559204, -0.5606694221496582, 0.9982161521911621, -0.03445032611489296, -0.1297818124294281, 
        };
        static filter_t point_filter4 = {8, 1, point_weights4, 0.23450154066085815};
        point_filters[4] = point_filter4;
        
        static const float point_weights5[]={-0.46738335490226746, -0.8772291541099548, 0.0008154219249263406, 0.6688116788864136, 0.7102850079536438, -0.39504361152648926, -0.3165852129459381, -0.5985254645347595, 
        };
        static filter_t point_filter5 = {8, 1, point_weights5, 0.007488416042178869};
        point_filters[5] = point_filter5;
        
        static const float point_weights6[]={-0.5162429213523865, -0.49210619926452637, 0.03735726326704025, -0.25327154994010925, 0.22039830684661865, -0.5517784357070923, -0.6956523060798645, -0.6459216475486755, 
        };
        static filter_t point_filter6 = {8, 1, point_weights6, -0.09032130241394043};
        point_filters[6] = point_filter6;
        
        static const float point_weights7[]={-0.49675968289375305, -0.2136719524860382, -0.9480228424072266, -0.41596516966819763, -0.43688586354255676, -0.7521741986274719, -1.3437535762786865, -0.1334151029586792, 
        };
        static filter_t point_filter7 = {8, 1, point_weights7, -0.09998927265405655};
        point_filters[7] = point_filter7;
        
        separable_conv2d_layer_t layer = {8, depth_filter, point_filters};
        return layer;
        }
        
dense_layer_t init_dense_data(void){

    static neuron_t neurons[16];

    static  float weights0[] ={
    -0.014188900589942932, -0.2659418284893036, -0.1423146277666092, 0.12825916707515717, 
    0.08049441128969193, -0.08612024784088135, -0.32688140869140625, 0.10548488050699234, 
    -0.11974095553159714, 0.08212707191705704, 0.09843500703573227, 0.13936972618103027, 
    0.0912957563996315, 0.07187002152204514, 0.15569543838500977, 0.17976701259613037, 
    -0.20186856389045715, -0.31565675139427185, -0.26926863193511963, 0.11095515638589859, 
    -0.247110515832901, -0.011474408209323883, 0.01849191077053547, -0.28245750069618225, 
    0.13704842329025269, -0.11718408018350601, 0.14561133086681366, -0.07168575376272202, 
    0.14733581244945526, -0.18548467755317688, 0.005006341263651848, 0.13972613215446472, 
    0.08662595599889755, -0.0038296314887702465, 0.04009272903203964, -0.24360081553459167, 
    0.020808827131986618, -0.13507947325706482, -0.02199261263012886, -0.16650967299938202, 
    -0.3038840591907501, -0.24571393430233002, 0.17237642407417297, -0.05012287572026253, 
    -0.10827311128377914, -0.17988751828670502, -0.07930800318717957, 0.1671927124261856, 
    -0.02449898235499859, -0.11757194250822067, -0.08070769160985947, -0.09544117003679276, 
    0.061744555830955505, -0.18995898962020874, 0.1011248454451561, -0.0631873607635498, 
    0.16150537133216858, -0.21394333243370056, 0.08519864827394485, 0.07182122021913528, 
    -0.19226320087909698, 0.07899719476699829, -0.16016414761543274, -0.04380941763520241, 
    -0.285601943731308, -0.2987177073955536, -0.22246891260147095, -0.11484924703836441, 
    0.11905146390199661, -0.011011214926838875, -0.17266109585762024, -0.2410811483860016, 
  
    };
    static const neuron_t neuron0 = {weights0, -0.025446759536862373};
    neurons[0]=neuron0;

    static  float weights1[] ={
    -0.070406474173069, -0.04131672903895378, -0.09231104701757431, 0.167179673910141, 
    -0.19463326036930084, 0.032579317688941956, -0.020599285140633583, 0.09075842052698135, 
    0.067203089594841, 0.16122443974018097, -0.21869000792503357, 0.16444604098796844, 
    -0.26810529828071594, -0.04837879166007042, -0.07973308116197586, -0.26802337169647217, 
    -0.2640581727027893, -0.12189822643995285, -0.1551501452922821, 0.06339391320943832, 
    0.19792357087135315, -0.28265681862831116, -0.1136678010225296, 0.05723825842142105, 
    0.09135866165161133, 0.18963739275932312, 0.02559070661664009, -0.06770117580890656, 
    0.09119323641061783, -0.0437396839261055, -0.24532274901866913, -0.11218056082725525, 
    -0.15102562308311462, 0.04687659069895744, -0.10577567666769028, -0.04362129420042038, 
    0.07768168300390244, 0.04496348276734352, 0.17279015481472015, -0.01396371889859438, 
    0.048262931406497955, 0.09052111953496933, -0.006187249906361103, -0.23276370763778687, 
    -0.20320521295070648, -0.2855031192302704, -0.1651921421289444, -0.12421838939189911, 
    0.06460057944059372, 0.1239069402217865, 0.20222154259681702, -0.09527856111526489, 
    0.19579511880874634, -0.1487836241722107, -0.10772741585969925, -0.14746351540088654, 
    0.1868085265159607, -0.23405805230140686, -0.10275422781705856, 0.0348982959985733, 
    0.07751282304525375, -0.024331172928214073, -0.18604949116706848, -0.2927556037902832, 
    -0.16588720679283142, -0.2129031866788864, -0.19591912627220154, -0.1399666666984558, 
    0.04940005764365196, 0.1243862733244896, 0.030499998480081558, -0.11436447501182556, 
  
    };
    static const neuron_t neuron1 = {weights1, -0.014505702070891857};
    neurons[1]=neuron1;

    static  float weights2[] ={
    -0.24269907176494598, 0.13483379781246185, 0.09676963835954666, -0.2537498474121094, 
    -0.029040459543466568, 0.1915057748556137, -0.21723809838294983, 0.17348584532737732, 
    -0.1390734314918518, -0.16004931926727295, 0.010287714190781116, 0.09207985550165176, 
    0.08582987636327744, -0.07166063785552979, -0.2756664752960205, -0.26032018661499023, 
    -0.08619895577430725, 0.13551421463489532, -0.2907765209674835, 0.11868289113044739, 
    -0.20179922878742218, 0.20885449647903442, 0.1265561282634735, -0.018932299688458443, 
    0.025041380897164345, 0.036200590431690216, 0.03794337436556816, 0.039947260171175, 
    0.02674105018377304, 0.08438778668642044, 0.22504347562789917, 0.18991076946258545, 
    0.1799549162387848, -0.139851912856102, 0.046247903257608414, 0.21108457446098328, 
    -0.046504370868206024, -0.1698717325925827, 0.025100544095039368, -0.28097209334373474, 
    0.22506187856197357, -0.2663447856903076, -0.22040247917175293, -0.2875973582267761, 
    -0.11434906721115112, -0.2744399905204773, -0.02877134270966053, -0.05346474424004555, 
    -0.25451305508613586, -0.07870601862668991, 0.04913845658302307, -0.2384139448404312, 
    -0.13296660780906677, -0.27132171392440796, -0.05947202816605568, 0.05398014932870865, 
    0.12215720117092133, 0.004598816391080618, 0.03182467073202133, 0.0004912334261462092, 
    -0.009886166080832481, -0.28899601101875305, 0.04472455754876137, -0.2599624991416931, 
    -0.24185378849506378, -0.02316325716674328, 0.20159700512886047, -0.11020340025424957, 
    0.0773579552769661, -0.27388182282447815, 0.2156275510787964, 0.19379651546478271, 
  
    };
    static const neuron_t neuron2 = {weights2, -0.019671699032187462};
    neurons[2]=neuron2;

    static  float weights3[] ={
    -0.13216859102249146, -0.0033306567929685116, -0.02837790548801422, -0.14481179416179657, 
    0.059586744755506516, 0.14484553039073944, 0.007346415426582098, -0.318299800157547, 
    0.38386353850364685, -0.15457497537136078, -0.0611104853451252, 0.11744467169046402, 
    0.41036397218704224, -0.06289783865213394, 0.008701788261532784, -0.2312699258327484, 
    -0.15422934293746948, 0.03681433945894241, 0.494739830493927, -0.0057888878509402275, 
    0.4014870822429657, 0.3526594340801239, 0.056543804705142975, -0.047171805053949356, 
    0.3504374027252197, 0.09871593862771988, -0.1425042301416397, 0.025870976969599724, 
    -0.10586164146661758, 0.4289262592792511, -0.1981397420167923, -0.11526820808649063, 
    0.301955908536911, 0.011685000732541084, -0.13374494016170502, -0.20538340508937836, 
    -0.06323927640914917, 0.21447154879570007, 0.09047427773475647, 0.1215086355805397, 
    -0.1281690001487732, -0.27936068177223206, 0.15421751141548157, 0.06977084279060364, 
    0.29120245575904846, -0.22541169822216034, -0.08134195953607559, 0.2528456151485443, 
    0.14085198938846588, -0.5113335251808167, -0.24757155776023865, -0.33915218710899353, 
    0.5553684234619141, -0.020081115886569023, -0.107449471950531, 0.06865880638360977, 
    0.12238138914108276, 0.018820038065314293, -0.4292161762714386, -0.03753335401415825, 
    0.04318815469741821, 0.25253114104270935, 0.3232286274433136, -0.24647367000579834, 
    0.20639915764331818, -0.15305855870246887, 0.27927306294441223, 0.28693991899490356, 
    0.16849517822265625, -0.2517264783382416, 0.1282544583082199, -0.22144171595573425, 
  
    };
    static const neuron_t neuron3 = {weights3, 0.139943465590477};
    neurons[3]=neuron3;

    static  float weights4[] ={
    0.3393497169017792, -0.030562492087483406, 0.12030303478240967, -0.057033829391002655, 
    0.12372071295976639, 0.4444049000740051, 0.1419341266155243, -0.09109627455472946, 
    0.17777051031589508, -0.09323356300592422, -0.1193869486451149, -0.3684646189212799, 
    0.08819761127233505, -0.0029888437129557133, -0.1418938934803009, -0.09778433293104172, 
    0.5991215109825134, -0.4137263000011444, -0.04272109642624855, -0.3853621482849121, 
    -0.30333414673805237, 0.2558950185775757, 0.15494872629642487, 0.05321869999170303, 
    -0.47401827573776245, 0.0232717115432024, -0.4086148738861084, -0.24845728278160095, 
    0.43699362874031067, -0.38338080048561096, 0.1619047224521637, 0.09230716526508331, 
    -0.027850205078721046, 0.012363547459244728, -0.13166998326778412, -0.10514766722917557, 
    0.19480034708976746, 0.2383207231760025, -0.05626962333917618, -0.014807317405939102, 
    0.034001898020505905, -0.00391093036159873, 0.04230180010199547, -0.1710061877965927, 
    0.46727028489112854, 0.20188744366168976, 0.3070860803127289, -0.31499671936035156, 
    0.26242315769195557, 0.35461437702178955, -0.11614350229501724, 0.04636703059077263, 
    -0.2202272266149521, 0.22902196645736694, 0.0016007203375920653, -0.13634248077869415, 
    0.06266555190086365, 0.05211428925395012, 0.19569821655750275, -0.04763980209827423, 
    -0.004298523999750614, 0.09113078564405441, 0.31588661670684814, 0.04555974900722504, 
    -0.25870591402053833, 0.12602499127388, 0.06521157920360565, 0.5126231908798218, 
    0.5950321555137634, 0.22548808157444, 0.06229143589735031, -0.08958080410957336, 
  
    };
    static const neuron_t neuron4 = {weights4, -0.048522114753723145};
    neurons[4]=neuron4;

    static  float weights5[] ={
    0.04230698198080063, -0.07897523045539856, -0.1218915805220604, -0.14709246158599854, 
    -0.12285926938056946, -0.5798425674438477, -0.5341202616691589, -0.011327327229082584, 
    0.519730806350708, -0.17128078639507294, -0.003311855485662818, -0.06588463485240936, 
    0.1323675960302353, 0.027708102017641068, 0.05494527146220207, -0.186397984623909, 
    0.20540787279605865, -0.06272456794977188, -0.45445525646209717, -0.29811131954193115, 
    0.5838135480880737, -0.3100191056728363, -0.05338265746831894, -0.24170812964439392, 
    0.36421990394592285, 0.1537710726261139, -0.16985034942626953, 0.21111348271369934, 
    0.4274802505970001, 0.5142354965209961, 0.41035982966423035, 0.11748141795396805, 
    0.1928269863128662, -0.3321310877799988, 0.03135203570127487, -0.06808360666036606, 
    -0.23977448046207428, -0.2409220039844513, -0.04721728339791298, -0.20538429915905, 
    -0.07174207270145416, 0.3318770229816437, -0.011686544865369797, 0.07559555768966675, 
    0.07914800941944122, -0.21084746718406677, -0.10988647490739822, -0.08508732914924622, 
    0.1604699343442917, 0.11882881820201874, 0.17150704562664032, -0.2640395164489746, 
    0.0008784432429820299, 0.28507179021835327, 0.3094577491283417, 0.3927150368690491, 
    0.18378996849060059, -0.09617713838815689, -0.2253541201353073, 0.07878632098436356, 
    0.2023458331823349, -0.21089552342891693, 0.06121953949332237, -0.01589861698448658, 
    0.3133547902107239, -0.14187070727348328, 0.18952202796936035, -0.07818925380706787, 
    0.006523153278976679, 0.27593573927879333, 0.2750270664691925, 0.956956684589386, 
  
    };
    static const neuron_t neuron5 = {weights5, -0.0538652129471302};
    neurons[5]=neuron5;

    static  float weights6[] ={
    -0.2855406403541565, -0.21828700602054596, -0.05056152492761612, 0.08477779477834702, 
    0.1372077614068985, -0.1807764321565628, 0.2454264760017395, 0.025809774175286293, 
    -0.22843821346759796, 0.09513017535209656, 0.26225313544273376, 0.13608843088150024, 
    -0.06433574110269547, -0.07470114529132843, 0.3083174228668213, 0.24325129389762878, 
    -0.2664458453655243, 0.18478037416934967, -0.44612744450569153, 0.3196612000465393, 
    -0.3787959814071655, 0.23893672227859497, -0.08692020922899246, -0.08949649333953857, 
    0.4187786877155304, 0.17764775454998016, 0.23386089503765106, 0.09179595857858658, 
    0.3004096746444702, 0.19372902810573578, -0.10827314108610153, -0.12068148702383041, 
    0.234038844704628, 0.21527248620986938, -0.18754388391971588, 0.33039990067481995, 
    -0.29472485184669495, 0.009929820895195007, 0.1293470710515976, 0.15146011114120483, 
    -0.23076221346855164, 0.4616934359073639, 0.022185998037457466, -0.002336860867217183, 
    -0.46341437101364136, 0.2923864424228668, 0.03978889063000679, 0.15292690694332123, 
    0.18624122440814972, 0.3185630440711975, 0.04794925078749657, 0.09268899261951447, 
    -0.12344416975975037, 0.06888630241155624, 0.048316676169633865, -0.08112889528274536, 
    -0.014082653447985649, 0.07573860138654709, 0.32153040170669556, 0.35222503542900085, 
    -0.1871335655450821, 0.0847979485988617, -0.2666303515434265, 0.1236886978149414, 
    -0.10054069012403488, 0.3096873462200165, 0.20243564248085022, -0.30738767981529236, 
    0.2821498513221741, -0.235983744263649, -0.10401899367570877, -0.04457548260688782, 
  
    };
    static const neuron_t neuron6 = {weights6, 0.19931578636169434};
    neurons[6]=neuron6;

    static  float weights7[] ={
    -0.04891550913453102, 0.12060081958770752, 0.10116561502218246, 0.15702442824840546, 
    -0.12221117317676544, -0.17959828674793243, 0.16455760598182678, 0.07320470362901688, 
    -0.10032682120800018, -0.11283230036497116, -0.17138361930847168, -0.2183564007282257, 
    -0.17059332132339478, -0.15664418041706085, -0.14241167902946472, 0.10094112157821655, 
    -0.13155215978622437, 0.0725652351975441, 0.17237119376659393, 0.08375958353281021, 
    -0.2779998779296875, 0.09298013150691986, 0.13854554295539856, 0.05385977774858475, 
    0.15565767884254456, -0.1108487993478775, -0.0718768909573555, 0.07839661091566086, 
    -0.26385584473609924, -0.2168506383895874, 0.020129071548581123, -0.18546618521213531, 
    -0.21968291699886322, -0.25452280044555664, -0.04940882325172424, 0.13564832508563995, 
    0.03056439757347107, -0.04177922010421753, 0.19456073641777039, -0.1737343668937683, 
    -0.25426697731018066, -0.1979375034570694, -0.26217135787010193, -0.04294056445360184, 
    0.14297163486480713, 0.05344540253281593, -0.11083988845348358, 0.005406094714999199, 
    -0.22979706525802612, -0.13779759407043457, 0.2322322428226471, -0.1853112131357193, 
    0.03887416794896126, 0.15066860616207123, -0.11080831289291382, -0.27599552273750305, 
    -0.023546822369098663, -0.22256866097450256, 0.17908844351768494, -0.19318528473377228, 
    0.18386615812778473, 0.1225525438785553, 0.17569974064826965, -0.010898181237280369, 
    0.14108768105506897, 0.20778203010559082, -0.015529834665358067, 0.04546114802360535, 
    0.19981473684310913, -0.1326635628938675, -0.13758355379104614, -0.007213018834590912, 
  
    };
    static const neuron_t neuron7 = {weights7, -0.01966584473848343};
    neurons[7]=neuron7;

    static  float weights8[] ={
    0.22226682305335999, 0.1504351794719696, 0.2280675172805786, 0.22043953835964203, 
    0.02348368987441063, -0.06193690374493599, -0.2980554699897766, 0.11322800070047379, 
    -0.20291322469711304, -0.016845790669322014, 0.20892305672168732, 0.27707090973854065, 
    -0.32941728830337524, 0.16639827191829681, 0.052919626235961914, 0.40778979659080505, 
    -0.1378621757030487, 0.2565082311630249, 0.33369433879852295, -0.23084942996501923, 
    -0.30600830912590027, -0.2562108337879181, 0.05432196334004402, 0.31300675868988037, 
    -0.2526364326477051, -0.008366884663701057, -0.023000147193670273, -0.0033561191521584988, 
    -0.049697522073984146, -0.28092798590660095, 0.39661213755607605, -0.08396320790052414, 
    -0.11300641298294067, 0.18833106756210327, 0.16281075775623322, 0.37212425470352173, 
    0.48830586671829224, -0.012246481142938137, -0.1977161020040512, 0.06481164693832397, 
    -0.20473720133304596, 0.23577573895454407, 0.03146379068493843, 0.27423977851867676, 
    -0.1329064518213272, 0.09154381603002548, -0.2639799416065216, 0.15256306529045105, 
    0.08372556418180466, -0.013549750670790672, -0.25693994760513306, -0.5256392955780029, 
    0.015307320281863213, 0.25894081592559814, -0.017780376598238945, -0.03775908425450325, 
    -0.08689659833908081, 0.10241018235683441, -0.20118913054466248, 0.2317294031381607, 
    0.018565930426120758, 0.30088862776756287, -0.13078078627586365, 0.2196487933397293, 
    -0.14448940753936768, 0.15938732028007507, 0.10353267192840576, 0.42881840467453003, 
    -0.1622219830751419, -0.09845253825187683, -0.026059754192829132, 0.050491753965616226, 
  
    };
    static const neuron_t neuron8 = {weights8, -0.17295579612255096};
    neurons[8]=neuron8;

    static  float weights9[] ={
    -0.20112520456314087, 0.12158028036355972, 0.2190430611371994, 0.12579911947250366, 
    0.05835120007395744, 0.18069902062416077, -0.10011502355337143, -0.0004121663805563003, 
    0.12715654075145721, -0.026491165161132812, 0.038363438099622726, 0.07032208144664764, 
    -0.2444874346256256, 0.061032459139823914, 0.025105752050876617, -0.0875592827796936, 
    -0.21286241710186005, -0.2669271230697632, -0.19677738845348358, -0.20692530274391174, 
    0.08881659805774689, -0.1208852082490921, -0.15850180387496948, -0.2799627184867859, 
    -0.1312716156244278, -0.1276065558195114, -0.26406458020210266, -0.0495942048728466, 
    -0.09237788617610931, -0.2575293481349945, -0.2163747251033783, 0.04587457329034805, 
    0.1725594848394394, 0.19433248043060303, -0.12938907742500305, -0.1872953623533249, 
    -0.2511012554168701, 0.19339202344417572, -0.07784926146268845, 0.07104440778493881, 
    -0.07647167146205902, 0.18560689687728882, 0.22571834921836853, 0.07816474139690399, 
    0.1323927640914917, -0.2726423740386963, -0.20824719965457916, -0.1825733631849289, 
    -0.227823406457901, -0.013398007489740849, -0.1917979121208191, -0.2597138285636902, 
    -0.23974549770355225, -0.17182515561580658, 0.022352874279022217, -0.059923041611909866, 
    0.05581700801849365, -0.19481879472732544, 0.17056627571582794, 0.02216941863298416, 
    -0.28471770882606506, -0.20738692581653595, -0.21161232888698578, 0.17805948853492737, 
    -0.0796419307589531, -0.2801884114742279, 0.1366746872663498, -0.24994082748889923, 
    -0.19332216680049896, -0.28096774220466614, -0.04313405230641365, -0.1681029051542282, 
  
    };
    static const neuron_t neuron9 = {weights9, -0.02748945727944374};
    neurons[9]=neuron9;

    static  float weights10[] ={
    -0.24420930445194244, 0.3213580548763275, 0.11484850943088531, 0.13025012612342834, 
    -0.31917908787727356, 0.1061859130859375, -0.2845975160598755, -0.09823842346668243, 
    0.04161877557635307, 0.21800856292247772, 0.1458439826965332, 0.11999481916427612, 
    -0.19402344524860382, -0.14830823242664337, 0.047756537795066833, -0.1995493620634079, 
    -0.1396367847919464, -0.07705947011709213, -0.026827210560441017, 0.17242038249969482, 
    -0.07182589918375015, 0.17882633209228516, -0.2134084850549698, 0.036449797451496124, 
    -0.7065213918685913, 0.21620996296405792, 0.5949040651321411, 0.4809735119342804, 
    0.09366976469755173, -0.2048555612564087, 0.18206952512264252, -0.12726446986198425, 
    -0.07181457430124283, -0.1586509644985199, 0.055240098387002945, -0.0790523961186409, 
    -0.1532304584980011, -0.20045214891433716, 0.057619694620370865, 0.007128873839974403, 
    0.16970016062259674, -0.3369123041629791, 0.20112234354019165, -0.11140010505914688, 
    -0.03039136528968811, -0.35065755248069763, -0.31572991609573364, -0.10094912350177765, 
    -0.32466790080070496, 0.382243275642395, 0.19912470877170563, 0.3589220941066742, 
    0.25760146975517273, 0.38116809725761414, 0.3836365342140198, 0.16902366280555725, 
    -0.3083818852901459, 0.5439080595970154, 0.3292097747325897, 0.03620757907629013, 
    0.1929699033498764, 0.10811866074800491, -0.06865768879652023, -0.3449874520301819, 
    -0.011589685454964638, 0.19669534265995026, 0.3071177303791046, 0.7594335079193115, 
    0.08349557965993881, -0.31217965483665466, -0.05094294622540474, -0.06722799688577652, 
  
    };
    static const neuron_t neuron10 = {weights10, -0.10093506425619125};
    neurons[10]=neuron10;

    static  float weights11[] ={
    -0.07689566165208817, -0.07509808242321014, -0.19312280416488647, -0.19833512604236603, 
    0.07679268717765808, 0.1154782846570015, -0.04974382743239403, 0.11727523058652878, 
    -0.16509206593036652, 0.045621391385793686, 0.18948768079280853, -0.0396132729947567, 
    0.21629391610622406, 0.13691109418869019, 0.12561021745204926, 0.4523548483848572, 
    -0.30079811811447144, -0.0040233987383544445, 0.6961931586265564, 0.10067202895879745, 
    0.3642948567867279, -0.25921520590782166, -0.11546122282743454, 0.25128233432769775, 
    0.20977546274662018, 0.1267547607421875, -0.3760426342487335, -0.25747790932655334, 
    0.07750173658132553, -0.13085275888442993, 0.12446719408035278, -0.0002770227147266269, 
    0.3974427878856659, -0.010552620515227318, 0.33533957600593567, 0.04561959207057953, 
    -0.08293677866458893, 0.3590920567512512, 0.20275123417377472, 0.1217624694108963, 
    -0.1979803889989853, -0.4402821660041809, 0.2712572515010834, 0.5096127986907959, 
    -0.3095369338989258, 0.006369073875248432, -0.24599117040634155, 0.19756078720092773, 
    0.0060898433439433575, 0.16672568023204803, 0.5763750076293945, 0.06330043077468872, 
    -0.5191323161125183, 0.2786850035190582, -0.2469594031572342, 0.41641512513160706, 
    -0.12337826192378998, 0.050655562430620193, 0.16507400572299957, 0.18090605735778809, 
    0.04436584562063217, 0.14621296525001526, -0.007013946305960417, -0.21522679924964905, 
    0.39267826080322266, 0.39558014273643494, -0.3586026430130005, -0.3277090787887573, 
    0.100664421916008, 0.18012845516204834, 0.05103122815489769, 0.005845966748893261, 
  
    };
    static const neuron_t neuron11 = {weights11, 0.23300957679748535};
    neurons[11]=neuron11;

    static  float weights12[] ={
    -0.3654826581478119, -0.06134689971804619, -0.02499757520854473, -0.07358201593160629, 
    0.26840847730636597, -0.11234618723392487, -0.22354847192764282, -0.18983817100524902, 
    0.020496441051363945, -0.39100876450538635, -0.14780327677726746, -0.52752286195755, 
    -0.053190719336271286, 0.1910502016544342, 0.1458374708890915, 0.07400940358638763, 
    -0.02248881198465824, -0.08579472452402115, -0.2525089979171753, -0.11890994757413864, 
    0.23778490722179413, -0.08462890237569809, 0.07111889123916626, 0.20064671337604523, 
    0.646258533000946, -0.03422229364514351, 0.4989645183086395, 0.04905189201235771, 
    0.05911337211728096, 0.17702525854110718, -0.19731491804122925, 0.005395206622779369, 
    0.2753468453884125, 0.37026894092559814, -0.03388082608580589, 0.5007432699203491, 
    -0.39000654220581055, 0.07998577505350113, -0.2557005286216736, 8.664764754939824e-05, 
    -0.13196521997451782, -0.03424552455544472, 0.14739538729190826, 0.0655655637383461, 
    -0.1546790450811386, 0.03464638069272041, 0.2304840087890625, -0.03661409765481949, 
    0.29796847701072693, -0.13792702555656433, 0.6435490250587463, -0.05018814280629158, 
    0.3168124258518219, -0.21910257637500763, 0.07394532114267349, 0.3647201955318451, 
    0.1748378723859787, -0.22313304245471954, 0.4622330665588379, -0.06559956818819046, 
    -0.17953501641750336, -0.014927065931260586, 0.2671435475349426, 0.3010052740573883, 
    0.3701684772968292, -0.6700251698493958, -0.24568401277065277, 0.24270762503147125, 
    -0.4333309233188629, 0.22812046110630035, -0.10349661856889725, 0.07006971538066864, 
  
    };
    static const neuron_t neuron12 = {weights12, 0.09463673084974289};
    neurons[12]=neuron12;

    static  float weights13[] ={
    -0.06064710393548012, 0.1275809109210968, 0.17163583636283875, -0.20187193155288696, 
    0.24671508371829987, 0.00748397596180439, 0.12018723040819168, 0.1142026036977768, 
    -0.2435859739780426, 0.12529583275318146, 0.18420451879501343, 0.3269316256046295, 
    0.057570844888687134, 0.05940799042582512, 0.2515324652194977, 0.5655257105827332, 
    -0.10653436183929443, -0.11219213902950287, -0.044831614941358566, 0.14827188849449158, 
    -0.6871739625930786, 0.007079863455146551, -0.3045201599597931, 0.0622456930577755, 
    0.4133668839931488, -0.11815110594034195, 0.1430465131998062, -0.07051046937704086, 
    0.29419076442718506, 0.06854569911956787, 0.332571804523468, -0.0742754340171814, 
    -0.17979411780834198, 0.25791671872138977, 0.055925190448760986, -0.07470036298036575, 
    -0.30867570638656616, -0.1371212750673294, -0.16283465921878815, -0.028820211067795753, 
    -0.017115503549575806, 0.3231283724308014, 0.1290353685617447, -0.11571735143661499, 
    0.22529584169387817, 0.08256984502077103, 0.12975336611270905, -0.22511835396289825, 
    -0.05556907877326012, -0.022720132023096085, -0.38518226146698, 0.07232632488012314, 
    0.45535311102867126, -0.21912191808223724, 0.2930591106414795, 0.16398662328720093, 
    0.018256546929478645, 0.07798543572425842, -0.005759139079600573, -0.008646046742796898, 
    0.0969000905752182, 0.12737543880939484, 0.25063246488571167, 0.07170826941728592, 
    -0.03496474772691727, -0.430521160364151, -0.17201021313667297, -0.009839415550231934, 
    -0.02949628233909607, -0.006161816418170929, -0.2879912853240967, -0.18626508116722107, 
  
    };
    static const neuron_t neuron13 = {weights13, -0.020382145419716835};
    neurons[13]=neuron13;

    static  float weights14[] ={
    -0.09169508516788483, 0.3342953622341156, 0.4982823431491852, 0.5220024585723877, 
    0.16731055080890656, 0.23984408378601074, -0.24704423546791077, 0.2673392593860626, 
    -0.01673007383942604, -0.22012370824813843, 0.034924741834402084, 0.08872182667255402, 
    -0.3523044288158417, 0.1063152477145195, -0.4045265316963196, -0.24572069942951202, 
    0.5144262909889221, 0.219919353723526, -0.3187652826309204, 0.10697056353092194, 
    -0.061863142997026443, 0.19587966799736023, 0.30712273716926575, -0.2514909505844116, 
    -0.381157249212265, -0.0839981883764267, 0.7461678981781006, 0.09161072969436646, 
    -0.12519073486328125, -0.03195355460047722, -0.17309702932834625, -0.15657615661621094, 
    -0.29224589467048645, 0.034298334270715714, 0.05596616864204407, 0.2394508272409439, 
    0.023892516270279884, -0.044569697231054306, 0.06615640968084335, -0.1018252745270729, 
    0.41488558053970337, -0.04382973909378052, -0.37326541543006897, -0.16777828335762024, 
    0.6811249256134033, 0.17171697318553925, 0.25635331869125366, 0.11471283435821533, 
    -0.01457567885518074, -0.15629668533802032, 0.18273702263832092, -0.14341609179973602, 
    0.31205689907073975, 0.17030292749404907, 0.08057381957769394, 0.049856118857860565, 
    -0.10181695967912674, -0.10393252968788147, -0.1405053287744522, -0.22854889929294586, 
    0.22821033000946045, -0.14424584805965424, 0.028965862467885017, -0.25075384974479675, 
    0.23366276919841766, 0.0760388970375061, 0.23047596216201782, 0.1371660977602005, 
    -0.34044504165649414, -0.23324406147003174, 0.23589830100536346, 0.23449666798114777, 
  
    };
    static const neuron_t neuron14 = {weights14, -0.15867352485656738};
    neurons[14]=neuron14;

    static  float weights15[] ={
    -0.3232891261577606, -0.026722107082605362, 0.30436259508132935, 0.4787059724330902, 
    0.16792991757392883, -0.2452869713306427, -0.12275499105453491, -0.09910896420478821, 
    -0.2415260225534439, -0.03363372012972832, 0.23815399408340454, 0.44114214181900024, 
    0.09652021527290344, 0.17450714111328125, -0.14131775498390198, -0.12011078745126724, 
    0.055153511464595795, 0.11816038191318512, -0.2392742782831192, 0.11436628550291061, 
    -0.2788354158401489, -0.17207609117031097, 0.027317557483911514, -0.560132622718811, 
    -0.09184285998344421, -0.19838161766529083, 0.16493678092956543, 0.28840187191963196, 
    -0.04267295077443123, 0.24354547262191772, 0.10033558309078217, -0.10995115339756012, 
    0.04531874135136604, -0.19355334341526031, 0.26264265179634094, -0.1343144327402115, 
    -0.04228736087679863, -0.07278776913881302, 0.15465903282165527, 0.2064768671989441, 
    0.5195429921150208, -0.08953782916069031, -0.050011128187179565, -0.31151047348976135, 
    0.03459077328443527, 0.1993361860513687, 0.07816901057958603, 0.11939453333616257, 
    -0.11860775202512741, 0.09813447296619415, 0.6378756761550903, -0.052046038210392, 
    0.1009892150759697, -0.16249985992908478, 0.013085787184536457, 0.2722201645374298, 
    -0.07545290142297745, -0.02146429941058159, 0.22061830759048462, -0.3041127920150757, 
    0.24629752337932587, -0.3631933927536011, -0.16005434095859528, 0.07273314148187637, 
    0.5032853484153748, -0.570397138595581, -0.41867563128471375, -0.5113409161567688, 
    0.43311768770217896, 0.05769515782594681, 0.24327968060970306, 0.34195470809936523, 
  
    };
    static const neuron_t neuron15 = {weights15, -0.05561766400933266};
    neurons[15]=neuron15;

    dense_layer_t layer= {16, neurons};
    return layer;
}

dense_layer_t init_dense_1_data(void){

    static neuron_t neurons[10];

    static  float weights0[] ={
    -0.14751137793064117, -0.216604083776474, 0.07868807017803192, -0.008906860835850239, 
    0.15766416490077972, 0.14649027585983276, 0.5306492447853088, -0.4654817581176758, 
    -0.20168642699718475, -0.2111845463514328, -0.019339239224791527, 0.1373010277748108, 
    -0.9709755182266235, 0.06952624022960663, -0.3959810137748718, -0.18444004654884338, 
  
    };
    static const neuron_t neuron0 = {weights0, 0.03405735269188881};
    neurons[0]=neuron0;

    static  float weights1[] ={
    0.15274226665496826, 0.06436150521039963, 0.044443607330322266, 0.15500827133655548, 
    0.7443840503692627, -0.4585198163986206, -0.7131683826446533, -0.29689836502075195, 
    -0.675866961479187, -0.05235712602734566, 0.307305246591568, -0.08202885091304779, 
    0.11414413899183273, -0.39238807559013367, 0.31331712007522583, 0.06692637503147125, 
  
    };
    static const neuron_t neuron1 = {weights1, 0.14279401302337646};
    neurons[1]=neuron1;

    static  float weights2[] ={
    -0.22919012606143951, -0.1890106201171875, -0.4902007281780243, -0.3142828643321991, 
    0.23803900182247162, 0.09565053880214691, -0.18634246289730072, -0.02289046347141266, 
    0.4744683802127838, -0.34878695011138916, 0.5897757411003113, -0.4379080533981323, 
    -0.07810628414154053, 0.6039962768554688, -0.01841713860630989, -0.02705109678208828, 
  
    };
    static const neuron_t neuron2 = {weights2, -0.2430598884820938};
    neurons[2]=neuron2;

    static  float weights3[] ={
    0.40039196610450745, 0.3592827320098877, 0.09601084142923355, -0.7285090684890747, 
    0.18279051780700684, -0.816807210445404, 0.40763014554977417, -0.0014108468312770128, 
    0.21167080104351044, 0.22163546085357666, 0.1390700489282608, 0.15147008001804352, 
    0.026951994746923447, -0.37796521186828613, 0.19954310357570648, 0.11885547637939453, 
  
    };
    static const neuron_t neuron3 = {weights3, -0.020870722830295563};
    neurons[3]=neuron3;

    static  float weights4[] ={
    0.4440494477748871, -0.0431058369576931, 0.4433780610561371, -0.18188919126987457, 
    -0.07727674394845963, 0.6823897361755371, -0.27589157223701477, -0.37979596853256226, 
    -0.524069607257843, -0.273708313703537, -0.2945290803909302, 0.027889804914593697, 
    0.5282508730888367, -0.8241065740585327, -0.11537600308656693, -0.03637037053704262, 
  
    };
    static const neuron_t neuron4 = {weights4, -0.17766886949539185};
    neurons[4]=neuron4;

    static  float weights5[] ={
    0.13234679400920868, -0.14137673377990723, -0.444512277841568, 0.2639116048812866, 
    -0.6147509813308716, -0.5789252519607544, 0.43880170583724976, -0.08111231029033661, 
    -0.3475140631198883, -0.0452960729598999, 0.4784480631351471, 0.6709617376327515, 
    -0.0087484335526824, -0.30898499488830566, -0.4009673595428467, -0.23408129811286926, 
  
    };
    static const neuron_t neuron5 = {weights5, 0.2696537673473358};
    neurons[5]=neuron5;

    static  float weights6[] ={
    -0.2345319539308548, 0.4270547032356262, 0.2658859193325043, -0.0037405709736049175, 
    0.432811975479126, 0.004125822801142931, -0.298091858625412, 0.2911781668663025, 
    0.347064346075058, 0.17514248192310333, -0.36370325088500977, 0.6479988098144531, 
    -0.06758539378643036, -0.28963297605514526, -0.6825122237205505, -1.1282780170440674, 
  
    };
    static const neuron_t neuron6 = {weights6, 0.06082722544670105};
    neurons[6]=neuron6;

    static  float weights7[] ={
    0.23658180236816406, 0.018574252724647522, -0.4039117097854614, -0.05595165491104126, 
    -0.494541734457016, 0.4271782338619232, -0.4469848871231079, 0.19287574291229248, 
    0.28939658403396606, -0.4172563850879669, 0.008936220780014992, 0.02964373305439949, 
    -0.547061026096344, -0.15898363292217255, 0.25732421875, 0.6737527251243591
    };
    static const neuron_t neuron7 = {weights7, -0.16543792188167572};
    neurons[7]=neuron7;

    static  float weights8[] ={
    0.27944082021713257, -0.47285595536231995, 0.4037916660308838, 0.41228458285331726, 
    -0.3463643491268158, -0.3746564984321594, 0.3836587965488434, -0.13587085902690887, 
    0.12558089196681976, 0.34011146426200867, -0.39186784625053406, -0.1615268439054489, 
    0.38539043068885803, 0.3190353214740753, 0.10027110576629639, -0.33956000208854675, 
  
    };
    static const neuron_t neuron8 = {weights8, 0.06160487234592438};
    neurons[8]=neuron8;

    static  float weights9[] ={
    0.13702349364757538, 0.21012213826179504, 0.3018288016319275, -0.4701597988605499, 
    -0.17228151857852936, -0.15625236928462982, 0.11686035245656967, -0.2807047367095947, 
    -0.34128856658935547, 0.4705520570278168, -0.6988338828086853, 0.32166922092437744, 
    0.14990662038326263, 0.25748780369758606, -0.3333970308303833, 0.6118034720420837, 
  
    };
    static const neuron_t neuron9 = {weights9, 0.008601265959441662};
    neurons[9]=neuron9;

    dense_layer_t layer= {10, neurons};
    return layer;
}
