#include <stdlib.h>
#include <stdio.h>
#include <math.h>
#include "../embedia/fixed32/embedia.h"
#include "../embedia/fixed32/fixed.h"

dense_layer_t init_dense_data(void){

    static neuron_t neurons[50];

    /* [-0.14200515 -0.14804626 -0.1667185  -0.13019747  0.04710849 -0.13201278
 -0.16407704 -0.15688387 -0.19996572  0.12360243 -0.03022651 -0.16876736
 -0.02018918 -0.20294245 -0.0952957  -0.00981325  0.15908311 -0.19666237
 -0.11872816 -0.24007703  0.11859058  0.08237304 -0.23772952  0.2192166
 -0.20792791 -0.05261074 -0.03520013  0.18383531 -0.05654296  0.1973797
 -0.06666894  0.13713981  0.03406341  0.21545286  0.05657946  0.10062568
  0.12205826 -0.16202357  0.18094496 -0.03118394 -0.11303523 -0.03911892
  0.10376288  0.11489375 -0.07607695  0.02061902  0.02615117  0.03256302
 -0.14621493  0.21343572] 0.0*/
    static const fixed weights0[] ={
    -18613, -19405, -21852, -17065, 6175, -17303, -21506, -20563, -26210, 16201, -3962, 
    -22121, -2646, -26600, -12491, -1286, 20851, -25777, -15562, -31467, 15544, 10797, 
    -31160, 28733, -27254, -6896, -4614, 24096, -7411, 25871, -8738, 17975, 4465, 28240, 
    7416, 13189, 15998, -21237, 23717, -4087, -14816, -5127, 13600, 15059, -9972, 2703, 
    3428, 4268, -19165, 27975
    };
    
    static const neuron_t neuron0 = {weights0, 0  };
    neurons[0]=neuron0;

    /* [-0.2162627  -0.04245843  0.01655428  0.0069278   0.00233947  0.1570765
  0.12420185 -0.11452058 -0.13207422 -0.04452965  0.15475745 -0.1242905
 -0.02313204 -0.23771708 -0.08037417  0.11079948 -0.00169198 -0.0124446
 -0.17724705 -0.01199421 -0.10874508  0.00289567 -0.01758821 -0.22342171
 -0.21669118 -0.24171814  0.16892685 -0.00279784 -0.09068651  0.16762696
  0.24057366  0.00948955  0.2443526  -0.052137    0.17180248  0.21080406
 -0.15056437  0.01645793  0.00787114 -0.20895927  0.17556159 -0.05753705
 -0.0362118   0.1027924  -0.22643079 -0.21039002  0.00898467  0.07710265
  0.03853725  0.05772527] 0.0*/
    static const fixed weights1[] ={
    -28346, -5565, 2170, 908, 307, 20588, 16279, -15010, -17311, -5837, 20284, -16291, 
    -3032, -31158, -10535, 14523, -222, -1631, -23232, -1572, -14253, 380, -2305, -29284, 
    -28402, -31682, 22142, -367, -11886, 21971, 31532, 1244, 32028, -6834, 22518, 27631, 
    -19735, 2157, 1032, -27389, 23011, -7541, -4746, 13473, -29679, -27576, 1178, 10106, 
    5051, 7566
    };
    
    static const neuron_t neuron1 = {weights1, 0  };
    neurons[1]=neuron1;

    /* [-0.13380632  0.2338428   0.20955618  0.24010156 -0.21776119 -0.24414288
 -0.08601454  0.13505702  0.08134787  0.03059609 -0.10464969  0.03132023
  0.10897715  0.05544873  0.04592122  0.14300035  0.00390168 -0.13814646
  0.21622317  0.03786944  0.03387444  0.07081474  0.04147293 -0.10653187
 -0.02237897 -0.1596173   0.2423759  -0.1253719  -0.03923991  0.14752193
  0.06731655  0.21604218 -0.1943368  -0.07810724 -0.22760767  0.18777873
 -0.11537556  0.04217575  0.07730411  0.04119559  0.09672214  0.0621043
 -0.12982956 -0.1507339   0.21261181  0.11963548 -0.05660148  0.08059038
 -0.2392075   0.17698644] 0.0*/
    static const fixed weights2[] ={
    -17538, 30650, 27467, 31471, -28542, -32000, -11274, 17702, 10662, 4010, -13717, 
    4105, 14284, 7268, 6019, 18743, 511, -18107, 28341, 4964, 4440, 9282, 5436, -13963, 
    -2933, -20921, 31769, -16433, -5143, 19336, 8823, 28317, -25472, -10238, -29833, 
    24613, -15123, 5528, 10132, 5400, 12678, 8140, -17017, -19757, 27867, 15681, -7419, 
    10563, -31353, 23198
    };
    
    static const neuron_t neuron2 = {weights2, 0  };
    neurons[2]=neuron2;

    /* [ 0.12412329  0.06942691 -0.10592918 -0.04902793 -0.02179328 -0.05012803
 -0.04264706 -0.0034354  -0.0312317  -0.12372589 -0.09951805 -0.02057241
  0.1818334   0.05447255 -0.13106243 -0.01330461 -0.11175708 -0.03981248
  0.15466823 -0.07369241  0.24067308  0.1654483   0.18684654 -0.16051364
  0.07624917 -0.1482665  -0.10491093 -0.13952056 -0.1684239  -0.22985621
 -0.03700721  0.23892508 -0.04827628  0.03899132 -0.22870882  0.03118791
  0.09364526 -0.18129605  0.02120705  0.15999971 -0.2223559   0.06214355
  0.08336686 -0.01968139  0.23454373  0.12547575  0.04617871 -0.2267681
  0.01366083 -0.1547967 ] 0.0*/
    static const fixed weights3[] ={
    16269, 9100, -13884, -6426, -2856, -6570, -5590, -450, -4094, -16217, -13044, -2696, 
    23833, 7140, -17179, -1744, -14648, -5218, 20273, -9659, 31546, 21686, 24490, -21039, 
    9994, -19434, -13751, -18287, -22076, -30128, -4851, 31316, -6328, 5111, -29977, 
    4088, 12274, -23763, 2780, 20971, -29145, 8145, 10927, -2580, 30742, 16446, 6053, 
    -29723, 1791, -20290
    };
    
    static const neuron_t neuron3 = {weights3, 0  };
    neurons[3]=neuron3;

    /* [ 0.15665792 -0.14312749 -0.03652576  0.10814567 -0.11578162  0.0737312
 -0.12979959  0.01962651  0.0304548   0.23459552  0.21178316 -0.07312855
  0.14986877 -0.07686326  0.18272401  0.09407841 -0.09318051  0.141988
 -0.09152526  0.06226446 -0.15024474 -0.04350846  0.07376553 -0.10994053
  0.16315924  0.03958274  0.21808048 -0.11349478  0.21761204  0.03103502
  0.18957146 -0.21913052  0.02925368 -0.13714734  0.06376113  0.21596228
  0.2072706   0.14266227 -0.08797172  0.05098547  0.19540443  0.18969081
  0.09397195  0.10296713 -0.07439665 -0.0990891  -0.03969072 -0.11602503
  0.12607096 -0.0043496 ] 0.0*/
    static const fixed weights4[] ={
    20533, -18760, -4788, 14175, -15176, 9664, -17013, 2572, 3992, 30749, 27759, -9585, 
    19644, -10075, 23950, 12331, -12213, 18611, -11996, 8161, -19693, -5703, 9669, -14410, 
    21386, 5188, 28584, -14876, 28523, 4068, 24848, -28722, 3834, -17976, 8357, 28307, 
    27167, 18699, -11531, 6683, 25612, 24863, 12317, 13496, -9751, -12988, -5202, -15208, 
    16524, -570
    };
    
    static const neuron_t neuron4 = {weights4, 0  };
    neurons[4]=neuron4;

    /* [-0.07344952  0.23180701  0.03796516 -0.15677491 -0.10832162 -0.08013672
 -0.13163862  0.12802257  0.16881822  0.12806486 -0.01543294  0.13840367
 -0.05611448  0.02725114  0.13285883 -0.00628434 -0.11497559  0.04567687
 -0.21885964 -0.06851055  0.0400901   0.18926083  0.14021651  0.13396756
 -0.15409029 -0.12901883  0.15076791  0.09320118  0.1446497  -0.22620134
  0.1533416  -0.1666539   0.09783699  0.0357279  -0.23801883  0.24207433
 -0.10869877  0.21985982 -0.02297068  0.17616208 -0.13857868 -0.09629826
 -0.22170877  0.23416628  0.1659746   0.13145955  0.02373107 -0.20916092
  0.22548442 -0.23408246] 0.0*/
    static const fixed weights5[] ={
    -9627, 30383, 4976, -20549, -14198, -10504, -17254, 16780, 22127, 16786, -2023, 
    18141, -7355, 3572, 17414, -824, -15070, 5987, -28686, -8980, 5255, 24807, 18378, 
    17559, -20197, -16911, 19761, 12216, 18960, -29649, 20099, -21844, 12824, 4683, 
    -31198, 31729, -14247, 28817, -3011, 23090, -18164, -12622, -29060, 30693, 21755, 
    17231, 3110, -27415, 29555, -30682
    };
    
    static const neuron_t neuron5 = {weights5, 0  };
    neurons[5]=neuron5;

    /* [ 0.07304861  0.16233741  0.20608999  0.16709803  0.09058367 -0.07290021
  0.1289808  -0.01368012 -0.14462698  0.24062525  0.05467491  0.0229782
 -0.03985931 -0.16704929 -0.18203354 -0.03140521 -0.05874804  0.10369579
  0.02996074 -0.17486173 -0.05262236 -0.1708147  -0.0818861   0.13448675
  0.09706388 -0.23242366 -0.08992918  0.12846659  0.21217923  0.14797561
  0.24071996 -0.16834852  0.08689235  0.13403894  0.0405312   0.06532432
 -0.2250909   0.04105003 -0.1630336  -0.00551656 -0.17113806  0.12678595
 -0.23314531 -0.17106858 -0.09430651  0.23394276 -0.13889837 -0.1953146
  0.17075555  0.0577323 ] 0.0*/
    static const fixed weights6[] ={
    9575, 21278, 27013, 21902, 11873, -9555, 16906, -1793, -18957, 31539, 7166, 3012, 
    -5224, -21895, -23860, -4116, -7700, 13592, 3927, -22919, -6897, -22389, -10733, 
    17627, 12722, -30464, -11787, 16838, 27811, 19395, 31552, -22066, 11389, 17569, 
    5313, 8562, -29503, 5381, -21369, -723, -22431, 16618, -30559, -22422, -12361, 30663, 
    -18206, -25600, 22381, 7567
    };
    
    static const neuron_t neuron6 = {weights6, 0  };
    neurons[6]=neuron6;

    /* [ 0.193181    0.09100427  0.11168407 -0.09856315  0.05536883  0.05917157
 -0.14192006  0.0123132   0.05459805  0.07340123 -0.20861441  0.08036681
  0.03267093 -0.08844283 -0.24475501 -0.17758086  0.073927    0.09987657
 -0.02039546  0.23486678 -0.19269207  0.06897528 -0.13982764  0.0171821
 -0.03258573 -0.1024268  -0.19454744 -0.0985927   0.10902779  0.15221359
 -0.07422794 -0.08543836  0.09961604  0.16548847 -0.16555797  0.14125659
  0.23099343 -0.00332567  0.23047794 -0.15793678  0.20616709 -0.02140146
 -0.01610933  0.05305995  0.22576205  0.10616173  0.14844398 -0.08840112
 -0.15865241  0.00127336] 0.0*/
    static const fixed weights7[] ={
    25321, 11928, 14639, -12919, 7257, 7756, -18602, 1614, 7156, 9621, -27344, 10534, 
    4282, -11592, -32081, -23276, 9690, 13091, -2673, 30784, -25257, 9041, -18327, 2252, 
    -4271, -13425, -25500, -12923, 14290, 19951, -9729, -11199, 13057, 21691, -21700, 
    18515, 30277, -436, 30209, -20701, 27023, -2805, -2111, 6955, 29591, 13915, 19457, 
    -11587, -20795, 167
    };
    
    static const neuron_t neuron7 = {weights7, 0  };
    neurons[7]=neuron7;

    /* [-0.24488263 -0.0339736   0.24286051  0.06924154 -0.04277951 -0.14939192
 -0.12011838 -0.03903353  0.17798172  0.15027101  0.08148839  0.00335598
  0.17456709 -0.18353057 -0.09438197  0.02225195 -0.06464764  0.2067443
  0.0449176   0.22700246 -0.2257513   0.2087291   0.05232598 -0.00256716
 -0.2330176   0.20559715 -0.0085918  -0.16676639  0.00607534 -0.23169413
  0.02770869 -0.21752122  0.14641713 -0.11055654  0.2163962   0.11552279
  0.09293996 -0.12430008 -0.0124317  -0.23054995 -0.1648696   0.04034837
 -0.09713554 -0.14618742 -0.15368569  0.02776022 -0.11535618 -0.1397645
  0.18322302 -0.03165226] 0.0*/
    static const fixed weights8[] ={
    -32097, -4453, 31832, 9076, -5607, -19581, -15744, -5116, 23328, 19696, 10681, 440, 
    22881, -24056, -12371, 2917, -8473, 27098, 5887, 29754, -29590, 27359, 6858, -336, 
    -30542, 26948, -1126, -21858, 796, -30369, 3632, -28511, 19191, -14491, 28363, 15142, 
    12182, -16292, -1629, -30219, -21610, 5289, -12732, -19161, -20144, 3639, -15120, 
    -18319, 24015, -4149
    };
    
    static const neuron_t neuron8 = {weights8, 0  };
    neurons[8]=neuron8;

    /* [-0.06241623  0.10591914 -0.10087131 -0.07331853  0.09632783 -0.16964698
  0.11304392  0.08822699 -0.1759269  -0.13910902 -0.23175311 -0.19198175
 -0.17132238  0.23111011 -0.04053986  0.05155377  0.16033225  0.15826686
 -0.16885298  0.00943284  0.06807201  0.24389817 -0.00261143  0.17332305
  0.21018748 -0.2037142   0.16137765  0.06179987  0.13659097 -0.05129388
 -0.21715097 -0.01113521  0.00607352  0.08047567 -0.12846449  0.13965406
  0.00516276  0.01825093  0.03268506  0.02132355  0.03708838  0.23407815
 -0.2006646  -0.10196982 -0.08243267  0.13139431 -0.07341816  0.05689989
 -0.07334651  0.16500212] 0.0*/
    static const fixed weights9[] ={
    -8181, 13883, -13221, -9610, 12626, -22236, 14817, 11564, -23059, -18233, -30376, 
    -25163, -22456, 30292, -5314, 6757, 21015, 20744, -22132, 1236, 8922, 31968, -342, 
    22718, 27550, -26701, 21152, 8100, 17903, -6723, -28462, -1460, 796, 10548, -16838, 
    18305, 677, 2392, 4284, 2795, 4861, 30681, -26302, -13365, -10805, 17222, -9623, 
    7458, -9614, 21627
    };
    
    static const neuron_t neuron9 = {weights9, 0  };
    neurons[9]=neuron9;

    /* [ 0.05136172  0.20830081 -0.1110307  -0.08603743 -0.05977863 -0.12981132
 -0.10159892 -0.11696814  0.08184458 -0.08798952  0.02791353  0.05736227
  0.01155721 -0.15183938  0.16112866  0.02024256 -0.20197913  0.16632621
 -0.03614008 -0.10287058  0.04960708 -0.18164015  0.14206098  0.07367022
 -0.23756838  0.18967079  0.2236654  -0.17292681  0.01191776  0.23276542
 -0.04194117 -0.22043121  0.13317056  0.23502223 -0.12604496  0.08086513
 -0.20416605  0.19758241  0.16848989 -0.18504862  0.01534598 -0.02092913
 -0.20408925 -0.1792598   0.16204612  0.1103525  -0.00525492  0.02508704
 -0.14275168  0.09517021] 0.0*/
    static const fixed weights10[] ={
    6732, 27302, -14553, -11277, -7835, -17015, -13317, -15331, 10728, -11533, 3659, 
    7519, 1515, -19902, 21119, 2653, -26474, 21801, -4737, -13483, 6502, -23808, 18620, 
    9656, -31139, 24861, 29316, -22666, 1562, 30509, -5497, -28892, 17455, 30805, -16521, 
    10599, -26760, 25898, 22084, -24255, 2011, -2743, -26750, -23496, 21240, 14464, 
    -689, 3288, -18711, 12474
    };
    
    static const neuron_t neuron10 = {weights10, 0  };
    neurons[10]=neuron10;

    /* [-0.00539216 -0.06793302  0.08080716  0.07093154 -0.1554018  -0.141928
  0.2283125  -0.11506885  0.03782861  0.11206515 -0.04457952 -0.22327997
 -0.11860114  0.0595087   0.20869021 -0.07361077 -0.01870961 -0.07842155
  0.10133003  0.12930243 -0.20728633  0.06226771 -0.14536767 -0.18801373
  0.02545498 -0.18332727 -0.06757566 -0.23481797  0.16365574  0.04854853
  0.2110504   0.06189249  0.01089908 -0.05144589 -0.08369125  0.19563259
  0.11595975  0.04574864  0.07471143  0.1621996  -0.04707585 -0.12047614
 -0.15229455 -0.12744366  0.05208479 -0.09996043 -0.18074329  0.08465959
 -0.07390703  0.16691022] 0.0*/
    static const fixed weights11[] ={
    -707, -8904, 10592, 9297, -20369, -18603, 29925, -15082, 4958, 14689, -5843, -29266, 
    -15545, 7800, 27353, -9648, -2452, -10279, 13282, 16948, -27169, 8162, -19054, -24643, 
    3336, -24029, -8857, -30778, 21451, 6363, 27663, 8112, 1429, -6743, -10970, 25642, 
    15199, 5996, 9793, 21260, -6170, -15791, -19962, -16704, 6827, -13102, -23690, 11097, 
    -9687, 21877
    };
    
    static const neuron_t neuron11 = {weights11, 0  };
    neurons[11]=neuron11;

    /* [-0.07545184  0.19584872 -0.11115701 -0.08322762  0.02772529 -0.23744562
  0.05713747 -0.21972853  0.02369086 -0.1480673  -0.03127195  0.04551919
  0.11490317  0.0756744   0.15948595 -0.0984644  -0.17527205 -0.1533184
 -0.10530606 -0.10194914  0.03520627  0.17280914 -0.00088295  0.21774735
  0.00441507  0.21409638  0.11897285  0.14120023  0.1068254   0.2269016
 -0.22035353 -0.1217206  -0.12345111 -0.10018907 -0.2291248  -0.17953727
  0.17977951  0.11173572 -0.23935619  0.09901465  0.05443804 -0.07602906
 -0.16688454  0.10569443  0.11329703 -0.13837147 -0.21850732  0.02512045
 -0.14478582 -0.06631678] 0.0*/
    static const fixed weights12[] ={
    -9890, 25670, -14570, -10909, 3634, -31122, 7489, -28800, 3105, -19407, -4099, 5966, 
    15061, 9919, 20904, -12906, -22973, -20096, -13803, -13363, 4615, 22650, -116, 28541, 
    579, 28062, 15594, 18507, 14002, 29740, -28882, -15954, -16181, -13132, -30032, 
    -23532, 23564, 14645, -31373, 12978, 7135, -9965, -21874, 13854, 14850, -18137, 
    -28640, 3293, -18977, -8692
    };
    
    static const neuron_t neuron12 = {weights12, 0  };
    neurons[12]=neuron12;

    /* [-0.03785887 -0.18762666 -0.09249055  0.22537975 -0.0609422  -0.12133877
 -0.12057408 -0.10180286 -0.23127878  0.0522617  -0.01927575  0.03105237
  0.01367749 -0.20898145  0.2071232   0.1745977   0.1860276  -0.19833156
 -0.11267987  0.18323238 -0.17412022  0.17078908  0.12540992  0.21727337
  0.04159619  0.21800734 -0.12149949 -0.00979964 -0.06400718  0.01646675
  0.09406759 -0.12744045  0.14963685  0.24186198  0.1907454  -0.16481057
  0.22830854  0.14362045 -0.24097483 -0.01140659  0.06422682 -0.12449239
  0.10422085  0.20157371  0.1904227  -0.21694511 -0.00049178  0.17990892
 -0.18077248 -0.2438629 ] 0.0*/
    static const fixed weights13[] ={
    -4962, -24593, -12123, 29541, -7988, -15904, -15804, -13344, -30314, 6850, -2527, 
    4070, 1793, -27392, 27148, 22885, 24383, -25996, -14769, 24017, -22822, 22386, 16438, 
    28478, 5452, 28575, -15925, -1284, -8390, 2158, 12330, -16704, 19613, 31701, 25001, 
    -21602, 29925, 18825, -31585, -1495, 8418, -16317, 13660, 26421, 24959, -28435, 
    -64, 23581, -23694, -31964
    };
    
    static const neuron_t neuron13 = {weights13, 0  };
    neurons[13]=neuron13;

    /* [-0.07732695  0.0255699  -0.04410712 -0.23357882 -0.19389214 -0.21797127
  0.23030041 -0.22494748 -0.09038593 -0.17266476 -0.03489593  0.14019223
  0.01667969 -0.12266248 -0.15822732 -0.12052245 -0.23404907 -0.03052618
  0.22844373 -0.10336734  0.04801284  0.02711694 -0.24367923 -0.19872804
  0.12976836  0.19213913  0.04180406 -0.01090318  0.2326809   0.23413514
  0.14522551  0.01160006 -0.20962772 -0.23223089  0.21835099 -0.17401809
  0.13331534 -0.09792465 -0.05756298  0.10271744 -0.13782    -0.02778831
 -0.22857992  0.05731635 -0.01214564  0.01725946 -0.19175182 -0.06550713
 -0.17714134 -0.14740369] 0.0*/
    static const fixed weights14[] ={
    -10135, 3351, -5781, -30616, -25414, -28570, 30186, -29484, -11847, -22632, -4574, 
    18375, 2186, -16078, -20739, -15797, -30677, -4001, 29943, -13549, 6293, 3554, -31940, 
    -26048, 17009, 25184, 5479, -1429, 30498, 30689, 19035, 1520, -27476, -30439, 28620, 
    -22809, 17474, -12835, -7545, 13463, -18064, -3642, -29960, 7513, -1592, 2262, -25133, 
    -8586, -23218, -19320
    };
    
    static const neuron_t neuron14 = {weights14, 0  };
    neurons[14]=neuron14;

    /* [-0.05807088  0.07804663  0.08906339 -0.06118895 -0.01039258  0.18568246
 -0.15605909  0.15824868  0.02299865  0.17337672 -0.1225615   0.18229271
  0.20427422 -0.1821838  -0.1990465   0.22862862  0.20392276 -0.00118908
  0.11790945 -0.05416198  0.15888976  0.14798872  0.05145384  0.03420021
 -0.15452105  0.08078356  0.13888057 -0.12446664 -0.09372216 -0.05793084
 -0.14985111  0.16693918 -0.09544164  0.01486184  0.04159008 -0.1177559
 -0.08954765  0.21565883  0.15807034  0.12042131  0.16653134  0.18325077
 -0.0572888   0.20519973  0.01612617 -0.1545752   0.06282414 -0.19575703
  0.2180299  -0.12048899] 0.0*/
    static const fixed weights15[] ={
    -7611, 10230, 11674, -8020, -1362, 24338, -20455, 20742, 3014, 22725, -16064, 23893, 
    26775, -23879, -26089, 29967, 26729, -156, 15455, -7099, 20826, 19397, 6744, 4483, 
    -20253, 10588, 18203, -16314, -12284, -7593, -19641, 21881, -12510, 1948, 5451, 
    -15435, -11737, 28267, 20719, 15784, 21828, 24019, -7509, 26896, 2114, -20260, 8234, 
    -25658, 28578, -15793
    };
    
    static const neuron_t neuron15 = {weights15, 0  };
    neurons[15]=neuron15;

    /* [-0.11038157 -0.07120134 -0.0159217   0.04333706  0.01352845 -0.08298367
  0.24059393 -0.21737558 -0.20022321  0.07707174 -0.17011657  0.20078693
 -0.1605944  -0.17421058 -0.08567664  0.13373251  0.1873902   0.12521096
  0.03587233  0.22889249  0.01146106  0.2376359   0.12454362  0.08925886
 -0.17117983  0.11816745 -0.02788788 -0.09792127  0.21458842  0.21618204
 -0.23514652 -0.16277051 -0.07335223 -0.24325904 -0.01107231 -0.20614758
  0.05522825  0.06034826 -0.11436203  0.09549607  0.1991495  -0.22887649
  0.04375036  0.1203108  -0.20687075  0.21586908  0.14282908 -0.01071647
 -0.16289988 -0.07346505] 0.0*/
    static const fixed weights16[] ={
    -14468, -9333, -2087, 5680, 1773, -10877, 31535, -28492, -26244, 10102, -22298, 
    26318, -21049, -22834, -11230, 17529, 24562, 16412, 4702, 30001, 1502, 31147, 16324, 
    11699, -22437, 15488, -3655, -12835, 28127, 28335, -30821, -21335, -9614, -31884, 
    -1451, -27020, 7239, 7910, -14990, 12517, 26103, -29999, 5734, 15769, -27115, 28294, 
    18721, -1405, -21352, -9629
    };
    
    static const neuron_t neuron16 = {weights16, 0  };
    neurons[16]=neuron16;

    /* [ 0.1496865  -0.14329381 -0.08293796  0.2138301  -0.19971074 -0.00078683
  0.20211603  0.04262994 -0.07826854  0.21067558 -0.18540919  0.23210265
 -0.09627876 -0.23973872  0.0369512   0.17729475 -0.14286673  0.14935653
 -0.2262574   0.1953622  -0.08257394  0.00158814 -0.13992213  0.21381618
 -0.07926667 -0.15293244  0.0457731   0.14918812 -0.07268938 -0.24040769
 -0.05288494  0.07157685 -0.20201218  0.17056654  0.0237992  -0.17285655
  0.17861734 -0.07562394  0.00339593 -0.13150084 -0.03832455  0.11863728
 -0.14240484 -0.07728556  0.16789825  0.03952177  0.12525643 -0.12211404
  0.02992611 -0.16608024] 0.0*/
    static const fixed weights17[] ={
    19620, -18782, -10871, 28027, -26176, -103, 26492, 5588, -10259, 27614, -24302, 
    30422, -12619, -31423, 4843, 23238, -18726, 19576, -29656, 25607, -10823, 208, -18340, 
    28025, -10390, -20045, 6000, 19554, -9528, -31511, -6932, 9382, -26478, 22356, 3119, 
    -22657, 23412, -9912, 445, -17236, -5023, 15550, -18665, -10130, 22007, 5180, 16418, 
    -16006, 3922, -21768
    };
    
    static const neuron_t neuron17 = {weights17, 0  };
    neurons[17]=neuron17;

    /* [ 0.20564882 -0.19464889 -0.16407436  0.06015597  0.17841949  0.08651848
 -0.18987706  0.19478323 -0.08336952  0.0113702   0.15067445  0.0338272
 -0.1143194   0.08100389  0.07581474 -0.22981638 -0.22321695 -0.12403348
  0.02135153 -0.23466367  0.20878564  0.21476413 -0.05407876 -0.15666616
  0.18345435 -0.0044893  -0.00895903 -0.17256449  0.1374665  -0.13117468
 -0.18772191 -0.22833762 -0.1708463   0.02462967  0.08760123  0.00295699
  0.15647991  0.09557234 -0.23664227 -0.06260248  0.03370322 -0.07462494
  0.11337845 -0.00857551 -0.19536476  0.20723535 -0.09081499  0.08969755
  0.02917619  0.14825954] 0.0*/
    static const fixed weights18[] ={
    26955, -25513, -21506, 7885, 23386, 11340, -24888, 25531, -10927, 1490, 19749, 4434, 
    -14984, 10617, 9937, -30122, -29257, -16257, 2799, -30758, 27366, 28150, -7088, 
    -20535, 24046, -588, -1174, -22618, 18018, -17193, -24605, -29929, -22393, 3228, 
    11482, 388, 20510, 12527, -31017, -8205, 4418, -9781, 14861, -1124, -25607, 27163, 
    -11903, 11757, 3824, 19433
    };
    
    static const neuron_t neuron18 = {weights18, 0  };
    neurons[18]=neuron18;

    /* [-0.18663502 -0.13070695 -0.20270143  0.01845311  0.22473513  0.17607875
  0.24411495  0.00792317 -0.08880666  0.14345454  0.06438024 -0.23029017
 -0.09008569 -0.13092571  0.14369707 -0.0548737   0.10164453  0.13665055
 -0.18260574 -0.16090333 -0.21166618 -0.147497   -0.10156749  0.09396057
  0.20704134 -0.2045105  -0.02914676 -0.05571881 -0.0816233   0.02491753
  0.11493389 -0.15977865  0.01493205  0.11263768  0.09144028 -0.1303395
  0.11134349 -0.11343615 -0.14935093  0.22136118 -0.21192712 -0.15868032
 -0.16386524  0.11188738 -0.14091301 -0.0662602  -0.02206361 -0.11681928
 -0.08221425 -0.07463464] 0.0*/
    static const fixed weights19[] ={
    -24463, -17132, -26568, 2419, 29456, 23079, 31997, 1039, -11640, 18803, 8438, -30185, 
    -11808, -17161, 18835, -7192, 13323, 17911, -23934, -21090, -27744, -19333, -13313, 
    12316, 27137, -26806, -3820, -7303, -10699, 3266, 15065, -20943, 1957, 14764, 11985, 
    -17084, 14594, -14868, -19576, 29014, -27778, -20799, -21478, 14665, -18470, -8685, 
    -2892, -15312, -10776, -9783
    };
    
    static const neuron_t neuron19 = {weights19, 0  };
    neurons[19]=neuron19;

    /* [ 0.05609597  0.08758791 -0.19517028  0.08359088  0.23605262 -0.01228014
 -0.14888197  0.03026606  0.1969633   0.24223529 -0.20311595  0.01286112
 -0.12770277  0.03108437 -0.09526031 -0.11630501  0.03181858 -0.16915537
  0.00731166 -0.14793622 -0.21510375  0.1899678   0.13829328 -0.01545426
  0.2368715  -0.06597252 -0.22190183 -0.0994395  -0.06244783 -0.0615655
  0.08947785 -0.00064667  0.11420487  0.14667378 -0.04460225 -0.04664311
  0.1833302   0.17046775 -0.21013778  0.06708108 -0.13044748  0.12471093
 -0.04396176  0.23459591  0.11961438  0.16592579  0.02997832 -0.1906654
 -0.01949218 -0.03893594] 0.0*/
    static const fixed weights20[] ={
    7353, 11480, -25581, 10956, 30940, -1610, -19514, 3967, 25816, 31750, -26623, 1686, 
    -16738, 4074, -12486, -15244, 4171, -22172, 958, -19390, -28194, 24899, 18126, -2026, 
    31047, -8647, -29085, -13034, -8185, -8070, 11728, -85, 14969, 19225, -5846, -6114, 
    24029, 22344, -27543, 8792, -17098, 16346, -5762, 30749, 15678, 21748, 3929, -24991, 
    -2555, -5103
    };
    
    static const neuron_t neuron20 = {weights20, 0  };
    neurons[20]=neuron20;

    /* [-0.01808392  0.10329826  0.04309697  0.17650534 -0.01701893  0.1408299
  0.04899751 -0.00325529  0.12160794 -0.00335762  0.07063381 -0.06938024
  0.16773789 -0.01072483 -0.10401121  0.16788726  0.17135035 -0.13370015
 -0.13376305  0.15883584 -0.05497281 -0.00588956  0.03687073 -0.1035433
  0.01979412 -0.13098021 -0.2069702   0.14020385  0.14894445  0.10361286
  0.09627877 -0.04756203  0.15544431 -0.17883003 -0.00445449  0.01128577
  0.00559171  0.07485153  0.21487142 -0.14439419  0.07168011 -0.03523202
 -0.00487404 -0.14581257 -0.05802879  0.17108639 -0.17946747 -0.1868459
 -0.1317779  -0.03699851] 0.0*/
    static const fixed weights21[] ={
    -2370, 13540, 5649, 23135, -2231, 18459, 6422, -427, 15939, -440, 9258, -9094, 21986, 
    -1406, -13633, 22005, 22459, -17524, -17533, 20819, -7205, -772, 4833, -13572, 2594, 
    -17168, -27128, 18377, 19522, 13581, 12619, -6234, 20374, -23440, -584, 1479, 733, 
    9811, 28164, -18926, 9395, -4618, -639, -19112, -7606, 22425, -23523, -24490, -17272, 
    -4849
    };
    
    static const neuron_t neuron21 = {weights21, 0  };
    neurons[21]=neuron21;

    /* [ 0.06040497 -0.09705834 -0.22821042  0.07559521  0.09741218 -0.2402645
 -0.16433576  0.06013121  0.12064101  0.13088758 -0.18368731 -0.08030625
 -0.14866239 -0.04520722  0.07355015  0.10148259  0.15929224 -0.01497649
  0.09570245  0.13439314 -0.13536829 -0.1207508  -0.02750723  0.05336751
  0.1978976  -0.07780001 -0.12848295 -0.15488331  0.0682794   0.16161348
  0.10797898  0.07537557 -0.22485906 -0.04411086  0.12034942  0.11222114
 -0.21700169 -0.23013951  0.02303095 -0.23823316  0.11499001 -0.09447898
  0.12183465  0.18552096 -0.1439702   0.21401091 -0.03098439 -0.11549476
 -0.06803896 -0.07188854] 0.0*/
    static const fixed weights22[] ={
    7917, -12722, -29912, 9908, 12768, -31492, -21540, 7882, 15813, 17156, -24076, -10526, 
    -19485, -5925, 9640, 13302, 20879, -1963, 12544, 17615, -17743, -15827, -3605, 6995, 
    25939, -10197, -16841, -20301, 8950, 21183, 14153, 9880, -29473, -5782, 15774, 14709, 
    -28443, -30165, 3019, -31226, 15072, -12384, 15969, 24317, -18870, 28051, -4061, 
    -15138, -8918, -9423
    };
    
    static const neuron_t neuron22 = {weights22, 0  };
    neurons[22]=neuron22;

    /* [-0.04705063 -0.18405202  0.21302696 -0.24064381  0.09923293  0.00204273
 -0.23018308  0.14866261  0.22299333  0.13985871 -0.12577306 -0.14930579
 -0.23419735 -0.02780716 -0.05497211 -0.1172011  -0.03226078  0.02049802
  0.00813968 -0.23303336  0.19604115 -0.15008058 -0.20994285  0.04159807
  0.20891063 -0.00094189  0.07225354 -0.11625811  0.17410912  0.07229687
  0.14480491 -0.083086   -0.00417539  0.10566463 -0.07405035  0.01166035
  0.20377909 -0.2029275  -0.06288688 -0.18752159  0.14492436 -0.0960016
  0.0466675  -0.08012123 -0.2349739   0.15598096  0.06777762 -0.1513373
 -0.23416778 -0.16194245] 0.0*/
    static const fixed weights23[] ={
    -6167, -24124, 27922, -31542, 13007, 268, -30171, 19486, 29228, 18332, -16485, -19570, 
    -30697, -3645, -7205, -15362, -4228, 2687, 1067, -30544, 25696, -19671, -27518, 
    5452, 27382, -123, 9470, -15238, 22821, 9476, 18980, -10890, -547, 13850, -9706, 
    1528, 26710, -26598, -8243, -24579, 18996, -12583, 6117, -10502, -30798, 20445, 
    8884, -19836, -30693, -21226
    };
    
    static const neuron_t neuron23 = {weights23, 0  };
    neurons[23]=neuron23;

    /* [-0.15892953  0.14137857 -0.07373422 -0.18417712 -0.09978038  0.17788015
 -0.0849777  -0.11600396  0.0223176  -0.16111422  0.18771337 -0.0296247
  0.14897026 -0.18974635  0.00063428 -0.11212733 -0.15469824  0.05980392
 -0.17068511  0.16232996  0.03149645 -0.17538582 -0.08352931 -0.09589057
 -0.12844276  0.00829296 -0.02117434 -0.14910349  0.00100203 -0.23932478
  0.17379527 -0.17233935 -0.01890887  0.23188485  0.20221327  0.09646393
  0.2061546   0.21798895  0.10897277 -0.08969329 -0.16896498  0.04446454
  0.20801662 -0.07481387  0.14252894  0.1668986  -0.13162279 -0.10970822
  0.17849027  0.19389553] 0.0*/
    static const fixed weights24[] ={
    -20831, 18531, -9664, -24140, -13078, 23315, -11138, -15205, 2925, -21118, 24604, 
    -3883, 19526, -24870, 83, -14697, -20277, 7839, -22372, 21277, 4128, -22988, -10948, 
    -12569, -16835, 1087, -2775, -19543, 131, -31369, 22780, -22589, -2478, 30394, 26504, 
    12644, 27021, 28572, 14283, -11756, -22147, 5828, 27265, -9806, 18682, 21876, -17252, 
    -14380, 23395, 25414
    };
    
    static const neuron_t neuron24 = {weights24, 0  };
    neurons[24]=neuron24;

    /* [-0.15420622  0.03966911  0.09221165 -0.16954863  0.08925937  0.02132811
  0.07833816 -0.17514789 -0.16810149 -0.07475635 -0.16321021 -0.12921482
  0.07438971  0.03951178 -0.01514386  0.01776738  0.03454845  0.16362683
  0.06513692 -0.21772984 -0.22914232  0.12808652  0.19798915  0.02450545
 -0.11952217 -0.02766338  0.1212907  -0.18562725  0.04352365  0.1286317
  0.18607269 -0.08863287  0.01988398 -0.10212107  0.13567077 -0.22747307
 -0.0832824   0.04427911  0.23373382  0.13371287  0.00028954 -0.18936542
  0.17248307  0.10293536 -0.20466912  0.10391252  0.13406627  0.18288039
  0.1519032  -0.06021868] 0.0*/
    static const fixed weights25[] ={
    -20212, 5200, 12086, -22223, 11699, 2796, 10268, -22957, -22033, -9798, -21392, 
    -16936, 9750, 5179, -1985, 2329, 4528, 21447, 8538, -28538, -30034, 16789, 25951, 
    3212, -15666, -3626, 15898, -24331, 5705, 16860, 24389, -11617, 2606, -13385, 17783, 
    -29815, -10916, 5804, 30636, 17526, 38, -24821, 22608, 13492, -26826, 13620, 17572, 
    23970, 19910, -7893
    };
    
    static const neuron_t neuron25 = {weights25, 0  };
    neurons[25]=neuron25;

    /* [ 0.09634708  0.09850563 -0.2096064   0.01687621  0.2156234  -0.20932099
  0.06439675 -0.19472545  0.02846925  0.2415662  -0.03347528  0.04110096
 -0.00903653 -0.04212502 -0.01820503  0.08765499 -0.17479289 -0.01882403
  0.18033572  0.05513094  0.21632262 -0.22366874 -0.17308052 -0.02336133
 -0.13254938 -0.09736641 -0.10552768 -0.09266762  0.01354901 -0.18876575
 -0.00632657  0.05435885  0.12265296  0.12074862 -0.06924002 -0.13534808
  0.02902095 -0.07799442  0.06831945 -0.22232665  0.14462171  0.08125065
 -0.03086542  0.04708876  0.13815914  0.17567404  0.18404676  0.1005512
 -0.02243148  0.02134807] 0.0*/
    static const fixed weights26[] ={
    12628, 12911, -27474, 2212, 28262, -27436, 8441, -25523, 3732, 31663, -4388, 5387, 
    -1184, -5521, -2386, 11489, -22910, -2467, 23637, 7226, 28354, -29317, -22686, -3062, 
    -17374, -12762, -13832, -12146, 1776, -24742, -829, 7125, 16076, 15827, -9075, -17740, 
    3804, -10223, 8955, -29141, 18956, 10650, -4046, 6172, 18109, 23026, 24123, 13179, 
    -2940, 2798
    };
    
    static const neuron_t neuron26 = {weights26, 0  };
    neurons[26]=neuron26;

    /* [-0.13600072 -0.05113859  0.06796177 -0.23149224  0.2443809   0.23187979
 -0.01136501  0.00493097  0.10146724  0.11816432  0.09525408 -0.07868558
 -0.08381595 -0.09353393 -0.10048026  0.00372046  0.22902955  0.08001401
  0.22123455  0.00429547  0.07592417  0.12287505 -0.02433082 -0.09549099
 -0.06553037 -0.23418    -0.22828332  0.17878635 -0.23957117  0.19754888
  0.15776555  0.08623804  0.04389362  0.16422896 -0.01026468 -0.04727255
 -0.05603652  0.2318226  -0.01682708  0.17948546 -0.11254571 -0.2263147
 -0.04795699 -0.06861444 -0.09923837 -0.20629387  0.07808582 -0.19226493
  0.07472803  0.21186866] 0.0*/
    static const fixed weights27[] ={
    -17826, -6703, 8908, -30342, 32031, 30393, -1490, 646, 13300, 15488, 12485, -10313, 
    -10986, -12260, -13170, 488, 30019, 10488, 28998, 563, 9952, 16105, -3189, -12516, 
    -8589, -30694, -29922, 23434, -31401, 25893, 20679, 11303, 5753, 21526, -1345, -6196, 
    -7345, 30385, -2206, 23526, -14752, -29664, -6286, -8993, -13007, -27039, 10235, 
    -25201, 9795, 27770
    };
    
    static const neuron_t neuron27 = {weights27, 0  };
    neurons[27]=neuron27;

    /* [-0.04000695  0.1579179  -0.0401727  -0.17501819  0.20966129  0.14553241
 -0.20112216  0.04270564 -0.24312787 -0.0642928  -0.18626855  0.0131274
  0.23311915 -0.00734612 -0.23853661 -0.13884972  0.24293141 -0.03725851
  0.1458501  -0.00887248 -0.15744534  0.2370586   0.11063771  0.04548778
 -0.10051705  0.06043161 -0.17699416  0.20226507 -0.06889132  0.02258722
 -0.03669296  0.19825797 -0.11357321  0.06689502 -0.05754505  0.15939368
  0.13328935  0.20413394  0.23769017 -0.16662167 -0.18392962  0.23901899
 -0.13137576 -0.12726787  0.1263163   0.2389689   0.21593098  0.00562473
  0.07697777  0.09730665] 0.0*/
    static const fixed weights28[] ={
    -5244, 20699, -5266, -22940, 27481, 19075, -26361, 5598, -31867, -8427, -24415, 
    1721, 30555, -963, -31265, -18199, 31842, -4884, 19117, -1163, -20637, 31072, 14502, 
    5962, -13175, 7921, -23199, 26511, -9030, 2961, -4809, 25986, -14886, 8768, -7543, 
    20892, 17471, 26756, 31155, -21839, -24108, 31329, -17220, -16681, 16557, 31322, 
    28303, 737, 10090, 12754
    };
    
    static const neuron_t neuron28 = {weights28, 0  };
    neurons[28]=neuron28;

    /* [ 0.13677229 -0.1132147  -0.04007761  0.19067667  0.0791467  -0.15158999
  0.21803246  0.24386202 -0.05293585  0.21671821 -0.00345859  0.20039766
  0.03634898  0.19673185 -0.13307673 -0.20988245 -0.21595399 -0.2308795
  0.05683176 -0.11018097 -0.1227982  -0.1794979  -0.09242375  0.03577538
 -0.23907903 -0.19422871  0.17757006 -0.12453403  0.11029918 -0.00427012
  0.03496455 -0.08053483 -0.16490984 -0.16052496  0.12854151  0.02169909
 -0.05870302 -0.18345955  0.20712496 -0.08763112 -0.02454329 -0.21782707
 -0.00654085  0.08398978  0.23690392 -0.09978032  0.04980899  0.141263
 -0.03927672 -0.15872611] 0.0*/
    static const fixed weights29[] ={
    17927, -14839, -5253, 24992, 10374, -19869, 28578, 31963, -6938, 28406, -453, 26267, 
    4764, 25786, -17443, -27510, -28306, -30262, 7449, -14442, -16095, -23527, -12114, 
    4689, -31337, -25458, 23274, -16323, 14457, -560, 4583, -10556, -21615, -21040, 
    16848, 2844, -7694, -24046, 27148, -11486, -3217, -28551, -857, 11009, 31051, -13078, 
    6529, 18516, -5148, -20805
    };
    
    static const neuron_t neuron29 = {weights29, 0  };
    neurons[29]=neuron29;

    /* [ 0.16794719  0.03485797  0.15823911  0.24185286 -0.17818232  0.16600718
 -0.0146026  -0.05296932 -0.0858193   0.18549632  0.19614364 -0.20741388
 -0.05983686  0.24373873  0.19860195 -0.03880495  0.17823021 -0.21521196
 -0.12682724 -0.21510993  0.06508426 -0.10861047  0.0457768  -0.0419737
 -0.21180874 -0.04261658 -0.00175931 -0.01226361 -0.13353562 -0.20542884
  0.1778061  -0.09661029  0.19642286  0.17710797  0.11439364  0.24171685
 -0.00281326  0.1482579   0.07016619 -0.01305173 -0.08317769 -0.02701811
  0.23647116 -0.21810628  0.03884204 -0.12930727 -0.21040064 -0.23618336
 -0.19893378  0.06361477] 0.0*/
    static const fixed weights30[] ={
    22013, 4569, 20741, 31700, -23355, 21759, -1914, -6943, -11249, 24313, 25709, -27186, 
    -7843, 31947, 26031, -5086, 23361, -28208, -16624, -28195, 8531, -14236, 6000, -5502, 
    -27762, -5586, -231, -1607, -17503, -26926, 23305, -12663, 25746, 23214, 14994, 
    31682, -369, 19432, 9197, -1711, -10902, -3541, 30995, -28588, 5091, -16949, -27578, 
    -30957, -26075, 8338
    };
    
    static const neuron_t neuron30 = {weights30, 0  };
    neurons[30]=neuron30;

    /* [-0.04615395  0.017325   -0.01227097 -0.0552088  -0.03651543 -0.22745806
 -0.16619226 -0.02796298  0.08368675  0.23664321 -0.13973537 -0.20148437
 -0.21273741  0.05182363  0.11320274  0.12092771  0.1612287  -0.10750145
  0.19246663 -0.18312901 -0.08095613  0.03105341  0.04921879  0.1286626
 -0.12342729  0.01978068 -0.15015802  0.01750071  0.13595282 -0.04649191
 -0.05296378 -0.01827039 -0.12332188 -0.05425723  0.23095362 -0.21428795
 -0.03580002 -0.22256848 -0.02792409  0.06504862 -0.15570185  0.01501749
  0.23645557  0.13239338  0.15226854 -0.15336338 -0.12022741 -0.01065433
 -0.19116391 -0.22001615] 0.0*/
    static const fixed weights31[] ={
    -6049, 2271, -1608, -7236, -4786, -29813, -21783, -3665, 10969, 31017, -18315, -26409, 
    -27884, 6793, 14838, 15850, 21133, -14090, 25227, -24003, -10611, 4070, 6451, 16864, 
    -16178, 2593, -19682, 2294, 17820, -6094, -6942, -2395, -16164, -7112, 30272, -28087, 
    -4692, -29172, -3660, 8526, -20408, 1968, 30993, 17353, 19958, -20102, -15758, -1396, 
    -25056, -28838
    };
    
    static const neuron_t neuron31 = {weights31, 0  };
    neurons[31]=neuron31;

    /* [ 0.1201853   0.12344171 -0.1342869  -0.020823    0.13427754  0.17626385
 -0.11954786  0.21479012 -0.20335954 -0.09242503  0.06542687  0.1359259
  0.02775724  0.17765824 -0.0981071   0.04439785 -0.13384667  0.01892249
  0.09533034 -0.2326085  -0.15140615  0.23081936 -0.1764327  -0.02735625
  0.194032    0.23723216  0.19072889  0.23432969 -0.1639331  -0.04052946
  0.22682436  0.10821275  0.19144331  0.225848    0.12687029 -0.20802176
 -0.0807265   0.22703768 -0.04936853 -0.03556526  0.1763586   0.06136338
  0.06847514 -0.00119779  0.09206663 -0.07594942 -0.20331159 -0.2338373
  0.22960608  0.05949639] 0.0*/
    static const fixed weights32[] ={
    15753, 16180, -17601, -2729, 17600, 23103, -15669, 28153, -26655, -12114, 8576, 
    17816, 3638, 23286, -12859, 5819, -17544, 2480, 12495, -30488, -19845, 30254, -23125, 
    -3586, 25432, 31094, 24999, 30714, -21487, -5312, 29730, 14184, 25093, 29602, 16629, 
    -27266, -10581, 29758, -6471, -4662, 23116, 8043, 8975, -157, 12067, -9955, -26648, 
    -30650, 30095, 7798
    };
    
    static const neuron_t neuron32 = {weights32, 0  };
    neurons[32]=neuron32;

    /* [ 0.05467235  0.1775534   0.03742085 -0.09485887 -0.04331475  0.08084045
  0.05607317  0.23931865  0.1131344  -0.22921363 -0.23839253  0.11114843
 -0.23532394 -0.0730892   0.22908859 -0.05864456  0.12552957  0.14764918
  0.03379147 -0.18487039 -0.1698206   0.04117857 -0.23939936 -0.24252968
 -0.20566583  0.05128868  0.21864893  0.04518245  0.05649243  0.21593006
 -0.20310089  0.14740665 -0.06794645 -0.2445227  -0.04480349  0.09507917
 -0.17890596 -0.12667716  0.03240271 -0.05485292 -0.00321902  0.08926289
  0.01058613 -0.12864634 -0.1417806   0.01724778 -0.17133552 -0.20566396
 -0.03908855 -0.04920296] 0.0*/
    static const fixed weights33[] ={
    7166, 23272, 4905, -12433, -5677, 10596, 7350, 31368, 14829, -30043, -31247, 14568, 
    -30844, -9580, 30027, -7687, 16453, 19353, 4429, -24231, -22259, 5397, -31379, -31789, 
    -26957, 6723, 28659, 5922, 7405, 28302, -26621, 19321, -8906, -32050, -5872, 12462, 
    -23450, -16604, 4247, -7190, -422, 11700, 1388, -16862, -18583, 2261, -22457, -26957, 
    -5123, -6449
    };
    
    static const neuron_t neuron33 = {weights33, 0  };
    neurons[33]=neuron33;

    /* [-0.20198917  0.01127519  0.09437205 -0.11337693  0.06543641 -0.03631879
  0.04664455 -0.14451912 -0.22576918  0.05417828  0.15807675  0.06793366
 -0.14247066  0.12372442 -0.14303218 -0.06284273 -0.15170398  0.21622537
 -0.06182586 -0.20854987 -0.14974636  0.10038333  0.01694663 -0.02884015
  0.18061842 -0.05878589 -0.09348284  0.19152044 -0.06348391 -0.02347696
 -0.06678814 -0.2178756  -0.1734373  -0.07720974  0.23898242  0.06425916
 -0.20400603 -0.09140764  0.07725333 -0.10901478  0.20562051  0.22103582
  0.17202891 -0.23207098 -0.12463646  0.02538414 -0.13637337  0.21286209
 -0.02600026  0.21012138] 0.0*/
    static const fixed weights34[] ={
    -26475, 1478, 12370, -14861, 8577, -4760, 6114, -18942, -29592, 7101, 20719, 8904, 
    -18674, 16217, -18748, -8237, -19884, 28341, -8104, -27335, -19628, 13157, 2221, 
    -3780, 23674, -7705, -12253, 25103, -8321, -3077, -8754, -28557, -22733, -10120, 
    31324, 8423, -26739, -11981, 10126, -14289, 26951, 28972, 22548, -30418, -16336, 
    3327, -17875, 27900, -3408, 27541
    };
    
    static const neuron_t neuron34 = {weights34, 0  };
    neurons[34]=neuron34;

    /* [ 1.97558627e-01 -2.21524164e-01  1.28026828e-01 -2.01557666e-01
 -1.08190507e-01 -7.86243826e-02 -1.02621973e-01  1.78460255e-01
 -2.39227250e-01 -1.78895503e-01 -6.98948652e-02  1.62854716e-01
 -1.05912194e-01 -1.47186786e-01 -1.00334436e-01  2.39804313e-01
  2.59662718e-02  2.25273237e-01 -7.58613348e-02 -5.05945832e-02
 -7.99980760e-02  1.26530394e-01 -2.11718440e-01  1.07533440e-01
  9.43682939e-02  4.28725332e-02 -3.93991768e-02  6.57903701e-02
 -3.35741490e-02 -2.33107060e-01 -1.63288713e-01  8.10164064e-02
  4.68689948e-02  2.32166991e-01 -1.52136266e-01  1.22966751e-01
 -9.99729931e-02  9.58036631e-02 -8.30271840e-02 -1.54792145e-01
  1.29650906e-01  2.03518614e-01 -6.69307560e-02  8.30441713e-05
  2.41699964e-02  8.64891708e-03 -5.62877506e-02  1.91498652e-01
 -1.57536268e-02  1.00906640e-02] 0.0*/
    static const fixed weights35[] ={
    25894, -29036, 16781, -26419, -14181, -10305, -13451, 23391, -31356, -23448, -9161, 
    21346, -13882, -19292, -13151, 31432, 3403, 29527, -9943, -6632, -10486, 16585, 
    -27750, 14095, 12369, 5619, -5164, 8623, -4401, -30554, -21403, 10619, 6143, 30431, 
    -19941, 16117, -13104, 12557, -10883, -20289, 16994, 26676, -8773, 11, 3168, 1134, 
    -7378, 25100, -2065, 1323
    };
    
    static const neuron_t neuron35 = {weights35, 0  };
    neurons[35]=neuron35;

    /* [-0.21162559  0.03295709  0.14171572  0.1366841   0.19142799  0.10004838
 -0.04301895 -0.12495253 -0.05402204 -0.16846904  0.23540197  0.19140433
  0.05919118  0.04155479 -0.15899533  0.0554619  -0.1062049   0.08201109
  0.01860853  0.02167554  0.20070605  0.21929495 -0.02780928 -0.22315383
  0.16930698 -0.20299244  0.0292329  -0.05526504  0.09165256  0.08276449
  0.18113564  0.11506225  0.09906094 -0.02039312  0.16066314 -0.2017794
  0.01818396  0.1994441  -0.16541752  0.21210535  0.09919585  0.02508576
 -0.0039175  -0.211536   -0.1974236   0.05819778  0.13194217 -0.21658881
 -0.08475618 -0.00253148] 0.0*/
    static const fixed weights36[] ={
    -27738, 4320, 18575, 17915, 25091, 13114, -5639, -16378, -7081, -22082, 30855, 25088, 
    7758, 5447, -20840, 7270, -13920, 10749, 2439, 2841, 26307, 28743, -3645, -29249, 
    22191, -26607, 3832, -7244, 12013, 10848, 23742, 15081, 12984, -2673, 21058, -26448, 
    2383, 26142, -21682, 27801, 13002, 3288, -513, -27726, -25877, 7628, 17294, -28389, 
    -11109, -332
    };
    
    static const neuron_t neuron36 = {weights36, 0  };
    neurons[36]=neuron36;

    /* [ 0.14458533 -0.1457176  -0.12896377  0.19203444  0.19397996  0.2448696
 -0.18939719  0.1788861  -0.09529623  0.10492225 -0.19450359  0.1647159
 -0.08724497 -0.03092003  0.19092388  0.12262727 -0.18581052 -0.15951061
 -0.05115114 -0.19011573 -0.06689034 -0.14889646  0.0206558  -0.06991665
  0.10837154 -0.01953137  0.11231388  0.02656676  0.11306851 -0.09491394
  0.01022889 -0.11900346 -0.24232982 -0.18165416 -0.12315006 -0.17234233
 -0.23047005  0.11101662  0.14725523 -0.0716933  -0.1377094  -0.17849347
  0.13715069 -0.10715991  0.14254372  0.07524575 -0.1648668  -0.09104806
 -0.16547854  0.0890771 ] 0.0*/
    static const fixed weights37[] ={
    18951, -19099, -16904, 25170, 25425, 32096, -24825, 23447, -12491, 13752, -25494, 
    21590, -11435, -4053, 25025, 16073, -24355, -20907, -6704, -24919, -8767, -19516, 
    2707, -9164, 14204, -2560, 14721, 3482, 14820, -12441, 1341, -15598, -31763, -23810, 
    -16142, -22589, -30208, 14551, 19301, -9397, -18050, -23395, 17977, -14046, 18683, 
    9863, -21609, -11934, -21690, 11676
    };
    
    static const neuron_t neuron37 = {weights37, 0  };
    neurons[37]=neuron37;

    /* [-0.0207385  -0.24416915 -0.03710596 -0.14309174 -0.06036586  0.06478406
  0.07617374  0.1356801   0.16974218  0.03683697 -0.11066025  0.14472224
  0.05851437  0.17500363  0.2084357  -0.12214242  0.24362175  0.04981069
  0.19048466  0.2187248  -0.16923532 -0.18683189  0.1839702  -0.23828858
 -0.03488594  0.01821025 -0.12253417 -0.24405561 -0.04311642  0.2032894
 -0.03632019  0.10834225 -0.15108064 -0.00864016  0.15387438 -0.12875293
  0.06322525 -0.1540698   0.13624968 -0.16776106  0.059543   -0.0867223
  0.01910336  0.01301138  0.07998909  0.06387006 -0.21256584  0.01708142
 -0.1345639   0.20606576] 0.0*/
    static const fixed weights38[] ={
    -2718, -32004, -4864, -18755, -7912, 8491, 9984, 17784, 22248, 4828, -14504, 18969, 
    7670, 22938, 27320, -16009, 31932, 6529, 24967, 28669, -22182, -24488, 24113, -31233, 
    -4573, 2387, -16061, -31989, -5651, 26646, -4761, 14201, -19802, -1132, 20169, -16876, 
    8287, -20194, 17859, -21989, 7804, -11367, 2504, 1705, 10484, 8372, -27861, 2239, 
    -17638, 27009
    };
    
    static const neuron_t neuron38 = {weights38, 0  };
    neurons[38]=neuron38;

    /* [ 0.12386511  0.05043481 -0.18731205  0.22540815 -0.23489125 -0.07078214
  0.21592362 -0.00457749 -0.07732673  0.15576164 -0.15945566  0.23286296
  0.23511721  0.14333679  0.18675767  0.15642707  0.15088288 -0.18256159
  0.04741316  0.03670494 -0.23922649  0.1662624  -0.11840175 -0.04584034
 -0.10043693 -0.19681215  0.11798255 -0.0438685   0.09890036  0.03106381
 -0.02537182  0.20349567  0.21306024 -0.06676781 -0.10160604  0.04081102
  0.14758728  0.22681652  0.09737359 -0.09194411 -0.1900664   0.19014044
  0.17207627 -0.17089203  0.20875557 -0.15785956 -0.00728855  0.21881194
 -0.1034276  -0.03356189] 0.0*/
    static const fixed weights39[] ={
    16235, 6611, -24551, 29545, -30788, -9278, 28302, -600, -10135, 20416, -20900, 30522, 
    30817, 18787, 24479, 20503, 19777, -23929, 6215, 4811, -31356, 21792, -15519, -6008, 
    -13164, -25797, 15464, -5750, 12963, 4072, -3326, 26673, 27926, -8751, -13318, 5349, 
    19345, 29729, 12763, -12051, -24912, 24922, 22554, -22399, 27362, -20691, -955, 
    28680, -13556, -4399
    };
    
    static const neuron_t neuron39 = {weights39, 0  };
    neurons[39]=neuron39;

    /* [ 0.02224709  0.07014517  0.06684186  0.08844702  0.14565174  0.16231288
  0.08669426 -0.23575792 -0.01090148  0.03964113 -0.23252475 -0.06140123
 -0.10708891 -0.17203248  0.22274019 -0.1630937   0.1470461   0.0781052
  0.12651287 -0.11436956  0.00428997 -0.13985625  0.02698396  0.1866967
 -0.22500904 -0.02846523  0.08955173 -0.02324902 -0.19941588 -0.00315648
  0.09925337 -0.06709574 -0.19242752 -0.13774104  0.1781164  -0.10882901
  0.15128632 -0.08121789 -0.03786114  0.00758885  0.21783613 -0.22894657
 -0.06047243 -0.11303125 -0.07722318  0.00085615  0.21567969  0.07401325
  0.1431884   0.17044322] 0.0*/
    static const fixed weights40[] ={
    2916, 9194, 8761, 11593, 19091, 21275, 11363, -30901, -1429, 5196, -30477, -8048, 
    -14036, -22549, 29195, -21377, 19274, 10237, 16582, -14991, 562, -18331, 3537, 24471, 
    -29492, -3731, 11738, -3047, -26138, -414, 13009, -8794, -25222, -18054, 23346, 
    -14264, 19829, -10645, -4963, 995, 28552, -30008, -7926, -14815, -10122, 112, 28270, 
    9701, 18768, 22340
    };
    
    static const neuron_t neuron40 = {weights40, 0  };
    neurons[40]=neuron40;

    /* [ 0.1684653   0.1882099  -0.13610613  0.00086509 -0.09674491 -0.21922599
  0.14427762 -0.23333156  0.08083676 -0.22193612  0.06519552 -0.21508956
  0.00332515 -0.09348862 -0.1255933   0.21032836  0.0965776   0.02686419
 -0.18689612 -0.05443254  0.16121174  0.13879605  0.0995131   0.1907266
 -0.04438505 -0.1810812  -0.2269043   0.23502032  0.09550636  0.15753679
 -0.13106559 -0.04501554 -0.11802414 -0.00830156 -0.151425   -0.19960299
  0.00293976 -0.18090746 -0.00624283  0.22359024  0.03860803 -0.18506813
  0.10595255  0.04218031 -0.11601704  0.12069274 -0.09401435  0.22423358
  0.00170489 -0.10958903] 0.0*/
    static const fixed weights41[] ={
    22081, 24669, -17840, 113, -12681, -28734, 18911, -30583, 10595, -29090, 8545, -28192, 
    436, -12254, -16462, 27568, 12659, 3521, -24497, -7135, 21130, 18192, 13043, 24999, 
    -5818, -23735, -29741, 30805, 12518, 20649, -17179, -5900, -15470, -1088, -19848, 
    -26162, 385, -23712, -818, 29306, 5060, -24257, 13887, 5529, -15207, 15819, -12323, 
    29391, 223, -14364
    };
    
    static const neuron_t neuron41 = {weights41, 0  };
    neurons[41]=neuron41;

    /* [-0.17382915  0.06988125  0.17501988  0.07665698  0.15338142 -0.18194255
  0.10879566  0.06396307  0.18210502  0.09960057 -0.18878871  0.09463339
 -0.01763499  0.11436523  0.02992989 -0.14059216 -0.0150134   0.05869906
  0.06005217 -0.16353545  0.06377427 -0.02452664 -0.07956205  0.23951884
 -0.02389394  0.08101939 -0.01814201  0.1310833  -0.06234609 -0.0511654
 -0.23183563  0.23124672 -0.02444974  0.23945765  0.15578477 -0.00937688
 -0.17964642  0.0491917  -0.24333385 -0.02859955 -0.03097773 -0.18611561
  0.05509137 -0.23053102 -0.20243074  0.22951783  0.02848922  0.0792412
 -0.20005104 -0.24390431] 0.0*/
    static const fixed weights42[] ={
    -22784, 9159, 22940, 10048, 20104, -23848, 14260, 8384, 23869, 13055, -24745, 12404, 
    -2311, 14990, 3923, -18428, -1968, 7694, 7871, -21435, 8359, -3215, -10428, 31394, 
    -3132, 10619, -2378, 17181, -8172, -6706, -30387, 30310, -3205, 31386, 20419, -1229, 
    -23547, 6448, -31894, -3749, -4060, -24395, 7221, -30216, -26533, 30083, 3734, 10386, 
    -26221, -31969
    };
    
    static const neuron_t neuron42 = {weights42, 0  };
    neurons[42]=neuron42;

    /* [ 0.19938336  0.17261852  0.06607701 -0.24013105 -0.23548442  0.15369327
  0.11792113  0.04294531  0.22281726  0.02986105 -0.01255381  0.2268612
  0.2157904   0.0227852   0.08932211 -0.2052551   0.19987117  0.24016066
 -0.1430858  -0.21705823 -0.0296375  -0.18287298 -0.209629   -0.01327312
 -0.23541044 -0.1702745  -0.06322069 -0.14794931  0.20311736  0.18229662
  0.08190759  0.03839166  0.04735021  0.02327324  0.2080089   0.03413771
 -0.06645048  0.01467742  0.19378783 -0.14363831 -0.07765044  0.09319721
  0.01591165 -0.2097291   0.05026819 -0.11827229  0.19099851 -0.04147857
 -0.18365677 -0.12910983] 0.0*/
    static const fixed weights43[] ={
    26134, 22625, 8661, -31474, -30865, 20145, 15456, 5629, 29205, 3914, -1645, 29735, 
    28284, 2987, 11708, -26903, 26198, 31478, -18755, -28450, -3885, -23970, -27476, 
    -1740, -30856, -22318, -8286, -19392, 26623, 23894, 10736, 5032, 6206, 3050, 27264, 
    4474, -8710, 1924, 25400, -18827, -10178, 12216, 2086, -27490, 6589, -15502, 25035, 
    -5437, -24072, -16923
    };
    
    static const neuron_t neuron43 = {weights43, 0  };
    neurons[43]=neuron43;

    /* [ 0.01231636 -0.15935767 -0.23278002 -0.18318431 -0.0018378  -0.21340592
  0.02735873 -0.01602162 -0.22031714  0.05298831  0.02597709 -0.00612451
  0.15723123  0.1517651  -0.1666751   0.05065544  0.17250486  0.15055455
  0.03272225  0.02396356  0.14902563  0.10363154  0.04427187  0.14957099
 -0.06401068 -0.02841109 -0.22847854 -0.1515741  -0.10110848 -0.12055574
 -0.12631361 -0.21928474  0.17723675  0.09470411  0.16210048 -0.16597155
 -0.03143698  0.07339339 -0.04852143 -0.20735729 -0.03794268  0.04807784
  0.1648588  -0.06862518  0.02150698 -0.19749941  0.19968738 -0.05412337
 -0.07815315 -0.07045551] 0.0*/
    static const fixed weights44[] ={
    1614, -20887, -30511, -24010, -241, -27972, 3586, -2100, -28877, 6945, 3405, -803, 
    20609, 19892, -21846, 6640, 22611, 19733, 4289, 3141, 19533, 13583, 5803, 19605, 
    -8390, -3724, -29947, -19867, -13252, -15801, -16556, -28742, 23231, 12413, 21247, 
    -21754, -4121, 9620, -6360, -27179, -4973, 6302, 21608, -8995, 2819, -25887, 26173, 
    -7094, -10244, -9235
    };
    
    static const neuron_t neuron44 = {weights44, 0  };
    neurons[44]=neuron44;

    /* [-0.00351535 -0.14644608  0.00781678 -0.21231887  0.06023116 -0.09949644
 -0.02151966  0.01800589  0.17180605  0.00164287 -0.04519728  0.14453919
  0.13744868 -0.02478179  0.231467    0.1766455  -0.22448583 -0.11837606
  0.2415329   0.02063935 -0.17882612 -0.11184223  0.08370568  0.18926223
 -0.01668938 -0.15144476  0.15886559  0.20294665 -0.22860341 -0.03997886
 -0.11226079 -0.18449435 -0.12456907 -0.12423006 -0.19067241 -0.22948314
  0.13459162 -0.06059916  0.22558393  0.08217011 -0.08633049 -0.08170161
  0.14378636 -0.1755974  -0.05040747  0.07075529 -0.21839227 -0.19946255
  0.05094372  0.14000593] 0.0*/
    static const fixed weights45[] ={
    -461, -19195, 1025, -27829, 7895, -13041, -2821, 2360, 22519, 215, -5924, 18945, 
    18016, -3248, 30339, 23153, -29424, -15516, 31658, 2705, -23439, -14659, 10971, 
    24807, -2188, -19850, 20823, 26601, -29964, -5240, -14714, -24182, -16328, -16283, 
    -24992, -30079, 17641, -7943, 29568, 10770, -11316, -10709, 18846, -23016, -6607, 
    9274, -28625, -26144, 6677, 18351
    };
    
    static const neuron_t neuron45 = {weights45, 0  };
    neurons[45]=neuron45;

    /* [-2.28143498e-01  1.88132867e-01  2.59449631e-02  5.51299602e-02
  6.84382468e-02  2.01515332e-01 -5.82835227e-02  1.19830295e-01
 -4.13342714e-02  1.18220001e-02  1.80250555e-02  1.03174612e-01
 -6.44763559e-02 -1.24743223e-01 -2.21521407e-02 -3.48368287e-02
 -1.40043020e-01  5.99478334e-02 -9.03194696e-02  2.63906568e-02
 -1.34023160e-01 -1.71174452e-01 -1.55190498e-01 -1.45833462e-01
  5.56333363e-03 -2.79098749e-05  1.35234669e-01  1.68158993e-01
 -1.43727154e-01 -1.61533058e-02 -2.05527365e-01  5.57373911e-02
 -1.79762334e-01  1.32757857e-01 -1.75429732e-01  2.00695381e-01
  5.83729893e-02  9.53507870e-02 -3.87890637e-02 -1.41784921e-01
 -1.11458540e-01  7.33631402e-02 -2.00761840e-01 -2.21713215e-01
  1.61190256e-01 -3.54969501e-03 -1.43783912e-01 -4.34283912e-02
 -1.25027865e-01  1.80655912e-01] 0.0*/
    static const fixed weights46[] ={
    -29903, 24659, 3401, 7226, 8970, 26413, -7639, 15706, -5418, 1550, 2363, 13523, 
    -8451, -16350, -2904, -4566, -18356, 7857, -11838, 3459, -17567, -22436, -20341, 
    -19115, 729, -4, 17725, 22041, -18839, -2117, -26939, 7306, -23562, 17401, -22994, 
    26306, 7651, 12498, -5084, -18584, -14609, 9616, -26314, -29060, 21128, -465, -18846, 
    -5692, -16388, 23679
    };
    
    static const neuron_t neuron46 = {weights46, 0  };
    neurons[46]=neuron46;

    /* [ 0.01339705  0.10311218 -0.05794591  0.05334087 -0.05012581 -0.1396314
 -0.13422844  0.22842176  0.06738506 -0.19246909  0.15759234 -0.10749058
 -0.03324792 -0.11345477 -0.08325659  0.1343887   0.1105497   0.07926889
  0.18101107 -0.11341612 -0.05536029  0.04243769  0.13029687 -0.19915326
 -0.15058196 -0.12753318  0.0418127  -0.11273599  0.1774428   0.05005817
  0.12210353  0.19716097 -0.11934072 -0.06336816  0.24422     0.10469232
  0.04505585 -0.03040132 -0.11559714  0.22227864  0.21338122 -0.01917244
 -0.20067938  0.24321385  0.1890326  -0.21357815  0.11296473  0.19202058
 -0.10026102 -0.1520524 ] 0.0*/
    static const fixed weights47[] ={
    1756, 13515, -7595, 6991, -6570, -18302, -17594, 29940, 8832, -25227, 20656, -14089, 
    -4358, -14871, -10913, 17615, 14490, 10390, 23725, -14866, -7256, 5562, 17078, -26103, 
    -19737, -16716, 5480, -14777, 23258, 6561, 16004, 25842, -15642, -8306, 32010, 13722, 
    5906, -3985, -15152, 29135, 27968, -2513, -26303, 31879, 24777, -27994, 14807, 25169, 
    -13141, -19930
    };
    
    static const neuron_t neuron47 = {weights47, 0  };
    neurons[47]=neuron47;

    /* [ 1.74473301e-01 -4.58239764e-02  1.92771539e-01  2.06784204e-01
  8.82727057e-02 -4.96812612e-02 -1.84021711e-01 -2.03856885e-01
  1.67224839e-01 -2.33364612e-01  2.25912079e-01  1.23929515e-01
 -2.17533439e-01 -2.12704301e-01 -2.35963762e-02  7.80226141e-02
  1.10238343e-02  1.99079514e-05  7.50130266e-02 -1.01954743e-01
  1.53202608e-01 -3.08564305e-02  7.87825882e-03  8.45603198e-02
  2.27703154e-03 -1.72801822e-01  1.42377391e-01 -3.20081413e-02
  1.06493905e-01 -2.23765865e-01  2.30466202e-01 -4.20831442e-02
 -7.34567642e-02  2.27884039e-01 -1.04138926e-01 -3.53559852e-04
  1.36492804e-01  1.90790489e-01 -6.41221553e-02 -5.26910424e-02
 -2.31937423e-01 -7.67455250e-02  4.02687043e-02 -1.31992996e-01
  4.87367064e-02 -4.69241291e-02  2.26228312e-01  5.81844151e-03
 -2.27205992e-01  2.17959926e-01] 0.0*/
    static const fixed weights48[] ={
    22869, -6006, 25267, 27104, 11570, -6512, -24120, -26720, 21918, -30588, 29611, 
    16244, -28513, -27880, -3093, 10227, 1445, 3, 9832, -13363, 20081, -4044, 1033, 
    11083, 298, -22649, 18662, -4195, 13958, -29329, 30208, -5516, -9628, 29869, -13650, 
    -46, 17890, 25007, -8405, -6906, -30401, -10059, 5278, -17301, 6388, -6150, 29652, 
    763, -29780, 28568
    };
    
    static const neuron_t neuron48 = {weights48, 0  };
    neurons[48]=neuron48;

    /* [ 0.10214998 -0.14128916  0.00647192  0.1365272   0.1461858   0.10929836
 -0.18303557  0.08493601  0.240591    0.15240158  0.10156249  0.1518576
  0.14121638 -0.0905474  -0.04647298 -0.19974649  0.24308087  0.01962958
 -0.00292936 -0.11542888  0.230159    0.11265616 -0.10378829 -0.01320848
  0.01366423  0.12394564 -0.03679183 -0.16821313  0.05449335  0.19820713
 -0.21133225  0.09585391 -0.21345259  0.16361777  0.00392064 -0.2397987
 -0.09079771 -0.08388059  0.03556232  0.225013   -0.00693306  0.08902778
 -0.10456145  0.17241289 -0.00113004  0.09302078  0.04884626 -0.2231696
 -0.19325581  0.20981051] 0.0*/
    static const fixed weights49[] ={
    13389, -18519, 848, 17895, 19161, 14326, -23991, 11133, 31535, 19976, 13312, 19904, 
    18510, -11868, -6091, -26181, 31861, 2573, -384, -15129, 30167, 14766, -13604, -1731, 
    1791, 16246, -4822, -22048, 7143, 25979, -27700, 12564, -27978, 21446, 514, -31431, 
    -11901, -10994, 4661, 29493, -909, 11669, -13705, 22599, -148, 12192, 6402, -29251, 
    -25330, 27500
    };
    
    static const neuron_t neuron49 = {weights49, 0  };
    neurons[49]=neuron49;

    dense_layer_t layer= { 50, neurons};
    return layer;
}

dense_layer_t dense_data;
data1d_t input = { 50, (fixed[]){   9072,  53817,  74941,  76059,  21161,  29874,  67837,  60597,  49594,
 125222, 121915,  42020,  90843,   9246, 104804,  83979,  14287,  56862,
  49626,  29594,  33113,  46627,  23645,  60080, 119807, 108577, 100807,
  87069,  99801,  29428,  56885,  96866,  94838,  68223,  60087,  10570,
  15643,  90297, 122240,  93031,  25015,  40805,  31665, 118603,  21249,
  52627,  39387,  32762,  70294,  90349 } };
data1d_t real_output = { 50, (fixed[]){  -38124,  -29442,   54385,  -82394,  159017,   78842,   47290,  -38673,
  -12144,   -9807,    1600,   -7540,  -41208,   36231,  -80809,  122032,
  -30297,  -17720,  -53190,  -39797,    2256,   29362,  -55940,  -90529,
    4822,   27928,     -50,   19380,    6578,  -56742,   11663,  -69672,
  151780,  -95265,  -41855,  -26017,   63475,  -41189,  -28944,   85862,
  -53328,  -59453,  -10875,  -18009, -105612,  -13376,  -54226,   22455,
   11945,   89693 } };
data1d_t output;

# define ERROR_BOUND 0.0005
int main(){
    dense_data = init_dense_data();
dense_layer(dense_data, input, &output);

    int i, count, ok;
    count = 50;
    ok = 0;
    for(i=0; i<count; i++){
        if (fabs(FX2FL(real_output.data[i]) - FX2FL(output.data[i])) <= ERROR_BOUND){
            ok++;
        }
        // printf("   (%d, %d)=>(%7f, %7f)\n", output.data[i], real_output.data[i],FX2FL(output.data[i]),FX2FL(real_output.data[i]));
        // printf("%f =? %f\n", output.data[i], real_output.data[i]);
    }
    printf("Test result: %6.3f %%\n", 100.0*ok/count);
return 0;
}