#include "embedia_model.h"

// Initialization function prototypes
conv2d_layer_t init_conv2d_data(void);
conv2d_layer_t init_conv2d_1_data(void);
dense_layer_t init_dense_data(void);
dense_layer_t init_dense_1_data(void);


// Global Variables
conv2d_layer_t conv2d_data;
conv2d_layer_t conv2d_1_data;
dense_layer_t dense_data;
dense_layer_t dense_1_data;


void model_init(){
    conv2d_data = init_conv2d_data();
    conv2d_1_data = init_conv2d_1_data();
    dense_data = init_dense_data();
    dense_1_data = init_dense_1_data();

}

void model_predict(data3d_t input, data1d_t * output){
  
    prepare_buffers();
    
    //*************** LAYER 0 **************//
    // Layer name: conv2d
    data3d_t output0;
    conv2d_layer(conv2d_data, input, &output0);
    // Activation layer for conv2d
    relu_activation(output0.data, 288);
    
    //*************** LAYER 1 **************//
    // Layer name: max_pooling2d
    input = output0;
    static const pooling2d_layer_t max_pooling2d_data = { 2, 2 };
    max_pooling2d_layer(max_pooling2d_data, input, &output0);
    
    //*************** LAYER 2 **************//
    // Layer name: conv2d_1
    input = output0;
    conv2d_layer(conv2d_1_data, input, &output0);
    // Activation layer for conv2d_1
    relu_activation(output0.data, 64);
    
    //*************** LAYER 3 **************//
    // Layer name: flatten
    input = output0;
    data1d_t output1;
    flatten3d_layer(input, &output1);
    
    //*************** LAYER 4 **************//
    // Layer name: dense
    data1d_t input1;
    input1 = output1;
    dense_layer(dense_data, input1, &output1);
    
    // Activation layer for dense
    relu_activation(output1.data, 16);
    
    //*************** LAYER 5 **************//
    // Layer name: dense_1
    input1 = output1;
    dense_layer(dense_1_data, input1, &output1);
    
    // Activation layer for dense_1
    softmax_activation(output1.data, 10);
    

    *output = output1;

}

int model_predict_class(data3d_t input, data1d_t * results){
  
   
    model_predict(input, results);
    
    return argmax(*results);
    //return argmax(data1d_t);

}

// Implementation of initialization functions



conv2d_layer_t init_conv2d_data(void){

        static filter_t filters[8];
        
        static const float weights0[]={ 
    -0.15990911424160004, 0.3586159646511078, 0.0012805880978703499, 
    0.6555789113044739, 0.20517238974571228, -0.4866083860397339, 
    0.6371128559112549, -0.032873380929231644, -0.13227485120296478, 

        };
        static filter_t filter0 = {1, 3, weights0, 0.27835720777511597};
        filters[0]=filter0;
            
        static const float weights1[]={ 
    0.028634071350097656, -0.2489502727985382, -0.14236964285373688, 
    -0.15508468449115753, -0.5870740413665771, -0.20776426792144775, 
    0.41355207562446594, 0.6017436385154724, 0.654274582862854, 

        };
        static filter_t filter1 = {1, 3, weights1, 0.31610631942749023};
        filters[1]=filter1;
            
        static const float weights2[]={ 
    0.5514421463012695, -0.20544327795505524, -0.15495671331882477, 
    0.4686162769794464, 0.49927818775177, 0.31541913747787476, 
    0.557083785533905, 0.3409932255744934, 0.12238144874572754, 

        };
        static filter_t filter2 = {1, 3, weights2, 0.11990141123533249};
        filters[2]=filter2;
            
        static const float weights3[]={ 
    0.006006490904837847, -0.8074705600738525, -0.3443223536014557, 
    0.018250083550810814, 0.43011215329170227, 0.010727203451097012, 
    -0.0626581683754921, 0.4071342647075653, 0.4005068838596344, 

        };
        static filter_t filter3 = {1, 3, weights3, 0.16753897070884705};
        filters[3]=filter3;
            
        static const float weights4[]={ 
    0.26896774768829346, -0.2364179939031601, -0.2857448160648346, 
    0.45382022857666016, 0.2873189151287079, 0.5708356499671936, 
    -0.2615076005458832, -0.043124452233314514, -0.07176724821329117, 

        };
        static filter_t filter4 = {1, 3, weights4, 0.1771661341190338};
        filters[4]=filter4;
            
        static const float weights5[]={ 
    0.12559166550636292, -0.6458107829093933, -0.1357782632112503, 
    0.41575461626052856, -0.05809039995074272, 0.2464151829481125, 
    0.18364596366882324, -0.2198093831539154, -0.023027608171105385, 

        };
        static filter_t filter5 = {1, 3, weights5, 0.22956210374832153};
        filters[5]=filter5;
            
        static const float weights6[]={ 
    0.2588818073272705, 0.680749237537384, 0.38313019275665283, 
    -0.5455973744392395, 0.6677296161651611, 0.3324519097805023, 
    0.12937092781066895, -0.03598080202937126, -0.13292615115642548, 

        };
        static filter_t filter6 = {1, 3, weights6, 0.24890610575675964};
        filters[6]=filter6;
            
        static const float weights7[]={ 
    -0.07658910751342773, -0.1690322309732437, 0.5436130166053772, 
    0.1521129608154297, -0.13318076729774475, 0.26154130697250366, 
    -0.5298745036125183, -0.7407101392745972, -0.4564981758594513, 

        };
        static filter_t filter7 = {1, 3, weights7, 0.21512459218502045};
        filters[7]=filter7;
            
        conv2d_layer_t layer = {8, filters};
        return layer;
        }
        

conv2d_layer_t init_conv2d_1_data(void){

        static filter_t filters[16];
        
        static const float weights0[]={ 
    0.17072926461696625, -0.09859462082386017, 
    -0.06498543918132782, -0.1512940675020218, 

    -0.16639716923236847, -0.004422353580594063, 
    -0.28601229190826416, 0.45781028270721436, 

    0.2191423624753952, -0.2637484669685364, 
    0.3851783871650696, 0.2607419490814209, 

    -0.08135230094194412, -0.6037915945053101, 
    0.10259947925806046, 0.257712185382843, 

    -0.28060203790664673, -0.17279566824436188, 
    0.01511000283062458, 0.1712537407875061, 

    -0.11282427608966827, 0.20887865126132965, 
    0.19084469974040985, 0.2135474532842636, 

    -0.09759683907032013, -0.4695184826850891, 
    0.11373069882392883, -0.029256682842969894, 

    -0.09088349342346191, 0.48786216974258423, 
    0.15245069563388824, -0.04773015156388283, 

        };
        static filter_t filter0 = {8, 2, weights0, 0.006129641085863113};
        filters[0]=filter0;
            
        static const float weights1[]={ 
    0.4174879193305969, 0.1726677119731903, 
    0.3300634026527405, -0.1393425315618515, 

    -0.12915442883968353, 0.32045871019363403, 
    0.18518158793449402, 0.3291288912296295, 

    -0.3460022211074829, 0.19099444150924683, 
    0.14818347990512848, -0.16424863040447235, 

    0.336746484041214, 0.5953423380851746, 
    0.21865025162696838, 0.340274453163147, 

    0.10532962530851364, 0.34203773736953735, 
    0.46729522943496704, 0.10174153000116348, 

    -0.22755159437656403, 0.2731449604034424, 
    -0.09595135599374771, 0.08787606656551361, 

    0.1394820511341095, -0.06036999449133873, 
    0.3650997579097748, -0.1926340013742447, 

    0.12186268717050552, 0.12958845496177673, 
    0.058777082711458206, -0.17137131094932556, 

        };
        static filter_t filter1 = {8, 2, weights1, 0.057091470807790756};
        filters[1]=filter1;
            
        static const float weights2[]={ 
    0.31310275197029114, 0.05756588280200958, 
    -0.19961121678352356, 0.32966989278793335, 

    -0.0697275921702385, 0.13781116902828217, 
    -0.22519972920417786, -0.3838232457637787, 

    -0.047645095735788345, 0.1298922896385193, 
    0.3183421194553375, 0.2233649492263794, 

    0.34959983825683594, 0.3556298017501831, 
    0.2370845228433609, -0.3195890784263611, 

    -0.05574585869908333, -0.24286344647407532, 
    0.4686233401298523, 0.2053905576467514, 

    -0.034062255173921585, 0.012148466892540455, 
    0.05475679039955139, 0.3939259648323059, 

    -0.29594409465789795, -0.16018009185791016, 
    0.3971281051635742, 0.3249519169330597, 

    -0.08211929351091385, -0.43691638112068176, 
    0.0760645717382431, 0.12380795180797577, 

        };
        static filter_t filter2 = {8, 2, weights2, 0.09736377000808716};
        filters[2]=filter2;
            
        static const float weights3[]={ 
    0.1855238974094391, -0.23526717722415924, 
    0.04556021839380264, -0.11258238554000854, 

    0.08295980840921402, 0.21749283373355865, 
    0.16088420152664185, 0.4937070906162262, 

    -0.28935736417770386, -0.21229246258735657, 
    0.3642985224723816, 0.15965533256530762, 

    0.013340691104531288, -0.14936025440692902, 
    0.20900480449199677, -0.11051192134618759, 

    -0.0731617659330368, 0.1549617499113083, 
    -0.09632830321788788, -0.22426113486289978, 

    0.05337318405508995, -0.2403198778629303, 
    0.08795424550771713, -0.28292182087898254, 

    0.1775963008403778, -0.45757684111595154, 
    -0.01241737138479948, -0.03839930519461632, 

    0.0033963776659220457, 0.13967183232307434, 
    -0.09044145792722702, 0.368418425321579, 

        };
        static filter_t filter3 = {8, 2, weights3, 0.10703413933515549};
        filters[3]=filter3;
            
        static const float weights4[]={ 
    -0.014894828200340271, -0.18146468698978424, 
    -0.26348739862442017, 0.09280356764793396, 

    0.03160625696182251, -0.21842730045318604, 
    0.5911549925804138, 0.5750014185905457, 

    0.3779415786266327, -0.2053869068622589, 
    0.2437693029642105, -0.07424076646566391, 

    -0.18130645155906677, -0.3816142976284027, 
    0.022412579506635666, 0.39585110545158386, 

    0.01657022349536419, 0.12981882691383362, 
    0.32375702261924744, -0.14386755228042603, 

    -0.17397819459438324, -0.28965696692466736, 
    0.3221549391746521, 0.315639466047287, 

    0.3306077718734741, -0.08135953545570374, 
    -0.26630762219429016, 0.09053997695446014, 

    0.44435158371925354, 0.268993616104126, 
    0.3170047104358673, -0.1583804041147232, 

        };
        static filter_t filter4 = {8, 2, weights4, 0.1143183708190918};
        filters[4]=filter4;
            
        static const float weights5[]={ 
    -0.1645321100950241, -0.08244245499372482, 
    -0.20496776700019836, -0.17749334871768951, 

    0.12757621705532074, -0.043616071343421936, 
    -0.22021229565143585, 0.04197144880890846, 

    -0.009335355833172798, -0.17570576071739197, 
    -0.35276153683662415, 0.3727967143058777, 

    0.043212756514549255, 0.3752247989177704, 
    -0.04802311584353447, 0.1427699625492096, 

    -0.1318855583667755, 0.16014456748962402, 
    -0.22747433185577393, -0.06484587490558624, 

    -0.025372950360178947, -0.09044433385133743, 
    0.08717741817235947, -0.07902558892965317, 

    0.1797330528497696, 0.3231576979160309, 
    -0.09096947312355042, -0.17987558245658875, 

    -0.2972791790962219, 0.14539262652397156, 
    0.12792721390724182, -0.028830112889409065, 

        };
        static filter_t filter5 = {8, 2, weights5, -0.005168137606233358};
        filters[5]=filter5;
            
        static const float weights6[]={ 
    0.28457632660865784, -0.2399984449148178, 
    -0.043016597628593445, 0.27405866980552673, 

    -0.1569005250930786, 0.2746305763721466, 
    0.44266992807388306, 0.10733792930841446, 

    0.4150191843509674, -0.45937928557395935, 
    -0.1099545955657959, -0.1657867580652237, 

    0.3039752244949341, 0.17755606770515442, 
    0.027023497968912125, 0.2809980809688568, 

    0.4816536605358124, 0.3239959180355072, 
    0.2450311779975891, -0.045052867382764816, 

    0.1999182105064392, -0.02363920770585537, 
    0.43287786841392517, 0.13131695985794067, 

    0.22486914694309235, 0.07270278036594391, 
    0.07028824836015701, 0.2615698277950287, 

    0.33888858556747437, 0.2257162481546402, 
    0.04122425243258476, 0.3416766822338104, 

        };
        static filter_t filter6 = {8, 2, weights6, 0.09825857728719711};
        filters[6]=filter6;
            
        static const float weights7[]={ 
    -0.13637107610702515, -0.1899196058511734, 
    -0.18888206779956818, -0.31351137161254883, 

    0.007892613299190998, -0.13244406878948212, 
    -0.003175049554556608, 0.13335636258125305, 

    0.44492006301879883, 0.0525713749229908, 
    -0.002268705517053604, -0.09882591664791107, 

    0.17582738399505615, -0.28930822014808655, 
    0.26813679933547974, -0.1400146782398224, 

    0.11663549393415451, 0.03987393528223038, 
    0.02422373555600643, 0.1690763682126999, 

    -0.5810477137565613, -0.11478018015623093, 
    0.300179123878479, 0.22600120306015015, 

    0.4810226559638977, 0.18612554669380188, 
    -0.10599629580974579, 0.18436786532402039, 

    0.44429484009742737, 0.131652370095253, 
    0.06660057604312897, 0.4923664629459381, 

        };
        static filter_t filter7 = {8, 2, weights7, 0.04007834941148758};
        filters[7]=filter7;
            
        static const float weights8[]={ 
    0.2505194842815399, 0.10823508352041245, 
    -0.2378450185060501, 0.3701615333557129, 

    -0.36730438470840454, -0.2044432908296585, 
    -0.47730597853660583, 0.19399867951869965, 

    -0.0995827242732048, 0.3763729929924011, 
    0.13980723917484283, 0.3096570074558258, 

    -0.03829948231577873, -0.35802677273750305, 
    -0.4470694065093994, -0.08027555048465729, 

    0.08511050790548325, -0.02236771397292614, 
    0.1995113044977188, 0.21929773688316345, 

    -0.3556981384754181, 0.24596166610717773, 
    -0.027094384655356407, 0.3379116654396057, 

    0.3260185122489929, -0.10109328478574753, 
    0.22165103256702423, 0.13148336112499237, 

    0.2453456073999405, 0.017382081598043442, 
    0.29179221391677856, 0.054381757974624634, 

        };
        static filter_t filter8 = {8, 2, weights8, 0.08772008121013641};
        filters[8]=filter8;
            
        static const float weights9[]={ 
    0.10053176432847977, -0.04710876941680908, 
    -0.23657716810703278, -0.08173505961894989, 

    0.1806359887123108, 0.17751650512218475, 
    0.5376021265983582, -0.10473515838384628, 

    0.20690152049064636, -0.17461536824703217, 
    0.17662377655506134, 0.287469744682312, 

    0.4735937714576721, 0.392898827791214, 
    0.08347138017416, 0.5389305353164673, 

    -0.18462513387203217, -0.16357848048210144, 
    0.21943369507789612, 0.060200370848178864, 

    0.04818716645240784, -0.2339659333229065, 
    -0.1543840914964676, 0.19510997831821442, 

    0.4087267220020294, -0.42172324657440186, 
    -0.18737374246120453, 0.4180837869644165, 

    -0.18078570067882538, 0.2688300907611847, 
    -0.09276487678289413, -0.62218177318573, 

        };
        static filter_t filter9 = {8, 2, weights9, 0.002365158637985587};
        filters[9]=filter9;
            
        static const float weights10[]={ 
    0.2520061731338501, -0.27557796239852905, 
    -0.0072309887036681175, 0.3908825218677521, 

    -0.07105553150177002, 0.3341202437877655, 
    -0.38388416171073914, 0.28212910890579224, 

    -0.08769569545984268, -0.19619430601596832, 
    0.19881954789161682, 0.43238699436187744, 

    -0.1622127741575241, -0.6209192872047424, 
    -0.3746090531349182, 0.1476546823978424, 

    -0.3321838974952698, -0.376310795545578, 
    -0.02460656315088272, 0.4397866725921631, 

    0.17234055697917938, -0.05316723510622978, 
    -0.13636210560798645, 0.41709449887275696, 

    0.3285050690174103, -0.24094432592391968, 
    0.3096676468849182, 0.19927459955215454, 

    0.2620045244693756, 0.41123712062835693, 
    0.14267957210540771, -0.010881577618420124, 

        };
        static filter_t filter10 = {8, 2, weights10, 0.0796111524105072};
        filters[10]=filter10;
            
        static const float weights11[]={ 
    0.33304086327552795, 0.31510916352272034, 
    -0.23532013595104218, 0.21000142395496368, 

    0.07290671765804291, -0.004793120082467794, 
    0.11492127925157547, -0.6305772662162781, 

    -0.18183350563049316, 0.432361364364624, 
    0.030300788581371307, 0.1679888367652893, 

    -0.08215274661779404, -0.13221246004104614, 
    -0.2520652115345001, -0.5207411646842957, 

    0.04812035337090492, 0.13485917448997498, 
    -0.03973707929253578, -0.3575232923030853, 

    0.17089396715164185, 0.1598198115825653, 
    -0.23789048194885254, 0.1080394983291626, 

    0.19454044103622437, -0.240208238363266, 
    0.21672262251377106, 0.28192663192749023, 

    0.3257375955581665, -0.10611256957054138, 
    -0.21271683275699615, 0.4790347218513489, 

        };
        static filter_t filter11 = {8, 2, weights11, 0.09881016612052917};
        filters[11]=filter11;
            
        static const float weights12[]={ 
    -0.008116086944937706, 0.32220444083213806, 
    0.3564108908176422, 0.16362304985523224, 

    0.17271313071250916, 0.04852908477187157, 
    -0.1898665577173233, 0.45095470547676086, 

    0.127372145652771, 0.3332986533641815, 
    0.36108940839767456, 0.1022944226861, 

    -0.15981176495552063, -0.07422982156276703, 
    -0.13345906138420105, 0.42530572414398193, 

    -0.03962777554988861, 0.27456966042518616, 
    -0.16638094186782837, 0.2059718519449234, 

    -0.14119799435138702, 0.43784505128860474, 
    0.09662343561649323, 0.030862564221024513, 

    -0.011935715563595295, 0.27350467443466187, 
    0.031435467302799225, -0.04887959733605385, 

    -0.2781746983528137, -0.26619952917099, 
    -0.2610588073730469, -0.4697224795818329, 

        };
        static filter_t filter12 = {8, 2, weights12, 0.09938125312328339};
        filters[12]=filter12;
            
        static const float weights13[]={ 
    0.17458154261112213, 0.18001587688922882, 
    -0.21041996777057648, 0.3699948191642761, 

    0.12353116273880005, 0.19685295224189758, 
    0.40116211771965027, -0.11379438638687134, 

    0.0697210431098938, -0.2635937035083771, 
    -0.004750074353069067, 0.08495761454105377, 

    0.31954073905944824, 0.40392589569091797, 
    0.18547067046165466, -0.2370704859495163, 

    0.26992592215538025, -0.034212980419397354, 
    0.18629692494869232, -0.425693541765213, 

    0.20021939277648926, 0.014929787255823612, 
    0.5120738744735718, 0.05573496222496033, 

    -0.16754229366779327, -0.0840388685464859, 
    -0.07018473744392395, 0.1777205616235733, 

    0.1015147715806961, -0.18422508239746094, 
    0.069139264523983, -0.16242662072181702, 

        };
        static filter_t filter13 = {8, 2, weights13, 0.045089155435562134};
        filters[13]=filter13;
            
        static const float weights14[]={ 
    0.12684087455272675, -0.04143597558140755, 
    -0.05915588140487671, 0.1288956254720688, 

    0.10889885574579239, -0.09727320820093155, 
    0.45575663447380066, 0.6360434889793396, 

    -0.1749626100063324, 0.13600590825080872, 
    -0.009925343096256256, 0.21213027834892273, 

    -0.12058348208665848, -0.12223707139492035, 
    0.2830541133880615, 0.4220893383026123, 

    -0.1661624163389206, 0.1673085242509842, 
    0.11104743182659149, 0.19576145708560944, 

    0.2949376404285431, 0.403942346572876, 
    0.23852889239788055, -0.0676872655749321, 

    -0.15028831362724304, -0.21715572476387024, 
    0.05805846303701401, 0.002219528891146183, 

    -0.010692992247641087, 0.21959854662418365, 
    -0.12497605383396149, -0.3315432369709015, 

        };
        static filter_t filter14 = {8, 2, weights14, 0.1249852403998375};
        filters[14]=filter14;
            
        static const float weights15[]={ 
    -0.007110034115612507, 0.07499955594539642, 
    -0.29402607679367065, 0.06461531668901443, 

    0.37110957503318787, 0.046925269067287445, 
    0.4808630347251892, -0.0379960834980011, 

    -0.283498615026474, -0.21734045445919037, 
    0.026527276262640953, -0.14793188869953156, 

    0.08985030651092529, 0.17777326703071594, 
    0.3822869062423706, -0.059593960642814636, 

    0.12870565056800842, -0.047051217406988144, 
    0.22540828585624695, 0.13661819696426392, 

    0.2806333899497986, 0.07405716925859451, 
    0.0806623324751854, -0.07337456196546555, 

    -0.30774617195129395, 0.22509892284870148, 
    -0.24170252680778503, 0.4550727605819702, 

    0.20586270093917847, -0.10087807476520538, 
    0.09135816991329193, 0.20564576983451843, 

        };
        static filter_t filter15 = {8, 2, weights15, 0.07059948146343231};
        filters[15]=filter15;
            
        conv2d_layer_t layer = {16, filters};
        return layer;
        }
        
dense_layer_t init_dense_data(void){

    static neuron_t neurons[16];

    static const float weights0[] ={
    -0.23823565244674683, 0.2933204472064972, -0.1708824783563614, 0.1994909793138504, 
    0.31717151403427124, -0.21130771934986115, 0.11815165728330612, 0.10011666268110275, 
    0.2248644083738327, 0.14930841326713562, -0.16370129585266113, -0.09049617499113083, 
    -0.18733526766300201, 0.051497217267751694, 0.08539818972349167, 0.07525603473186493, 
    0.18729087710380554, 0.1668602079153061, 0.00614601606503129, 0.20384441316127777, 
    0.23714914917945862, 0.0710480809211731, 0.3616657853126526, -0.07930468767881393, 
    -0.2474852353334427, 0.3403119742870331, 0.27528348565101624, 0.15978220105171204, 
    -0.161031574010849, 0.20059093832969666, 0.10635264217853546, -0.09046885371208191, 
    0.16289716958999634, 0.16316398978233337, 0.24344582855701447, 0.5609313249588013, 
    -0.10472828149795532, -0.36592164635658264, -0.18076826632022858, 0.010571333579719067, 
    0.36462363600730896, 0.11006204783916473, 0.20549020171165466, 0.021176887676119804, 
    -0.16096049547195435, 0.23172497749328613, 0.046677060425281525, -0.12941071391105652, 
    -0.35090917348861694, 0.12923261523246765, -0.0032908576540648937, -0.5598112344741821, 
    -0.42331773042678833, -0.515083909034729, -0.0607624277472496, 0.1524779200553894, 
    -0.13823415338993073, -0.4641139805316925, -0.23865418136119843, -0.16670426726341248, 
    0.13009104132652283, -0.17740881443023682, -0.23872993886470795, -0.16223160922527313, 
  
    };
    static const neuron_t neuron0 = {weights0, 0.01036455761641264};
    neurons[0]=neuron0;

    static const float weights1[] ={
    -0.18621720373630524, -0.19844481348991394, 0.10291851311922073, 0.12812352180480957, 
    0.022584140300750732, -0.2288116216659546, 0.1954357922077179, 0.1385412961244583, 
    0.1463446170091629, 0.052419669926166534, 0.08005981147289276, -0.1159663125872612, 
    0.028853990137577057, 0.18494229018688202, -0.17907492816448212, -0.022896774113178253, 
    -0.08920705318450928, -0.19266743957996368, -0.19169862568378448, 0.21219171583652496, 
    0.0040544504299759865, -0.24386432766914368, -0.043734073638916016, 0.2678684592247009, 
    -0.07754168659448624, 0.1472586840391159, 0.15887577831745148, -0.09067650139331818, 
    -0.05127199366688728, 0.1804700791835785, 0.18454544246196747, -0.14029733836650848, 
    -0.23093757033348083, -0.11383480578660965, 0.09302521497011185, -0.2143314629793167, 
    -0.2214580476284027, 0.13484327495098114, -0.23428340256214142, 0.011090957559645176, 
    0.21392092108726501, 0.27056699991226196, -0.24439026415348053, -0.15534773468971252, 
    -0.09855141490697861, 0.10927221179008484, -0.19060657918453217, -0.2300521284341812, 
    -0.08479925245046616, -0.20692022144794464, -0.06950078904628754, 0.06423911452293396, 
    -0.07067981362342834, 0.19126981496810913, -0.1413777619600296, -0.0059058270417153835, 
    0.197280615568161, -0.1528761386871338, 0.15218479931354523, -0.2728826701641083, 
    -0.24393171072006226, -0.12359011173248291, -0.022708337754011154, 0.05759144574403763, 
  
    };
    static const neuron_t neuron1 = {weights1, -0.010971710085868835};
    neurons[1]=neuron1;

    static const float weights2[] ={
    0.17885339260101318, 0.1152590736746788, 0.2250499725341797, 0.039021458476781845, 
    -0.010811391286551952, 0.6389023065567017, 0.1838528960943222, 0.13196231424808502, 
    0.3261367678642273, 0.4029928147792816, 0.012255859561264515, 0.4318198561668396, 
    -0.14420725405216217, 0.0810336247086525, -0.11104953289031982, -0.36665114760398865, 
    0.18180763721466064, -0.07542509585618973, -0.05812878534197807, -0.30593547224998474, 
    0.1998421549797058, -0.214793860912323, 0.019424553960561752, 0.12222550064325333, 
    0.17080575227737427, -0.11893617361783981, -0.009682279080152512, -0.10185729712247849, 
    0.11447200924158096, 0.25644806027412415, 0.07948411256074905, 0.17765600979328156, 
    0.030848881229758263, -0.11620768904685974, -0.23669619858264923, 0.051131878048181534, 
    -0.3842615783214569, 0.02761141210794449, -0.06865359842777252, -0.1949315220117569, 
    0.2676849663257599, -0.4055105447769165, 0.26090317964553833, -0.07109531760215759, 
    0.14811572432518005, -0.33326807618141174, 0.2397150695323944, -0.3654892146587372, 
    0.16097140312194824, 0.1059424951672554, -0.3442489802837372, 0.30568039417266846, 
    0.6832233667373657, 0.3791728615760803, 0.20593975484371185, -0.2048533856868744, 
    0.17776638269424438, 0.17207102477550507, 0.4007073938846588, -0.37274250388145447, 
    0.43537765741348267, -0.22125361859798431, 0.6736540794372559, -0.13908003270626068, 
  
    };
    static const neuron_t neuron2 = {weights2, -0.017763739451766014};
    neurons[2]=neuron2;

    static const float weights3[] ={
    -0.21090170741081238, 0.2947652339935303, 0.14552074670791626, 0.040200766175985336, 
    -0.29502353072166443, -0.028680093586444855, -0.16592879593372345, -0.2851021885871887, 
    0.2131299078464508, -0.2465791553258896, 0.014569543302059174, 0.06333589553833008, 
    0.06851278990507126, -0.23336704075336456, -0.27766475081443787, -0.3404819965362549, 
    -0.21412017941474915, 0.07213498651981354, 0.10588683933019638, 0.29127082228660583, 
    0.33816152811050415, -0.19377218186855316, 0.24008327722549438, 0.33421677350997925, 
    0.020627515390515327, 0.24408580362796783, -0.1807199865579605, -0.16095903515815735, 
    -0.07351439446210861, 0.49034401774406433, -0.4522150754928589, -0.14869658648967743, 
    0.3803906738758087, 0.36525264382362366, 0.2576766610145569, 0.5213145017623901, 
    -0.02333134412765503, -0.3310595750808716, -0.20230180025100708, 0.3162006735801697, 
    0.3537400960922241, 0.2545958161354065, 0.41543707251548767, 0.128217875957489, 
    0.017610879614949226, -0.05382390692830086, 0.10431241989135742, -0.14233951270580292, 
    -0.21315298974514008, -0.44733861088752747, 0.2780342698097229, -0.24460086226463318, 
    0.12883786857128143, -0.1335856020450592, 0.17954468727111816, -0.13967478275299072, 
    0.16846035420894623, -0.528157114982605, 0.04335596784949303, -0.06453579664230347, 
    -0.23028326034545898, -0.18690621852874756, -0.06166274473071098, 0.12876296043395996, 
  
    };
    static const neuron_t neuron3 = {weights3, 0.050134483724832535};
    neurons[3]=neuron3;

    static const float weights4[] ={
    -0.11381459981203079, -0.051457226276397705, 0.14243750274181366, 0.017468204721808434, 
    0.5401367545127869, -0.155819371342659, 0.3287617564201355, 0.2936425805091858, 
    0.1278708130121231, 0.09171214699745178, -0.1683204472064972, -0.1927160769701004, 
    -0.11829362064599991, 0.24028953909873962, 0.10798617452383041, 0.2953454256057739, 
    0.006282452028244734, 0.14639510214328766, -0.1352924406528473, -0.08536943048238754, 
    -0.35475265979766846, -0.10346505045890808, -0.015478026121854782, -0.20320481061935425, 
    -0.10432995110750198, -0.08857697248458862, -0.19745667278766632, 0.0013625221326947212, 
    0.23982277512550354, 0.20347018539905548, 0.2708003520965576, 0.016111431643366814, 
    -0.6092725992202759, 0.21840161085128784, -0.021494833752512932, 0.09406644105911255, 
    -0.09537104517221451, 0.4211052358150482, -0.0024594080168753862, -0.4121663570404053, 
    0.19265636801719666, -0.17108380794525146, 0.16968697309494019, -0.1509932279586792, 
    0.004567015916109085, 0.03058251366019249, -0.08089898526668549, -0.11473441123962402, 
    -0.02077474072575569, 0.3182621896266937, -0.2359018474817276, 0.11454259604215622, 
    0.20806889235973358, -0.2143203765153885, 0.04856852814555168, -0.12839607894420624, 
    -0.1703668236732483, 0.3256136476993561, -0.34275081753730774, -0.34746333956718445, 
    0.016995182260870934, 0.25859710574150085, -0.029668379575014114, 0.019255036488175392, 
  
    };
    static const neuron_t neuron4 = {weights4, -0.005046588834375143};
    neurons[4]=neuron4;

    static const float weights5[] ={
    -0.06534938514232635, 0.08410589396953583, -0.00929037295281887, 0.18509507179260254, 
    0.24419736862182617, 0.1857260763645172, -0.0580114983022213, 0.13220590353012085, 
    0.1391306221485138, -0.03824540972709656, -0.1663205623626709, -0.01947696879506111, 
    -0.22109851241111755, -0.1359727382659912, -0.08312629163265228, 0.091178297996521, 
    -0.058291513472795486, -0.09230881184339523, 0.0453609973192215, 0.11799463629722595, 
    -0.2501266300678253, 0.04024651274085045, -0.27173423767089844, 0.2656543254852295, 
    -0.26725462079048157, -0.0001299207069678232, 0.17319095134735107, -0.08333495259284973, 
    0.04384802654385567, -0.11004616320133209, 0.22363168001174927, -0.24514704942703247, 
    -0.08312013000249863, 0.15176257491111755, 0.13821746408939362, -0.15120181441307068, 
    0.003173649311065674, 0.059152036905288696, -0.2705465257167816, -0.007037550210952759, 
    0.05171338468790054, -0.06979160755872726, 0.08750860393047333, -0.24561820924282074, 
    -0.07079550623893738, -0.1826496124267578, 0.050862666219472885, -0.13281336426734924, 
    0.1691814363002777, 0.2601960599422455, 0.06717054545879364, -0.2731615900993347, 
    0.1358790397644043, -0.11810936033725739, -0.15456803143024445, 0.10556593537330627, 
    -0.2648303806781769, -0.1222371757030487, -0.18993833661079407, 0.20251527428627014, 
    0.11782532930374146, 0.013629124499857426, -0.27143609523773193, 0.24815668165683746, 
  
    };
    static const neuron_t neuron5 = {weights5, -0.020520642399787903};
    neurons[5]=neuron5;

    static const float weights6[] ={
    -0.0412699431180954, 0.026607155799865723, -0.26059165596961975, -0.13886529207229614, 
    0.12594753503799438, -0.11195589601993561, 0.018650412559509277, -0.24408504366874695, 
    0.08569997549057007, -0.06410861015319824, -0.0899769514799118, -0.12436416745185852, 
    0.04060924053192139, -0.09590287506580353, 0.21343746781349182, -0.23440977931022644, 
    -0.2366812825202942, -0.11371445655822754, -0.2048524022102356, 0.07992500066757202, 
    0.11974498629570007, 0.2502654194831848, -0.05244213342666626, 0.12475574016571045, 
    0.21059241890907288, 0.09358659386634827, -0.17151910066604614, -0.1159532368183136, 
    0.1352132260799408, 0.22300761938095093, -0.02776460349559784, -0.12401863932609558, 
    -0.14189328253269196, -0.16791671514511108, -0.1989012062549591, -0.006004273891448975, 
    0.06311345100402832, 0.1175757348537445, -0.12903821468353271, 0.13679954409599304, 
    -0.15142269432544708, -0.12360252439975739, 0.07609227299690247, -0.2606411576271057, 
    0.14656701683998108, -0.034158289432525635, 0.03731158375740051, -0.08158019185066223, 
    -0.13176539540290833, -0.13378159701824188, -0.20150890946388245, 0.054153889417648315, 
    -0.061154067516326904, 0.033303916454315186, -0.04297077655792236, -0.27049219608306885, 
    -0.26484331488609314, 0.22907817363739014, 0.15598168969154358, -0.1961601823568344, 
    -0.18734750151634216, 0.11458182334899902, 0.05834195017814636, -0.10445548593997955, 
  
    };
    static const neuron_t neuron6 = {weights6, 0.0};
    neurons[6]=neuron6;

    static const float weights7[] ={
    0.14033964276313782, -0.13286225497722626, -0.270783931016922, 0.0328906774520874, 
    0.09579551219940186, -0.1964978724718094, -0.22401820123195648, -0.183684840798378, 
    -0.055951714515686035, -0.1447916030883789, 0.003750159638002515, -0.16783612966537476, 
    -0.026877764612436295, -0.10131672024726868, -0.15673016011714935, 0.1370289921760559, 
    -0.15854115784168243, -0.19923889636993408, -0.24507318437099457, -0.1041688621044159, 
    0.1088269054889679, -0.26196303963661194, 0.17765958607196808, 0.08176504075527191, 
    0.0026913059409707785, -0.22534018754959106, -0.018855256959795952, 0.22573287785053253, 
    0.10937763005495071, 0.06621456146240234, 0.05364393815398216, -0.18175651133060455, 
    -0.07101365178823471, 0.060027699917554855, 0.23020870983600616, -0.1755584180355072, 
    0.22105824947357178, -0.11944382637739182, -0.14368411898612976, 0.05227905139327049, 
    0.08929584175348282, 0.18594606220722198, -0.24329030513763428, 0.06581726670265198, 
    -0.032467279583215714, -0.22028888761997223, -0.04305854067206383, -0.03950017690658569, 
    -0.08010886609554291, -0.09289135038852692, -0.05713961645960808, 0.016651248559355736, 
    -0.07014798372983932, 0.04389077425003052, -0.09049016982316971, 0.0569927915930748, 
    0.08818039298057556, 0.2219017744064331, -0.014799967408180237, -0.06991729140281677, 
    0.06043905019760132, 0.15145494043827057, -0.0550590455532074, -0.12073305249214172, 
  
    };
    static const neuron_t neuron7 = {weights7, -0.022674625739455223};
    neurons[7]=neuron7;

    static const float weights8[] ={
    0.017860494554042816, 0.14439643919467926, -0.2327631562948227, 0.14279316365718842, 
    0.3520539402961731, -0.07960596680641174, 0.37181270122528076, 0.022724907845258713, 
    0.37557315826416016, -0.29917532205581665, 0.20549121499061584, 0.04791097715497017, 
    0.14578330516815186, -0.0782572329044342, -0.2241673767566681, -0.24519480764865875, 
    -0.024399198591709137, 0.0710325762629509, -0.4084654152393341, -0.30490392446517944, 
    -0.043719835579395294, 0.08378880470991135, 0.13086947798728943, 0.45244014263153076, 
    -0.2108250856399536, -0.077851302921772, 0.03970814496278763, -0.39915570616722107, 
    0.44823983311653137, -0.043291933834552765, 0.060845449566841125, -0.17263144254684448, 
    0.6364919543266296, 0.30892327427864075, -0.1671103835105896, -0.5740211606025696, 
    0.1486893594264984, 0.34001263976097107, 0.3469371497631073, -0.43353745341300964, 
    -0.16711872816085815, 0.24946525692939758, -0.04730765148997307, -0.14674487709999084, 
    -0.050801265984773636, 0.2768155038356781, 0.3426913917064667, 0.14609573781490326, 
    -0.29801133275032043, 0.31905704736709595, 0.4101715385913849, -0.09383024275302887, 
    -0.16302351653575897, -0.34855934977531433, 0.2882624566555023, -0.08026167005300522, 
    -0.040530189871788025, 0.23996028304100037, -0.11692094802856445, 0.39859670400619507, 
    -0.4308321475982666, 0.25788044929504395, -0.2596237361431122, 0.10034433007240295, 
  
    };
    static const neuron_t neuron8 = {weights8, 0.08260659128427505};
    neurons[8]=neuron8;

    static const float weights9[] ={
    0.1977081447839737, 0.36464229226112366, -0.04130474850535393, -0.1647157371044159, 
    -0.24788086116313934, -0.4670582115650177, 0.10412152856588364, -0.35811856389045715, 
    -0.20110532641410828, 0.3182102143764496, 0.3158479928970337, -0.27120351791381836, 
    -0.052522238343954086, 0.12351090461015701, -0.08847073465585709, 0.061357174068689346, 
    0.17789439857006073, 0.07457660138607025, -0.15716475248336792, 0.2631855010986328, 
    0.10020387172698975, -0.14937710762023926, 0.08374354988336563, -0.045012589544057846, 
    -0.3819981515407562, 0.3024962246417999, 0.1716567426919937, -0.45946866273880005, 
    -0.21932661533355713, 0.06914159655570984, 0.07892313599586487, 0.31958115100860596, 
    0.28970932960510254, 0.22055096924304962, -0.039347920566797256, 0.043959107249975204, 
    0.21254348754882812, -0.26572343707084656, -0.06629979610443115, 0.3004130721092224, 
    -0.05765550583600998, 0.07300722599029541, -0.05540237948298454, -0.02953893505036831, 
    0.17836640775203705, 0.05888477340340614, -0.07759802043437958, 0.11228284984827042, 
    0.11928121745586395, 0.06474997103214264, -0.14019106328487396, -0.4478379786014557, 
    -0.03658445551991463, -0.024058610200881958, -0.179480642080307, -0.1166250929236412, 
    -0.365823358297348, -0.12791815400123596, 0.030733555555343628, -0.1931845247745514, 
    -0.08758528530597687, 0.1935519576072693, -0.15271617472171783, 0.23963208496570587, 
  
    };
    static const neuron_t neuron9 = {weights9, -0.004302919376641512};
    neurons[9]=neuron9;

    static const float weights10[] ={
    0.23752012848854065, 0.3209950923919678, 0.37952926754951477, 0.06538088619709015, 
    -0.343593567609787, -0.07405654340982437, 0.06229787319898605, 0.21305187046527863, 
    0.32331031560897827, -0.08543608337640762, -0.0755356028676033, -0.04982181638479233, 
    -0.046843286603689194, 0.09640660136938095, -0.16269633173942566, 0.26806846261024475, 
    0.23437239229679108, 0.0402134507894516, 0.2804916203022003, 0.4859282970428467, 
    0.08429331332445145, -0.2395927757024765, 0.02540341578423977, 0.17274831235408783, 
    0.25575345754623413, 0.24195609986782074, 0.09788583219051361, 0.2370896339416504, 
    -0.035625722259283066, 0.06997877359390259, -0.14706078171730042, -0.10277822613716125, 
    -0.15278777480125427, 0.17857323586940765, -0.25633493065834045, 0.562340259552002, 
    0.3561948537826538, -0.22988799214363098, 0.3394792675971985, 0.4781629741191864, 
    -0.11484179645776749, 0.285719096660614, -0.6061102747917175, 0.33452484011650085, 
    -0.16517861187458038, -0.04263733699917793, 0.08424657583236694, -0.13751545548439026, 
    0.20117595791816711, -0.26505646109580994, -0.21887923777103424, -0.22954358160495758, 
    -0.10247179865837097, -0.09278290718793869, -0.050783392041921616, 0.24781376123428345, 
    -0.11585674434900284, -0.40086889266967773, -0.1400335282087326, 0.35066279768943787, 
    -0.19100619852542877, -0.04032595455646515, -0.019510352984070778, 0.3657216429710388, 
  
    };
    static const neuron_t neuron10 = {weights10, 0.008648178540170193};
    neurons[10]=neuron10;

    static const float weights11[] ={
    0.27925628423690796, 0.04968908056616783, 0.24321416020393372, 0.14251139760017395, 
    -0.2997419536113739, -0.3412916660308838, 0.028277171775698662, -0.5329488515853882, 
    -0.03555389866232872, 0.42193254828453064, 0.18276022374629974, 0.0007487303810194135, 
    0.19082002341747284, -0.12519040703773499, 0.0422714427113533, -0.34243640303611755, 
    -0.1854611337184906, 0.1932886391878128, 0.36571651697158813, 0.11550043523311615, 
    -0.053560398519039154, 0.30916041135787964, 0.32581189274787903, -0.3277507722377777, 
    -0.14030170440673828, -0.08687672019004822, -0.35801056027412415, 0.11655350774526596, 
    -0.11356312781572342, 0.4049566090106964, -0.019466664642095566, 0.08768364042043686, 
    0.5977343320846558, 0.4448052644729614, 0.12610331177711487, 0.15491418540477753, 
    -0.050748635083436966, 0.06143280863761902, -0.0720083937048912, 0.3217698335647583, 
    -0.043631646782159805, -0.012771422043442726, -0.32876625657081604, -0.22830063104629517, 
    0.36252427101135254, -0.12329555302858353, -0.02331085316836834, -0.20724733173847198, 
    -0.0858091488480568, -0.29536035656929016, 0.14377786219120026, -0.11279719322919846, 
    -0.16629338264465332, -0.5575076937675476, 0.2565044164657593, 0.1337684690952301, 
    -0.1557692289352417, -0.041261039674282074, 0.17425259947776794, -0.1293455958366394, 
    0.13860739767551422, 0.09392234683036804, -0.19825512170791626, -0.3143865764141083, 
  
    };
    static const neuron_t neuron11 = {weights11, 0.0071922545321285725};
    neurons[11]=neuron11;

    static const float weights12[] ={
    0.08064492791891098, 0.28816303610801697, 0.07561297714710236, -0.36113643646240234, 
    -0.5563353300094604, -0.32398948073387146, -0.26648473739624023, -0.4018562436103821, 
    -0.07466675341129303, 0.20054566860198975, -0.015191718935966492, 0.013816220685839653, 
    0.5460864305496216, -0.011907203122973442, 0.2608474791049957, -0.0344964824616909, 
    0.04208746179938316, -0.029301637783646584, 0.010339410975575447, 0.43386712670326233, 
    0.21149477362632751, -0.33147338032722473, 0.3995019495487213, -0.02202177606523037, 
    -0.2628372609615326, 0.5226629376411438, 0.48647022247314453, -0.35822391510009766, 
    0.19210486114025116, -0.11193785071372986, 0.3409389853477478, -0.06019739806652069, 
    -0.10720255225896835, 0.29609358310699463, -0.13784259557724, -0.27101609110832214, 
    0.023888666182756424, -0.010812689550220966, -0.13400718569755554, -0.0902857854962349, 
    0.4147532880306244, -0.332889586687088, -0.2180556207895279, 0.3762551248073578, 
    0.36473116278648376, -0.15673549473285675, -0.09352301061153412, -0.21883994340896606, 
    -0.12533511221408844, 0.1624303162097931, 0.192849799990654, -0.6302735209465027, 
    -0.2997261881828308, 0.5286737084388733, 0.33421874046325684, 0.4311593174934387, 
    -0.06627187132835388, 0.11720810830593109, 0.09154744446277618, -0.10642126947641373, 
    0.19082027673721313, 0.15595825016498566, -0.3589653968811035, -0.2814187705516815, 
  
    };
    static const neuron_t neuron12 = {weights12, 0.05519775673747063};
    neurons[12]=neuron12;

    static const float weights13[] ={
    -0.02383110672235489, 0.20629878342151642, 0.2769535481929779, -0.3292085826396942, 
    0.35592329502105713, -0.39266708493232727, 0.17515496909618378, -0.001727580325677991, 
    -0.1645047515630722, -0.07289211452007294, -0.17259201407432556, -0.04986339062452316, 
    0.03891875222325325, 0.04724805802106857, 0.18953388929367065, 0.17807362973690033, 
    -0.24106012284755707, -0.10925433784723282, -0.08714203536510468, 0.22084344923496246, 
    -0.18040335178375244, -0.13905617594718933, 0.3269551992416382, -0.052859190851449966, 
    0.02180471643805504, 0.013936350122094154, 0.3039545714855194, 0.4390861988067627, 
    0.22081290185451508, 0.16254054009914398, 0.2299807369709015, 0.4924132525920868, 
    -0.5207828879356384, -0.2689705789089203, 0.3404466509819031, 0.42268842458724976, 
    -0.21219411492347717, -0.34267014265060425, 0.4219266176223755, 0.13847701251506805, 
    0.24267642199993134, -0.0676373541355133, 0.06999625265598297, 0.3271835744380951, 
    -0.02670403942465782, 0.3550924062728882, -0.11425235867500305, 0.42014434933662415, 
    0.20174066722393036, 0.22115451097488403, 0.07440698891878128, 0.2799347937107086, 
    0.04903881624341011, 0.5409401059150696, -0.17450329661369324, 0.09318280220031738, 
    0.23839174211025238, -0.26608991622924805, 0.3197958767414093, 0.1326758861541748, 
    0.29818812012672424, -0.3854341208934784, -0.06255006045103073, -0.4231686294078827, 
  
    };
    static const neuron_t neuron13 = {weights13, 0.1299823522567749};
    neurons[13]=neuron13;

    static const float weights14[] ={
    0.30804386734962463, -0.016935499384999275, 0.08522064983844757, 0.128388449549675, 
    0.615821123123169, 0.16350209712982178, 0.37590155005455017, 0.6876764893531799, 
    0.29453903436660767, 0.3522729277610779, 0.4421961009502411, -0.14643006026744843, 
    -0.0224179495126009, -0.20791257917881012, -0.12496142089366913, -0.0693526640534401, 
    -0.04612867161631584, -0.018697764724493027, 0.1506158411502838, -0.40416863560676575, 
    0.12496663630008698, 0.3466997444629669, -0.17675986886024475, 0.48268479108810425, 
    0.2577846944332123, -0.1682249754667282, -0.12495075911283493, -0.046829674392938614, 
    0.1354486495256424, -0.21560685336589813, -0.11374073475599289, 0.11026325821876526, 
    -0.5351169109344482, -0.1387283056974411, -0.018857184797525406, -0.15255117416381836, 
    0.03611227124929428, 0.00855907890945673, 0.29405683279037476, 0.012201572768390179, 
    -0.4909268617630005, -0.016721034422516823, -0.4632303714752197, -0.3700588643550873, 
    0.11113167554140091, 0.18630185723304749, 0.32861849665641785, 0.412166953086853, 
    -0.03454919531941414, 0.22858242690563202, -0.14385510981082916, 0.3027438521385193, 
    0.04099373146891594, -0.07006385177373886, 0.30367791652679443, 0.2707907259464264, 
    0.0361957922577858, 0.2064819037914276, -0.3560110330581665, 0.06980517506599426, 
    -0.29066866636276245, 0.05472922325134277, 0.11776888370513916, -0.08399690687656403, 
  
    };
    static const neuron_t neuron14 = {weights14, -0.000835604325402528};
    neurons[14]=neuron14;

    static const float weights15[] ={
    0.08938296139240265, -0.1938382387161255, -0.03830477222800255, 0.21838313341140747, 
    0.2846190333366394, 0.5480988621711731, 0.04499485716223717, 0.35046419501304626, 
    -0.08011370152235031, 0.20543397963047028, -0.20881612598896027, -0.2595594823360443, 
    -0.27492478489875793, 0.04018925130367279, 0.08260519057512283, -0.30734261870384216, 
    0.5518168807029724, -0.2601849436759949, -0.2785039246082306, 0.06222722306847572, 
    0.40246450901031494, 0.03891225904226303, 0.21980349719524384, 0.6154994368553162, 
    -0.08077344298362732, 0.07583446055650711, 0.3714773952960968, -0.1949290931224823, 
    -0.31336289644241333, -0.1560920774936676, 0.2489798218011856, -0.390779048204422, 
    -0.44274768233299255, -0.030693240463733673, 0.03642367944121361, 0.41357457637786865, 
    0.2959427237510681, -0.32006606459617615, -0.11422453075647354, -0.16416887938976288, 
    -0.023714642971754074, 0.2731631398200989, 0.10223264992237091, 0.061265431344509125, 
    0.14850474894046783, 0.23370344936847687, 0.2556304335594177, -0.0033750382717698812, 
    0.3936101198196411, 0.24308209121227264, -0.3083689212799072, 0.06310747563838959, 
    0.1770898550748825, 0.2069791555404663, -0.037359852343797684, -0.07770495861768723, 
    0.01098956074565649, 0.00849632453173399, 0.10284417122602463, -0.0658252164721489, 
    0.1789858192205429, -0.28011929988861084, 0.10900820046663284, -0.045326121151447296, 
  
    };
    static const neuron_t neuron15 = {weights15, -0.0238360445946455};
    neurons[15]=neuron15;

    dense_layer_t layer= {16, neurons};
    return layer;
}

dense_layer_t init_dense_1_data(void){

    static neuron_t neurons[10];

    static const float weights0[] ={
    0.15418393909931183, -0.03854570537805557, 0.29742753505706787, 0.7250478863716125, 
    -0.39189115166664124, -0.42009130120277405, -0.10498881340026855, -0.1959330290555954, 
    0.40660762786865234, -0.5701512098312378, -0.28780192136764526, 0.38431981205940247, 
    -0.18680672347545624, -0.36003854870796204, -0.7104786038398743, -0.6634427905082703, 
  
    };
    static const neuron_t neuron0 = {weights0, 0.03819284215569496};
    neurons[0]=neuron0;

    static const float weights1[] ={
    -0.4772002696990967, -0.16384175419807434, 0.32547372579574585, 0.10513970255851746, 
    -0.2729249596595764, -0.1271488517522812, 0.14489221572875977, 0.07547315955162048, 
    -0.6442343592643738, -0.013535089790821075, 0.23672442138195038, -0.6119665503501892, 
    -0.12850572168827057, 0.6794524788856506, -0.3962203562259674, 0.41742128133773804, 
  
    };
    static const neuron_t neuron1 = {weights1, 0.1870122253894806};
    neurons[1]=neuron1;

    static const float weights2[] ={
    0.16391530632972717, 0.12014169245958328, 0.4678425192832947, -0.31737226247787476, 
    0.348238468170166, -0.3172038197517395, -0.12758803367614746, 0.16901513934135437, 
    -0.576072633266449, -0.8487957715988159, -0.5609419941902161, -0.09569311141967773, 
    -0.9586595892906189, 0.30280452966690063, 0.5439543128013611, 0.5486952662467957, 
  
    };
    static const neuron_t neuron2 = {weights2, -0.10878992825746536};
    neurons[2]=neuron2;

    static const float weights3[] ={
    -0.7648433446884155, 0.43752583861351013, -0.3109951913356781, -0.6061617136001587, 
    0.18489624559879303, 0.20291642844676971, 0.42158377170562744, -0.007950013503432274, 
    0.6096344590187073, -0.3713189661502838, -0.16394783556461334, -0.9058045744895935, 
    -0.3293747901916504, 0.04648854583501816, 0.6762085556983948, -0.14245939254760742, 
  
    };
    static const neuron_t neuron3 = {weights3, 0.14864762127399445};
    neurons[3]=neuron3;

    static const float weights4[] ={
    0.10423631966114044, 0.2512209117412567, -0.7192955017089844, 0.2124788761138916, 
    -0.17141728103160858, -0.231248140335083, 0.36993759870529175, -0.17178989946842194, 
    -0.17819687724113464, 0.3891603350639343, -0.009346633218228817, 0.7091268301010132, 
    0.207642063498497, 0.3744043707847595, -0.5821317434310913, -0.11971656233072281, 
  
    };
    static const neuron_t neuron4 = {weights4, -0.014515402726829052};
    neurons[4]=neuron4;

    static const float weights5[] ={
    0.06516345590353012, 0.20879940688610077, -0.16243399679660797, 0.30506306886672974, 
    -0.908936619758606, -0.37106457352638245, -0.44603317975997925, -0.44487476348876953, 
    0.05204545333981514, 0.5043938159942627, 0.14901718497276306, 0.035425227135419846, 
    0.15044234693050385, -0.2121800035238266, 0.3024470806121826, 0.5078818798065186, 
  
    };
    static const neuron_t neuron5 = {weights5, -0.09120339155197144};
    neurons[5]=neuron5;

    static const float weights6[] ={
    0.46729540824890137, 0.4596010148525238, 0.23984362185001373, 0.1321447640657425, 
    0.3604063093662262, -0.204611673951149, -0.4761240780353546, -0.18024763464927673, 
    -0.4102010726928711, -0.049106352031230927, -0.6733161807060242, 0.3946925401687622, 
    0.45277851819992065, -0.5923497080802917, -0.1659998744726181, 0.33316534757614136, 
  
    };
    static const neuron_t neuron6 = {weights6, -0.031963273882865906};
    neurons[6]=neuron6;

    static const float weights7[] ={
    0.3816138803958893, -0.243210569024086, -0.6943687796592712, 0.0636601522564888, 
    0.24983204901218414, -0.365583598613739, 0.4295644164085388, 0.38998767733573914, 
    -0.1055855080485344, -0.5472913980484009, 0.10485068708658218, -0.510225772857666, 
    -0.21013596653938293, 0.5803229212760925, 0.17337676882743835, -0.1890079528093338, 
  
    };
    static const neuron_t neuron7 = {weights7, -0.011517624370753765};
    neurons[7]=neuron7;

    static const float weights8[] ={
    -0.4494578242301941, 0.011645139195024967, 0.19335287809371948, -0.2966260015964508, 
    0.40775802731513977, 0.1661359816789627, 0.12348240613937378, 0.40139955282211304, 
    0.02384866215288639, -0.44306743144989014, -0.471978098154068, 0.34326332807540894, 
    -0.06135762482881546, 0.3397673964500427, 0.2001962512731552, -0.8289266228675842, 
  
    };
    static const neuron_t neuron8 = {weights8, -0.060924381017684937};
    neurons[8]=neuron8;

    static const float weights9[] ={
    -0.19987395405769348, -0.46444547176361084, -0.06328480690717697, 0.09084192663431168, 
    0.11492715775966644, 0.15859098732471466, 0.031073927879333496, 0.22918856143951416, 
    -0.45534831285476685, -0.6115075945854187, 0.743003785610199, 0.4557390809059143, 
    -0.46270397305488586, -0.024817457422614098, 0.4839753210544586, -0.26633456349372864, 
  
    };
    static const neuron_t neuron9 = {weights9, -0.0898437350988388};
    neurons[9]=neuron9;

    dense_layer_t layer= {10, neurons};
    return layer;
}

