#include "fashionmnist_model.h"

// Initialization function prototypes
conv2d_layer_t init_conv2d_3_data(void);
batch_normalization_layer_t init_batch_normalization_8_data(void);
conv2d_layer_t init_conv2d_4_data(void);
batch_normalization_layer_t init_batch_normalization_9_data(void);
conv2d_layer_t init_conv2d_5_data(void);
batch_normalization_layer_t init_batch_normalization_10_data(void);
dense_layer_t init_dense_3_data(void);
batch_normalization_layer_t init_batch_normalization_11_data(void);
dense_layer_t init_dense_4_data(void);


// Global Variables
conv2d_layer_t conv2d_3_data;
batch_normalization_layer_t batch_normalization_8_data;
conv2d_layer_t conv2d_4_data;
batch_normalization_layer_t batch_normalization_9_data;
conv2d_layer_t conv2d_5_data;
batch_normalization_layer_t batch_normalization_10_data;
dense_layer_t dense_3_data;
batch_normalization_layer_t batch_normalization_11_data;
dense_layer_t dense_4_data;


void model_init(){
    conv2d_3_data = init_conv2d_3_data();
    batch_normalization_8_data = init_batch_normalization_8_data();
    conv2d_4_data = init_conv2d_4_data();
    batch_normalization_9_data = init_batch_normalization_9_data();
    conv2d_5_data = init_conv2d_5_data();
    batch_normalization_10_data = init_batch_normalization_10_data();
    dense_3_data = init_dense_3_data();
    batch_normalization_11_data = init_batch_normalization_11_data();
    dense_4_data = init_dense_4_data();

}

void model_predict(data3d_t input, data1d_t * output){
  
    prepare_buffers();
    
    //*************** LAYER 0 **************//
    // Layer name: conv2d_3
    data3d_t output0;
    conv2d_layer(conv2d_3_data, input, &output0);
    // Activation layer for conv2d_3
    relu_activation(output0.data, 10816);
    
    //*************** LAYER 1 **************//
    // Layer name: max_pooling2d_4
    input = output0;
    static const pooling2d_layer_t max_pooling2d_4_data = { 2, 2 };
    max_pooling2d_layer(max_pooling2d_4_data, input, &output0);
    
    //*************** LAYER 2 **************//
    // Layer name: batch_normalization_8
    batch_normalization3d_layer(batch_normalization_8_data, &output0);
    
    //*************** LAYER 3 **************//
    // Layer name: conv2d_4
    input = output0;
    conv2d_layer(conv2d_4_data, input, &output0);
    // Activation layer for conv2d_4
    relu_activation(output0.data, 7744);
    
    //*************** LAYER 4 **************//
    // Layer name: max_pooling2d_5
    input = output0;
    static const pooling2d_layer_t max_pooling2d_5_data = { 2, 2 };
    max_pooling2d_layer(max_pooling2d_5_data, input, &output0);
    
    //*************** LAYER 5 **************//
    // Layer name: batch_normalization_9
    batch_normalization3d_layer(batch_normalization_9_data, &output0);
    
    //*************** LAYER 6 **************//
    // Layer name: conv2d_5
    input = output0;
    conv2d_layer(conv2d_5_data, input, &output0);
    // Activation layer for conv2d_5
    relu_activation(output0.data, 576);
    
    //*************** LAYER 7 **************//
    // Layer name: batch_normalization_10
    batch_normalization3d_layer(batch_normalization_10_data, &output0);
    
    //*************** LAYER 8 **************//
    // Layer name: flatten_2
    input = output0;
    data1d_t output1;
    flatten3d_layer(input, &output1);
    
    //*************** LAYER 9 **************//
    // Layer name: dropout_2
    data1d_t input1;
    input1 = output1;
    
    
    //*************** LAYER 10 **************//
    // Layer name: dense_3
    input1 = output1;
    dense_layer(dense_3_data, input1, &output1);
    
    // Activation layer for dense_3
    relu_activation(output1.data, 64);
    
    //*************** LAYER 11 **************//
    // Layer name: batch_normalization_11
    batch_normalization1d_layer(batch_normalization_11_data, &output1);
    
    //*************** LAYER 12 **************//
    // Layer name: dense_4
    input1 = output1;
    dense_layer(dense_4_data, input1, &output1);
    
    // Activation layer for dense_4
    softmax_activation(output1.data, 10);
    

    *output = output1;

}

int model_predict_class(data3d_t input, data1d_t * results){
  
   
    model_predict(input, results);
    
    return argmax(*results);
    //return argmax(data1d_t);

}

// Implementation of initialization functions



conv2d_layer_t init_conv2d_3_data(void){

        static filter_t filters[16];
        
        static const float weights0[]={ 
    -0.010214443318545818, 0.00798702146857977, 0.007469970267266035, 
    -0.18772754073143005, 0.12395420670509338, 0.1209137961268425, 
    -0.024332638829946518, 0.17583507299423218, -0.18447884917259216, 

        };
        static filter_t filter0 = {1, 3, weights0, 0.021657370030879974};
        filters[0]=filter0;
            
        static const float weights1[]={ 
    0.09981225430965424, -0.021568534895777702, 0.01742076501250267, 
    0.12891307473182678, 0.10074932128190994, 0.10355645418167114, 
    0.10639804601669312, 0.05946289747953415, 0.0412946455180645, 

        };
        static filter_t filter1 = {1, 3, weights1, 0.05261765420436859};
        filters[1]=filter1;
            
        static const float weights2[]={ 
    0.12742339074611664, -0.2156568467617035, 0.12904807925224304, 
    -0.05548994988203049, -0.1278115063905716, 0.15707378089427948, 
    -0.0933917909860611, 0.05545518919825554, 0.007515734061598778, 

        };
        static filter_t filter2 = {1, 3, weights2, 0.016348179429769516};
        filters[2]=filter2;
            
        static const float weights3[]={ 
    0.01177484355866909, 0.10643960535526276, -0.11014112085103989, 
    0.1884331852197647, -0.038037922233343124, -0.19561785459518433, 
    0.12732863426208496, 0.12375487387180328, -0.21196182072162628, 

        };
        static filter_t filter3 = {1, 3, weights3, -0.003360843053087592};
        filters[3]=filter3;
            
        static const float weights4[]={ 
    0.05154768377542496, -0.04398883506655693, 0.20088723301887512, 
    -0.14694418013095856, -0.20557089149951935, -0.07872448116540909, 
    0.10008937120437622, -0.0812845453619957, -0.04768228903412819, 

        };
        static filter_t filter4 = {1, 3, weights4, -0.05624748393893242};
        filters[4]=filter4;
            
        static const float weights5[]={ 
    -0.01216510683298111, 0.18898198008537292, -0.10755472630262375, 
    -0.09144427627325058, 0.11240698397159576, 0.02012808620929718, 
    -0.15374471247196198, -0.11922076344490051, 0.15232044458389282, 

        };
        static filter_t filter5 = {1, 3, weights5, 0.01896316185593605};
        filters[5]=filter5;
            
        static const float weights6[]={ 
    -0.21257102489471436, -0.1396487057209015, 0.013846144080162048, 
    -0.030641915276646614, -0.14063242077827454, 0.050546493381261826, 
    -0.056360989809036255, 0.14871780574321747, -0.07607526332139969, 

        };
        static filter_t filter6 = {1, 3, weights6, -0.13827930390834808};
        filters[6]=filter6;
            
        static const float weights7[]={ 
    -0.17134156823158264, 0.024044683203101158, 0.023964690044522285, 
    0.026706013828516006, 0.021826718002557755, 0.10032042860984802, 
    0.0899600237607956, -0.09609868377447128, 0.04225609451532364, 

        };
        static filter_t filter7 = {1, 3, weights7, -0.0020480004604905844};
        filters[7]=filter7;
            
        static const float weights8[]={ 
    -0.010451268404722214, -0.09459728747606277, 0.16770310699939728, 
    0.1407880336046219, 0.09618417173624039, -0.12628604471683502, 
    0.13358674943447113, -0.20233801007270813, 0.1590830236673355, 

        };
        static filter_t filter8 = {1, 3, weights8, -0.004790568724274635};
        filters[8]=filter8;
            
        static const float weights9[]={ 
    -0.063197560608387, -0.18768885731697083, -0.036365654319524765, 
    0.019471338018774986, 0.12462541460990906, 0.15936097502708435, 
    0.0553065724670887, 0.059813857078552246, -0.00769458943977952, 

        };
        static filter_t filter9 = {1, 3, weights9, 0.027236957103013992};
        filters[9]=filter9;
            
        static const float weights10[]={ 
    0.14529362320899963, -0.0954974815249443, -0.03905772417783737, 
    0.06291095167398453, 0.13000188767910004, 0.02703067474067211, 
    -0.20410794019699097, -0.17378348112106323, -0.12033631652593613, 

        };
        static filter_t filter10 = {1, 3, weights10, 0.005456200335174799};
        filters[10]=filter10;
            
        static const float weights11[]={ 
    -0.08689519017934799, 0.0027984525077044964, -0.061162691563367844, 
    -0.20779535174369812, -0.09445729106664658, 0.019171804189682007, 
    -0.127216637134552, -0.06331290304660797, 0.09863362461328506, 

        };
        static filter_t filter11 = {1, 3, weights11, -0.2319393903017044};
        filters[11]=filter11;
            
        static const float weights12[]={ 
    -0.040927860885858536, -0.0053177205845713615, -0.22579143941402435, 
    0.07576791197061539, 0.15642216801643372, 0.11635135859251022, 
    0.03993188589811325, -0.11966850608587265, 0.10213183611631393, 

        };
        static filter_t filter12 = {1, 3, weights12, 0.03838320076465607};
        filters[12]=filter12;
            
        static const float weights13[]={ 
    -0.04964156448841095, -0.16544291377067566, -0.09392746537923813, 
    0.1630762815475464, -0.11983336508274078, -0.002063646214082837, 
    0.05839040130376816, -0.0024533953983336687, -0.08077292144298553, 

        };
        static filter_t filter13 = {1, 3, weights13, -0.14219869673252106};
        filters[13]=filter13;
            
        static const float weights14[]={ 
    -0.07058126479387283, -0.19426922500133514, 0.010668287053704262, 
    -0.1052142083644867, -0.12223207205533981, 0.12165720760822296, 
    0.0010686118621379137, 0.043106596916913986, -0.09457357227802277, 

        };
        static filter_t filter14 = {1, 3, weights14, -0.12267178297042847};
        filters[14]=filter14;
            
        static const float weights15[]={ 
    -0.1934896558523178, -0.1884412169456482, -0.19581645727157593, 
    0.18749761581420898, 0.0754382461309433, 0.12663918733596802, 
    0.11426933109760284, -0.05576609447598457, 0.10905001312494278, 

        };
        static filter_t filter15 = {1, 3, weights15, -0.0178526658564806};
        filters[15]=filter15;
            
        conv2d_layer_t layer = {16,filters};
        return layer;
        }
        
batch_normalization_layer_t init_batch_normalization_8_data(void){

    static const float inv_gamma_dev[] ={
    0.962736/sqrt(0.011675+0.001000), 0.893317/sqrt(0.041225+0.001000), 1.061592/sqrt(0.013178+0.001000), 
    1.096083/sqrt(0.039930+0.001000), 0.939201/sqrt(0.013727+0.001000), 1.070239/sqrt(0.011510+0.001000), 
    0.980315/sqrt(0.021681+0.001000), 0.936232/sqrt(0.005012+0.001000), 0.928354/sqrt(0.009854+0.001000), 
    0.949242/sqrt(0.012228+0.001000), 0.952484/sqrt(0.021180+0.001000), 1.017165/sqrt(0.020864+0.001000), 
    0.928303/sqrt(0.011409+0.001000), 1.032761/sqrt(0.010318+0.001000), 0.965204/sqrt(0.019281+0.001000), 
    1.010880/sqrt(0.022528+0.001000)
    };
    static const float std_beta[] ={
    0.163922-0.075657*0.962736/sqrt(0.011675+0.001000), -0.153082-0.144846*0.893317/sqrt(0.041225+0.001000), 
    0.248792-0.084920*1.061592/sqrt(0.013178+0.001000), 0.234883-0.103104*1.096083/sqrt(0.039930+0.001000), 
    0.030013-0.139942*0.939201/sqrt(0.013727+0.001000), 0.268429-0.089030*1.070239/sqrt(0.011510+0.001000), 
    -0.089112-0.179893*0.980315/sqrt(0.021681+0.001000), 0.016725-0.048153*0.936232/sqrt(0.005012+0.001000), 
    0.179533-0.071440*0.928354/sqrt(0.009854+0.001000), -0.062116-0.076276*0.949242/sqrt(0.012228+0.001000), 
    -0.223729-0.191291*0.952484/sqrt(0.021180+0.001000), -0.131736-0.164396*1.017165/sqrt(0.020864+0.001000), 
    -0.027101-0.081049*0.928303/sqrt(0.011409+0.001000), -0.128871-0.101175*1.032761/sqrt(0.010318+0.001000), 
    -0.282152-0.169037*0.965204/sqrt(0.019281+0.001000), 0.090793-0.079693*1.010880/sqrt(0.022528+0.001000), 
  
    };

    static const batch_normalization_layer_t norm = { 16, inv_gamma_dev, std_beta };
    return norm;
}


conv2d_layer_t init_conv2d_4_data(void){

        static filter_t filters[64];
        
        static const float weights0[]={ 
    -0.04841703549027443, -0.10822480171918869, 0.025041770190000534, 
    0.08217066526412964, -0.030323045328259468, 0.038334425538778305, 
    -0.014471076428890228, -0.012170054949820042, -0.005250916816294193, 

    -0.034913986921310425, -0.08699868619441986, 0.06923168897628784, 
    -0.04217066988348961, 0.04327647387981415, 0.051131539046764374, 
    0.003876088885590434, -0.039900362491607666, 0.07023686170578003, 

    -0.004625207744538784, 0.018205463886260986, 0.08336273580789566, 
    -0.034408845007419586, 0.033311668783426285, -0.011618333868682384, 
    -0.09180353581905365, -0.07128162682056427, -0.06830401718616486, 

    -0.0330522321164608, 0.08470561355352402, 0.04076031222939491, 
    0.05800481140613556, -0.009183020330965519, 0.01291965413838625, 
    -0.04766714945435524, 0.05668581277132034, -0.04990684613585472, 

    -0.06928955763578415, -0.03306203335523605, -0.0164268147200346, 
    0.06228438392281532, 0.0034003248438239098, 0.09390542656183243, 
    -0.0025783751625567675, -0.04054350033402443, -0.09302880614995956, 

    -0.07620660960674286, 0.10990913957357407, -0.10296396166086197, 
    -0.0366184338927269, 0.0597350150346756, -0.05235784873366356, 
    -0.06366346031427383, -0.012889171950519085, 0.030429160222411156, 

    -0.06928438693284988, 0.017619099467992783, -0.0015568445669487119, 
    -0.04806970804929733, -0.05067792907357216, 0.02710583806037903, 
    -0.008271067403256893, -0.021640395745635033, -0.04516829922795296, 

    -0.11280902475118637, 0.0730510875582695, 0.09900188446044922, 
    0.030958279967308044, 0.0030350086744874716, -0.09687358140945435, 
    0.032951317727565765, -0.029177607968449593, 0.10809274017810822, 

    -0.03609640151262283, 0.020644286647439003, -0.08584219962358475, 
    -0.02632393129169941, -0.06410655379295349, -0.09494884312152863, 
    0.04637546464800835, 0.08247721195220947, -0.07312750816345215, 

    0.020875269547104836, -0.042532723397016525, 0.0023076266516000032, 
    -0.024053100496530533, 0.03077014908194542, 0.0504799447953701, 
    0.05947839468717575, 0.036748312413692474, 0.08249443024396896, 

    0.06729069352149963, 0.016387663781642914, 0.07011295855045319, 
    -0.028245756402611732, -0.04944132640957832, -0.06173160672187805, 
    0.0715065747499466, 0.03689565882086754, -0.03255092352628708, 

    0.007593500427901745, 0.11001348495483398, 0.057267650961875916, 
    0.003902304219081998, -0.09691279381513596, -0.055024825036525726, 
    -0.08364294469356537, -0.017412887886166573, 0.0846000611782074, 

    0.07672890275716782, 0.007668452337384224, -0.053407616913318634, 
    0.08618186414241791, 0.007363964803516865, 0.049638308584690094, 
    -0.02197203040122986, 0.1586354374885559, -0.031202176585793495, 

    -0.021147647872567177, 0.06740276515483856, -0.02804942987859249, 
    -0.038914237171411514, -0.022972064092755318, 0.01846405677497387, 
    0.013730206526815891, 0.08544802665710449, 0.00985005870461464, 

    -0.05406941846013069, -0.07381272315979004, 0.04052751883864403, 
    -0.03794959560036659, -0.008307247422635555, 0.10995170474052429, 
    -0.04617705196142197, -0.037048790603876114, 0.0013907402753829956, 

    -0.017291435971856117, 0.08299699425697327, 0.02396342344582081, 
    -0.04236254096031189, -0.013044656254351139, 0.0006085305358283222, 
    -0.11769144237041473, -0.03977435454726219, -0.12063679844141006, 

        };
        static filter_t filter0 = {16, 3, weights0, -0.03015584871172905};
        filters[0]=filter0;
            
        static const float weights1[]={ 
    0.019174952059984207, 0.0077378577552735806, -0.0756080374121666, 
    -0.011761114932596684, -0.1580720841884613, 0.10545550286769867, 
    -0.020930243656039238, -0.004547991789877415, -0.08481578528881073, 

    0.024937311187386513, -0.009668474085628986, 0.03204365819692612, 
    0.028457581996917725, -0.07647206634283066, -0.040846165269613266, 
    0.07328526675701141, -0.032487161457538605, -0.031009716913104057, 

    -0.04246660694479942, -0.19478923082351685, -0.13504952192306519, 
    0.008884421549737453, 0.0596054345369339, 0.05975060537457466, 
    -0.027530381456017494, -0.009886039420962334, 0.04147075489163399, 

    -0.0690227597951889, -0.11030417680740356, -0.019993767142295837, 
    0.00964084081351757, 0.058887235820293427, 0.023174768313765526, 
    -0.001112493104301393, -0.025223471224308014, -0.010585897602140903, 

    -0.04094649478793144, -0.03576471284031868, 0.0878039225935936, 
    -0.01905786246061325, 0.0237105842679739, 0.09565197676420212, 
    0.041661474853754044, -0.07801889628171921, 0.08881624788045883, 

    0.10773120820522308, -0.08056298643350601, -0.08502904325723648, 
    0.021071812137961388, -0.02815767377614975, 0.0304888803511858, 
    0.04756857082247734, 0.030226673930883408, -0.050840217620134354, 

    -0.07083666324615479, 0.04229883477091789, 0.028592092916369438, 
    0.0492512546479702, 0.002591721247881651, -0.0466458685696125, 
    0.0002559279091656208, -0.0978514701128006, -0.03846997022628784, 

    -0.010532374493777752, -0.05012250319123268, -0.07387813925743103, 
    0.019638240337371826, -0.13728268444538116, -0.037680212408304214, 
    0.04720816761255264, 0.03270399942994118, 0.02226330153644085, 

    0.03925061225891113, 0.00833585113286972, 0.05063655972480774, 
    0.05240976810455322, -0.03966584429144859, -0.07336793839931488, 
    0.062018170952796936, -0.08419115841388702, -0.051644835621118546, 

    -0.11154494434595108, 0.020735831931233406, 0.012090261094272137, 
    -0.008876084350049496, 0.07709785550832748, 0.014010048471391201, 
    -0.023495662957429886, 0.08581312745809555, 0.010142622515559196, 

    -0.0687379464507103, 0.038139693439006805, -0.0181772131472826, 
    0.06590382009744644, 0.016427531838417053, 0.0036562334280461073, 
    0.10652319341897964, -0.02300027571618557, -0.036839473992586136, 

    -0.06146286055445671, -0.04242105782032013, 0.11590076237916946, 
    0.07137545198202133, 0.06014270335435867, -0.007722631096839905, 
    -0.09237432479858398, -0.015601315535604954, 0.012319795787334442, 

    0.08153507113456726, -0.03200305625796318, -0.04472077265381813, 
    0.023685574531555176, 0.003941108472645283, -0.01147778332233429, 
    0.025907393544912338, -0.005642443895339966, -0.04819295182824135, 

    0.07780391722917557, 0.05452880635857582, 0.056840021163225174, 
    -0.04687003791332245, -0.014555098488926888, 0.017139403149485588, 
    -0.09730583429336548, 0.01537876483052969, 0.03575065732002258, 

    -0.0326659195125103, 0.0438704751431942, 0.21263553202152252, 
    0.001561154960654676, -0.03938555344939232, 0.03779060021042824, 
    0.03820861130952835, 0.042320434004068375, 0.0818474069237709, 

    0.006626825779676437, 0.023692378774285316, 0.1166686862707138, 
    0.08112448453903198, 0.05901852622628212, -0.040563855320215225, 
    -0.02729341946542263, 0.016660742461681366, -0.09604622423648834, 

        };
        static filter_t filter1 = {16, 3, weights1, -0.13434579968452454};
        filters[1]=filter1;
            
        static const float weights2[]={ 
    -0.12309015542268753, -0.06885356456041336, 0.0733676552772522, 
    -0.03894355893135071, 0.09101348370313644, 0.0042748297564685345, 
    -0.12197168916463852, -0.040881283581256866, 0.0322609543800354, 

    0.06997562944889069, -0.04901333898305893, -0.03291210159659386, 
    -0.031907472759485245, 0.08208215981721878, 0.01799074374139309, 
    0.023303167894482613, -0.022189876064658165, -0.06330271065235138, 

    0.035353124141693115, 0.0977674052119255, -0.0009853191440925002, 
    -0.03270468860864639, -0.0031069295946508646, -0.07946356385946274, 
    0.05321705341339111, 0.04491133615374565, 0.0021246320102363825, 

    0.09726282209157944, -0.086677685379982, 0.0622638463973999, 
    0.03554265573620796, -0.06986458599567413, -0.06912253051996231, 
    0.07607008516788483, 0.12163303792476654, 0.08447275310754776, 

    -0.0033775020856410265, -0.0624709278345108, -0.08762044459581375, 
    0.021268649026751518, 0.05311810225248337, -0.03599095717072487, 
    -0.051095202565193176, 0.03441852703690529, 0.03549635037779808, 

    -0.07209877669811249, 0.013905041851103306, -0.03860948607325554, 
    -0.024543380364775658, 0.0501120425760746, 0.05054393410682678, 
    -0.016429532319307327, 0.05441686511039734, -0.036160074174404144, 

    -0.04187817871570587, 0.09314383566379547, -0.0056636761873960495, 
    0.09779243916273117, 0.013645398430526257, -0.0416959784924984, 
    -0.0005629499792121351, -0.091399185359478, -0.12726658582687378, 

    0.013262679800391197, 0.15297462046146393, 0.060916174203157425, 
    -0.0033393397461622953, 0.015205712988972664, 0.011182267218828201, 
    0.02163282036781311, -0.011405594646930695, -0.048249199986457825, 

    0.10398548096418381, -0.05488327890634537, 0.046574752777814865, 
    0.01118848193436861, 0.02682758867740631, -0.09652210772037506, 
    -0.10604648292064667, -0.05838014930486679, -0.0690305233001709, 

    -0.02459847554564476, -0.04045220836997032, 0.032859742641448975, 
    0.0020810533314943314, 0.038191135972738266, -0.05470491200685501, 
    -0.10862717777490616, -0.02520354464650154, 0.00426098657771945, 

    0.03265484422445297, -0.07043033838272095, 0.0062216767109930515, 
    0.0352177768945694, 0.06948655843734741, -0.0735822543501854, 
    0.051324762403964996, 0.009785993956029415, 0.04441172629594803, 

    0.10744820535182953, 0.10056456923484802, -0.1335119605064392, 
    0.022479955106973648, 0.10002401471138, -0.11495044082403183, 
    -0.02304789423942566, 0.023434272035956383, 0.03505197912454605, 

    0.04724521189928055, 0.036737821996212006, -0.06658836454153061, 
    0.08173958212137222, -0.034729763865470886, 0.1193196251988411, 
    0.06185032054781914, -0.04031462222337723, 0.029165055602788925, 

    0.05871971324086189, -0.08358694612979889, -0.015435178764164448, 
    -0.0012894984101876616, 0.03794072940945625, -0.018918361514806747, 
    0.06189451739192009, -0.07973357290029526, -0.006049969233572483, 

    0.08643553406000137, 0.09823857992887497, -0.10280979424715042, 
    0.0014528905740007758, -0.044823817908763885, 0.012250376865267754, 
    0.047556277364492416, -0.07383406162261963, -0.03500426560640335, 

    -0.004663760308176279, 0.0569801926612854, -0.018178900703787804, 
    -0.012039592489600182, 0.07430249452590942, 0.05460892245173454, 
    -0.0653356984257698, 0.03556258976459503, -0.030206073075532913, 

        };
        static filter_t filter2 = {16, 3, weights2, -0.027893345803022385};
        filters[2]=filter2;
            
        static const float weights3[]={ 
    -0.0270990002900362, -0.040666207671165466, 0.006406186148524284, 
    -0.07236196845769882, 0.05052068829536438, 0.08864863961935043, 
    0.0045588272623717785, 0.025180349126458168, -0.1320153921842575, 

    -0.015862859785556793, 0.05360083654522896, -0.017141560092568398, 
    0.03935642167925835, -0.06998425722122192, -0.030389826744794846, 
    -0.06318075209856033, -0.0379137322306633, -0.047288864850997925, 

    0.021929467096924782, -0.004002290777862072, 0.05037246644496918, 
    -0.015413263812661171, -0.11759351193904877, 0.05562260001897812, 
    0.0011880772653967142, -0.09788099676370621, -0.11036182940006256, 

    0.07146152853965759, -0.10460911691188812, -0.050840917974710464, 
    -0.0027749219443649054, -0.09984379261732101, 0.052066609263420105, 
    -0.06248405575752258, 0.11306581646203995, 0.05016004666686058, 

    -0.05527718365192413, 0.02685200423002243, -0.03175726905465126, 
    -0.07632452994585037, -0.033689066767692566, 0.04006858915090561, 
    -0.019107285887002945, 0.06219222769141197, -0.024970119819045067, 

    0.10391583293676376, 0.013897700235247612, -0.04887711629271507, 
    0.02954116463661194, -0.039687879383563995, 0.0031558822374790907, 
    0.06557995080947876, 0.06549008935689926, 0.039316125214099884, 

    0.025424575433135033, -0.03589450195431709, 0.03688129410147667, 
    -0.10455068945884705, -0.04262196645140648, -0.0640854462981224, 
    -0.057844989001750946, 0.042415667325258255, 0.12613293528556824, 

    0.03341295197606087, 0.0244959257543087, 0.06869009882211685, 
    -0.05436582863330841, 0.09675022959709167, 0.012492862530052662, 
    0.08969460427761078, -0.07648271322250366, -0.014828001148998737, 

    -0.0745919868350029, 0.04643657058477402, 0.015483416616916656, 
    -0.0060431016609072685, 0.018457449972629547, 0.017313754186034203, 
    -0.07904542982578278, 0.04814091697335243, -0.03724680468440056, 

    -0.00041885251994244754, 0.015499983914196491, 0.05172785371541977, 
    0.0679771676659584, 0.015360874123871326, -0.013261135667562485, 
    -0.008607401512563229, -0.048083577305078506, 0.04179220274090767, 

    -0.012162626720964909, -0.0031139154452830553, -0.019677655771374702, 
    -0.06745702028274536, 0.03604882210493088, 0.0965520441532135, 
    -0.06175873801112175, -0.03543062135577202, 0.041490282863378525, 

    0.07872258871793747, -0.036438148468732834, 0.01321512833237648, 
    -0.005949228536337614, 0.02482658438384533, -0.07189324498176575, 
    -0.012879247777163982, -0.09738820046186447, 0.026001127436757088, 

    -0.03883642330765724, -0.062421321868896484, 0.05998958647251129, 
    0.020904958248138428, -0.04348045960068703, -0.06016632542014122, 
    -0.038494810461997986, 0.02996307611465454, -0.008178764954209328, 

    0.03969821706414223, 0.07831422984600067, -0.05596131086349487, 
    -0.00628826254978776, -0.08580465614795685, -0.0477193184196949, 
    0.017972692847251892, 0.07707227021455765, 0.004866005387157202, 

    0.04332870617508888, 0.08121947199106216, -0.061852212995290756, 
    0.05859479680657387, -0.018411433324217796, 0.0575658343732357, 
    -0.05040528252720833, 0.031906843185424805, 0.11039694398641586, 

    0.024644458666443825, 0.02493620105087757, -0.062463998794555664, 
    0.033079277724027634, -0.05251476168632507, -0.027854042127728462, 
    -0.001070957281626761, -0.08125196397304535, 0.054257337003946304, 

        };
        static filter_t filter3 = {16, 3, weights3, -0.03375648334622383};
        filters[3]=filter3;
            
        static const float weights4[]={ 
    0.029607344418764114, -0.048740044236183167, 0.09425364434719086, 
    0.05501614883542061, -0.003171136835590005, -0.015577279962599277, 
    0.04556111991405487, 0.05020971596240997, -0.07677650451660156, 

    0.07747580111026764, -0.07374972105026245, -0.09204626083374023, 
    -0.0004770751402247697, 0.015752466395497322, -0.0022715958766639233, 
    -0.03876156359910965, 0.02333175577223301, -0.07680269330739975, 

    -0.05826026573777199, -0.013495266437530518, 0.07511080801486969, 
    -0.06705674529075623, 0.008178598247468472, -0.1236276924610138, 
    0.05327541008591652, 0.009192446246743202, -0.07462073117494583, 

    -0.035358186811208725, 0.0722462609410286, -0.0168377123773098, 
    0.02787104621529579, -0.08970433473587036, -0.07598326355218887, 
    -0.005031873472034931, -0.07880514115095139, -0.11246202141046524, 

    -0.02678745798766613, 0.02655387856066227, -0.17462238669395447, 
    0.0075214034877717495, -0.058587696403265, 0.09662687033414841, 
    0.009252190589904785, -0.06329716742038727, -0.0739930048584938, 

    0.049200691282749176, -0.140303835272789, -0.02280818670988083, 
    0.024728015065193176, -0.07773229479789734, -0.06892988085746765, 
    -0.05049116909503937, -0.015566414222121239, -0.009818695485591888, 

    -0.10145067423582077, -0.0013116971822455525, -0.08307039737701416, 
    -0.06529534608125687, 0.08257704228162766, 0.004316786769777536, 
    -0.06441516429185867, 0.016318168491125107, 0.04887000471353531, 

    -0.024357806891202927, 0.04106682166457176, 0.029668526723980904, 
    -0.003982947673648596, -0.06683330982923508, -0.0626814067363739, 
    -0.06232454627752304, -0.05492266267538071, 0.03532205894589424, 

    -0.07143212854862213, -0.07432298362255096, 0.017154397442936897, 
    0.08928122371435165, 0.01510914508253336, -0.010811951942741871, 
    -0.03075331263244152, 0.022715061902999878, -0.09704098105430603, 

    0.0562816858291626, 0.056431323289871216, 0.12576575577259064, 
    0.03357183560729027, 0.0570644773542881, -0.02854243479669094, 
    0.04725702106952667, 0.023422526195645332, 0.01696012355387211, 

    -0.017578575760126114, -0.016451755538582802, 0.055618081241846085, 
    -0.053481120616197586, 0.10228124260902405, 0.1115594282746315, 
    -0.04612668231129646, -0.016043173149228096, -0.015411383472383022, 

    0.0019433028064668179, -0.030262021347880363, -0.03086831234395504, 
    0.007826759479939938, -0.03741723299026489, 0.026427071541547775, 
    0.0491042286157608, -0.03208377584815025, 0.0017047252040356398, 

    -0.08393720537424088, 0.1275186389684677, 0.0008524657459929585, 
    -0.05584953725337982, 0.037423066794872284, -0.047889214009046555, 
    0.03586636111140251, -0.05414944887161255, 0.031797878444194794, 

    -0.022188866510987282, 0.032476235181093216, -0.12768876552581787, 
    0.10781547427177429, 0.041677918285131454, -0.07476934045553207, 
    -0.07889580726623535, -0.018390120938420296, 0.03335133194923401, 

    -0.09225978702306747, -0.015829401090741158, 0.03675083816051483, 
    0.03863806277513504, 0.049030378460884094, -0.05421118810772896, 
    -0.05444866791367531, 0.04762674868106842, 0.0834321603178978, 

    -0.045719075947999954, 0.06821039319038391, 0.04917660728096962, 
    -0.0782415121793747, 0.04894968867301941, 0.053574059158563614, 
    -0.06557800620794296, 0.10343792289495468, 0.06217099726200104, 

        };
        static filter_t filter4 = {16, 3, weights4, -0.008644267916679382};
        filters[4]=filter4;
            
        static const float weights5[]={ 
    0.03176449239253998, -0.010890919715166092, 0.040724560618400574, 
    0.003404021030291915, 0.004951625596731901, -0.004604085814207792, 
    0.007477936800569296, -0.005030938424170017, -0.09673747420310974, 

    -0.06551870703697205, -0.0655631497502327, -0.037910301238298416, 
    0.029107555747032166, 0.03505885228514671, 0.06499749422073364, 
    -0.06390921026468277, 0.00937476847320795, -0.0977882519364357, 

    -0.0032496019266545773, -0.019542304798960686, 0.12667332589626312, 
    0.013503550551831722, 0.08441780507564545, -0.11366567760705948, 
    0.07424575835466385, 0.002682748017832637, 0.026100903749465942, 

    -0.07038657367229462, 0.0372031144797802, -0.010938167572021484, 
    -0.011683284305036068, -0.09262717515230179, -0.02242225408554077, 
    0.0990290567278862, 0.03391705080866814, 0.04277672991156578, 

    -0.0573236458003521, 0.021965857595205307, 0.012113629840314388, 
    -0.060957856476306915, -0.010807172395288944, -0.01806703209877014, 
    -0.06178068369626999, -0.07218410074710846, 0.059938568621873856, 

    -0.09414228051900864, 0.024168387055397034, 0.03080897405743599, 
    0.016558824107050896, -0.0628288984298706, 0.009753525257110596, 
    0.11009606719017029, 0.002161921001970768, 0.030081400647759438, 

    0.0802411139011383, -0.024803929030895233, -0.02553657442331314, 
    -0.0894690603017807, -0.08099739998579025, 0.10932296514511108, 
    0.022072331979870796, 0.05970329791307449, 0.07318103313446045, 

    -0.058604054152965546, 0.0977696031332016, 0.04727182909846306, 
    -0.008054072968661785, 0.01952190324664116, 0.015274924226105213, 
    0.008044762536883354, 0.07312679290771484, 0.003221348160877824, 

    0.07419274747371674, 0.01113452110439539, 0.10770237445831299, 
    -0.07306184619665146, 0.07493733614683151, -0.09019912779331207, 
    -0.026676060631871223, 0.00559636065736413, 0.03544282540678978, 

    -0.027244476601481438, -0.07435296475887299, 0.12160050868988037, 
    -0.0008443185943178833, 0.016376852989196777, -0.03397013992071152, 
    -0.03708551824092865, 0.009108864702284336, -0.0609879344701767, 

    0.05256202816963196, -0.10373369604349136, -0.026901455596089363, 
    -0.01807413436472416, 0.022392036393284798, 4.234776042721933e-06, 
    -0.007353757508099079, -0.10454949736595154, -0.03126204013824463, 

    0.1551794558763504, -0.08620625734329224, 0.03149266168475151, 
    0.027916623279452324, -0.013490410521626472, 0.017374737188220024, 
    0.059076156467199326, 0.0015146981459110975, 0.0778278261423111, 

    0.07720264792442322, -0.022997960448265076, 0.028065714985132217, 
    0.016294345259666443, -0.06879155337810516, -0.028722498565912247, 
    0.01394608709961176, 0.029960177838802338, -0.09089081734418869, 

    -0.0034762213472276926, 0.06855356693267822, 0.11937808245420456, 
    0.02683774009346962, 0.03097304329276085, -0.02227802760899067, 
    0.04867909476161003, -0.003922884818166494, -0.038559690117836, 

    -0.030037429183721542, 0.04170637205243111, 0.054704710841178894, 
    -0.06262018531560898, 0.01102643832564354, -0.05479320138692856, 
    -0.013107018545269966, -0.029675079509615898, 0.034287646412849426, 

    0.06803248077630997, -0.022342106327414513, -0.047950197011232376, 
    0.04388931393623352, 0.09686538577079773, 0.044109784066677094, 
    0.017022600397467613, 0.059792064130306244, 0.007949592545628548, 

        };
        static filter_t filter5 = {16, 3, weights5, -0.08821997791528702};
        filters[5]=filter5;
            
        static const float weights6[]={ 
    0.0317375510931015, -0.0710500106215477, -0.0677153617143631, 
    0.04655054211616516, -0.09794766455888748, -0.08474142849445343, 
    -0.05587145313620567, -0.004927273374050856, 0.03920315206050873, 

    0.06442461907863617, 0.056438662111759186, 0.044280096888542175, 
    -0.08110877126455307, 0.030827565118670464, -0.052255045622587204, 
    0.05064235255122185, 0.020101159811019897, -0.004020043183118105, 

    -0.04002423956990242, 0.021787874400615692, 0.027562206611037254, 
    0.06803755462169647, -0.059712305665016174, -0.1290498673915863, 
    -0.011957312002778053, 0.09940250217914581, -0.09742092341184616, 

    0.07196831703186035, 0.07081414759159088, 0.04952263832092285, 
    -0.0364803783595562, -0.05341510474681854, -0.06710413098335266, 
    -0.09827246516942978, 0.04250916838645935, 0.031623490154743195, 

    -0.011850979179143906, -0.07231225818395615, -0.01922469027340412, 
    0.12105394899845123, -0.018189726397395134, -0.02488500252366066, 
    0.10078410804271698, 0.07415185868740082, 0.06834513694047928, 

    -0.06280133873224258, -0.10670912265777588, -0.01760389283299446, 
    0.08322938531637192, 0.10155914723873138, -0.05269087478518486, 
    -0.06919966638088226, 0.10870470851659775, -0.07435528934001923, 

    -0.05162626877427101, 0.04003847762942314, 0.1417454481124878, 
    0.051544833928346634, 0.033530645072460175, 0.03710152953863144, 
    0.06479286402463913, -0.04242294281721115, -0.08639941364526749, 

    -0.09398654848337173, 0.05843757838010788, 0.027158426120877266, 
    0.006388075649738312, 0.029655037447810173, -0.003991896752268076, 
    -0.1075180172920227, -0.08800788968801498, 0.02963997796177864, 

    0.019867103546857834, -0.017552169039845467, 0.0721098929643631, 
    0.04517515003681183, -0.07964777946472168, -0.09948892146348953, 
    0.0029004879761487246, 0.07395502924919128, -0.04977168142795563, 

    -0.03980250284075737, 0.03913503512740135, -0.003006618469953537, 
    -0.042596470564603806, -0.03960585221648216, 0.03670883923768997, 
    -0.04232637584209442, 0.0014753624564036727, -0.06842988729476929, 

    0.013518628664314747, -0.07803137600421906, -0.03473929688334465, 
    -0.025118142366409302, 0.07530465722084045, 0.01516946405172348, 
    0.05307772755622864, -0.006831766106188297, 0.09339920431375504, 

    0.022021906450390816, 0.062444057315588, 0.04619017615914345, 
    -0.002010568045079708, -0.10142771154642105, 0.0309747364372015, 
    -0.029576187953352928, -0.04147562384605408, -0.06872028112411499, 

    -0.028785016387701035, 0.029052991420030594, -0.012037587352097034, 
    0.1106623113155365, 0.08161512762308121, 0.07806162536144257, 
    -0.03791865333914757, -0.024043962359428406, 0.03711386397480965, 

    0.01466323621571064, 0.10456299036741257, -0.030652694404125214, 
    0.00965677760541439, 0.07184722274541855, 0.00480200769379735, 
    -0.034436311572790146, -0.02545306831598282, 0.051830995827913284, 

    -0.07188518345355988, 0.10147759318351746, -0.0017796006286516786, 
    -0.034929633140563965, 0.018229136243462563, -0.002830721205100417, 
    0.105872742831707, -0.08171343803405762, 0.0009537657024338841, 

    0.055495087057352066, -0.04470685124397278, 0.06881984323263168, 
    -0.09629195928573608, -0.06657694280147552, 0.05466877296566963, 
    -0.004358356352895498, -0.008689888752996922, 0.05224400386214256, 

        };
        static filter_t filter6 = {16, 3, weights6, -0.08159246295690536};
        filters[6]=filter6;
            
        static const float weights7[]={ 
    0.07453002780675888, -0.014492971822619438, -0.019445637241005898, 
    -0.04102839156985283, -0.024183418601751328, -0.03512680530548096, 
    -0.10458507388830185, -0.018177153542637825, -0.06066649407148361, 

    0.009088372811675072, 0.000418228650232777, -0.002680472331121564, 
    0.030198071151971817, 0.07107025384902954, 0.09045718610286713, 
    0.026114406064152718, 0.056700609624385834, 0.07662133127450943, 

    -0.018647896125912666, 0.028191786259412766, -0.023739615455269814, 
    -0.13514013588428497, -0.08538322150707245, -0.02638569474220276, 
    -0.1341385841369629, -0.07398314028978348, -0.009949872270226479, 

    -0.0486336350440979, -0.05544466897845268, 0.03919564560055733, 
    -0.040502265095710754, 0.02842295728623867, -0.05810946971178055, 
    -0.07534825801849365, 0.059555280953645706, 0.05912847816944122, 

    0.04084065183997154, 0.05888984724879265, 0.01600416749715805, 
    0.0027550982777029276, 0.016838012263178825, 0.04323999956250191, 
    -0.04980597272515297, 0.08291497081518173, 0.049424365162849426, 

    -0.017178846523165703, -0.10907547920942307, 0.11471674591302872, 
    -0.09812525659799576, -0.08693055808544159, 0.10325799882411957, 
    -0.11013694852590561, -0.0945596694946289, 0.0337909534573555, 

    0.012555792927742004, -0.10226941853761673, 0.014734071679413319, 
    0.0036306646652519703, -0.08000456541776657, 0.0801512748003006, 
    0.05719313770532608, 8.087155583780259e-05, -0.000601728621404618, 

    0.019620267674326897, 0.05318158492445946, 0.02789643593132496, 
    -0.07670021802186966, 0.10173796117305756, 0.04393874853849411, 
    0.03404447063803673, -0.07281684130430222, -0.04083319380879402, 

    -0.044139258563518524, -0.10541944950819016, -0.04629572853446007, 
    -0.08832594007253647, -0.0052255080081522465, 0.008348642848432064, 
    0.026365341618657112, -0.09667810797691345, -0.020287197083234787, 

    -0.02852579951286316, -0.0641196221113205, 0.002061200328171253, 
    0.0579511858522892, -0.0684170350432396, -0.024496542289853096, 
    -0.012914782389998436, 0.02584882639348507, -0.06885211169719696, 

    -0.014774070121347904, -0.05569677799940109, 0.008747301064431667, 
    -0.0058233728632330894, -0.0714477002620697, 0.0026471789460629225, 
    0.06621404737234116, 0.08986233919858932, 0.10251981019973755, 

    -0.05171181634068489, 0.01287100650370121, -0.06120627000927925, 
    -0.0008703380590304732, 0.036649420857429504, 0.016481349244713783, 
    -0.057007450610399246, -0.0697619691491127, 0.0024816342629492283, 

    -0.05482279509305954, -0.02029992826282978, 0.09127587825059891, 
    0.02320137992501259, 0.0168194267898798, 0.08657170087099075, 
    -0.0005057002999819815, 0.04342833161354065, 0.027753716334700584, 

    -0.12296260893344879, -0.09704931080341339, -0.1292884200811386, 
    -0.08669191598892212, -0.020710375159978867, -0.045035723596811295, 
    0.03965681046247482, -0.01496842410415411, 0.13016453385353088, 

    0.084071584045887, 0.023370737209916115, 0.031061172485351562, 
    -0.022074738517403603, 0.01746782474219799, -0.09513278305530548, 
    -0.049380652606487274, 0.06164906173944473, 0.07388228923082352, 

    0.08588054776191711, -0.010204555466771126, -0.06260590255260468, 
    -0.0908890813589096, -0.09420585632324219, -0.04617709666490555, 
    -0.0414026603102684, 0.001620173454284668, 0.0895284041762352, 

        };
        static filter_t filter7 = {16, 3, weights7, -0.04295045882463455};
        filters[7]=filter7;
            
        static const float weights8[]={ 
    0.03238754719495773, 0.05522063747048378, -0.07127130776643753, 
    -0.008172030560672283, -0.07994884997606277, 0.07997709512710571, 
    0.03704505041241646, -0.05246327072381973, -0.0378909632563591, 

    -0.09233172237873077, 0.07946537435054779, 0.02926231175661087, 
    0.039819665253162384, -0.0798647478222847, 0.0005202509346418083, 
    0.033916644752025604, -0.03271292522549629, -0.008742866106331348, 

    -0.058321863412857056, -0.04388520494103432, -0.15022538602352142, 
    0.023131459951400757, -0.002689962973818183, -0.04197048023343086, 
    -0.004127873107790947, 0.02578156068921089, -0.06636147201061249, 

    -0.126833975315094, -0.0196467787027359, 0.06016748026013374, 
    0.0678369402885437, 0.06389809399843216, -0.055169012397527695, 
    0.06676843762397766, 0.05061344802379608, 0.01556746382266283, 

    -0.03211325407028198, -0.0637516975402832, -0.038366351276636124, 
    -0.06489036977291107, 0.01764732226729393, 0.01221128273755312, 
    0.041451819241046906, 0.02090943045914173, 0.04347683861851692, 

    -0.057708460837602615, 0.008822363801300526, -0.007844217121601105, 
    -0.009617448784410954, -0.006664569489657879, 0.08960665017366409, 
    -0.012624803930521011, -0.07776711136102676, -0.038971107453107834, 

    0.0948561280965805, 0.08778692036867142, 0.04079017788171768, 
    0.044460229575634, -0.07770437002182007, -0.0010118411155417562, 
    -0.09160760045051575, 0.08242566138505936, 0.049390412867069244, 

    -0.04874945431947708, 0.06193788722157478, -0.04895083233714104, 
    -0.04371792823076248, -0.005961951334029436, 0.014819257892668247, 
    -0.05559186637401581, 0.00953312125056982, -0.005127321928739548, 

    -0.08365552127361298, 0.06212254986166954, 0.08704322576522827, 
    -0.025571031495928764, 0.03511214256286621, 0.015739908441901207, 
    -0.02277659997344017, -0.012408502399921417, -0.08344809710979462, 

    0.007994234561920166, 0.1190137043595314, 0.11040768772363663, 
    0.050800394266843796, -0.02635510079562664, 0.10257133096456528, 
    0.10693110525608063, -0.04326487332582474, -0.010116440244019032, 

    0.04298684373497963, -0.061600904911756516, 0.0022591142915189266, 
    0.03429459407925606, -0.1233319565653801, -0.021655824035406113, 
    0.07702479511499405, -0.005662200972437859, -0.05390426144003868, 

    -0.03587062284350395, -0.05392900109291077, 0.03489881753921509, 
    0.014420776627957821, -0.006441076286137104, 0.05074436590075493, 
    -0.04028722271323204, -0.018917586654424667, -0.044229038059711456, 

    -0.02095998078584671, 0.015283984132111073, 0.00752705242484808, 
    -0.04767494276165962, -0.11142174899578094, 0.12407931685447693, 
    0.04688334837555885, -0.038493331521749496, -0.0599069744348526, 

    0.044028524309396744, -0.0900392010807991, -0.005898043513298035, 
    0.027336740866303444, -0.09661459922790527, -0.07964979112148285, 
    -0.004608552437275648, -0.02165251225233078, 0.020171033218503, 

    0.10983144491910934, 0.012442479841411114, -0.05371317267417908, 
    -0.05037122219800949, -0.04275984317064285, -0.03651135042309761, 
    0.05288736894726753, -0.014198397286236286, -0.020736875012516975, 

    -0.033966388553380966, -0.008058262057602406, 0.001172217191196978, 
    -0.04774145409464836, 0.0435536652803421, -0.08480536192655563, 
    -0.028072312474250793, -0.06487032771110535, -0.037587299942970276, 

        };
        static filter_t filter8 = {16, 3, weights8, 0.01085010264068842};
        filters[8]=filter8;
            
        static const float weights9[]={ 
    -0.06818636506795883, 0.08995165675878525, 0.057633351534605026, 
    -0.05299055948853493, 0.03770151734352112, -0.06519316881895065, 
    0.024276629090309143, 0.06036606803536415, 0.08025318384170532, 

    0.020630011335015297, 0.08534497022628784, 0.009730485267937183, 
    -0.09539519995450974, 0.054315511137247086, 0.06384902447462082, 
    -0.042362846434116364, 0.035381704568862915, -0.03203263506293297, 

    -0.12089579552412033, -0.018074577674269676, 0.0036863975692540407, 
    -0.040130455046892166, 0.0541035532951355, 0.006685384549200535, 
    -0.06833896785974503, 0.024616705253720284, -0.06663036346435547, 

    0.06376225501298904, 0.08705548942089081, 0.03859033063054085, 
    -0.1981656402349472, -0.051729023456573486, -0.04162520915269852, 
    0.003946390468627214, 0.03542453050613403, 0.0666307657957077, 

    0.028162168338894844, -0.010184870101511478, -0.05277120694518089, 
    -0.005958631634712219, -0.06681367009878159, 0.009575107134878635, 
    -0.04101113975048065, -0.022443488240242004, 0.0013136324705556035, 

    0.02322288788855076, 0.05093095079064369, -0.0006670410512015224, 
    -0.007989502511918545, -0.11295700073242188, -0.03976571559906006, 
    -0.1169605478644371, -0.08267957717180252, -0.08383390307426453, 

    -0.04414872080087662, 0.08192312717437744, 0.05667059123516083, 
    0.004492760635912418, -0.0846562460064888, -0.014962305314838886, 
    -0.07692186534404755, 0.049328263849020004, 0.000465383316623047, 

    0.10565368086099625, -0.053703974932432175, -0.022306714206933975, 
    0.04254269227385521, -0.025928189978003502, -0.05585426464676857, 
    0.062189821153879166, 0.02529672160744667, -0.05950132757425308, 

    0.03710339963436127, -0.09468866139650345, -0.003527363296598196, 
    -0.04618746042251587, 0.019902464002370834, 0.11992228776216507, 
    0.011838790029287338, -0.051728058606386185, 0.0789094865322113, 

    -0.06408563256263733, -0.10048538446426392, 0.04545295238494873, 
    0.029041292145848274, -0.04415179044008255, -0.06313967704772949, 
    0.05368652939796448, -0.011083399876952171, -0.04359370097517967, 

    0.04669194296002388, 0.0807090625166893, -0.03341131657361984, 
    0.015902547165751457, -0.07255101948976517, 0.03077307716012001, 
    -0.10203143954277039, -0.008140702731907368, 0.08989609777927399, 

    -0.04522787407040596, -0.01456325314939022, 0.05499908700585365, 
    0.0246718917042017, -0.09571535140275955, -0.024122826755046844, 
    -0.0324823297560215, 0.018964655697345734, 0.07740574330091476, 

    0.017177440226078033, -0.059672847390174866, 0.05354972183704376, 
    -0.11614462733268738, -0.05214935541152954, 0.07547453790903091, 
    -0.02731403149664402, 0.06400517374277115, -0.031199192628264427, 

    -0.0013244968140497804, 0.05669112503528595, 0.08404281735420227, 
    0.031343791633844376, -0.04089018329977989, -0.06611794233322144, 
    -0.0007474585436284542, 0.07875179499387741, -0.0534672848880291, 

    0.03672152757644653, -0.030181188136339188, 0.07040596008300781, 
    0.08538752794265747, -0.040715090930461884, -0.10423491895198822, 
    0.08004377782344818, -0.0563293918967247, 0.028084520250558853, 

    -0.07998429238796234, -0.025638829916715622, -8.723010978428647e-06, 
    -0.04799693450331688, -0.09113548696041107, 0.05078430846333504, 
    0.00466583576053381, -0.16097696125507355, -0.05597805976867676, 

        };
        static filter_t filter9 = {16, 3, weights9, 0.021375011652708054};
        filters[9]=filter9;
            
        static const float weights10[]={ 
    -0.0075511690229177475, -0.05661313980817795, -0.053652551025152206, 
    0.08214017003774643, -0.01710125058889389, -0.0007535968907177448, 
    0.0038754933048039675, 0.12382552772760391, 0.006202175281941891, 

    -0.05847659334540367, -0.06603305786848068, -0.058683544397354126, 
    0.015758642926812172, 0.003069946775212884, -0.01493531558662653, 
    -0.018163887783885002, 0.003063943237066269, 0.03655238077044487, 

    0.0245906263589859, -0.09938991814851761, -0.05785556137561798, 
    -0.04651494324207306, -0.018424371257424355, -0.07527046650648117, 
    0.11871030181646347, -0.04926470294594765, 0.024057449772953987, 

    0.04910927265882492, 0.0016104450915008783, -0.09337984025478363, 
    0.06231064349412918, -0.06520268321037292, -0.04252590984106064, 
    -0.04554470255970955, 0.03620792180299759, 0.07914652675390244, 

    0.012076790444552898, 0.00802898034453392, 0.029694221913814545, 
    -0.023462872952222824, 0.0018775264034047723, -0.0034809126518666744, 
    0.018073253333568573, -0.05911024287343025, -0.01586025580763817, 

    -0.03788486868143082, 0.056529417634010315, -0.012426299042999744, 
    0.025558600202202797, 0.07375707477331161, -0.07131785154342651, 
    0.08484137058258057, 0.10350703448057175, -0.01749058999121189, 

    -0.038232993334531784, -0.10229067504405975, -0.011192886158823967, 
    -0.029910102486610413, 0.07752254605293274, 0.0533096045255661, 
    0.0330219604074955, -0.03148459643125534, -0.029873095452785492, 

    -0.01998175121843815, 0.034016404300928116, -0.013169885613024235, 
    -0.0917334109544754, -0.059686604887247086, -0.04940939322113991, 
    0.0029041196685284376, -0.0909753069281578, 0.02165362983942032, 

    0.012773160822689533, -0.03973711282014847, -0.00592365488409996, 
    0.0008365669054910541, -0.031221982091665268, 0.0466935895383358, 
    0.018824785947799683, -0.01511744037270546, -0.07075425982475281, 

    0.02049306593835354, 0.041322555392980576, 0.02693433128297329, 
    -0.0024511057417839766, -0.08811485767364502, 0.05251720920205116, 
    -0.10434448719024658, -0.0404459610581398, 0.06059911847114563, 

    0.07353514432907104, -0.0015605454100295901, -0.05060688406229019, 
    -0.10784823447465897, -0.09704437851905823, -0.027231652289628983, 
    0.019936854019761086, -0.05700311437249184, -0.022816115990281105, 

    -0.013168783858418465, -0.11692634969949722, 0.09358731657266617, 
    0.10437612980604172, -0.018181655555963516, 0.0482548251748085, 
    0.09876882284879684, 0.07685048133134842, -0.02925788052380085, 

    0.0882643461227417, -0.026569558307528496, 0.019193392246961594, 
    -0.06232769414782524, -0.032482799142599106, 0.018011296167969704, 
    0.002197619527578354, -0.02294626273214817, -0.03902340307831764, 

    -0.14034630358219147, 0.03789925575256348, 0.1150398701429367, 
    0.05327450484037399, -0.037334345281124115, 0.09272955358028412, 
    -0.06649964302778244, -0.10443821549415588, -0.05826210603117943, 

    0.05963943153619766, -0.01980098895728588, -0.05601366609334946, 
    -0.07777070254087448, 0.11903394758701324, -0.02038814127445221, 
    -0.04122285544872284, -0.0017418720526620746, 0.02767501212656498, 

    -0.031901173293590546, -0.02296515367925167, 0.056589290499687195, 
    0.014010935090482235, 0.021549178287386894, 0.06885746866464615, 
    0.06287957727909088, -0.008283855393528938, -0.02161681279540062, 

        };
        static filter_t filter10 = {16, 3, weights10, -0.08077885955572128};
        filters[10]=filter10;
            
        static const float weights11[]={ 
    0.05117538198828697, -0.10437939316034317, -0.0298578143119812, 
    0.07426458597183228, -0.08622187376022339, 0.10641680657863617, 
    -0.017043007537722588, -0.04192786663770676, -0.029157638549804688, 

    -0.027386678382754326, 0.0010383659973740578, -0.03193671256303787, 
    -0.05068250000476837, -0.02175590582191944, -0.04786684364080429, 
    -0.01777408830821514, 0.04291880875825882, -0.01821068674325943, 

    0.03946129232645035, -0.0940667912364006, -0.055713754147291183, 
    0.08020404726266861, -0.05527714639902115, -0.08942747116088867, 
    -0.0723838284611702, 0.1374126374721527, -0.016976721584796906, 

    -0.07148383557796478, 0.002227709162980318, 0.032599687576293945, 
    -0.037339549511671066, 0.01454372238367796, -0.03032371774315834, 
    0.00041668041376397014, 0.027469873428344727, 0.1179378479719162, 

    0.05530479550361633, 0.0438758060336113, 0.04816248640418053, 
    -0.05780526623129845, 0.002136768074706197, -0.009716729633510113, 
    -0.08001510798931122, 0.001202419400215149, 0.042339105159044266, 

    0.10139568895101547, 0.0010767716448754072, -0.04082733020186424, 
    0.011338301934301853, -0.036072004586458206, -0.0739588737487793, 
    -0.02908816561102867, -0.08822359889745712, -0.032821010798215866, 

    -0.0382968969643116, -0.044713933020830154, 0.09562388807535172, 
    0.018542610108852386, -0.10515126585960388, -0.023106763139367104, 
    -0.07275684922933578, -0.07398243248462677, 0.0315312035381794, 

    -0.00299112219363451, -0.018641280010342598, -0.0175667442381382, 
    -0.02778383530676365, 0.051260631531476974, 0.06573163717985153, 
    -0.03814120963215828, 0.11631455272436142, 0.005736082326620817, 

    -0.0033287666738033295, -0.06793941557407379, -0.04316919669508934, 
    -0.09110239148139954, 0.08331058919429779, -0.08429839462041855, 
    -0.07761961221694946, 0.045033279806375504, -0.04667112976312637, 

    0.03638458997011185, 0.043119121342897415, -0.048107702285051346, 
    -0.083527572453022, 0.040332306176424026, -0.025935696437954903, 
    -0.056503020226955414, 0.12869298458099365, 0.03682582080364227, 

    0.0011346646351739764, -0.05628370866179466, -0.053019680082798004, 
    -0.04422478377819061, -0.03937308490276337, -0.014465618878602982, 
    -0.11088816076517105, -0.031219176948070526, 0.09905068576335907, 

    0.03565606847405434, 0.06808575987815857, 0.04455174505710602, 
    -0.0369088277220726, -0.06200603395700455, -0.061577968299388885, 
    0.07456697523593903, -0.029590347781777382, 0.06719794124364853, 

    -0.03918689116835594, 0.0761939063668251, -0.06802141666412354, 
    0.08759400248527527, -0.0493050292134285, 0.03847454488277435, 
    -0.10867670178413391, 0.05065835639834404, -0.06422650068998337, 

    0.05813091993331909, 0.020861858502030373, 0.04622688144445419, 
    -0.07680945098400116, 0.0329328216612339, 0.04549441859126091, 
    -0.05490250885486603, -2.6570012778392993e-05, 0.07473870366811752, 

    -0.06127855181694031, 0.01881455071270466, -0.0013989744475111365, 
    -0.052705079317092896, 0.008533347398042679, -0.04557206854224205, 
    0.008431263267993927, 0.0160115584731102, -0.007399505935609341, 

    0.03230569511651993, 0.011613622307777405, 0.13214895129203796, 
    0.012464468367397785, 0.026179930195212364, 0.06440472602844238, 
    -0.03432513028383255, -0.008562265895307064, 0.019507426768541336, 

        };
        static filter_t filter11 = {16, 3, weights11, 0.03627093508839607};
        filters[11]=filter11;
            
        static const float weights12[]={ 
    0.0507696159183979, -0.05500948429107666, 0.051098357886075974, 
    0.04746226221323013, 0.060679297894239426, -0.15823328495025635, 
    0.03508688509464264, -0.05943378433585167, -0.05885601043701172, 

    0.013319430872797966, -0.055600643157958984, 0.04977601394057274, 
    -0.07939274609088898, 0.04499780759215355, 0.0826444923877716, 
    -0.01024017296731472, 0.06471959501504898, -0.014737188816070557, 

    0.021651320159435272, 0.09569130837917328, 0.08840873092412949, 
    -0.049271441996097565, -0.07532867789268494, 0.02626124396920204, 
    -0.03746744245290756, -0.03142847493290901, -0.04992421716451645, 

    -0.15339691936969757, 0.03921458125114441, -0.06085600703954697, 
    0.09213472902774811, -0.07187334448099136, 0.01778687722980976, 
    0.11113857477903366, -0.02743472531437874, -0.008878916501998901, 

    -0.03699449822306633, 0.06307487189769745, 0.1300409883260727, 
    -0.015079502947628498, 0.03667949140071869, -0.02660176157951355, 
    -0.061217162758111954, -0.06524670124053955, -0.028240175917744637, 

    0.011883978731930256, -0.08822884410619736, 0.07996267825365067, 
    -0.00844682939350605, -0.04868702217936516, 0.008654594421386719, 
    -0.026263711974024773, -0.037406571209430695, 0.024997249245643616, 

    -0.07913776487112045, -0.002668829634785652, -0.014217579737305641, 
    -0.08441062271595001, -0.010791161097586155, 0.0247034914791584, 
    -0.02378321811556816, 0.07523126155138016, 0.042845070362091064, 

    -0.02018478326499462, 0.002990522189065814, -0.008202527649700642, 
    0.005861884448677301, -0.03139011189341545, -0.00652192672714591, 
    -0.05498744919896126, -0.09481527656316757, 0.023648953065276146, 

    0.06088142842054367, 0.031609367579221725, 0.049727167934179306, 
    0.05137157440185547, 0.05607950687408447, -0.06105301156640053, 
    -0.010043158195912838, -0.013467456214129925, 0.028261620551347733, 

    0.01701182685792446, 0.022779176011681557, -0.13285502791404724, 
    -0.018872493878006935, 0.003865855745971203, -0.077227883040905, 
    0.017319662496447563, 0.028161602094769478, 0.030587447807192802, 

    -0.05766113102436066, 0.07752272486686707, 0.050864506512880325, 
    0.10167454183101654, -0.02425321936607361, 0.03799999877810478, 
    -0.04802550747990608, -0.022525470703840256, -0.07637287676334381, 

    -0.05977209657430649, -0.0961683914065361, 0.06199419125914574, 
    0.017898527905344963, 0.0660368874669075, 0.09007593244314194, 
    -0.12017977237701416, 0.04842725396156311, 0.0741184875369072, 

    0.03698910027742386, -0.026876812800765038, 0.0723131000995636, 
    -0.039536651223897934, 0.04329395666718483, 0.04208463057875633, 
    0.11478031426668167, -0.0015713293105363846, 0.058313459157943726, 

    0.032976701855659485, -0.03967975080013275, 0.12154112011194229, 
    -0.012370611540973186, 0.0739685669541359, 0.04461226984858513, 
    0.03475840017199516, 0.08121293038129807, 0.03313636779785156, 

    0.08873840421438217, -0.11690308153629303, 0.10752993822097778, 
    -0.08823418617248535, 0.03231039270758629, -0.04642754793167114, 
    -0.10833177715539932, -0.06884956359863281, -0.053447626531124115, 

    -0.02801988646388054, -0.028017783537507057, 0.05625948682427406, 
    -0.0713391825556755, 0.03893401101231575, 0.08778000622987747, 
    -0.0066864280961453915, 0.055759552866220474, 0.021616723388433456, 

        };
        static filter_t filter12 = {16, 3, weights12, -0.01428925059735775};
        filters[12]=filter12;
            
        static const float weights13[]={ 
    0.07569598406553268, 0.049293309450149536, -0.06935586780309677, 
    0.027108650654554367, -0.18957574665546417, -0.06809014081954956, 
    -0.011100688949227333, -0.025629287585616112, 0.005141780711710453, 

    0.01266983337700367, 0.02882029488682747, 0.026958348229527473, 
    -0.02590908296406269, 0.05816061049699783, 0.11283999681472778, 
    -0.03436771407723427, 0.03658980503678322, -0.009206431917846203, 

    0.060458119958639145, -0.14847415685653687, -0.1118260994553566, 
    -0.15509682893753052, -0.171574205160141, -0.005420085042715073, 
    -0.015172991901636124, -0.07183931022882462, 0.0464649423956871, 

    0.02142168954014778, -0.14006537199020386, 0.0239364355802536, 
    0.03465654328465462, -0.1519937664270401, -0.02376987226307392, 
    -0.05747786536812782, -0.12308017164468765, 0.009460601955652237, 

    -0.027987800538539886, -0.023187685757875443, 0.013203640468418598, 
    -0.1023898720741272, 0.02999785542488098, 0.024126557633280754, 
    -0.015733394771814346, 0.08415117114782333, -0.03583761304616928, 

    -0.012016571126878262, -0.1884070187807083, -0.0668322816491127, 
    -0.05416219308972359, -0.17724862694740295, -0.017501479014754295, 
    -0.10114219784736633, -0.08198829740285873, -0.030939551070332527, 

    -0.05052453279495239, -0.02753961831331253, 8.770352906140033e-07, 
    0.0063380952924489975, -0.004223332274705172, -0.025496480986475945, 
    -0.0315537229180336, -0.012000569142401218, -0.010992997325956821, 

    0.03704889118671417, -0.052411023527383804, 0.006518608424812555, 
    -0.050923608243465424, 0.0011749565601348877, 0.028864875435829163, 
    0.018125606700778008, -0.05648401007056236, 0.0071430690586566925, 

    -0.037808857858181, -0.07168940454721451, -0.04500456154346466, 
    -0.048151593655347824, -0.03188415989279747, -0.054500430822372437, 
    -0.11399269104003906, -0.0856613740324974, -0.03017173521220684, 

    0.05977961793541908, 0.004357769154012203, -0.013822969980537891, 
    -0.07760875672101974, -0.005814695730805397, 0.006188127677887678, 
    0.06586821377277374, 0.0682365819811821, -0.01291927881538868, 

    -0.015707647427916527, 0.0003999613400083035, -0.07900592684745789, 
    0.013577308505773544, -0.029680397361516953, 0.004964349325746298, 
    0.012222028337419033, 0.08357538282871246, 0.022653475403785706, 

    -0.016400521621108055, 0.037848684936761856, -0.06775296479463577, 
    -0.04581605643033981, -0.035490915179252625, -0.049207352101802826, 
    0.05598468706011772, -0.02411912940442562, -0.055771082639694214, 

    0.0066469586454331875, -0.029288318008184433, -0.08613599836826324, 
    0.08013501018285751, 0.10382704436779022, 0.007289906032383442, 
    0.08818405121564865, 0.03776229918003082, 0.009482881054282188, 

    0.013662423007190228, 0.04309028759598732, 0.020960701629519463, 
    -0.025023451074957848, 0.028349632397294044, 0.05427371710538864, 
    0.07417204976081848, -0.10656806826591492, -0.03501412644982338, 

    0.027423977851867676, 0.06306501477956772, 0.0005950850900262594, 
    0.03685034066438675, 0.002082852413877845, 0.06713103502988815, 
    -0.08795710653066635, 0.053762540221214294, 0.03105955757200718, 

    -0.0686192736029625, 0.02922712080180645, 0.04939838498830795, 
    -0.05560321733355522, 0.03273952007293701, 0.029309989884495735, 
    0.037892747670412064, -0.03256902098655701, 0.03001473844051361, 

        };
        static filter_t filter13 = {16, 3, weights13, -0.1649487167596817};
        filters[13]=filter13;
            
        static const float weights14[]={ 
    -0.010898581705987453, 0.03950478881597519, 0.014846873469650745, 
    -0.05567903816699982, -0.011771644465625286, -0.1643824279308319, 
    0.05277363210916519, -0.06890355795621872, -0.04671959951519966, 

    0.08236288279294968, 0.018843112513422966, -0.12449382990598679, 
    -0.03570866584777832, -0.011936631053686142, -0.09557435661554337, 
    0.08583366870880127, -0.015277955681085587, -0.04382321611046791, 

    -0.020183101296424866, 0.023038743063807487, 0.08939248323440552, 
    0.0517527274787426, -0.09016048163175583, -0.05813886970281601, 
    0.04313233494758606, -0.04613339900970459, 0.01788473315536976, 

    -0.04617757722735405, -0.029386678710579872, 0.0008414788753725588, 
    -0.011220619082450867, -0.06201305240392685, -0.09212212264537811, 
    0.07263246923685074, 0.02153034135699272, -0.06115711107850075, 

    0.051391828805208206, 0.030460024252533913, 0.0014449205482378602, 
    -0.10870447009801865, 0.07555799186229706, 0.037721410393714905, 
    -0.043010011315345764, -0.0011011009337380528, 0.1278810352087021, 

    0.1200854703783989, 0.017620854079723358, 0.05660166218876839, 
    -0.08631687611341476, 0.00411447137594223, 0.0958796888589859, 
    -0.06291582435369492, -0.0666092187166214, 0.0055978260934352875, 

    -0.10902728885412216, -0.046891361474990845, 0.052098143845796585, 
    -0.00508700218051672, 0.032190416008234024, 0.005860280245542526, 
    -0.01971331797540188, -0.027362488210201263, -0.026981880888342857, 

    -0.0055799586698412895, 0.02544763684272766, -0.06362961232662201, 
    0.02175149880349636, 0.07947193831205368, 0.007969697006046772, 
    -0.03181423246860504, 0.04869953542947769, -0.02240413799881935, 

    0.06711425632238388, -0.005448996555060148, 0.02863592840731144, 
    -0.07403754442930222, -0.06786871701478958, -0.04694315046072006, 
    -0.055454786866903305, 0.15722741186618805, -9.975602006306872e-05, 

    0.006154813803732395, -0.022121278569102287, 0.05361909419298172, 
    0.11293111741542816, -0.09218960255384445, -0.09364916384220123, 
    0.1122850626707077, 0.023767970502376556, -0.05013115704059601, 

    0.03925742208957672, -0.02809978276491165, -0.02438197284936905, 
    -0.06787100434303284, -0.07495678961277008, -0.03072151355445385, 
    -0.05116885155439377, 0.07311250269412994, -0.03453180938959122, 

    0.04205301031470299, 0.03267820179462433, -0.036369647830724716, 
    -0.09591435641050339, -0.019581349566578865, -0.05016063153743744, 
    -0.03164750710129738, -0.04672151431441307, 0.04793056473135948, 

    0.10119129717350006, -0.051607247442007065, -0.017582204192876816, 
    0.013761872425675392, 0.0867985263466835, -0.060441773384809494, 
    0.02766426093876362, -0.04591519758105278, -0.047507867217063904, 

    -0.03956064581871033, 0.007132930215448141, -0.03798021003603935, 
    -0.044394221156835556, 0.0844845101237297, -0.09766469150781631, 
    -0.005820025224238634, -0.036813974380493164, -0.049416180700063705, 

    -0.04042482748627663, 0.10760924220085144, 0.08001632988452911, 
    0.08544337004423141, -0.024303723126649857, -0.044842179864645004, 
    0.04990046098828316, -0.0127561641857028, 0.017468256875872612, 

    -0.05127449333667755, 0.09196066856384277, -0.0388997457921505, 
    0.06893732398748398, 0.007270123343914747, 0.048186302185058594, 
    -0.004537141416221857, 0.05500040948390961, -0.011950459331274033, 

        };
        static filter_t filter14 = {16, 3, weights14, 0.018162507563829422};
        filters[14]=filter14;
            
        static const float weights15[]={ 
    -0.04680447652935982, -0.13134774565696716, -0.11241786181926727, 
    -0.06388558447360992, -0.027409715577960014, -0.09998884052038193, 
    -0.01877303421497345, -0.03560853749513626, 0.05346790701150894, 

    -0.056654829531908035, -0.06477011740207672, -0.1009271964430809, 
    0.07355328649282455, 0.04467758908867836, 0.049081847071647644, 
    0.009716088883578777, 0.05686357244849205, 0.0029881452210247517, 

    0.014068050310015678, -0.09240538626909256, 0.07093682140111923, 
    0.05798837170004845, -0.056622765958309174, -0.11203854531049728, 
    0.07712679356336594, -0.12802141904830933, 0.08538001030683517, 

    -0.010293261148035526, 0.031130345538258553, 0.07776341587305069, 
    0.029966717585921288, -0.00490629393607378, -0.03412414342164993, 
    -0.07619408518075943, -0.05008721351623535, -0.0639919862151146, 

    -0.037826430052518845, -0.10077982395887375, -0.10654474794864655, 
    0.03378427401185036, -0.06679487228393555, -0.07137066125869751, 
    -0.016837632283568382, 0.024574510753154755, -0.04279967397451401, 

    0.023266004398465157, -0.08060194551944733, -0.057131145149469376, 
    0.07030583918094635, 0.032594937831163406, -0.1406501829624176, 
    0.03430663049221039, 0.05589617043733597, -0.025238744914531708, 

    0.11903487145900726, -0.036662399768829346, -0.04377162829041481, 
    -0.012120494619011879, -0.011914553120732307, -0.059709273278713226, 
    0.0706392228603363, 0.07343611866235733, -0.10955524444580078, 

    0.030815917998552322, -0.13298161327838898, 0.0005243188352324069, 
    -0.0705486461520195, 0.03775477036833763, -0.05708456039428711, 
    0.10030115395784378, 0.01883765310049057, -0.09555386006832123, 

    -0.04058496654033661, -0.04588316008448601, 0.03360394388437271, 
    0.03463834524154663, 0.05552312731742859, 0.0378248356282711, 
    -0.033914972096681595, -0.02783520705997944, 0.08639325201511383, 

    0.004366865381598473, -0.12820003926753998, -0.05512705445289612, 
    0.043844420462846756, 0.07164128869771957, -0.13126416504383087, 
    0.055244214832782745, -0.0704309418797493, 0.04207422211766243, 

    0.036834467202425, 0.020828574895858765, 0.0805824026465416, 
    -0.03444661200046539, 0.03169671446084976, 0.015236089006066322, 
    -0.01003817468881607, 0.05911781266331673, 0.06141366809606552, 

    -0.08010240644216537, -0.02922407165169716, 0.02319445088505745, 
    0.05472653731703758, -0.0980992391705513, -0.08219052851200104, 
    -0.04351568594574928, 0.030246352776885033, -0.04243519529700279, 

    0.10188157111406326, 0.04415455460548401, 0.09980796277523041, 
    0.020378729328513145, -0.05899255350232124, 0.0591164156794548, 
    0.014618908986449242, 0.03796287998557091, 0.06308134645223618, 

    -0.07518917322158813, 0.11823387444019318, 0.0632372498512268, 
    -0.027272433042526245, 0.0764511451125145, -0.04736575484275818, 
    -0.016128836199641228, -0.005505954381078482, 0.003693329868838191, 

    -0.050694260746240616, 0.08056464791297913, -0.05183030292391777, 
    0.05386708304286003, 0.0912872850894928, -0.08946259319782257, 
    -0.05480312183499336, -0.06184443458914757, 0.05242501199245453, 

    -0.07212484627962112, 0.09908614307641983, 0.05689748376607895, 
    0.060019806027412415, -0.04587360844016075, -0.03675903007388115, 
    -0.04354197159409523, 0.07855214923620224, 0.030091051012277603, 

        };
        static filter_t filter15 = {16, 3, weights15, 0.03971570357680321};
        filters[15]=filter15;
            
        static const float weights16[]={ 
    0.03897443413734436, -0.0136614590883255, -0.03548507019877434, 
    0.039460208266973495, -0.03284527361392975, 0.04305662214756012, 
    -0.12818244099617004, -0.02161046676337719, 0.032636892050504684, 

    0.004801203962415457, 0.011915591545403004, 0.06389810889959335, 
    0.08790282160043716, 0.01954445242881775, 0.03274922072887421, 
    0.1051933690905571, 0.07960261404514313, 0.08931934833526611, 

    -0.08387371897697449, -0.0026748927775770426, -0.059799302369356155, 
    -0.06303681433200836, 0.0006142508354969323, 0.06434132903814316, 
    -0.04472761228680611, -0.07716459035873413, 0.015555333346128464, 

    -0.10205263644456863, -0.0304145198315382, 0.06515495479106903, 
    -0.015384082682430744, 0.07453109323978424, 0.07769381999969482, 
    -0.01901879534125328, 0.011523330584168434, 0.015082338824868202, 

    0.0016433278797194362, -0.061141375452280045, 0.017421988770365715, 
    0.09556140005588531, 0.11723263561725616, -0.052642062306404114, 
    -0.041625358164310455, 0.010657069273293018, -0.11448729783296585, 

    0.10304893553256989, 0.059756457805633545, 0.012427153997123241, 
    -0.1016039028763771, 0.0037484350614249706, 0.019582748413085938, 
    -0.020941073074936867, -0.046196889132261276, -0.023835062980651855, 

    -0.0021959806326776743, 0.01876523718237877, -0.02246934548020363, 
    -0.01422529574483633, 0.06194264441728592, 0.0003580908814910799, 
    0.0476846806704998, -0.036180686205625534, 0.03696484491229057, 

    -0.028415793552994728, 0.004651179537177086, -0.023574870079755783, 
    0.01560021098703146, 0.04030373692512512, -0.005686327815055847, 
    0.016604449599981308, 0.025831099599599838, -0.04943125694990158, 

    -0.050814755260944366, -0.04656929522752762, -0.04799056425690651, 
    -0.07152092456817627, 0.06822015345096588, -0.07580644637346268, 
    -0.04480576515197754, -0.022285573184490204, 0.05617693439126015, 

    0.015972528606653214, 0.017021840438246727, -0.0823361724615097, 
    -0.02999848872423172, 0.0510433055460453, -0.002716279122978449, 
    -0.015607092529535294, -0.03302134945988655, 0.04570847749710083, 

    0.06389268487691879, 0.10812843590974808, -0.007222859654575586, 
    0.15221107006072998, 0.18798667192459106, -0.015266048721969128, 
    0.059425238519907, 0.07122544199228287, 5.721909838030115e-05, 

    0.008482524193823338, 0.029013287276029587, 0.04596187174320221, 
    -0.07234465330839157, -0.08143386989831924, 0.038426849991083145, 
    0.05031204596161842, 0.04025411233305931, 0.055379945784807205, 

    -0.09956372529268265, 0.05762297660112381, -0.0589413158595562, 
    0.004315892234444618, -0.10073881596326828, -0.07088561356067657, 
    -0.0637851357460022, 0.0018697262275964022, -0.0447068065404892, 

    -0.13229034841060638, -0.05100194364786148, 0.07361293584108353, 
    0.04005514830350876, 0.016049198806285858, 0.08897567540407181, 
    0.04202621430158615, 0.06277427077293396, -0.02101626805961132, 

    -0.0345328263938427, 0.004157267510890961, 0.01286084670573473, 
    -0.01575048826634884, -0.02477371320128441, 0.06309441477060318, 
    0.010832883417606354, -0.04023592546582222, 0.02891908399760723, 

    -0.06117846071720123, 0.07471317052841187, -0.0955132395029068, 
    0.06858836114406586, -0.026288308203220367, -0.020527644082903862, 
    -0.01877988874912262, -0.018574833869934082, -0.017878860235214233, 

        };
        static filter_t filter16 = {16, 3, weights16, -0.0749339610338211};
        filters[16]=filter16;
            
        static const float weights17[]={ 
    0.03549260273575783, 0.0409613735973835, 0.05447377264499664, 
    0.007960539311170578, 0.044181644916534424, -0.04718267172574997, 
    -0.09592460095882416, -0.04857032001018524, -0.014194783754646778, 

    0.07360118627548218, 0.03428730368614197, 0.07323771715164185, 
    0.06849389523267746, -0.050473496317863464, 0.073749840259552, 
    -0.028927352279424667, 0.06994184106588364, 0.030766863375902176, 

    0.01704276166856289, 0.05754048004746437, -0.008974584750831127, 
    0.05054245516657829, 0.08953205496072769, 0.020981384441256523, 
    -0.04500531405210495, -0.08516867458820343, 0.02505728416144848, 

    -0.16067244112491608, 0.06068788468837738, 0.07199490070343018, 
    -0.1430964171886444, -0.12065446376800537, 0.028786160051822662, 
    -0.05980825796723366, -0.09559893608093262, -0.05234067514538765, 

    -0.06784940510988235, -0.010933147743344307, 0.03374126926064491, 
    0.055204786360263824, 0.060298215597867966, 0.02459358051419258, 
    0.013600829057395458, -0.0630778893828392, 0.09716451168060303, 

    -0.044686947017908096, 0.1070474162697792, -0.08982980996370316, 
    -0.01847243681550026, 0.017911272123456, -0.07716165482997894, 
    0.04576190561056137, -0.07367053627967834, 0.09803181141614914, 

    -0.05103892832994461, 0.03254322707653046, 0.059584539383649826, 
    0.06851055473089218, 0.05649827420711517, -0.12029855698347092, 
    -0.030179450288414955, -0.03073374181985855, 0.003411082085222006, 

    0.016128813847899437, -0.11263351142406464, 0.04947509244084358, 
    -0.0647873803973198, -0.06669800728559494, 0.06600899249315262, 
    -0.029142236337065697, -0.09741715341806412, 0.030542152002453804, 

    -0.061387043446302414, -0.005088669713586569, -0.03812604025006294, 
    0.006495256442576647, 0.04378890246152878, -0.08403869718313217, 
    0.026450728997588158, -0.05648382008075714, -0.10090126097202301, 

    -0.01807352341711521, 0.0055959331803023815, -0.03132675215601921, 
    0.08731922507286072, -0.05627975985407829, -0.025451265275478363, 
    0.08255845308303833, 0.06788942962884903, 0.08016537874937057, 

    -0.019028211012482643, -0.07404865324497223, 0.023760609328746796, 
    0.03948614001274109, -0.049315713346004486, 0.06878972798585892, 
    0.0012636450119316578, 0.02394254133105278, 0.11807896941900253, 

    -0.020911898463964462, 0.06279890239238739, -0.09459666907787323, 
    0.10069513320922852, 0.05127589404582977, 0.03891417384147644, 
    0.053257327526807785, -0.047549597918987274, -0.04574275389313698, 

    -0.04403195530176163, -0.07411490380764008, -0.006541564594954252, 
    -0.004469738341867924, 0.040648989379405975, 0.04621646925806999, 
    -0.09887368232011795, -0.04373897984623909, -0.03354658558964729, 

    0.015967782586812973, -0.008372237905859947, 0.005978627596050501, 
    0.07265536487102509, -0.005415343213826418, 0.08518543839454651, 
    -0.03803135082125664, -0.05509418249130249, -0.054814912378787994, 

    0.0420750230550766, 0.06460588425397873, 0.0642959475517273, 
    0.05636347085237503, -0.06451079994440079, -0.042495135217905045, 
    0.005237568635493517, 0.02650069259107113, -0.07432913035154343, 

    0.04101209715008736, -0.05345110967755318, 0.03875402361154556, 
    0.051561787724494934, -0.041259076446294785, -0.09437096118927002, 
    0.025055907666683197, 0.056567687541246414, 0.02674655057489872, 

        };
        static filter_t filter17 = {16, 3, weights17, -0.06484892219305038};
        filters[17]=filter17;
            
        static const float weights18[]={ 
    0.050200629979372025, 0.07092111557722092, 0.11022992432117462, 
    -0.09093144536018372, -0.05243030935525894, -0.06925926357507706, 
    0.020078903064131737, -0.15808603167533875, 0.0007062851218506694, 

    0.048584550619125366, -0.06043889373540878, 0.07367110997438431, 
    0.07252617925405502, -0.0721200704574585, 0.027268964797258377, 
    -0.015893874689936638, -0.023880939930677414, 0.016247862949967384, 

    0.0009013543021865189, -0.08070069551467896, -0.07479088753461838, 
    -0.08414523303508759, -0.22372831404209137, 0.035248760133981705, 
    -0.08806783705949783, -0.23574158549308777, 0.027600936591625214, 

    -0.018036454916000366, -0.003803773783147335, 0.0005493040662258863, 
    -0.08792697638273239, -0.12860381603240967, -0.07769989222288132, 
    -0.108329638838768, -0.21353699266910553, 0.010025611147284508, 

    -0.09519801288843155, -0.04362725093960762, 0.04699672758579254, 
    -0.05967206880450249, -0.020412759855389595, -0.027928978204727173, 
    -0.05466005578637123, -0.016175277531147003, 0.025195589289069176, 

    -0.01946653239428997, 0.06516480445861816, 0.012460116297006607, 
    -0.027772707864642143, -0.020251652225852013, -0.026041792705655098, 
    -0.009695113636553288, -0.2021481841802597, -0.05214013531804085, 

    -0.06477000564336777, -0.04448350891470909, 0.0974232628941536, 
    -0.07797062397003174, -0.038759876042604446, -0.10123453289270401, 
    0.05508999899029732, 0.09785342961549759, 0.020224807783961296, 

    0.04912682995200157, -0.0016712506767362356, -0.07879288494586945, 
    -0.03443507105112076, -0.05261937901377678, -0.05335799977183342, 
    0.026870153844356537, 0.01670628786087036, -0.020840903744101524, 

    0.024825694039463997, -0.038286879658699036, 0.03044324368238449, 
    0.0594380721449852, -0.03793349489569664, 0.045554764568805695, 
    -0.07602664083242416, -0.09554313868284225, -0.12064684182405472, 

    0.052759964019060135, -0.05022403970360756, 0.07601962238550186, 
    0.02899535931646824, 0.06322193890810013, 0.04569202661514282, 
    -0.06374882161617279, 0.0482000857591629, 0.06118638068437576, 

    0.028933463618159294, -0.01519508846104145, 0.07514065504074097, 
    -0.08760027587413788, 0.08538208156824112, 0.05362263321876526, 
    0.009960710071027279, 0.1012832522392273, -0.06017807498574257, 

    0.025978919118642807, -0.05917525663971901, -0.036053165793418884, 
    -0.08705263584852219, -0.03366719186306, 0.05770345404744148, 
    -0.07445291429758072, -0.013348754495382309, 0.09026240557432175, 

    0.04693712294101715, -0.05905183404684067, 0.0449172705411911, 
    0.023602735251188278, -0.0006623196532018483, 0.04458363726735115, 
    -0.0753864198923111, -0.09106650203466415, -0.039410628378391266, 

    0.07749254256486893, 0.0023643311578780413, 0.0661240816116333, 
    0.042795330286026, 0.0031353735830634832, 0.02723095566034317, 
    0.05518823117017746, -0.02352188527584076, -0.06610733270645142, 

    0.034877460449934006, 0.02228294499218464, 0.08326972275972366, 
    -0.040549129247665405, 0.0663478672504425, -0.0523885115981102, 
    0.04991518333554268, 0.00989250186830759, -0.010860865004360676, 

    -0.05606371536850929, 0.04386692866683006, -0.03299777954816818, 
    -0.04748402535915375, 0.023252448067069054, -0.06799465417861938, 
    0.016542747616767883, 0.015251432545483112, 0.013044058345258236, 

        };
        static filter_t filter18 = {16, 3, weights18, -0.17403936386108398};
        filters[18]=filter18;
            
        static const float weights19[]={ 
    -0.017846357077360153, -0.06105749309062958, -0.02072073332965374, 
    -0.05430680513381958, -0.08641086518764496, -0.044770002365112305, 
    -0.05510018765926361, -0.041618265211582184, -0.1050020381808281, 

    -0.0325593575835228, 0.05739520862698555, -0.028952114284038544, 
    0.05377620831131935, -0.08857589960098267, -0.04099445044994354, 
    0.0664350762963295, 0.09600464999675751, 0.07741831988096237, 

    -0.02432943694293499, 0.04081558436155319, 0.12261900305747986, 
    -0.13805857300758362, -0.03245162591338158, -0.18478260934352875, 
    -0.035420212894678116, -0.13245795667171478, -0.04016375541687012, 

    0.03380343317985535, -0.008587020449340343, -0.006927178241312504, 
    -0.23976968228816986, -0.2541743516921997, -0.011688990518450737, 
    -0.12338607758283615, -0.16931523382663727, -0.05651116743683815, 

    0.038216590881347656, 0.028114501386880875, -0.0669548362493515, 
    0.05272901430726051, -0.05927743390202522, -0.03416701778769493, 
    0.0643082782626152, -0.005473228171467781, -0.009086060337722301, 

    -0.018012866377830505, 0.032633401453495026, 0.060302428901195526, 
    -0.03210906311869621, -0.1552150845527649, 0.038965728133916855, 
    -0.03370900824666023, 0.006893673911690712, -0.025223108008503914, 

    -0.019458727911114693, -0.018879400566220284, 0.042635612189769745, 
    -0.022422807291150093, 0.0032532536424696445, -0.07765646278858185, 
    0.057842712849378586, 0.057356853038072586, 0.041155893355607986, 

    0.023664189502596855, 0.0323062501847744, 0.06802898645401001, 
    -0.0016188459703698754, 0.0054952725768089294, -0.042557504028081894, 
    -0.028225235641002655, -0.06490622460842133, 0.05535338073968887, 

    -0.06656473129987717, 0.07912479341030121, -0.009500140324234962, 
    -0.08872045576572418, 0.013287708163261414, 0.00013678305549547076, 
    0.028143813833594322, -0.0970078632235527, 0.04176178574562073, 

    0.07627534121274948, 0.04417116567492485, -0.01448094192892313, 
    -0.025201668962836266, -0.08634920418262482, -0.06361313164234161, 
    -0.016336049884557724, 0.00156500656157732, -0.04609671235084534, 

    0.007781435269862413, 0.020371513441205025, -0.02842247299849987, 
    0.055113255977630615, 0.0015949400840327144, 0.08740081638097763, 
    0.09453853219747543, -0.02083304338157177, 0.053320109844207764, 

    -0.010305614210665226, -0.03518107905983925, -0.029742754995822906, 
    -0.020553408190608025, 0.019460860639810562, 0.030664343386888504, 
    -0.05859718844294548, -0.041201941668987274, 0.02373567223548889, 

    0.035870470106601715, -0.06555694341659546, 0.04060995951294899, 
    -0.10572195798158646, -0.06904266029596329, 0.05659167096018791, 
    -0.05120660364627838, -0.003752649063244462, 0.1328863650560379, 

    0.022210322320461273, -0.01274061482399702, 0.02304910495877266, 
    0.03588203340768814, 0.07646722346544266, 0.10299908369779587, 
    -0.06858722120523453, -0.07596844434738159, -0.060367196798324585, 

    0.03711111843585968, 0.07203985750675201, -0.0049439407885074615, 
    -0.07292316854000092, -0.045941416174173355, -0.07730404287576675, 
    -0.07365494966506958, 0.0522584542632103, -0.011746129021048546, 

    -0.05345381051301956, -0.031247366219758987, 0.031049568206071854, 
    0.08126501739025116, 0.1368870884180069, 0.020326359197497368, 
    -0.029626384377479553, 0.0944579690694809, -0.0462394580245018, 

        };
        static filter_t filter19 = {16, 3, weights19, -0.15056033432483673};
        filters[19]=filter19;
            
        static const float weights20[]={ 
    -0.07123308628797531, 0.018246691673994064, -0.01411237008869648, 
    0.029468199238181114, -0.0545247383415699, -0.039513010531663895, 
    0.07034161686897278, -0.018844885751605034, -0.012043069116771221, 

    0.060044944286346436, -0.04465797543525696, -0.011849107220768929, 
    0.07055710256099701, -0.04048256203532219, -0.026389814913272858, 
    0.025090796872973442, 0.10443520545959473, -0.03738050535321236, 

    0.034299079328775406, -0.06267727166414261, -0.14078211784362793, 
    -0.0320466123521328, 0.05629609525203705, 0.09487877041101456, 
    -0.09184814244508743, -0.05687445402145386, 0.09789199382066727, 

    0.04326499626040459, 0.03712424635887146, 0.05917806923389435, 
    0.024597695097327232, 0.03333327919244766, -0.012047403492033482, 
    0.00728703523054719, -0.055069804191589355, -0.1330532729625702, 

    0.027834460139274597, -0.061937715858221054, -0.06417325139045715, 
    -0.05045080929994583, -0.08103342354297638, -0.09244371205568314, 
    0.043385110795497894, -0.05852016434073448, 0.01161164976656437, 

    -0.07271083444356918, 0.08765431493520737, 0.008683821186423302, 
    0.02502823993563652, 0.09142783284187317, 0.054874908179044724, 
    -0.09183480590581894, -0.030899960547685623, -0.0023638370912522078, 

    0.05784851685166359, -0.10655450075864792, 0.042417772114276886, 
    -0.013334840536117554, 0.0006543282652273774, -0.08236325532197952, 
    0.042722828686237335, 0.0033807524014264345, 0.008523057214915752, 

    -0.06320832669734955, 0.02172556333243847, -0.1415887176990509, 
    -0.003310962812975049, 0.07586412131786346, 0.017218900844454765, 
    -0.02873082086443901, 0.008021595887839794, 0.014713209122419357, 

    0.05451135337352753, -0.026905301958322525, 0.035617560148239136, 
    -0.04243822023272514, 0.07093853503465652, -0.01899348758161068, 
    0.0384892113506794, -0.01920628733932972, -0.04282316938042641, 

    0.05906967446208, 0.05270067974925041, -0.034044329077005386, 
    0.015821272507309914, -0.022766854614019394, 0.0724467784166336, 
    0.05802164226770401, 0.07496161758899689, -0.1021042987704277, 

    -0.09341853857040405, -0.03889179974794388, 0.050087179988622665, 
    0.049330875277519226, 0.048297420144081116, 0.020229052752256393, 
    0.002486984943971038, 0.14414282143115997, 0.029257293790578842, 

    0.009672188200056553, 0.0396847203373909, 0.025735579431056976, 
    -0.019541094079613686, 0.07451348751783371, -0.037912555038928986, 
    -0.02164466679096222, 0.01640910468995571, -0.012418733909726143, 

    0.015769893303513527, -0.08340375125408173, -0.014507684856653214, 
    -0.12738536298274994, 0.10419829934835434, -0.008502013981342316, 
    -0.0417470820248127, 0.06285598874092102, 0.07538961619138718, 

    0.0076726810075342655, -0.033330805599689484, 0.11132195591926575, 
    0.07206957787275314, 0.018582886084914207, -0.05983055382966995, 
    -0.01277708075940609, -0.08428345620632172, -0.04520464688539505, 

    -0.03225874900817871, -0.10202392935752869, 0.0899653434753418, 
    0.09813929349184036, 0.04591309651732445, 0.052925605326890945, 
    0.006491551175713539, -0.05584373325109482, -0.043646190315485, 

    0.09141476452350616, 0.030688617378473282, -0.026505550369620323, 
    0.04412085935473442, 0.031065674498677254, -0.06986019015312195, 
    -0.03815917298197746, 0.07668763399124146, -0.06948530673980713, 

        };
        static filter_t filter20 = {16, 3, weights20, 0.04504930227994919};
        filters[20]=filter20;
            
        static const float weights21[]={ 
    -0.024157898500561714, 0.06290346384048462, -0.028232214972376823, 
    -0.047582853585481644, 0.0634215697646141, -0.009712904691696167, 
    0.02569586969912052, 0.06698012351989746, -0.012432143092155457, 

    0.010990043170750141, -0.012811779975891113, -0.05956084653735161, 
    0.008930694311857224, 0.04573095217347145, 0.011086199432611465, 
    -0.022999465465545654, 0.018785206601023674, 0.03344040364027023, 

    0.002726807026192546, 0.037427131086587906, -0.04794776439666748, 
    0.06704840064048767, -0.0023484830744564533, 0.0346708670258522, 
    0.00935428123921156, -0.0927090272307396, -0.11560153216123581, 

    -0.10210519284009933, 0.04718158021569252, -0.0544329434633255, 
    0.07007032632827759, 0.011318491771817207, -0.07463528960943222, 
    0.05633244663476944, 0.05573086068034172, -0.13003072142601013, 

    -0.05187692865729332, -0.0398113988339901, 0.08076212555170059, 
    -0.015787027776241302, 0.04962974786758423, 0.06966758519411087, 
    -0.011687032878398895, -0.07386673986911774, -0.04514529928565025, 

    0.002974308328703046, 0.01569494791328907, -0.030628150328993797, 
    -0.05721362680196762, -0.0815180093050003, 0.03711865097284317, 
    -0.0728805810213089, -0.15915663540363312, -0.11516325175762177, 

    0.02657427452504635, -0.03110133484005928, -0.12129443883895874, 
    -0.04508829489350319, 0.030264325439929962, 0.03307132422924042, 
    0.019303610548377037, -0.06239137426018715, 0.13473199307918549, 

    -0.061447933316230774, -0.021138278767466545, -0.005788068287074566, 
    0.053098615258932114, 0.09110095351934433, 0.01270358171314001, 
    0.04860477149486542, -0.0806007981300354, -0.00726735545322299, 

    -0.039558880031108856, -0.08520076423883438, -0.028144976124167442, 
    0.03875289112329483, 0.05309032276272774, 0.057843536138534546, 
    -0.06978088617324829, 0.009399821050465107, -0.0510694645345211, 

    0.05587753653526306, 0.07235866785049438, 0.13280850648880005, 
    0.05704702064394951, 0.013719467446208, -0.024240879341959953, 
    -0.0957891196012497, -0.060012705624103546, 0.08405055850744247, 

    0.055476777255535126, -0.007989432662725449, 0.038515593856573105, 
    0.08871226757764816, -0.036224544048309326, 0.12353848665952682, 
    0.041279442608356476, -0.0090105552226305, -0.12216836214065552, 

    -0.037360984832048416, 0.039045851677656174, -0.005294694099575281, 
    -0.04396392032504082, 0.0234521571546793, 0.15489406883716583, 
    -0.03516727685928345, -0.0256643183529377, 0.03509509935975075, 

    -0.08371798694133759, 0.00899712834507227, -0.012813600711524487, 
    -0.06986550241708755, 0.020025094971060753, 0.04250158369541168, 
    0.10356846451759338, -0.031018909066915512, -0.002210404258221388, 

    -0.07367508858442307, -0.03739700838923454, -0.043365783989429474, 
    -0.007917733862996101, -0.02531646564602852, 0.001297365059144795, 
    -0.010881991125643253, 0.05212077125906944, -0.01552408654242754, 

    -0.005175139755010605, -0.0699005126953125, 0.06829430162906647, 
    0.03953354060649872, 0.057215988636016846, 0.06919173896312714, 
    0.06408008933067322, 0.11830320209264755, 0.09224092960357666, 

    0.09262174367904663, -0.06117703765630722, -0.07946842908859253, 
    -0.020173123106360435, -0.02376764826476574, -0.04398445412516594, 
    -0.039332516491413116, 0.03789163753390312, -0.004517098423093557, 

        };
        static filter_t filter21 = {16, 3, weights21, -0.13757313787937164};
        filters[21]=filter21;
            
        static const float weights22[]={ 
    -0.057735003530979156, 0.033232707530260086, 0.059402354061603546, 
    -0.042508043348789215, -0.11018076539039612, -0.06806983798742294, 
    0.032370906323194504, -0.03131159022450447, -0.06629681587219238, 

    0.018865611404180527, -0.03412248194217682, -0.003990293480455875, 
    -0.010349029675126076, 0.011826894246041775, -0.06163031980395317, 
    -0.060262180864810944, -0.023800941184163094, -0.02264627441763878, 

    0.060655541718006134, -0.05173743516206741, -0.04769192636013031, 
    -0.01646556705236435, -0.03286251798272133, -0.07539785653352737, 
    0.03970292583107948, -0.03646797686815262, -0.09075911343097687, 

    -0.02815725840628147, 0.03864450752735138, -0.03861895203590393, 
    0.016346493735909462, -0.011154337786138058, -0.03985556587576866, 
    0.1568942666053772, 0.06550366431474686, -0.007926298305392265, 

    -0.014817306771874428, 0.03181401267647743, -0.08178900182247162, 
    0.052006907761096954, 0.02601592242717743, 0.06372774392366409, 
    0.04625052586197853, -0.046373795717954636, 0.04032524675130844, 

    0.0632806196808815, 0.06689721345901489, -0.03756953030824661, 
    0.0014480558456853032, 0.005515440832823515, 0.06319521367549896, 
    0.0934230163693428, -0.04345114901661873, -0.03816109895706177, 

    0.03336375951766968, 0.11388958990573883, -0.1359262466430664, 
    0.017596563324332237, -0.030213788151741028, 0.01791369915008545, 
    -0.003236830234527588, 0.07232585549354553, 0.05952245369553566, 

    -0.019125716760754585, 0.025846252217888832, 0.010596382431685925, 
    -0.06841834634542465, -0.05826864764094353, -0.08605708926916122, 
    -0.008113689720630646, 0.03409218415617943, 0.09521591663360596, 

    -0.046957723796367645, 0.09917420893907547, 0.007426946423947811, 
    0.067088782787323, 0.07424294203519821, 0.017968885600566864, 
    0.03888893127441406, 0.06921353191137314, -0.07679618895053864, 

    -0.08598683029413223, -0.017823664471507072, 0.07408600300550461, 
    -0.11427614837884903, -0.037851277738809586, -0.04699638858437538, 
    -0.040199752897024155, 0.06433532387018204, -0.07280527800321579, 

    0.01222649309784174, -0.030888007953763008, -0.05132695659995079, 
    -0.07682453840970993, -0.07416269928216934, -0.10698625445365906, 
    -0.124491386115551, -0.027251556515693665, 0.060654692351818085, 

    0.01592755876481533, 0.058016374707221985, -0.05157524347305298, 
    -0.025821374729275703, 0.06617675721645355, -0.06640850752592087, 
    -0.03101317211985588, -0.012924588285386562, 0.0015862860018387437, 

    -0.07646483927965164, -0.023588422685861588, 0.008691912516951561, 
    0.009260889142751694, 0.03760591521859169, 0.056213151663541794, 
    -0.0024834631476551294, 0.001848458545282483, -0.02141522243618965, 

    0.048354022204875946, 0.002410665387287736, -0.04406880587339401, 
    0.08284512162208557, 0.034647442400455475, 0.017974264919757843, 
    -0.039825212210416794, -0.08703754842281342, 0.026004157960414886, 

    0.01611289195716381, 0.12131210416555405, -0.09368599206209183, 
    -0.015190578997135162, -0.024685995653271675, -0.012760333716869354, 
    0.0060743773356080055, -0.04244282469153404, -0.06345567107200623, 

    0.07134958356618881, 0.0019652298651635647, -0.03386327996850014, 
    0.03801073133945465, -0.09517621994018555, 0.05900059640407562, 
    0.037542909383773804, -0.06414586305618286, -0.0724908858537674, 

        };
        static filter_t filter22 = {16, 3, weights22, 0.029584107920527458};
        filters[22]=filter22;
            
        static const float weights23[]={ 
    0.06217528507113457, -0.04799094423651695, 0.029773680493235588, 
    0.04697559401392937, -0.06042793020606041, 0.026059644296765327, 
    -0.09654580801725388, -0.05696858465671539, 0.04958390071988106, 

    -0.054083291441202164, 0.00979710929095745, 0.09483042359352112, 
    -0.03692663460969925, -0.0002526518946979195, -0.02335231937468052, 
    -0.001611656858585775, -0.060688458383083344, 0.06712750345468521, 

    0.047542206943035126, -0.016250964254140854, 0.030887166038155556, 
    -0.06809645891189575, 0.050439804792404175, -0.09266965091228485, 
    -0.06471583992242813, -0.019384119659662247, 0.03115737810730934, 

    0.14695201814174652, 0.09397345036268234, -0.03751445934176445, 
    -0.0809442475438118, -0.012539899908006191, 0.06532236933708191, 
    -0.06489855796098709, -0.17711272835731506, -0.17367932200431824, 

    0.06165725365281105, 0.06756529957056046, 0.12290433794260025, 
    -0.061913616955280304, -0.08247441053390503, -0.0969536155462265, 
    0.05167704075574875, 0.09674452990293503, -0.0817028284072876, 

    -0.01734563335776329, 0.0520247258245945, -0.029741443693637848, 
    0.053738757967948914, 0.1319548636674881, -0.06714428961277008, 
    -0.06201813369989395, -0.05339857190847397, -0.06991153210401535, 

    -0.046034637838602066, 0.05359503626823425, 0.035823751240968704, 
    -0.03450268134474754, -0.02203119359910488, 0.01086457259953022, 
    -0.042793676257133484, 0.05186250060796738, 0.00019086555403191596, 

    -0.06451591104269028, -0.022948728874325752, 0.056112729012966156, 
    -0.00829208455979824, -0.11363064497709274, 0.11354456096887589, 
    0.012869161553680897, -0.0644340068101883, -0.07602133601903915, 

    0.029088672250509262, 0.002814721316099167, 0.009228355251252651, 
    -0.032661810517311096, -0.023114733397960663, -0.03656622767448425, 
    0.025859491899609566, 0.03956708312034607, -0.03392902761697769, 

    0.012342005968093872, 0.0488695353269577, 0.007906598970293999, 
    0.02632957510650158, 0.09986455738544464, -0.014178971759974957, 
    -0.05020085349678993, 0.003351496532559395, 0.015144319273531437, 

    -0.076309934258461, 0.025451544672250748, -0.06559418886899948, 
    0.035123806446790695, -0.01757468283176422, 0.05595410615205765, 
    0.10276918858289719, 0.038706593215465546, 0.06423213332891464, 

    -0.03852907568216324, 0.0038311132229864597, 0.07108476758003235, 
    0.059510909020900726, -0.08076830953359604, -0.02628219686448574, 
    0.0913630947470665, 0.06545139104127884, -0.004331840667873621, 

    0.049064408987760544, 0.06195303425192833, -0.0014337245374917984, 
    0.017264386638998985, -0.07229576259851456, -0.024047069251537323, 
    -0.05474705994129181, 0.07133684307336807, 0.043020881712436676, 

    -0.07583241164684296, -0.0776602029800415, 0.01808132790029049, 
    -0.09718301147222519, -0.022768842056393623, 0.05869314819574356, 
    -0.02305474318563938, -0.06863011419773102, -0.08707257360219955, 

    -0.017088374122977257, 0.038505859673023224, 0.05982286483049393, 
    -0.07744520157575607, -0.035960953682661057, -0.004282238893210888, 
    -0.027119988575577736, -0.0570676289498806, -0.024858755990862846, 

    -0.06832075119018555, -0.025386245921254158, -0.06557387858629227, 
    -0.03386567905545235, -0.0286650899797678, 0.03992249816656113, 
    -0.04268115758895874, 0.07756736874580383, -0.15075677633285522, 

        };
        static filter_t filter23 = {16, 3, weights23, -0.07660267502069473};
        filters[23]=filter23;
            
        static const float weights24[]={ 
    0.025074942037463188, 0.06336790323257446, 0.012221482582390308, 
    -0.03277122974395752, 0.12213218957185745, 0.03155453875660896, 
    -0.05659561604261398, -0.09446443617343903, -0.020093640312552452, 

    -0.009839151054620743, 0.05589447543025017, -0.006842920556664467, 
    0.034711696207523346, 0.02284719981253147, 0.05273333191871643, 
    -0.05074101686477661, 0.10464121401309967, 0.029690224677324295, 

    0.06763484328985214, -0.003509898204356432, 0.11697985976934433, 
    0.0046756514348089695, -0.00039090702193789184, 0.03543718904256821, 
    0.07208357006311417, 0.07577120512723923, -0.004536210093647242, 

    -0.06179054453969002, -0.038829635828733444, -0.03793879970908165, 
    0.010955741629004478, 0.060661058872938156, -0.04524298384785652, 
    -0.03930054232478142, -0.04713520407676697, 0.11774209886789322, 

    0.002366085071116686, -0.08754395693540573, -0.0672025978565216, 
    -0.08382818102836609, -0.005072820000350475, -0.06370071321725845, 
    0.07638627290725708, -0.014234199188649654, 0.02737600728869438, 

    -0.10417124629020691, 0.013426119461655617, -0.15461494028568268, 
    -0.09929540753364563, -0.011435361579060555, -0.04362056776881218, 
    0.010711146518588066, -0.02548901177942753, 0.07088828086853027, 

    0.05783168226480484, 0.0037220201920717955, 0.04418371617794037, 
    -0.03071916103363037, -0.0019518251065164804, -0.08226912468671799, 
    -0.05265927314758301, 0.04251677542924881, 0.050895605236291885, 

    0.002921968698501587, 0.07668416202068329, -0.06980007141828537, 
    -0.04013105109333992, 0.09634119272232056, 0.027008038014173508, 
    -0.04669945687055588, -0.10829118639230728, 0.017111793160438538, 

    -0.03218527138233185, -0.020899495109915733, -0.07339553534984589, 
    -0.09774065017700195, -0.02538367360830307, -0.02842097356915474, 
