#include "embedia_model.h"

// Initialization function prototypes
spectrogram_layer_t init_melspec_data(void);
conv2d_layer_t init_conv2d_data(void);
conv2d_layer_t init_conv2d_1_data(void);
dense_layer_t init_dense_data(void);
dense_layer_t init_dense_1_data(void);


// Global Variables
spectrogram_layer_t melspec_data;
conv2d_layer_t conv2d_data;
conv2d_layer_t conv2d_1_data;
dense_layer_t dense_data;
dense_layer_t dense_1_data;


void model_init(){
    melspec_data = init_melspec_data();
    conv2d_data = init_conv2d_data();
    conv2d_1_data = init_conv2d_1_data();
    dense_data = init_dense_data();
    dense_1_data = init_dense_1_data();

}

void model_predict(data1d_t input, data1d_t * output){
  
    prepare_buffers();
    
    //*************** LAYER 0 **************//
    // Layer name: melspec
    data3d_t output0;
    create_spectrogram(melspec_data, input, &output0);
    
    
    //*************** LAYER 1 **************//
    // Layer name: conv2d
    data3d_t input1;
    input1 = output0;
    conv2d_layer(conv2d_data, input1, &output0);
    // Activation layer for conv2d
    relu_activation(output0.data, 10080);
    
    //*************** LAYER 2 **************//
    // Layer name: max_pooling2d
    input1 = output0;
    static const pooling2d_layer_t max_pooling2d_data = { 2, 2 };
    max_pooling2d_layer(max_pooling2d_data, input1, &output0);
    
    //*************** LAYER 3 **************//
    // Layer name: conv2d_1
    input1 = output0;
    conv2d_layer(conv2d_1_data, input1, &output0);
    // Activation layer for conv2d_1
    relu_activation(output0.data, 1664);
    
    //*************** LAYER 4 **************//
    // Layer name: flatten
    input1 = output0;
    data1d_t output1;
    flatten3d_layer(input1, &output1);
    
    //*************** LAYER 5 **************//
    // Layer name: dense
    data1d_t input2;
    input2 = output1;
    dense_layer(dense_data, input2, &output1);
    
    // Activation layer for dense
    relu_activation(output1.data, 32);
    
    //*************** LAYER 6 **************//
    // Layer name: dense_1
    input2 = output1;
    dense_layer(dense_1_data, input2, &output1);
    
    // Activation layer for dense_1
    softmax_activation(output1.data, 6);
    

    *output = output1;

}

int model_predict_class(data1d_t input, data1d_t * results){
  
   
    model_predict(input, results);
    
    return argmax(*results);
    //return argmax(data1d_t);

}

// Implementation of initialization functions


spectrogram_layer_t init_melspec_data(void){
    spectrogram_layer_t layer_spec;
    layer_spec.convert_to_db = 0;
    layer_spec.n_fft = 256;
    layer_spec.n_mels = 32;
    layer_spec.frame_length = 6000;
    layer_spec.sample_rate = 6000;
    layer_spec.n_blocks = 23;
    layer_spec.n_fft_table = 128;
    layer_spec.noverlap = 0;
    layer_spec.step = 256;
    layer_spec.len_nfft_nmels = 4;
    layer_spec.spec_size = 736;
    layer_spec.ts_us = 166;

    return layer_spec;
}
        

conv2d_layer_t init_conv2d_data(void){

        static filter_t filters[16];
        
        static const float weights0[]={ 
    0.3202034533023834, 0.011362199671566486, 0.027508921921253204, 
    -0.46641719341278076, -0.4353656470775604, -0.4012863039970398, 
    -0.05277891829609871, 0.054077524691820145, 0.36847272515296936, 

        };
        static filter_t filter0 = {1, 3, weights0, 0.014534315094351768};
        filters[0]=filter0;
            
        static const float weights1[]={ 
    0.0789756178855896, 0.27694788575172424, -0.11442271620035172, 
    -0.154846653342247, 0.06687397509813309, 0.46108728647232056, 
    -0.49111151695251465, -0.09346392750740051, -0.13662807643413544, 

        };
        static filter_t filter1 = {1, 3, weights1, -0.009499731473624706};
        filters[1]=filter1;
            
        static const float weights2[]={ 
    0.04605482891201973, 0.10923988372087479, 0.16705290973186493, 
    -0.02081812545657158, -0.11766879260540009, 0.4550015926361084, 
    -0.5323229432106018, -0.31698304414749146, -0.0952082946896553, 

        };
        static filter_t filter2 = {1, 3, weights2, -0.011158168315887451};
        filters[2]=filter2;
            
        static const float weights3[]={ 
    -0.20430569350719452, 0.12034530937671661, -0.0522737093269825, 
    0.20086094737052917, 0.5357163548469543, 0.03754211962223053, 
    0.17592322826385498, 0.33024945855140686, 0.1992134004831314, 

        };
        static filter_t filter3 = {1, 3, weights3, -0.004471456632018089};
        filters[3]=filter3;
            
        static const float weights4[]={ 
    0.45051974058151245, 0.40884456038475037, 0.014428084716200829, 
    0.10787896066904068, -0.20165486633777618, -0.3989064693450928, 
    -0.1546097993850708, -0.21902956068515778, -0.4517658054828644, 

        };
        static filter_t filter4 = {1, 3, weights4, 0.010058908723294735};
        filters[4]=filter4;
            
        static const float weights5[]={ 
    -0.048779312521219254, 0.22212249040603638, -0.1922425776720047, 
    -0.17191100120544434, 0.32737693190574646, -0.13514485955238342, 
    -0.10893195867538452, 0.12210845202207565, -0.05944090709090233, 

        };
        static filter_t filter5 = {1, 3, weights5, 0.003602254670113325};
        filters[5]=filter5;
            
        static const float weights6[]={ 
    -0.21408067643642426, 0.01642906852066517, 0.2638598382472992, 
    -0.16191448271274567, 0.3013232350349426, 0.30524739623069763, 
    -0.14664825797080994, 0.31429323554039, 0.25417253375053406, 

        };
        static filter_t filter6 = {1, 3, weights6, -0.006573681253939867};
        filters[6]=filter6;
            
        static const float weights7[]={ 
    -0.4008437395095825, -0.2156822383403778, 0.19337014853954315, 
    0.002207708777859807, 0.21454979479312897, 0.10816510766744614, 
    0.3144991993904114, 0.015467341057956219, -0.009897243231534958, 

        };
        static filter_t filter7 = {1, 3, weights7, 0.0037809456698596478};
        filters[7]=filter7;
            
        static const float weights8[]={ 
    0.0021406137384474277, 0.22448395192623138, 0.3595954179763794, 
    0.1781657338142395, 0.3545942008495331, 0.10552573204040527, 
    -0.24051274359226227, -0.16121038794517517, -0.04197979345917702, 

        };
        static filter_t filter8 = {1, 3, weights8, 0.003535813419148326};
        filters[8]=filter8;
            
        static const float weights9[]={ 
    -0.0681828185915947, -0.16505172848701477, -0.46465447545051575, 
    0.31516551971435547, -0.14566712081432343, -0.5794398784637451, 
    0.4410247206687927, -0.02881009690463543, -0.06588923186063766, 

        };
        static filter_t filter9 = {1, 3, weights9, 0.026604454964399338};
        filters[9]=filter9;
            
        static const float weights10[]={ 
    0.23878338932991028, 0.3858983516693115, 0.006656965706497431, 
    0.312608003616333, 0.34036922454833984, -0.09545543044805527, 
    0.06290628761053085, 0.007969345897436142, -0.3053814172744751, 

        };
        static filter_t filter10 = {1, 3, weights10, 0.0019689882174134254};
        filters[10]=filter10;
            
        static const float weights11[]={ 
    0.3820643424987793, 0.13148602843284607, 0.014732331968843937, 
    0.1684061884880066, 0.013802535831928253, 0.265632688999176, 
    -0.10829223692417145, -0.16898958384990692, -0.2379705011844635, 

        };
        static filter_t filter11 = {1, 3, weights11, -0.49360162019729614};
        filters[11]=filter11;
            
        static const float weights12[]={ 
    -0.08103439211845398, -0.24323703348636627, -0.7185154557228088, 
    0.5394394397735596, 0.1224026083946228, -0.3590455651283264, 
    0.013131084851920605, 0.2875557839870453, 0.08192369341850281, 

        };
        static filter_t filter12 = {1, 3, weights12, -0.0021279319189488888};
        filters[12]=filter12;
            
        static const float weights13[]={ 
    -0.016270838677883148, 0.258353590965271, 0.10551171004772186, 
    0.34277206659317017, 0.14369022846221924, -0.042814578860998154, 
    -0.0050180088728666306, 0.10273274779319763, 0.19637459516525269, 

        };
        static filter_t filter13 = {1, 3, weights13, -0.494572252035141};
        filters[13]=filter13;
            
        static const float weights14[]={ 
    0.3180910050868988, -0.259211927652359, -0.011636462062597275, 
    0.4935288727283478, -0.16995610296726227, -0.3169305920600891, 
    0.19194971024990082, 0.21665160357952118, 0.08492163568735123, 

        };
        static filter_t filter14 = {1, 3, weights14, 0.012601279653608799};
        filters[14]=filter14;
            
        static const float weights15[]={ 
    -0.42521584033966064, 0.05525348335504532, -0.062209393829107285, 
    0.15909750759601593, 0.04236314818263054, 0.1597379595041275, 
    0.35234200954437256, -0.18124538660049438, 0.030761606991291046, 

        };
        static filter_t filter15 = {1, 3, weights15, 0.013997342437505722};
        filters[15]=filter15;
            
        conv2d_layer_t layer = {16, filters};
        return layer;
        }
        

conv2d_layer_t init_conv2d_1_data(void){

        static filter_t filters[16];
        
        static const float weights0[]={ 
    0.21461813151836395, 0.030452867969870567, 0.10235193371772766, 
    0.027909426018595695, 0.007803945802152157, 0.013449814170598984, 
    0.04624976962804794, 0.17686894536018372, 0.1390775740146637, 

    0.06998376548290253, 0.07217113673686981, -0.24891260266304016, 
    0.27898702025413513, 0.32998842000961304, 0.20339415967464447, 
    -0.20414437353610992, 0.12006428837776184, 0.053562797605991364, 

    0.3150612711906433, 0.18651512265205383, -0.0351499579846859, 
    0.3530867099761963, 0.1712082028388977, 0.10046795010566711, 
    0.0015566939255222678, 0.2500464618206024, 0.1613897830247879, 

    0.10886000841856003, -0.0857369676232338, 0.053360465914011, 
    -0.10948287695646286, 0.025079848244786263, 0.08114368468523026, 
    0.1200118213891983, 0.04411110654473305, 0.052980318665504456, 

    -0.09245814383029938, -0.4655076563358307, -0.5940300822257996, 
    0.16700300574302673, 0.3174949884414673, 0.2434975802898407, 
    -0.1637299507856369, 0.1404016613960266, 0.23514604568481445, 

    -0.00567791098728776, -0.11913559585809708, 0.14868539571762085, 
    0.20525823533535004, 0.08235135674476624, 0.055522046983242035, 
    -0.15725532174110413, -0.010667048394680023, 0.03376030921936035, 

    -0.042286667972803116, -0.11877688020467758, -0.018102504312992096, 
    -0.02771085686981678, -0.11744794994592667, 0.010680890642106533, 
    -0.03542333468794823, -0.11789403855800629, 0.12414594739675522, 

    0.15142636001110077, 0.2128661870956421, 0.060654327273368835, 
    -0.29039210081100464, -0.2122987061738968, 0.08316603302955627, 
    0.05562267452478409, -0.12351811677217484, 0.021446263417601585, 

    0.013150092214345932, -0.08826949447393417, -0.27049651741981506, 
    0.058337513357400894, 0.23300687968730927, 0.1278301477432251, 
    -0.11404978483915329, -0.013059668242931366, 0.0919170156121254, 

    0.12673012912273407, 0.2087477296590805, -0.12047822028398514, 
    -0.22900600731372833, -0.0007855931762605906, 0.021621447056531906, 
    0.1399565041065216, 0.11226224154233932, -0.05321069434285164, 

    -0.06187242269515991, -0.14179304242134094, -0.14770124852657318, 
    0.059529125690460205, 0.07513702660799026, 0.06606964021921158, 
    -0.18724143505096436, -0.1862567514181137, 0.008565257303416729, 

    0.007357148453593254, -0.04566400498151779, -0.1670358031988144, 
    -0.11963961273431778, -0.0647541806101799, 0.05241981893777847, 
    -0.3824749290943146, -0.1780194640159607, -0.0691828578710556, 

    0.40246427059173584, 0.14350296556949615, -0.21633434295654297, 
    -0.06751817464828491, 0.03155237436294556, -0.10391881316900253, 
    0.29380524158477783, 0.11718302965164185, -0.015452089719474316, 

    -0.022248852998018265, 0.009014931507408619, -0.19066697359085083, 
    -0.021457958966493607, -0.13781720399856567, -0.1569606512784958, 
    0.1254638135433197, 0.06396213173866272, -0.17962723970413208, 

    0.1761402040719986, -0.05888755992054939, -0.053548797965049744, 
    -0.20460911095142365, -0.07249986380338669, -0.004628458060324192, 
    0.09488851577043533, -0.16119755804538727, -0.019658422097563744, 

    -0.009204849600791931, 0.25490662455558777, 0.15651467442512512, 
    -0.2928254306316376, -0.12129557877779007, 0.04737761989235878, 
    0.13543786108493805, -0.013220716267824173, -0.19020426273345947, 

        };
        static filter_t filter0 = {16, 3, weights0, -0.02364419959485531};
        filters[0]=filter0;
            
        static const float weights1[]={ 
    0.44579750299453735, 0.4342902898788452, -0.11900568753480911, 
    0.6074599623680115, 0.3781600594520569, -0.14066143333911896, 
    0.5905159711837769, 0.5054662823677063, -0.33276912569999695, 

    -0.14495304226875305, 0.22522130608558655, 0.14112809300422668, 
    -0.04935263842344284, 0.217142716050148, 0.20117294788360596, 
    0.010996568016707897, 0.06654149293899536, 0.2786868214607239, 

    -0.2846221327781677, 0.2666339874267578, -0.06104506924748421, 
    -0.09088791161775589, 0.05683917552232742, 0.0617133192718029, 
    -0.08946798741817474, 0.13593022525310516, 0.1664355993270874, 

    -0.15259669721126556, 0.03255793824791908, 0.11372524499893188, 
    0.1090223491191864, 0.07503727823495865, -0.13406535983085632, 
    -0.0639943927526474, 0.05832013860344887, 0.0430862195789814, 

    -0.1019442230463028, -0.08051621168851852, -0.2449847012758255, 
    0.15687808394432068, 0.000717171817086637, -0.14774759113788605, 
    0.11340868473052979, -0.1700810045003891, -0.3401362895965576, 

    -0.05617417022585869, -0.010959257371723652, 0.11733812093734741, 
    -0.08508235961198807, -0.06223899498581886, -0.09282337874174118, 
    -0.1346738487482071, -0.26639267802238464, 0.02069321647286415, 

    0.004156278911978006, 0.05699439346790314, -0.23346298933029175, 
    -0.12723496556282043, -0.02027778886258602, 0.05101848766207695, 
    -0.05768420547246933, 0.1312454789876938, -0.07059329003095627, 

    -0.1295916885137558, -0.005246265791356564, -0.13696807622909546, 
    -0.07060588896274567, 0.09695587307214737, -0.18930675089359283, 
    0.15835076570510864, -0.08887135237455368, 0.12194742262363434, 

    -0.14491990208625793, 0.12505826354026794, 0.08890078961849213, 
    0.025649061426520348, 0.038720499724149704, -0.010192950256168842, 
    0.015370426699519157, 0.024175317957997322, 0.07661157846450806, 

    -0.04517066851258278, -0.18193504214286804, 0.19786222279071808, 
    -0.12916208803653717, -0.0807131677865982, 0.17441263794898987, 
    0.018149228766560555, 0.1194804310798645, 0.1592138409614563, 

    0.08926624059677124, -0.0632154569029808, 0.06697525084018707, 
    0.06775443255901337, -0.03566712886095047, 0.004539310000836849, 
    0.15071138739585876, -0.022415922954678535, -0.04717451333999634, 

    0.08418675512075424, -0.019502844661474228, -0.12133833020925522, 
    0.10857733339071274, 0.056124672293663025, -0.043438512831926346, 
    -0.006300337612628937, -0.02041047066450119, -0.169339120388031, 

    -0.06730677932500839, -0.11575746536254883, 0.32999223470687866, 
    -0.16344331204891205, 0.3271808326244354, 0.3392719626426697, 
    -0.1624269336462021, 0.04969349130988121, 0.3532744348049164, 

    0.06128298491239548, -0.05925217270851135, 0.1291327327489853, 
    -0.13362328708171844, -0.23469127714633942, 0.014878724701702595, 
    0.024471402168273926, -0.17423532903194427, -0.16555339097976685, 

    0.1472146213054657, -0.10599183291196823, 0.22206401824951172, 
    0.021104205399751663, -0.10501807183027267, 0.15959621965885162, 
    -0.10975906252861023, 0.10602527111768723, 0.010869760997593403, 

    -0.08423754572868347, -0.18607264757156372, -0.14049498736858368, 
    -0.07265316694974899, -0.16383056342601776, 0.034388601779937744, 
    0.1491774618625641, -0.13559934496879578, 0.02134370617568493, 

        };
        static filter_t filter1 = {16, 3, weights1, -0.07164614647626877};
        filters[1]=filter1;
            
        static const float weights2[]={ 
    -0.00932235550135374, 0.10564931482076645, 0.26072806119918823, 
    0.06856313347816467, 0.19028905034065247, 0.07762008160352707, 
    0.10429545491933823, 0.1635247766971588, 0.16357865929603577, 

    -0.2399146407842636, -0.28506043553352356, -0.06776490062475204, 
    -0.13078977167606354, -0.2298339605331421, -0.19173955917358398, 
    -0.2047111541032791, 0.04891938716173172, -0.06995149701833725, 

    -0.3809840679168701, -0.36652129888534546, -0.06407292932271957, 
    -0.36932194232940674, -0.12069844454526901, -0.15452605485916138, 
    -0.09547390043735504, -0.231599822640419, -0.3818560838699341, 

    0.16085848212242126, 0.06681916117668152, 0.013808698393404484, 
    0.2298867553472519, 0.10280755162239075, 0.006866785231977701, 
    0.05061357468366623, -0.08276362717151642, -0.140337273478508, 

    0.12641926109790802, 0.06528287380933762, 0.2666364312171936, 
    0.04739454761147499, 0.21805888414382935, 0.030918428674340248, 
    0.344847708940506, 0.3235880136489868, 0.1872785985469818, 

    0.15101395547389984, -0.08986704051494598, -0.09979934990406036, 
    -0.10027427226305008, -0.14092472195625305, -0.13351011276245117, 
    -0.01594872586429119, -0.012794019654393196, 0.036229074001312256, 

    0.14163072407245636, 0.01180006843060255, 0.003687248332425952, 
    0.0605219267308712, 0.013120921328663826, -0.015447311103343964, 
    -0.04263019561767578, -0.1395263969898224, -0.26544398069381714, 

    0.057755324989557266, 0.19913475215435028, 0.10448744893074036, 
    0.1018918827176094, 0.33563438057899475, 0.0591035895049572, 
    0.250851571559906, 0.005378636997193098, -0.2569178342819214, 

    0.09527277946472168, -0.026942241936922073, 0.024342140182852745, 
    0.12007395923137665, 0.17733556032180786, 0.14748381078243256, 
    0.22160767018795013, 0.08146431297063828, -0.22527976334095, 

    -0.39394205808639526, -0.34268736839294434, -0.12944847345352173, 
    -0.12593033909797668, -0.17561925947666168, -0.10017705708742142, 
    -0.2857300043106079, 0.04690797999501228, -0.27008119225502014, 

    0.19596147537231445, 0.042488861829042435, 0.05206994712352753, 
    0.19593986868858337, -0.0011801848886534572, 0.1549830287694931, 
    0.16737639904022217, -0.043841198086738586, -0.00780069874599576, 

    -0.11083006113767624, -0.06409099698066711, -0.11301346868276596, 
    -0.18812768161296844, -0.12476232647895813, -0.03254198655486107, 
    -0.03499361127614975, -0.021312884986400604, 0.02924061194062233, 

    -0.4136122465133667, -0.30499008297920227, 0.044658053666353226, 
    -0.316290020942688, -0.26413747668266296, -0.2451346069574356, 
    -0.08261023461818695, -0.08779694139957428, -0.3165142238140106, 

    -0.014861587435007095, -0.07490947842597961, 0.09015383571386337, 
    -0.021297045052051544, 0.04108818247914314, -0.07732679694890976, 
    -0.08832456916570663, 0.06819157302379608, -0.14041051268577576, 

    -0.17480836808681488, -0.06637290120124817, -0.10789673030376434, 
    0.10732921957969666, -0.04295666143298149, -0.07720194011926651, 
    -0.08468625694513321, 0.16299118101596832, -0.024793196469545364, 

    0.027441559359431267, -0.016749169677495956, 0.04459453001618385, 
    0.19049568474292755, -0.021401049569249153, 0.15229107439517975, 
    0.19805586338043213, 0.024114737287163734, -0.3671984076499939, 

        };
        static filter_t filter2 = {16, 3, weights2, -0.027702439576387405};
        filters[2]=filter2;
            
        static const float weights3[]={ 
    -0.3551432192325592, -0.3809366822242737, -0.2079400271177292, 
    -0.44171467423439026, -0.2950994670391083, -0.20528900623321533, 
    0.016071723774075508, -0.1855335533618927, 0.048110757023096085, 

    0.02796746790409088, 0.1443302035331726, -0.03151111677289009, 
    0.19662891328334808, -0.02344701625406742, 0.0638267919421196, 
    0.06089909002184868, 0.2223259061574936, 0.09761560708284378, 

    0.05714884772896767, -0.06648654490709305, -0.04250936210155487, 
    -0.01846303604543209, -0.006264975294470787, -0.02771519497036934, 
    0.15864568948745728, 0.11972082406282425, 0.09493523836135864, 

    0.17342709004878998, 0.17820651829242706, -0.04227759689092636, 
    -0.07267898321151733, -0.10744737833738327, -0.014231896959245205, 
    -0.24633394181728363, -0.10984072089195251, 0.1031278446316719, 

    -0.03641263768076897, 0.10270369797945023, 0.13447795808315277, 
    -0.07712338119745255, -0.03381561487913132, -0.014972925186157227, 
    -0.02670975774526596, 0.20073950290679932, -0.015254704281687737, 

    0.2254539281129837, 0.22495487332344055, -0.012156108394265175, 
    0.09565162658691406, 0.2760501801967621, 0.16131000220775604, 
    0.1623694747686386, 0.03649529069662094, 0.12226859480142593, 

    -0.07485324144363403, -0.10476095229387283, -0.1604020595550537, 
    0.03994471952319145, 0.08461600542068481, -0.11453744024038315, 
    -0.09992967545986176, 0.13794507086277008, 0.20963314175605774, 

    -0.05875368416309357, 0.12397023290395737, -0.05632276087999344, 
    -0.028367985039949417, 0.03074999712407589, 0.08319540321826935, 
    -0.10768904536962509, -0.12207706272602081, 0.04262543097138405, 

    0.10794616490602493, 0.023193873465061188, -0.11218631267547607, 
    -0.07473044842481613, -0.020555276423692703, -0.12023109197616577, 
    -0.04174145311117172, 0.09679675847291946, -0.02945968508720398, 

    -0.0259685218334198, 0.23312264680862427, -0.009274797514081001, 
    -0.22350738942623138, -0.05674878880381584, 0.22109492123126984, 
    -0.2863123416900635, -0.22462572157382965, 0.10565993934869766, 

    0.03746376559138298, -0.05750457942485809, -0.012079829350113869, 
    0.1625344306230545, 0.055181242525577545, -0.020960230380296707, 
    -0.12493877857923508, 0.10818638652563095, 0.05172112584114075, 

    0.03911466524004936, -0.1201961487531662, 0.16545239090919495, 
    -0.10896419733762741, -0.07875348627567291, -0.07719980925321579, 
    -0.10282349586486816, -0.1345541924238205, -0.17763377726078033, 

    0.07040856778621674, 0.11168858408927917, 0.03908475115895271, 
    -0.21653255820274353, 0.25758206844329834, 0.17892685532569885, 
    -0.3675615191459656, -0.2576521635055542, 0.008292721584439278, 

    -0.04980597645044327, -0.04603303223848343, -0.02180028334259987, 
    -0.17474503815174103, 0.017804250121116638, -0.04137679934501648, 
    -0.04007213935256004, 0.0026266248896718025, 0.05965675041079521, 

    0.16088896989822388, 0.1787613183259964, 0.032279107719659805, 
    -0.11140738427639008, 0.13737604022026062, 0.12807686626911163, 
    -0.14508280158042908, 0.038764648139476776, -0.0015076807467266917, 

    -0.19616228342056274, -0.03329804912209511, 0.16578005254268646, 
    -0.0506383553147316, 0.01642373390495777, -0.020400531589984894, 
    -0.19216600060462952, -0.129527747631073, 0.2950690984725952, 

        };
        static filter_t filter3 = {16, 3, weights3, 0.01927616074681282};
        filters[3]=filter3;
            
        static const float weights4[]={ 
    -0.10903926938772202, -0.38641834259033203, -0.16460555791854858, 
    -0.309431254863739, -0.19378916919231415, -0.15123243629932404, 
    -0.23143962025642395, -0.3679068088531494, -0.2825724482536316, 

    -0.05768955126404762, -0.02096104621887207, -0.11473066359758377, 
    -0.13776318728923798, -0.20720253884792328, -0.01844717748463154, 
    -0.21571627259254456, -0.07472649216651917, -0.04212414100766182, 

    -0.18540284037590027, -0.05996501445770264, 0.0665549486875534, 
    -0.17908091843128204, -0.24329863488674164, -0.2127588838338852, 
    -0.13065743446350098, -0.2623254656791687, -0.08644933253526688, 

    0.02378048375248909, 0.22017814218997955, -0.09571204334497452, 
    -0.026711054146289825, -0.06548302620649338, 0.024655543267726898, 
    0.1559913456439972, 0.15849922597408295, -0.031860750168561935, 

    -0.22739177942276, -0.1534406542778015, -0.23788580298423767, 
    -0.4349777400493622, -0.24775996804237366, -0.23757223784923553, 
    -0.21821340918540955, -0.09673313051462173, -0.09508782625198364, 

    -0.01559122558683157, -0.00403705146163702, -0.06116359680891037, 
    -0.1004255935549736, 0.2127300649881363, -0.06608118116855621, 
    -0.06374964863061905, 0.03389643505215645, 0.2116997390985489, 

    0.21781931817531586, 0.0494857057929039, -0.058299824595451355, 
    0.17180924117565155, 0.08556381613016129, 0.03512196987867355, 
    0.1301257610321045, 0.021097373217344284, 0.07125235348939896, 

    0.18627983331680298, 0.1016659289598465, 0.12739528715610504, 
    0.0040489980019629, -0.1306023895740509, 0.11389905214309692, 
    -0.02214498072862625, -0.048809539526700974, 0.07484463602304459, 

    0.11942588537931442, -0.12683820724487305, -0.0713316947221756, 
    0.11582507938146591, 0.08203412592411041, 0.06081188842654228, 
    -0.04127412661910057, -0.16921184957027435, -0.14525066316127777, 

    -0.013149233534932137, 0.2525522708892822, 0.10564003139734268, 
    0.01272985152900219, 0.09983410686254501, 0.08411440998315811, 
    -0.26080676913261414, 0.24536900222301483, 0.0005367465200833976, 

    0.17064674198627472, 0.014815112575888634, 0.1430806964635849, 
    0.013444450683891773, 0.029437728226184845, 0.09291944652795792, 
    0.13778731226921082, 0.18996652960777283, 0.10683918744325638, 

    -0.22624443471431732, -0.08046247810125351, -0.03347581997513771, 
    -0.24499361217021942, -0.025357112288475037, -0.2365017682313919, 
    -0.22695282101631165, -0.2254156917333603, -0.1197555735707283, 

    0.0033470606431365013, 0.18254436552524567, -0.018821699544787407, 
    -0.09447752684354782, 0.1250690519809723, 0.10202613472938538, 
    -0.3239820897579193, -0.06077060103416443, 0.11275865882635117, 

    0.0294096190482378, 0.01833554543554783, -0.05946668982505798, 
    -0.1494535207748413, -0.05298430845141411, 0.04851238802075386, 
    0.08079050481319427, 0.12579572200775146, -0.046804480254650116, 

    0.08192011713981628, 0.16987541317939758, 0.05993117392063141, 
    -0.008556347340345383, 0.0599411241710186, -0.0147726284340024, 
    -0.08234147727489471, 0.14626286923885345, 0.1277361810207367, 

    -0.15865400433540344, 0.24378374218940735, 0.03176180645823479, 
    -0.0895996168255806, 0.05332808569073677, 0.05992225557565689, 
    0.019551381468772888, 0.07594563812017441, -0.06430792063474655, 

        };
        static filter_t filter4 = {16, 3, weights4, 0.024631964042782784};
        filters[4]=filter4;
            
        static const float weights5[]={ 
    -0.015627067536115646, -0.1500668078660965, -0.21584877371788025, 
    0.03774185851216316, 0.20762622356414795, 0.1445329487323761, 
    0.24269059300422668, 0.2737920880317688, 0.24938257038593292, 

    0.12845097482204437, 0.0364278145134449, 0.1556921899318695, 
    0.08355405926704407, 0.2701474130153656, 0.02889246866106987, 
    -0.13897059857845306, -0.11112653464078903, -0.00797702930867672, 

    0.03599478676915169, 0.23769362270832062, 0.042533811181783676, 
    0.21787035465240479, 0.1292671114206314, 0.3381849527359009, 
    -0.16521571576595306, -0.011725055053830147, 0.028416365385055542, 

    0.11894747614860535, 0.1311112940311432, -0.05787244066596031, 
    0.07485388219356537, -0.15756066143512726, 0.11628850549459457, 
    -0.29539862275123596, -0.504494309425354, -0.3882821202278137, 

    0.13167151808738708, -0.17299805581569672, -0.20411978662014008, 
    0.194635808467865, 0.19468046724796295, -0.1436750441789627, 
    0.21830788254737854, 0.14154259860515594, 0.15416337549686432, 

    -0.044123005121946335, -0.06975176185369492, -0.03184039145708084, 
    0.04545580595731735, -0.03188951313495636, -0.09220745414495468, 
    -0.04504210874438286, -0.0017700563184916973, 0.02275935374200344, 

    0.021620653569698334, -0.013220366090536118, 0.10518035292625427, 
    -0.023771952837705612, -0.16947710514068604, 0.16413837671279907, 
    -0.30904361605644226, -0.2239692211151123, -0.07193893194198608, 

    0.1682320535182953, 0.1673566997051239, -0.03865626081824303, 
    0.12335860729217529, -0.09310200810432434, -0.03462594002485275, 
    -0.13823683559894562, -0.21989434957504272, -0.3538725674152374, 

    0.03525533527135849, 0.09940286725759506, 0.03720201179385185, 
    -0.10655844956636429, 0.06242693215608597, 0.05178093537688255, 
    -0.06974352151155472, -0.07527127116918564, 0.06875674426555634, 

    -0.08532599359750748, -0.13128304481506348, 0.11955897510051727, 
    -0.11185961216688156, -0.0969376340508461, 0.027422118932008743, 
    -0.049786485731601715, -0.1271578073501587, -0.048685092478990555, 

    0.1355196237564087, 0.09122231602668762, 0.13050271570682526, 
    0.15880493819713593, 0.08427494019269943, -0.1307896375656128, 
    -0.21708303689956665, -0.12628081440925598, -0.1165853962302208, 

    -0.4182060658931732, 0.0004451640124898404, -0.14046378433704376, 
    -0.028837326914072037, -0.2332516461610794, -0.11224407702684402, 
    0.004072146024554968, -0.1412915587425232, -0.18476387858390808, 

    0.16814912855625153, -0.007726604584604502, 0.21628352999687195, 
    -0.1259838342666626, 0.04439859464764595, 0.07837248593568802, 
    0.17639212310314178, -0.18373000621795654, -0.16179563105106354, 

    -0.0851706713438034, -0.26078593730926514, -0.13126786053180695, 
    -0.16216932237148285, -0.011114622466266155, 0.02270928956568241, 
    -0.030670523643493652, -0.13509519398212433, -0.11369922012090683, 

    -0.19280081987380981, -0.051659200340509415, 0.15953615307807922, 
    -0.15096375346183777, -0.054439838975667953, 0.09537777304649353, 
    -0.14809449017047882, -0.2659396231174469, -0.19292300939559937, 

    0.035587407648563385, 0.12490998208522797, 0.13117556273937225, 
    0.07010983675718307, -0.16210374236106873, -0.06796260178089142, 
    -0.08222685754299164, -0.12429610639810562, -0.25885429978370667, 

        };
        static filter_t filter5 = {16, 3, weights5, 0.01913951151072979};
        filters[5]=filter5;
            
        static const float weights6[]={ 
    -0.10745450109243393, 0.012245573103427887, -0.057170670479536057, 
    -0.23381128907203674, 0.1380944848060608, -0.030056845396757126, 
    0.12175973504781723, -0.044727031141519547, -0.27569451928138733, 

    0.17623277008533478, 0.27542582154273987, 0.21157321333885193, 
    -0.21737942099571228, 0.07617100328207016, -0.019734462723135948, 
    0.4694794714450836, 0.09405078738927841, -0.039804838597774506, 

    0.11198665201663971, 0.19732624292373657, 0.28226304054260254, 
    -0.019164662808179855, 0.20661766827106476, 0.03639805689454079, 
    0.5476096868515015, 0.2738642692565918, -0.20754757523536682, 

    0.02345306985080242, -0.059433408081531525, 0.14220872521400452, 
    0.010013656690716743, -0.09047342836856842, -0.27972427010536194, 
    0.1724061667919159, 0.17451198399066925, 0.035642582923173904, 

    -0.0037134040612727404, 0.08504728227853775, -0.04396564140915871, 
    0.02604452148079872, 0.0906408280134201, 0.12383054196834564, 
    0.17132052779197693, -0.08307831734418869, -0.3674268424510956, 

    -0.00935980025678873, 0.08581600338220596, -0.05374864488840103, 
    -0.12591151893138885, -0.2584632635116577, -0.19600339233875275, 
    -0.14940986037254333, -0.18696287274360657, 0.0719825029373169, 

    -0.2269682139158249, -0.04385147616267204, 0.15377627313137054, 
    -0.055119045078754425, -0.1594000905752182, -0.017050806432962418, 
    -0.0915088802576065, 0.034399379044771194, 0.02271486259996891, 

    0.043859533965587616, -0.19354528188705444, -0.1716630905866623, 
    0.19599401950836182, 0.006897540297359228, -0.22024545073509216, 
    -0.16272026300430298, 0.035847555845975876, -0.16123759746551514, 

    -0.07702136039733887, 0.11335314065217972, 0.14605064690113068, 
    -0.03418610244989395, -0.08946137875318527, -0.07200734317302704, 
    0.1405223309993744, 0.11179688572883606, -0.06710651516914368, 

    -0.008056892082095146, -0.28029707074165344, -0.03043426387012005, 
    0.2607114613056183, 0.06274337321519852, -0.15319325029850006, 
    -0.13064567744731903, -0.10130113363265991, -0.08302177488803864, 

    0.0443098284304142, 0.10801194608211517, -0.13141383230686188, 
    -0.09329746663570404, -0.0455966517329216, 0.04236353561282158, 
    0.03901888430118561, 0.14678339660167694, -0.2191205769777298, 

    -0.18994711339473724, 0.06248683109879494, 0.14527627825737, 
    -0.3007439076900482, -0.09296911209821701, 0.005954555235803127, 
    -0.017554519698023796, 0.002398991258814931, -0.11130912601947784, 

    -0.0646197497844696, -0.06961754709482193, -0.08274508267641068, 
    0.37605994939804077, 0.11429695039987564, -0.20858222246170044, 
    0.07986146211624146, 0.3101387023925781, -0.011180233210325241, 

    -0.010342174209654331, -0.016808979213237762, -0.055670201778411865, 
    0.012438738718628883, -0.1284317523241043, -0.09486363083124161, 
    -0.13932862877845764, -0.09080038964748383, -0.029173752292990685, 

    -0.270662784576416, -0.2586345672607422, -0.06455543637275696, 
    0.18813030421733856, -0.19220954179763794, -0.05603603646159172, 
    0.012642599642276764, 0.07188203185796738, -0.027017975226044655, 

    -0.08503362536430359, -0.22986480593681335, 0.007358975242823362, 
    0.1733652949333191, -0.09630425274372101, 0.05495178699493408, 
    0.05906497314572334, -0.014454901218414307, -0.07747865468263626, 

        };
        static filter_t filter6 = {16, 3, weights6, 0.01694592274725437};
        filters[6]=filter6;
            
        static const float weights7[]={ 
    0.1515478491783142, 0.04336615651845932, -0.053748246282339096, 
    0.1721336394548416, 0.15568824112415314, 0.09047237038612366, 
    0.3334500789642334, 0.6767245531082153, 0.34656211733818054, 

    0.1823992282152176, 0.21910537779331207, 0.18063770234584808, 
    -0.046766892075538635, -0.01003551296889782, -0.08927006274461746, 
    -0.2344314455986023, -0.12310213595628738, -0.08872797340154648, 

    0.05687335878610611, -0.01698640175163746, 0.014921624213457108, 
    0.26336777210235596, 0.0013691644417122006, -0.005035955458879471, 
    -0.39817509055137634, -0.18665994703769684, -0.13433173298835754, 

    -0.12318187952041626, -0.0017639785073697567, 0.0430288165807724, 
    -0.2022210657596588, -0.2681325078010559, -0.2709200978279114, 
    -0.051584064960479736, 0.048619091510772705, 0.35120993852615356, 

    -0.04768892005085945, 0.10958956182003021, 0.018884530290961266, 
    0.12217553704977036, 0.32062822580337524, 0.28831717371940613, 
    -0.04157145693898201, -0.06993649899959564, -0.15511448681354523, 

    -0.1995745748281479, -0.013155736029148102, -0.029951058328151703, 
    -0.21366819739341736, 0.11149577051401138, -0.14873374998569489, 
    -0.45377177000045776, -0.05298834294080734, 0.057746533304452896, 

    0.11807791143655777, 0.04150138795375824, -0.08451537042856216, 
    -0.13092046976089478, -0.15332084894180298, -0.23007649183273315, 
    -0.043189603835344315, 0.22850368916988373, 0.2716812491416931, 

    0.02787725068628788, 0.1822752207517624, -0.059469860047101974, 
    -0.2332325130701065, -0.4281724989414215, -0.06652169674634933, 
    0.17042477428913116, 0.019532429054379463, 0.309783935546875, 

    -0.06068455055356026, 0.0979417935013771, 0.12044176459312439, 
    0.21537263691425323, 0.048882536590099335, -0.14451724290847778, 
    -0.45867452025413513, -0.1842559427022934, 0.15975527465343475, 

    0.18379534780979156, 0.12982675433158875, -0.06614596396684647, 
    -0.19055210053920746, -0.19781535863876343, -0.18448244035243988, 
    -0.05948003754019737, -0.20350079238414764, 0.07177363336086273, 

    0.05472060665488243, -0.01109636202454567, 0.11641974002122879, 
    -0.021400542929768562, 0.13972142338752747, -0.14815065264701843, 
    -0.43472611904144287, -0.31550729274749756, 0.057412777096033096, 

    -0.04809705913066864, -0.26771488785743713, -0.13186725974082947, 
    -0.049130987375974655, -0.12229561060667038, -0.15132559835910797, 
    -0.09545980393886566, 0.024620791897177696, -0.011367742903530598, 

    0.052225302904844284, 0.08749426901340485, 0.22623196244239807, 
    -0.41337576508522034, -0.3218322694301605, -0.2785111367702484, 
    -0.03337424248456955, 0.07330985367298126, 0.2838016748428345, 

    -0.2340521514415741, -0.1604522317647934, -0.02531028538942337, 
    -0.09971901774406433, -0.18903280794620514, -0.15533751249313354, 
    -0.35632801055908203, -0.09459913522005081, -0.09150031954050064, 

    0.17989689111709595, -0.05984026938676834, 0.19809231162071228, 
    -0.302278071641922, 0.0692317858338356, -0.08012475818395615, 
    -0.23497703671455383, -0.036689795553684235, 0.24456140398979187, 

    0.015751980245113373, 0.06814359873533249, -0.09838290512561798, 
    -0.1892894208431244, -0.2597973942756653, -0.17983557283878326, 
    0.0834876224398613, 0.0635514035820961, 0.24250644445419312, 

        };
        static filter_t filter7 = {16, 3, weights7, -0.01771923340857029};
        filters[7]=filter7;
            
        static const float weights8[]={ 
    0.7113599181175232, 0.5030120015144348, 0.2025218904018402, 
    0.5681942701339722, 0.2489578276872635, 0.09657856822013855, 
    0.47152867913246155, 0.19802848994731903, 0.2585996091365814, 

    -0.04823115095496178, 0.002028736751526594, -0.07043049484491348, 
    -0.1770651936531067, 0.07791983336210251, -0.2165214717388153, 
    -0.11868739873170853, -0.02917143516242504, 0.041295599192380905, 

    -0.22961314022541046, -0.11256331950426102, -0.04901764541864395, 
    -0.1505584418773651, 0.05184343829751015, -0.08577847480773926, 
    0.02989703044295311, -0.05716801807284355, -0.03461163491010666, 

    -0.09940683096647263, -0.029498308897018433, -0.09898486733436584, 
    -0.0550912506878376, -0.0643843337893486, 0.09257953613996506, 
    0.05507570505142212, 0.09460422396659851, 0.03793592005968094, 

    0.3671567142009735, 0.2846038043498993, 0.18247513473033905, 
    0.3381586968898773, 0.23868049681186676, 0.044590990990400314, 
    0.2959461510181427, 0.11315003037452698, 0.16056440770626068, 

    0.12481274455785751, 0.09552328288555145, 0.05957962945103645, 
    0.027264250442385674, 0.18817521631717682, -0.0011547670001164079, 
    0.15653418004512787, -0.12244624644517899, -0.06043340638279915, 

    -0.011366014368832111, -0.0692458376288414, -0.06805387139320374, 
    -0.027626635506749153, 0.083502396941185, -0.11466245353221893, 
    -0.0764080286026001, -0.13422438502311707, -0.17307895421981812, 

    0.16524608433246613, 0.21917805075645447, 0.03482065722346306, 
    0.05692071467638016, 0.18335001170635223, 0.09606421738862991, 
    -0.10954273492097855, 0.21569514274597168, 0.0034626671113073826, 

    -0.11165677011013031, -0.080445297062397, -0.04818147420883179, 
    0.1362064927816391, -0.15517790615558624, 0.1079879179596901, 
    0.014923451468348503, -0.09010063111782074, -0.15495488047599792, 

    -0.2215050458908081, -0.0108937444165349, -0.03591976687312126, 
    -0.3550657033920288, -0.12797972559928894, -0.047242552042007446, 
    -0.18953177332878113, -0.11855878680944443, -0.08802056312561035, 

    0.01362114492803812, 0.009376050904393196, -0.03968489170074463, 
    0.08701812475919724, 0.00841696746647358, -0.10963120311498642, 
    0.226792111992836, 0.0032184782903641462, 0.19116289913654327, 

    -0.12527064979076385, -0.19823448359966278, 0.014617993496358395, 
    -0.2566725015640259, -0.10432679951190948, -0.1564101129770279, 
    -0.09085158258676529, -0.11450295150279999, -0.06023646146059036, 

    -0.13022984564304352, 0.03519569709897041, 0.034303467720746994, 
    -0.2931886613368988, 0.060137853026390076, 0.011580219492316246, 
    -0.0874478742480278, 0.030429475009441376, 0.109652578830719, 

    -0.27885985374450684, -0.13911452889442444, -0.09765997529029846, 
    -0.2048189640045166, -0.03558772802352905, -0.09360644966363907, 
    -0.26411205530166626, -0.14064039289951324, -0.04036753252148628, 

    0.08234869688749313, -0.06091928854584694, -0.006845920346677303, 
    0.09466817229986191, -0.11760739237070084, 0.06327575445175171, 
    0.0860256627202034, 0.07486597448587418, -0.08771691471338272, 

    0.09909093379974365, 0.17778068780899048, 0.15250588953495026, 
    -0.021619176492094994, 0.1948384791612625, 0.0018352551851421595, 
    0.0661405548453331, 0.18439975380897522, 0.06809237599372864, 

        };
        static filter_t filter8 = {16, 3, weights8, -0.03632368519902229};
        filters[8]=filter8;
            
        static const float weights9[]={ 
    0.11543620377779007, -0.10907118767499924, 0.12158136069774628, 
    0.12034549564123154, -0.12321140617132187, -0.10317204892635345, 
    0.107855424284935, -0.18087118864059448, -0.05248618870973587, 

    0.10170165449380875, -0.1430555135011673, -0.19635385274887085, 
    0.008213773369789124, -0.35246649384498596, -0.12306375801563263, 
    0.03079087845981121, -0.22200049459934235, -0.07003040611743927, 

    0.03588427975773811, -0.412026047706604, -0.21441487967967987, 
    -0.08441614359617233, -0.48713743686676025, -0.26242563128471375, 
    -0.06980699300765991, -0.09461982548236847, -0.11246573179960251, 

    0.2654914855957031, 0.11018836498260498, -0.13137756288051605, 
    0.21512164175510406, 0.0003317390219308436, -0.1025683730840683, 
    0.07851047068834305, -0.2125546634197235, -0.3029029071331024, 

    0.2864477038383484, 0.2750520706176758, 0.15633241832256317, 
    0.25703948736190796, -0.0009175644372589886, -0.24920274317264557, 
    0.14595627784729004, -0.025981364771723747, -0.0942830890417099, 

    0.3998020887374878, -0.0595439076423645, 0.12445472180843353, 
    0.3755483627319336, -0.17461848258972168, -0.14109517633914948, 
    0.057908304035663605, -0.0625552237033844, -0.11783301085233688, 

    0.1612606793642044, -0.11394079774618149, 0.0071608624421060085, 
    0.1575017124414444, -0.2452698051929474, -0.1882723569869995, 
    0.0436585433781147, -0.03089100494980812, -0.2387336939573288, 

    0.34750843048095703, 0.14987121522426605, -0.30159997940063477, 
    0.2844434380531311, 0.014214269816875458, -0.11404284834861755, 
    -0.11669007688760757, -0.18192307651042938, -0.19203989207744598, 

    0.19746281206607819, 0.07888186722993851, -0.10948464274406433, 
    0.13955070078372955, -0.10802090913057327, -0.2623060345649719, 
    0.1378769427537918, -0.2278948277235031, -0.25104743242263794, 

    -0.04895401746034622, -0.17644859850406647, -0.15478383004665375, 
    0.02326805889606476, -0.04638844355940819, -0.08272531628608704, 
    -0.2694777250289917, -0.1396048665046692, 0.1413625329732895, 

    0.18099834024906158, 0.07994576543569565, 0.02171172760426998, 
    0.13390032947063446, 0.023697923868894577, -0.2728707790374756, 
    -0.08077768981456757, -0.05845693498849869, 0.0050267367623746395, 

    -0.23617693781852722, -0.1729292869567871, -0.10573363304138184, 
    -0.09997100383043289, -0.11542528867721558, -0.34108713269233704, 
    -0.2778583765029907, -0.12292035669088364, -0.11604852229356766, 

    -0.19952936470508575, -0.2137152999639511, -0.1755925714969635, 
    -0.1861313283443451, -0.18655499815940857, -0.25821420550346375, 
    -0.09632991254329681, -0.17715862393379211, -0.07989709824323654, 

    0.02865128591656685, 0.12077199667692184, -0.24506092071533203, 
    -0.15874019265174866, -0.2678817808628082, -0.3444216251373291, 
    -0.058584246784448624, -0.12695978581905365, -0.17123432457447052, 

    0.056005120277404785, 0.0846356451511383, 0.13182701170444489, 
    0.041922569274902344, 0.06453313678503036, -0.1310780644416809, 
    -0.04968046769499779, -0.11210635304450989, -0.18395382165908813, 

    0.27192577719688416, 0.12382721900939941, -0.1890958845615387, 
    0.015023370273411274, 0.05785597488284111, -0.28726235032081604, 
    -0.1213584691286087, -0.2039370983839035, -0.07940962165594101, 

        };
        static filter_t filter9 = {16, 3, weights9, -0.004256974905729294};
        filters[9]=filter9;
            
        static const float weights10[]={ 
    0.3938150107860565, 0.6858888864517212, 0.5680160522460938, 
    0.5184629559516907, 0.5366739630699158, 0.13190732896327972, 
    0.444957971572876, 0.43233346939086914, 0.26130837202072144, 

    -0.3874656558036804, -0.27061572670936584, -0.4684174358844757, 
    -0.39715978503227234, -0.07279375940561295, 0.004128812812268734, 
    -0.1709030419588089, -0.09290991723537445, -0.04584142565727234, 

    -0.42691919207572937, -0.2632679045200348, -0.14879542589187622, 
    -0.2908276915550232, 0.058954525738954544, -0.10722391307353973, 
    -0.027157774195075035, -0.0953979343175888, -0.06495784223079681, 

    -0.38054656982421875, -0.07620666921138763, 0.05534307658672333, 
    -0.13593389093875885, -0.019389765337109566, 0.09758254885673523, 
    -0.09374722093343735, -0.10768914967775345, 0.056167662143707275, 

    0.514758288860321, 0.15588156878948212, -0.3234141170978546, 
    0.07443610578775406, 0.4885759651660919, 0.08625096082687378, 
    0.5256229043006897, 0.5088696479797363, 0.15243858098983765, 

    -0.43780815601348877, -0.3316316306591034, -0.2560097277164459, 
    -0.2220258116722107, -0.11926992237567902, -0.02397935837507248, 
    0.025609085336327553, 0.002223698887974024, 0.1314365416765213, 

    -0.4581426680088043, -0.09652826935052872, 0.15332527458667755, 
    0.02645692229270935, 0.22060151398181915, -0.01130961999297142, 
    0.08812140673398972, 0.175724595785141, 0.12999050319194794, 

    -0.2352234274148941, -0.07665414363145828, 0.0023382266517728567, 
    0.22342562675476074, 0.05662940442562103, 0.042857538908720016, 
    0.17140302062034607, 0.1710507571697235, -0.017221130430698395, 

    -0.3752267360687256, -0.5250195264816284, -0.19193175435066223, 
    -0.21435968577861786, 0.27520883083343506, 0.31869468092918396, 
    -0.05248136445879936, 0.21598467230796814, 0.2530679702758789, 

    -0.20703504979610443, -0.7465946674346924, -0.08237870037555695, 
    0.023974189534783363, -0.44848474860191345, -0.21657998859882355, 
    -0.08747716248035431, -0.38649213314056396, 0.0051314495503902435, 

    -0.07238069921731949, -0.4308755099773407, -0.172527015209198, 
    -0.13448920845985413, 0.07272864878177643, 0.08088009059429169, 
    0.10382362455129623, 0.20247580111026764, 0.0741821900010109, 

    0.06798939406871796, -0.1999024897813797, -0.24107271432876587, 
    -0.138669952750206, -0.13224953413009644, -0.08966805785894394, 
    0.15002605319023132, -0.03791886195540428, -0.09154600650072098, 

    -0.28050097823143005, -0.32769641280174255, 0.10883861780166626, 
    -0.291138231754303, -0.13617561757564545, 0.136841282248497, 
    -0.21358519792556763, -0.25165462493896484, 0.0023356559686362743, 

    -0.3471188247203827, -0.46263742446899414, -0.1766185164451599, 
    -0.32640671730041504, -0.22508278489112854, -0.0833834633231163, 
    0.15220177173614502, -0.121051125228405, 0.03979763388633728, 

    -0.09892357885837555, -0.04279795661568642, 0.005046461243182421, 
    -0.19452810287475586, -0.15368665754795074, 0.12460435926914215, 
    0.06324241310358047, -0.0473143570125103, 0.05949436500668526, 

    -0.14483001828193665, -0.30018168687820435, 0.11848746985197067, 
    0.2522079646587372, 0.03826812654733658, 0.12056141346693039, 
    0.20944340527057648, 0.04793645441532135, -0.06243202090263367, 

        };
        static filter_t filter10 = {16, 3, weights10, 0.12294875085353851};
        filters[10]=filter10;
            
        static const float weights11[]={ 
    0.3039364516735077, -0.10373683273792267, 0.06541324406862259, 
    0.21924786269664764, 0.11855116486549377, 0.15545396506786346, 
    0.2856963574886322, -0.25101718306541443, -0.1342795342206955, 

    0.09309728443622589, 0.2298235297203064, 0.33657318353652954, 
    -0.3079834580421448, 0.03611347824335098, 0.1811276376247406, 
    -0.16276389360427856, -0.45106589794158936, -0.3561928868293762, 

    -0.03589421138167381, 0.13485410809516907, 0.33833885192871094, 
    -0.30718621611595154, 0.20502552390098572, 0.3510603606700897, 
    0.042362410575151443, -0.21798798441886902, -0.16861557960510254, 

    0.006451768800616264, 0.13442838191986084, 0.10798096656799316, 
    -0.14894050359725952, -0.3954404592514038, -0.0588114932179451, 
    -0.00083635572809726, 0.12790964543819427, -0.369831919670105, 

    0.19197571277618408, 0.014819946140050888, -0.06073770299553871, 
    -0.05255429074168205, -0.05503595620393753, 0.20613329112529755, 
    -0.11948730051517487, -0.5707041621208191, -0.19552473723888397, 

    0.06659158319234848, 0.08697912096977234, -0.04890687018632889, 
    -0.27124279737472534, -0.07724206149578094, 0.17489102482795715, 
    0.3393312096595764, 0.0660395473241806, 0.05267965793609619, 

    -0.034374795854091644, 0.15503855049610138, 0.2796953618526459, 
    -0.493257999420166, -0.10305189341306686, 0.044654931873083115, 
    0.16058112680912018, -0.04305218532681465, -0.31348666548728943, 

    -0.2409271001815796, -0.18055769801139832, -0.07465291023254395, 
    -0.18651393055915833, -0.25746798515319824, -0.020171741023659706, 
    -0.015484010800719261, 0.30027586221694946, -0.05569939315319061, 

    -0.01566862314939499, 0.20749899744987488, 0.27263343334198, 
    -0.44535958766937256, -0.1332358717918396, 0.19790026545524597, 
    -0.1346723437309265, -0.4015601873397827, -0.2397783100605011, 

    -0.021358730271458626, -0.17535260319709778, 0.27019351720809937, 
    0.13717122375965118, -0.1145295724272728, -0.47354182600975037, 
    -0.24394333362579346, 0.4230041205883026, 0.06938733160495758, 

    0.14970935881137848, -0.07104586809873581, 0.11548972874879837, 
    -0.11437524110078812, -0.3646654188632965, -0.03338148444890976, 
    -0.14443735778331757, -0.0935148298740387, -0.26399293541908264, 

    0.06927919387817383, -0.1596914380788803, -0.0017906681168824434, 
    -0.018936902284622192, -0.29642850160598755, -0.0704607143998146, 
    -0.013030746951699257, -0.45497965812683105, -0.49548423290252686, 

    -0.04129510372877121, 0.15955646336078644, 0.26241323351860046, 
    0.21699535846710205, -0.12841200828552246, -0.31048259139060974, 
    0.3379640579223633, 0.188650444149971, -0.25153249502182007, 

    -0.02055276371538639, -0.24321319162845612, 0.03601936995983124, 
    -0.40953853726387024, -0.44869574904441833, -0.18713968992233276, 
    0.04932032898068428, -0.010139278136193752, -0.4078104794025421, 

    0.14078448712825775, -0.16691544651985168, 0.10125481337308884, 
    -0.029076559469103813, -0.5410304665565491, -0.25367090106010437, 
    0.09815693646669388, 0.1699640154838562, -0.2521798312664032, 

    -0.11594182997941971, -0.1794629544019699, 0.21641631424427032, 
    0.08840488642454147, -0.3561375141143799, -0.11545178294181824, 
    -0.10566689074039459, 0.15406474471092224, -0.08070697635412216, 

        };
        static filter_t filter11 = {16, 3, weights11, 0.12800371646881104};
        filters[11]=filter11;
            
        static const float weights12[]={ 
    -0.1654563993215561, -0.4057208001613617, -0.19589628279209137, 
    -0.2830471694469452, -0.3936862647533417, -0.08753347396850586, 
    -0.3271638751029968, -0.31102457642555237, -0.007626761216670275, 

    -0.010457942262291908, -0.07362520694732666, -0.14577770233154297, 
    0.10625728964805603, -0.18763984739780426, -0.02102675475180149, 
    -0.0803447961807251, -0.19913898408412933, -0.03191085532307625, 

    -0.15061649680137634, -0.2992834448814392, -0.18256434798240662, 
    0.20987626910209656, -0.4009275436401367, -0.044032320380210876, 
    0.12599875032901764, -0.42864498496055603, -0.16408653557300568, 

    0.2610184848308563, 0.04114581644535065, -0.124941885471344, 
    0.0036375911440700293, 0.049937449395656586, 0.15731693804264069, 
    0.15482275187969208, -0.1252385526895523, 0.07094420492649078, 

    -0.11708952486515045, 0.09267545491456985, -0.05554907023906708, 
    -0.009118536487221718, -0.17381729185581207, -0.26325151324272156, 
    -0.011690374463796616, -0.13330323994159698, -0.1693802773952484, 

    -0.006457559764385223, -0.20970258116722107, -0.1184772253036499, 
    0.25933560729026794, -0.022145617753267288, 0.007501991931349039, 
    0.17827479541301727, 0.003808847162872553, 0.29872867465019226, 

    0.18941113352775574, -0.05981997400522232, 0.09902548044919968, 
    0.25743967294692993, 0.005614705849438906, 0.2001473754644394, 
    0.24687732756137848, -0.05046722665429115, 0.10821143537759781, 

    0.15352392196655273, -0.08447765558958054, -0.1455283910036087, 
    -0.12009507417678833, 0.06526874005794525, 0.06320250779390335, 
    0.005498263519257307, -0.07190275937318802, 0.004384039901196957, 

    0.0015358651289716363, 0.0718647688627243, -0.03758848085999489, 
    0.091608926653862, -0.1369350254535675, -0.2170492261648178, 
    -0.05203789845108986, -0.06824129819869995, -0.16001355648040771, 

    -0.058825504034757614, 0.08286093175411224, -0.24423007667064667, 
    -0.2424934357404709, 0.31634417176246643, -0.1880151778459549, 
    -0.1801309585571289, -0.05954114720225334, -0.21619410812854767, 

    0.24794140458106995, 0.26365944743156433, 0.00958108901977539, 
    0.021844791248440742, 0.08991005271673203, -0.14536719024181366, 
    0.15363721549510956, -0.09444881230592728, 0.16300898790359497, 

    -0.17553438246250153, -0.029461821541190147, -0.20588864386081696, 
    -0.11000481992959976, -0.16450099647045135, -0.26808401942253113, 
    -0.12208538502454758, 0.02107364311814308, -0.23671278357505798, 

    0.14196529984474182, -0.17591074109077454, -0.18276548385620117, 
    0.040019478648900986, -0.1034611165523529, -0.16203272342681885, 
    -0.052282314747571945, -0.0983395203948021, 0.04752368852496147, 

    -0.18535856902599335, -0.16655687987804413, -0.05570577085018158, 
    -0.003131240839138627, -0.20540641248226166, -0.2525981068611145, 
    0.06352681666612625, -0.12347099930047989, -0.12610863149166107, 

    -0.03322591260075569, 0.2319253385066986, -0.146474689245224, 
    -0.0877247005701065, 0.19085511565208435, -0.0766439139842987, 
    -0.07745067775249481, 0.09210120141506195, -0.04621357470750809, 

    -0.059153564274311066, -0.022966261953115463, -0.2816126346588135, 
    -0.09255809336900711, -0.029333122074604034, -0.05199042335152626, 
    -0.10405047982931137, -0.0872480645775795, 0.15961341559886932, 

        };
        static filter_t filter12 = {16, 3, weights12, 0.09976715594530106};
        filters[12]=filter12;
            
        static const float weights13[]={ 
    -0.05398409441113472, 0.12946201860904694, 0.07166686654090881, 
    -0.08069542050361633, 0.07962535321712494, -0.03692154213786125, 
    0.06050027906894684, 0.15849317610263824, -0.07813885807991028, 

    0.21496741473674774, 0.08506349474191666, -0.3516308665275574, 
    0.028016313910484314, 0.13875535130500793, -0.40366461873054504, 
    0.07553692907094955, -0.1587378829717636, -0.3282533586025238, 

    0.28293487429618835, -0.17157110571861267, -0.512818455696106, 
    0.2455565184354782, -0.048290740698575974, -0.27770039439201355, 
    0.047249265015125275, -0.24850088357925415, -0.23950840532779694, 

    -0.07659706473350525, 0.05321108549833298, -0.26454976201057434, 
    0.16994108259677887, -0.09623680263757706, -0.389382541179657, 
    0.06257855147123337, 0.08330721408128738, -0.27938953042030334, 

    -0.1720602661371231, -0.006541108246892691, -0.18371060490608215, 
    0.20349423587322235, 0.23111885786056519, -0.31352800130844116, 
    0.13112406432628632, 0.1697482317686081, 0.03462880104780197, 

    -0.0012552418047562242, 0.18231366574764252, -0.2048557996749878, 
    -0.04854678362607956, 0.10032934695482254, -0.11043675988912582, 
    0.1439853310585022, 0.0065576680935919285, -0.17224948108196259, 

    -0.17404073476791382, -0.18534116446971893, -0.4627387523651123, 
    0.022436270490288734, 0.0227704755961895, -0.3744306266307831, 
    0.04035324603319168, -0.2377510368824005, -0.2738378047943115, 

    0.07365577667951584, 0.014944363385438919, -0.229368656873703, 
    0.22353312373161316, -0.0449431873857975, -0.20500548183918, 
    0.15525656938552856, 0.04550323262810707, -0.25268369913101196, 

    -0.0577525831758976, -0.1806163489818573, -0.48196813464164734, 
    0.08821189403533936, -0.12328464537858963, -0.25739777088165283, 
    -0.015224618837237358, 0.025235608220100403, -0.1870967447757721, 

    0.1253255158662796, 0.05449894815683365, -0.22155284881591797, 
    0.19156275689601898, 0.13587121665477753, -0.18508796393871307, 
    0.12263321876525879, -0.02984924055635929, 0.03565389662981033, 

    0.11137215793132782, 0.009955660440027714, -0.3301522731781006, 
    0.03293263912200928, 0.03307921066880226, -0.2983955144882202, 
    0.18975341320037842, -0.017784781754016876, -0.06568316370248795, 

    -0.3896521329879761, -0.11385970562696457, -0.048350587487220764, 
    -0.24732057750225067, -0.10015081614255905, -0.21590524911880493, 
    -0.186199352145195, -0.03771493211388588, -0.39343389868736267, 

    0.16601045429706573, -0.06466469168663025, -0.3228085935115814, 
    0.3445012867450714, 0.09699045866727829, -0.32859641313552856, 
    0.3547807037830353, -0.1323923021554947, -0.33409687876701355, 

    -0.14756114780902863, -0.12947502732276917, -0.2825833857059479, 
    -0.004030723124742508, -0.29051345586776733, -0.42323797941207886, 
    0.022405844181776047, -0.36944660544395447, -0.4112855792045593, 

    0.11649470031261444, 0.11009840667247772, -0.11105632036924362, 
    0.21959783136844635, -0.017978858202695847, -0.2645384669303894, 
    0.1515694558620453, 0.15064015984535217, -0.24076153337955475, 

    0.09606529027223587, 0.05439690500497818, -0.18108253180980682, 
    0.103425033390522, 0.051410552114248276, -0.14928670227527618, 
    0.3130332827568054, -0.08073075860738754, -0.2819528579711914, 

        };
        static filter_t filter13 = {16, 3, weights13, 0.2250780612230301};
        filters[13]=filter13;
            
        static const float weights14[]={ 
    0.15959049761295319, -0.11209888756275177, -0.023269981145858765, 
    0.24369727075099945, 0.10460938513278961, 0.11306945234537125, 
    0.16733881831169128, -0.08833267539739609, -0.06530079245567322, 

    -0.21896740794181824, -0.19972550868988037, 0.052702683955430984, 
    0.0066922567784786224, -0.21524640917778015, -0.314278781414032, 
    -0.10250727832317352, -0.3567230701446533, -0.5503281950950623, 

    -0.20212861895561218, -0.2010447233915329, 0.13527178764343262, 
    0.06117963418364525, -0.11508084833621979, -0.4326896667480469, 
    -0.009960331954061985, -0.25837084650993347, -0.34254422783851624, 

    0.2727023661136627, -0.0774170309305191, -0.23799872398376465, 
    0.1670265793800354, -0.11349047720432281, -0.4137541353702545, 
    -0.37715768814086914, -0.30307039618492126, -0.614081621170044, 

    0.3045349419116974, 0.024773137643933296, 0.1295853853225708, 
    0.46370789408683777, 0.015460350550711155, -0.2695375084877014, 
    0.10318132489919662, -0.2222241759300232, -0.33248552680015564, 

    0.22953970730304718, 0.04093557223677635, -0.05509159341454506, 
    0.24219121038913727, 0.05013204365968704, -0.025278029963374138, 
    0.03948913887143135, -0.060877926647663116, 0.1071799024939537, 

    0.18836553394794464, 0.11663779616355896, -0.08227763324975967, 
    -0.21037980914115906, -0.10661213845014572, -0.39287033677101135, 
    -0.3981701731681824, -0.2529797852039337, -0.5152766108512878, 

    0.23512065410614014, 0.003016038564965129, -0.036821965128183365, 
    -0.060717999935150146, -0.41134917736053467, -0.5035440325737, 
    -0.484712690114975, -0.1353771835565567, -0.24304667115211487, 

    0.17772875726222992, 0.008248166181147099, 0.08619808405637741, 
    0.2816394865512848, -0.15895342826843262, -0.4257164001464844, 
    -0.07659546285867691, -0.423339307308197, -0.6280456185340881, 

    -0.044785983860492706, -0.06043103709816933, 0.1178838238120079, 
    -0.11556556075811386, -0.20453600585460663, 0.07717189192771912, 
    0.03846351057291031, -0.19154758751392365, 0.10069451481103897, 

    0.12053480744361877, 0.08475636690855026, 0.2020592987537384, 
    0.14185956120491028, -0.0839398205280304, -0.26090776920318604, 
    0.03783591836690903, -0.43649792671203613, -0.5400142073631287, 

    -0.29666000604629517, -0.30167272686958313, 0.028757590800523758, 
    0.039583973586559296, -0.26764243841171265, -0.18253840506076813, 
    -0.22787374258041382, -0.1704121083021164, -0.255401074886322, 

    -0.026597220450639725, -0.15375661849975586, -0.03737349435687065, 
    0.1440207064151764, -0.2532139718532562, -0.46964648365974426, 
    -0.021250342950224876, -0.18848811089992523, -0.2541709840297699, 

    -0.1510016918182373, -0.15608926117420197, -0.04446903243660927, 
    0.08077844977378845, -0.3102498948574066, -0.3495956063270569, 
    -0.2503265142440796, -0.31959056854248047, -0.290958434343338, 

    0.2852969169616699, 0.019945204257965088, 0.0036216159351170063, 
    0.3596671521663666, -0.044594280421733856, -0.2250259667634964, 
    -0.1764194518327713, -0.3404610753059387, -0.39583340287208557, 

    0.17853857576847076, 0.14653733372688293, 0.046646781265735626, 
    0.1321251094341278, -0.160845547914505, -0.39525219798088074, 
    -0.1426188349723816, -0.37432652711868286, -0.15898412466049194, 

        };
        static filter_t filter14 = {16, 3, weights14, 0.15261398255825043};
        filters[14]=filter14;
            
        static const float weights15[]={ 
    -0.12682178616523743, 0.1846708357334137, -0.02804819494485855, 
    -0.06519165635108948, -0.2722296714782715, -0.03787826746702194, 
    -0.06988677382469177, -0.03785153105854988, -0.11576719582080841, 

    0.053203750401735306, 0.17773470282554626, 0.08179217576980591, 
    0.018289892002940178, 0.3579539358615875, 0.127876415848732, 
    -0.19953441619873047, -0.009080256335437298, 0.09957255423069, 

    0.097221240401268, -0.008479619398713112, 0.000346699554938823, 
    0.2596186101436615, 0.00034179899375885725, -0.13812310993671417, 
    -0.03940258175134659, -0.05748465284705162, 0.1048436090350151, 

    0.136635884642601, 0.1216132640838623, 0.10377005487680435, 
    -0.2150878608226776, 0.044425543397665024, 0.10944414138793945, 
    -0.24714359641075134, -0.048754431307315826, 0.06305670738220215, 

    -0.010811620391905308, 0.054958995431661606, -0.17856751382350922, 
    -0.22302751243114471, -0.16162124276161194, -0.03878973051905632, 
    -0.1322794258594513, -0.02136184088885784, -0.0615726113319397, 

    -0.007082339841872454, 0.16877047717571259, 0.10000023245811462, 
    -0.12073001265525818, 0.001219806494191289, 0.04455525800585747, 
    -0.007910105399787426, -0.09521020948886871, 0.024435684084892273, 

    -0.0853005051612854, 0.1962229609489441, 0.054607439786195755, 
    0.07113762199878693, 0.0832587331533432, 0.14937065541744232, 
    -0.002013505669310689, 0.0667480081319809, 0.10852515697479248, 

    -0.2174704521894455, -0.053147513419389725, 0.081685371696949, 
    0.008505363017320633, -0.1110023632645607, 0.022944176569581032, 
    -0.3350822329521179, 0.040207404643297195, 0.21765774488449097, 

    -0.1452658623456955, 0.15118759870529175, -0.024274950847029686, 
    0.11301163583993912, -0.013844744302332401, 0.083829864859581, 
    -0.16842292249202728, 0.06718260794878006, 0.14828158915042877, 

    -0.1778573840856552, 0.2101188749074936, 0.03811536356806755, 
    -0.3440188467502594, -0.04240172728896141, 0.06218625605106354, 
    -0.20329949259757996, -0.08899205178022385, -0.1785557121038437, 

    -0.06752504408359528, 0.0424489863216877, -0.06469742208719254, 
    -0.07736460119485855, 0.20170795917510986, 0.16701120138168335, 
    -0.24633382260799408, 0.13074280321598053, 0.08584366738796234, 

    -0.06539613008499146, -0.25463244318962097, -0.16719278693199158, 
    -0.2533152997493744, -0.2876408100128174, -0.22088664770126343, 
    -0.3837204873561859, -0.415024071931839, -0.2723761200904846, 

    -0.07333622872829437, 0.21027329564094543, -0.0004157338116783649, 
    -0.13642029464244843, 0.29085421562194824, 0.29578670859336853, 
    -0.010681550949811935, -0.19191284477710724, -0.19339002668857574, 

    -0.20789600908756256, -0.15753589570522308, -0.05475667119026184, 
    -0.43644949793815613, -0.2165888249874115, -0.1168549507856369, 
    -0.3005250096321106, -0.13703063130378723, -0.19642993807792664, 

    0.06000974774360657, 0.12724550068378448, 0.17655238509178162, 
    -0.020297052338719368, 0.1820617914199829, 0.05007793381810188, 
    -0.23752832412719727, 0.1402975469827652, -0.08020377904176712, 

    -0.015930980443954468, 0.05809305980801582, 0.12028489261865616, 
    -0.2767496407032013, -0.14881549775600433, 0.10068894177675247, 
    -0.27319398522377014, -0.05216396972537041, -0.15229880809783936, 

        };
        static filter_t filter15 = {16, 3, weights15, 0.028564536944031715};
        filters[15]=filter15;
            
        conv2d_layer_t layer = {16, filters};
        return layer;
        }
        
dense_layer_t init_dense_data(void){

    static neuron_t neurons[32];

    static const float weights0[] ={
    0.017145119607448578, 0.047017164528369904, 0.03477955982089043, -0.2638596296310425, 
    -0.1085626631975174, -0.09500707685947418, 0.03802315518260002, -0.0036692852154374123, 
    0.01719311624765396, -0.0070556048303842545, 0.26979586482048035, -0.1355903297662735, 
    -0.05219149962067604, 0.08713943511247635, 0.07896386831998825, 0.06148303300142288, 
    -0.04450395330786705, 0.03721041977405548, 0.1479429006576538, -0.0628066137433052, 
    -0.007020327262580395, 0.030903952196240425, -0.07235244661569595, 0.05642253905534744, 
    -0.013040844351053238, 0.03015883080661297, 0.1434909552335739, -0.017914365977048874, 
    0.12401825189590454, -0.17195087671279907, 0.09989206492900848, 0.04239669814705849, 
    -0.08523852378129959, 0.0050909691490232944, 0.04715469852089882, 0.021615713834762573, 
    -0.007369632367044687, 0.08674905449151993, -0.05481389909982681, 0.23572948575019836, 
    0.05285561829805374, 0.1378524750471115, 0.20156271755695343, -0.18393771350383759, 
    0.17645642161369324, -0.10772981494665146, 0.04145269840955734, 0.02503548003733158, 
    -0.005938190035521984, 0.2291269451379776, 0.12543459236621857, 0.0431160070002079, 
    0.11372552812099457, 0.178623765707016, -0.0008522550342604518, 0.23763695359230042, 
    0.15275853872299194, 0.030458131805062294, 0.1203463226556778, 0.11918225139379501, 
    -0.08427777141332626, -0.12956024706363678, 0.1757422685623169, -0.050826482474803925, 
    0.09553587436676025, 0.14519327878952026, -0.035321541130542755, 0.05302124843001366, 
    0.19664549827575684, 0.06085154041647911, 0.01473188865929842, 0.12951745092868805, 
    0.1967606395483017, -0.011078153736889362, -0.042673733085393906, 0.3504501283168793, 
    0.062305863946676254, -0.09978917986154556, -0.03700944036245346, 0.11410772055387497, 
    0.14003776013851166, 0.01940382458269596, 0.003570162458345294, 0.1259176880121231, 
    0.1692686378955841, 0.1699187308549881, 0.06718836724758148, 0.028265437111258507, 
    0.04095751792192459, 0.17022982239723206, -0.11342793703079224, 0.12376035004854202, 
    0.30799755454063416, 0.06632112711668015, 0.002715912414714694, 0.0588434599339962, 
    -0.008767844177782536, -0.030158350244164467, -0.025447659194469452, 0.09461216628551483, 
    0.11463913321495056, 0.2207956165075302, 0.22695332765579224, -0.10086217522621155, 
    0.010602576658129692, 0.22436514496803284, -0.08669982850551605, 0.12702998518943787, 
    0.21535572409629822, 0.2098366767168045, 0.12632592022418976, 0.13340865075588226, 
    0.001297157141380012, -0.14919514954090118, 0.0693989172577858, 0.12157176434993744, 
    0.1847187876701355, 0.19477860629558563, 0.18834395706653595, -0.16361866891384125, 
    -0.15238754451274872, -0.034602243453264236, -0.2029191255569458, 0.11150496453046799, 
    0.15438641607761383, 0.07517901808023453, 0.17486420273780823, 0.04539104178547859, 
    0.010689807124435902, 0.032964497804641724, 0.0011111870408058167, 0.09879545122385025, 
    0.06419527530670166, 0.18372251093387604, 0.04664907604455948, -0.11662684381008148, 
    -0.07545201480388641, 0.08994478732347488, -0.0816696435213089, 0.052373435348272324, 
    0.24567700922489166, 0.1269841194152832, 0.06252223998308182, -0.0008412658935412765, 
    0.027611372992396355, 0.05591530352830887, -0.050229720771312714, 0.09658235311508179, 
    -0.015951991081237793, -0.017933567985892296, 0.13232462108135223, -0.04280815273523331, 
    -0.03462950140237808, -0.06963992863893509, 0.028708769008517265, 0.17750944197177887, 
    0.07044116407632828, 0.16786296665668488, -0.001309253741055727, -0.06002064794301987, 
    0.1074770838022232, 0.06438905745744705, 0.012698624283075333, 0.03574658930301666, 
    -0.024570969864726067, 0.008468706160783768, 0.09073164314031601, -0.04496614634990692, 
    0.10432250052690506, 0.08134623616933823, 0.016577262431383133, 0.21549160778522491, 
    0.1547859162092209, 0.10690624266862869, 0.1614178568124771, -0.013059557415544987, 
    0.10919584333896637, 0.014671958051621914, 0.009455163963139057, 0.052582453936338425, 
    -0.06551961600780487, -0.04939375817775726, 0.29228076338768005, 0.02210051566362381, 
    0.036326661705970764, 0.0756290853023529, -0.03246694058179855, 0.14958110451698303, 
    0.16271032392978668, 0.3537326455116272, 0.22187574207782745, -0.008026177994906902, 
    0.02987976185977459, -0.00235733762383461, -0.06391607969999313, 0.012494287453591824, 
    -0.15525273978710175, -0.08274330198764801, 0.0031080872286111116, 0.04047680273652077, 
    0.013168372213840485, 0.06765437871217728, 0.050723783671855927, 0.2509475648403168, 
    0.12730905413627625, 0.2870486080646515, 0.12546610832214355, -0.026542190462350845, 
    -0.018091928213834763, -0.07038646936416626, -0.03312317654490471, -0.14731378853321075, 
    -0.03623870387673378, -0.02763829007744789, 0.05651766434311867, -0.09447924792766571, 
    -0.10423752665519714, -0.21597637236118317, 0.026594096794724464, 0.018337879329919815, 
    -0.09452087432146072, 0.02489105612039566, -0.06703315675258636, 0.11895819008350372, 
    -0.0835462361574173, -0.060076434165239334, 0.004855500068515539, -0.011056574061512947, 
    -0.05478150025010109, 0.01083241868764162, 0.046418704092502594, 0.059083517640829086, 
    -0.04936978965997696, -0.05248396471142769, 0.10801330953836441, -0.055205728858709335, 
    -0.04252688214182854, -0.2970760762691498, 0.12460130453109741, 0.050259724259376526, 
    0.005610134918242693, 0.006327362265437841, 0.10016230493783951, 0.08881919831037521, 
    0.04579616338014603, -0.08405245095491409, -0.05795390531420708, 0.09353770315647125, 
    0.02902938239276409, 0.08513299375772476, 0.12131157517433167, -0.13461701571941376, 
    0.047666165977716446, -0.14652009308338165, 0.10419116169214249, 0.026238534599542618, 
    -0.09189078211784363, 0.1717483401298523, -0.04913725331425667, 0.028863824903964996, 
    0.05914907902479172, 0.07507467269897461, -0.012118726037442684, 0.14561015367507935, 
    0.08442236483097076, -0.02285386063158512, 0.14366739988327026, 0.09696298092603683, 
    0.024298405274748802, -0.061033304780721664, 0.02329839952290058, -0.03183092921972275, 
    -0.02339823730289936, 0.1262311339378357, 0.023667164146900177, 0.13382016122341156, 
    0.28058597445487976, 0.09001553058624268, 0.053173188120126724, 0.008835237473249435, 
    0.03223951533436775, 0.05287443846464157, -0.009392769075930119, 0.08102244883775711, 
    0.113356813788414, 0.022627951577305794, 0.09749696403741837, 0.10421638935804367, 
    0.10868097841739655, 0.004769558552652597, -0.10773392766714096, 0.11202748864889145, 
    0.1734267920255661, 0.10706626623868942, 0.08561582118272781, -0.04440418630838394, 
    -0.007761589251458645, -0.15101638436317444, -0.04610009863972664, 0.24232204258441925, 
    0.3937969505786896, 0.114063560962677, -0.2386067807674408, 0.06171327456831932, 
    0.09174634516239166, -0.01675054430961609, 0.05563446134328842, 0.07083005458116531, 
    0.023514453321695328, -0.0389610156416893, 0.2063549906015396, -0.036774612963199615, 
    0.03145037218928337, 0.03488951548933983, -0.14169682562351227, 0.0483340322971344, 
    0.04930954426527023, 0.03014712780714035, -0.007018886040896177, 0.07905570417642593, 
    0.0002934252261184156, -0.11806026846170425, -0.029739126563072205, 0.09800027310848236, 
    0.139295756816864, -0.08470295369625092, 0.05875101685523987, 0.008167201653122902, 
    -0.005447502247989178, -0.06411530077457428, -0.16693878173828125, 0.039984989911317825, 
    0.07037217915058136, -0.020931426435709, -0.1968804895877838, 0.013937417417764664, 
    0.1169142797589302, -0.035944364964962006, 0.05700347200036049, 0.024043137207627296, 
    0.04309710115194321, -0.1429675668478012, 0.06044361740350723, -0.21873360872268677, 
    -0.010608126409351826, 0.1156630590558052, -0.02177657000720501, 0.1869329810142517, 
    0.11420020461082458, -0.05369730666279793, 0.10675986856222153, -0.038425467908382416, 
    0.09995295107364655, 0.17332063615322113, -0.18624888360500336, -0.045545369386672974, 
    0.04624738171696663, -0.12973308563232422, 0.018283173441886902, -0.1268945038318634, 
    -0.028940007090568542, -0.19609421491622925, -0.06533760577440262, 0.004259999841451645, 
    0.05754973739385605, 0.014487138949334621, -0.1702146679162979, 0.10107176750898361, 
    0.1407327651977539, 0.04520454630255699, -0.08994560688734055, 0.06099789962172508, 
    0.08249371498823166, -0.02593478374183178, 0.036077242344617844, -0.07527073472738266, 
    0.1218997985124588, -0.17027561366558075, -0.049336910247802734, 0.23333345353603363, 
    0.01663471944630146, -0.012868430465459824, -0.09281674772500992, -0.03083355352282524, 
    0.1508881002664566, -0.08185415714979172, -0.10645788162946701, 0.010556036606431007, 
    -0.06803323328495026, 0.1220003217458725, 0.24275211989879608, -0.19686022400856018, 
    -0.06537379324436188, -0.08192504942417145, 0.01907476969063282, 0.23329536616802216, 
    0.08265338093042374, 0.25121405720710754, 0.08524250984191895, -0.1054694727063179, 
    0.14484430849552155, -0.1348991096019745, -0.0020345046650618315, -0.06938058137893677, 
    -0.09817848354578018, -0.008131473325192928, 0.21877846121788025, -0.24073126912117004, 
    -0.11011913418769836, -0.06347081065177917, 0.02087181620299816, 0.11462382972240448, 
    0.08210721611976624, 0.2101638913154602, 0.14422576129436493, -0.03408578783273697, 
    0.21064235270023346, -0.014245416037738323, -0.11038258671760559, -0.0254056379199028, 
    -0.1112605407834053, 0.001007382175885141, 0.011992938816547394, 0.08368784934282303, 
    -0.056060969829559326, 0.002455177716910839, 0.03851239010691643, -0.06050143018364906, 
    0.06962795555591583, -0.04109711945056915, -0.016590118408203125, 0.054481390863657, 
    0.08098005503416061, -0.01087869144976139, -0.033394113183021545, -0.038953062146902084, 
    -0.06046324595808983, -0.06029818579554558, -0.1591774821281433, 0.18535210192203522, 
    0.052423153072595596, 0.11936301738023758, 0.042681243270635605, 0.02379833720624447, 
    0.026436591520905495, -0.2323439121246338, 0.06794270873069763, -0.031360018998384476, 
    -0.029641715809702873, 0.050336070358753204, -0.010383203625679016, 0.04237337410449982, 
    -0.03189999237656593, -0.060484640300273895, -0.10984352231025696, 0.06030269339680672, 
    0.03588581830263138, 0.06812845915555954, 0.2328442633152008, -0.12962044775485992, 
    -0.11386235058307648, -0.07684515416622162, 0.02542668953537941, 0.009280506521463394, 
    0.003424755996093154, 0.05795639380812645, 0.11436662822961807, 0.06939303129911423, 
    0.009124215692281723, -0.010797279886901379, 0.03727954626083374, -0.02445199154317379, 
    0.1122429370880127, 0.0025141569785773754, 0.05321405827999115, 0.08153089880943298, 
    0.04075329378247261, -0.0024955819826573133, 0.07320241630077362, -0.024684390053153038, 
    0.07496162503957748, 0.08705232292413712, 0.03563159331679344, 0.18518584966659546, 
    0.04508964344859123, 0.09030236303806305, -0.12144588679075241, 0.12942275404930115, 
    0.07107315957546234, -0.004710969515144825, 0.05544787272810936, 0.008343135938048363, 
    0.015106385573744774, -0.1378641426563263, 0.01758616603910923, 0.16714143753051758, 
    0.048416852951049805, -0.005562081001698971, 0.011066287755966187, 0.13741739094257355, 
    0.12276948243379593, -0.035309456288814545, 0.17085926234722137, 0.028819357976317406, 
    -0.11039962619543076, 0.03645133599638939, -0.1532220095396042, 0.12085327506065369, 
    0.34185317158699036, -0.07657961547374725, -0.27137649059295654, 0.06641476601362228, 
    0.021228745579719543, 0.05340293049812317, 0.07791446149349213, 0.04800579324364662, 
    0.0133268553763628, 0.001228425302542746, 0.17589709162712097, -0.03415569290518761, 
    -0.0074002803303301334, -0.025966748595237732, -0.06418465822935104, 0.1816297322511673, 
    -0.0009491830714978278, -0.02594880200922489, -0.1699456125497818, 0.08965115994215012, 
    0.0651075467467308, -0.04680591821670532, -0.04100049287080765, 0.15694718062877655, 
    -0.00483738025650382, 0.039831001311540604, -0.04074542224407196, -0.2113802433013916, 
    -0.04047156125307083, -0.07546951621770859, -0.09805098921060562, 0.02002207562327385, 
    -0.0926099568605423, 0.15209916234016418, -0.1840330809354782, 0.061187732964754105, 
    0.12177282571792603, -0.042402345687150955, 0.09891782701015472, 0.05654682219028473, 
    -0.011915799230337143, -0.02449902705848217, 0.10354059189558029, -0.24144311249256134, 
    -0.041340842843055725, -0.030518105253577232, -0.15565794706344604, -0.005100074224174023, 
    0.03638546168804169, 0.015126848593354225, -0.01850331947207451, -0.12358099222183228, 
    0.08524347841739655, 0.18243244290351868, -0.06574136763811111, 0.07125817984342575, 
    0.10390856117010117, 0.04627758264541626, 0.015442044474184513, -0.0470159649848938, 
    -0.03125668317079544, -0.2409941405057907, -0.07783295959234238, 0.08361144363880157, 
    0.06314785778522491, 0.053359657526016235, -0.03167236968874931, 0.17023605108261108, 
    0.0898284912109375, -0.009556278586387634, -0.06295422464609146, 0.15619675815105438, 
    0.11764336377382278, 0.09742379188537598, 0.09291289001703262, -0.04780741035938263, 
    0.005690372083336115, -0.2180991917848587, -0.11656920611858368, 0.17333967983722687, 
    0.08158329874277115, -0.05552346631884575, -0.14968833327293396, 0.05698494240641594, 
    0.20204490423202515, -0.15781234204769135, -0.055196862667798996, 0.10391563922166824, 
    0.07250036299228668, 0.016899840906262398, 0.21620221436023712, -0.174345463514328, 
    0.008003294467926025, -0.06732385605573654, 0.031084759160876274, 0.17372684180736542, 
    0.0886974036693573, 0.23272371292114258, -0.01631372794508934, 0.026979094371199608, 
    0.16993248462677002, -0.11426884680986404, -0.11301512271165848, 0.002296184189617634, 
    -0.10274101793766022, 0.003970281686633825, 0.2259289026260376, 0.11863049119710922, 
    0.042145416140556335, -0.16746826469898224, -0.05840339511632919, 0.14332245290279388, 
    0.026678908616304398, 0.12989084422588348, 0.09798511117696762, -0.05287589877843857, 
    0.10826300829648972, -0.10872805118560791, -0.04833687096834183, -0.07262983918190002, 
    -0.17017041146755219, -0.11434393376111984, 0.06861627846956253, 0.19917799532413483, 
    -0.05436960607767105, -0.024041201919317245, 0.06955111026763916, -0.06116866320371628, 
    -0.003594778710976243, 0.030388187617063522, -0.150821253657341, -0.008510485291481018, 
    -0.057759713381528854, 0.03274782747030258, -0.004121529869735241, -0.06673788279294968, 
    -0.0432676263153553, 0.004325739573687315, -0.05425282195210457, 0.1734897494316101, 
    -0.00828205794095993, 0.11822643876075745, 0.13608986139297485, -0.12322255969047546, 
    -0.0347350612282753, -0.2162044644355774, 0.01620544120669365, 0.01994956284761429, 
    -0.1128719300031662, -0.010237367823719978, 0.10735916346311569, -0.11153179407119751, 
    0.005586703307926655, 0.05516434088349342, -0.051905449479818344, 0.034605350345373154, 
    0.08511273562908173, -0.016949966549873352, 0.32524582743644714, -0.058331653475761414, 
    -0.06853348761796951, -0.14989052712917328, 0.043231382966041565, 0.009524808265268803, 
    0.04627446085214615, 0.002593053737655282, -0.005417970474809408, 0.014939701184630394, 
    -0.03922183811664581, 0.11654231697320938, 0.03348339721560478, 0.19639652967453003, 
    0.07780119776725769, 0.04910783842206001, 0.0346774123609066, -0.0011211043456569314, 
    0.036856234073638916, -0.028861623257398605, 0.12001469731330872, 0.14753620326519012, 
    -0.023999465629458427, 0.04932454600930214, -0.11276618391275406, 0.10607299953699112, 
    0.030344650149345398, 0.20133686065673828, 0.02285393327474594, 0.17211081087589264, 
    0.13447700440883636, -0.05234939977526665, -0.025011828169226646, 0.09296216815710068, 
    -0.00844675675034523, -0.21475501358509064, 0.025385381653904915, 0.15581293404102325, 
    0.1217905655503273, 0.0138320904225111, -0.06513721495866776, 0.17193007469177246, 
    0.06858830899000168, 0.09559401869773865, 0.041091758757829666, 0.06964509189128876, 
    0.04795096442103386, 0.019215846434235573, -0.02573557198047638, 0.18897534906864166, 
    0.3003140985965729, 0.025727886706590652, -0.09535786509513855, 0.061948347836732864, 
    0.11164400726556778, 0.12247926741838455, -0.07081520557403564, 0.07910066097974777, 
    -0.016623223200440407, 0.024765418842434883, 0.05784222111105919, 0.13731195032596588, 
    0.05339118838310242, 0.023951105773448944, -0.061568666249513626, 0.09919919818639755, 
    0.018121328204870224, 0.11371670663356781, -0.11086931824684143, 0.06834039092063904, 
    0.06940460950136185, 0.08671051263809204, 0.05755665525794029, -0.01271959487348795, 
    -0.017593001946806908, -0.00486383493989706, 0.23943640291690826, -0.009570082649588585, 
    0.05613560602068901, -0.08485592156648636, -0.2080845832824707, 0.0551694892346859, 
    0.052425917237997055, 0.048311468213796616, -0.06962426006793976, 0.1692570000886917, 
    0.1694425642490387, 0.08068688213825226, -0.007815321907401085, 0.04751184955239296, 
    0.014686713926494122, 0.11197035759687424, 0.22250381112098694, -0.25425785779953003, 
    0.1350618302822113, -0.11928659677505493, -0.19634409248828888, 0.1364654302597046, 
    0.0122578339651227, 0.052043139934539795, -0.016539741307497025, 0.022062279284000397, 
    0.03606199100613594, -0.04623940587043762, -0.13724899291992188, 0.12236576527357101, 
    -0.01750541292130947, -0.017290133982896805, 0.036480531096458435, -0.013021770864725113, 
    -0.06731842458248138, -0.2519710063934326, -0.07445035874843597, 0.08835888653993607, 
    -0.04776431620121002, 0.09696203470230103, -0.07604438811540604, 0.21075566112995148, 
    0.06349359452724457, -0.03979073837399483, -0.136316180229187, 0.14994028210639954, 
    -0.014439908787608147, 0.05578598007559776, 0.08765072375535965, 0.0007821051985956728, 
    -0.035264793783426285, -0.17137247323989868, -0.14744959771633148, 0.0943889319896698, 
    0.11965703964233398, 0.07954586297273636, 0.00032344210194423795, 0.05389659106731415, 
    0.10921336710453033, -0.05108098313212395, -0.08651542663574219, 0.04435992240905762, 
    -0.060266587883234024, -0.030145032331347466, 0.21873536705970764, -0.11580462753772736, 
    0.006743826437741518, -0.12190886586904526, -0.05147741362452507, 0.18056868016719818, 
    0.10193850100040436, 0.25589561462402344, -0.05940750986337662, -0.03235820308327675, 
    0.1314276158809662, -0.1662774682044983, -0.09615837037563324, 0.06316202133893967, 
    -0.03284701332449913, -0.07035717368125916, 0.030769946053624153, -0.10003527998924255, 
    -0.04827725514769554, -0.1481097936630249, 0.09038408100605011, 0.06294158101081848, 
    0.011992430314421654, 0.13215894997119904, -0.12238773703575134, 0.022452665492892265, 
    0.10430843383073807, -0.14879435300827026, 0.13861432671546936, -0.051981136202812195, 
    -0.13116438686847687, -0.13055746257305145, 0.07964088767766953, 0.12319064885377884, 
    0.02380223385989666, 0.07304143905639648, 0.11912038177251816, -0.04567767307162285, 
    -0.03117898479104042, 0.06395641714334488, -0.0037750450428575277, 0.01475641317665577, 
    -0.10602327436208725, -0.05324774980545044, 0.24180902540683746, -0.12867166101932526, 
    -0.16234536468982697, -0.061157796531915665, -0.12110738456249237, 0.16561540961265564, 
    0.1549864113330841, 0.07215102016925812, 0.2209796905517578, -0.22645141184329987, 
    -0.06750011444091797, -0.135981485247612, 0.03985908254981041, -0.08859279006719589, 
    -0.030414413660764694, 0.005312937777489424, -0.041169822216033936, -0.13911259174346924, 
    -0.04787762090563774, -0.09276638180017471, -0.12627379596233368, 0.13167579472064972, 
    0.1442483514547348, 0.05925435572862625, 0.23105135560035706, -0.06666592508554459, 
    -0.044515617191791534, -0.0067117842845618725, 0.08810919523239136, 0.02031058259308338, 
    0.0166849996894598, 0.1311189830303192, 0.0021993042901158333, -0.01870063878595829, 
    -0.006825650576502085, 0.02867613546550274, 0.037659186869859695, 0.027792202308773994, 
    0.07256124913692474, 0.002102550817653537, 0.12227112799882889, 0.12528327107429504, 
    -0.013458088040351868, -0.06784607470035553, 0.0699649453163147, -0.031946126371622086, 
    0.016067024320364, 0.03971637412905693, -0.1253162920475006, 0.01724955067038536, 
    0.02649722620844841, 0.10719488561153412, 0.013903488405048847, 0.004846477415412664, 
    0.030555834993720055, -0.041930221021175385, 0.052182454615831375, 0.184278666973114, 
    -0.03936309367418289, -0.06629971414804459, -0.08342332392930984, -0.0011329780099913478, 
    0.05184255167841911, 0.04981768876314163, 0.04322926327586174, 0.09950003772974014, 
    0.01973397471010685, 0.07661713659763336, 0.014711095951497555, 0.0664949119091034, 
    -0.0033514585811644793, -0.09695055335760117, 0.03981432318687439, 0.0686003789305687, 
    0.05792727693915367, 0.0732167437672615, -0.2509116530418396, 0.18316854536533356, 
    0.2903080880641937, -0.09995324164628983, -0.07504748553037643, 0.12964659929275513, 
    -0.005213550291955471, 0.15412619709968567, 0.13826385140419006, -0.0073820073157548904, 
    0.1115598976612091, 0.0005960283451713622, -0.035219956189394, 0.12034699320793152, 
    -0.07844401895999908, 0.11667796224355698, -0.09616060554981232, 0.02860582061111927, 
    0.11241370439529419, 0.09359906613826752, -0.0664023831486702, -0.036540452390909195, 
    -0.0405501052737236, 0.02822062186896801, 0.05158507078886032, -0.057278793305158615, 
    0.0600646510720253, -0.0745757445693016, -0.13456407189369202, -0.001188518712297082, 
    0.08210200071334839, 0.05062802881002426, -0.08632974326610565, -0.026789404451847076, 
    0.0746416449546814, -0.058265555649995804, -0.09076610207557678, 0.01315355021506548, 
    -0.06548447906970978, -0.057444728910923004, 0.2023686021566391, 0.013365935534238815, 
    0.01103674154728651, -0.13142870366573334, -0.07321278005838394, 0.06309829652309418, 
    -0.04291209578514099, 0.10797634720802307, -0.18726369738578796, 0.10780469328165054, 
    -0.035518210381269455, 0.0018873747903853655, -0.05461892485618591, 0.024980077520012856, 
    0.02975355088710785, 0.007188728544861078, 0.20677055418491364, 0.045286186039447784, 
    0.01951390504837036, -0.09618451446294785, -0.057474229484796524, 0.05868783965706825, 
    -0.04703414440155029, -0.004804654512554407, -0.19978545606136322, 0.17368300259113312, 
    0.01324846874922514, 0.16067923605442047, -0.17889784276485443, 0.115300752222538, 
    0.09801860898733139, 0.03027958795428276, 0.19640399515628815, 0.054635077714920044, 
    0.06736771762371063, -0.16845043003559113, -0.035460520535707474, 0.02520524524152279, 
    0.14533227682113647, 0.013219166547060013, -0.21007488667964935, -0.00011827140406239778, 
    0.1656521111726761, 0.011115878820419312, -0.29015594720840454, 0.0564885213971138, 
    -0.007227248512208462, 0.08125746250152588, 0.10342534631490707, 0.01511008758097887, 
    0.164274200797081, -0.12435446679592133, -0.032271768897771835, 0.09597445279359818, 
    0.026621319353580475, 0.25918883085250854, 0.03461407124996185, -0.039514992386102676, 
    0.180719256401062, -0.07317932695150375, -0.1323382407426834, -0.005097801331430674, 
    -0.11377998441457748, -0.05509631335735321, 0.1337851881980896, -0.004926634021103382, 
    0.054270919412374496, -0.013775665313005447, 0.04974361136555672, 0.07785112410783768, 
    0.04965071380138397, 0.14038033783435822, 0.014432026073336601, 0.03386325761675835, 
    0.15653277933597565, -0.06066611036658287, -0.10711830109357834, -0.1186453104019165, 
    -0.05695037543773651, -0.13505087792873383, -0.04082474112510681, 0.1596236526966095, 
    0.039781056344509125, 0.15637372434139252, 0.11635475605726242, -0.13282562792301178, 
    0.01303481962531805, -0.044648949056863785, -0.030182408168911934, -0.08336563408374786, 
    0.045616332441568375, -0.030783526599407196, 0.045910391956567764, -0.09903164952993393, 
    0.008685589767992496, -0.058865707367658615, -0.10005601495504379, 0.032653164118528366, 
    0.1322523057460785, 0.11251912266016006, 0.158311665058136, -0.24627405405044556, 
    0.06732292473316193, 0.03423604369163513, 0.19359788298606873, -0.07934696227312088, 
    -0.017609665170311928, -0.12629778683185577, 0.049882370978593826, -0.01975920796394348, 
    0.07184630632400513, -0.045562561601400375, -0.08157949894666672, -0.0337536446750164, 
    0.07621151208877563, 0.024992236867547035, 0.29137393832206726, -0.1253095418214798, 
    0.03229236975312233, 0.06193241477012634, 0.14294210076332092, -0.021872207522392273, 
    -0.035301048308610916, 0.028442058712244034, 0.06530068069696426, -0.08678008615970612, 
    0.017478017136454582, -0.07891163975000381, -0.056511927396059036, -0.06131283566355705, 
    -0.03639771044254303, -0.010206954553723335, 0.15606316924095154, -0.03251856192946434, 
    0.043685998767614365, -0.11113379895687103, -0.011289822869002819, 0.025684243068099022, 
    -0.04141091927886009, 0.018323462456464767, 0.016848493367433548, -0.025053182616829872, 
    -0.01755937747657299, 0.004704630468040705, -0.03723942115902901, -0.014206983149051666, 
    -0.11308181285858154, -0.14894968271255493, -0.023084882646799088, 0.10764715075492859, 
    0.05239046365022659, -0.08968482911586761, -0.05725923925638199, 0.036170847713947296, 
    0.12617963552474976, -0.047206662595272064, -0.020203405991196632, 0.07202387601137161, 
    0.1405067890882492, 0.05920613929629326, 0.19713890552520752, -0.006944339722394943, 
    -0.0450696125626564, 0.02035117708146572, -0.04877597466111183, 0.00945719052106142, 
    0.03748393431305885, 0.13244327902793884, -0.18132473528385162, 0.06838492304086685, 
    0.04588121548295021, -0.013865378685295582, -0.024820921942591667, 0.010951641947031021, 
    0.10602565854787827, -0.0208617951720953, 0.004311237949877977, -0.11564431339502335, 
    -0.02812502719461918, 0.08997278660535812, 0.023840313777327538, 0.04444035515189171, 
    0.09573963284492493, 0.09958571940660477, -0.11649760603904724, 0.09264179319143295, 
    0.039498381316661835, 0.029517201706767082, -0.11159639060497284, -0.002473606029525399, 
    0.039226241409778595, 0.057508550584316254, 0.02814800851047039, -0.17025166749954224, 
    0.06529141962528229, 0.0010925851529464126, -0.1356441229581833, 0.09352420270442963, 
    -0.003707657800987363, -0.008623851463198662, 0.0038190160412341356, 0.02561621367931366, 
    0.03537281975150108, -0.067841075360775, -0.12613949179649353, -0.09067636728286743, 
    -0.08545110374689102, 0.020445534959435463, -0.010436530224978924, -0.05686615779995918, 
    -0.059790100902318954, -0.05968576297163963, -0.02258986607193947, 0.09448698908090591, 
    -0.04853202775120735, 0.0708446353673935, -0.24123568832874298, 0.051968496292829514, 
    0.0850805714726448, 0.019297966733574867, -0.1423787623643875, 0.02362567000091076, 
    -0.13432328402996063, 0.02950177900493145, 0.015593200922012329, -0.05155351012945175, 
    -0.03887120261788368, -0.12330830097198486, -0.009456043131649494, 0.10226865857839584, 
    -0.06567846238613129, 0.03194638341665268, 0.03654904663562775, 0.06167632341384888, 
    0.10814453661441803, -0.058329302817583084, -0.08043645322322845, 0.15583904087543488, 
    0.0033797528594732285, -0.05620959773659706, -0.13000766932964325, 0.06155964359641075, 
    0.010540696792304516, -0.10202459990978241, 0.050436243414878845, 0.05943911150097847, 
    -0.013108750805258751, 0.0012626656098291278, -0.07767795771360397, -0.07734675705432892, 
    0.13807465136051178, 0.06534845381975174, -0.11567670851945877, 0.052710115909576416, 
    0.01830754242837429, -0.0039147804491221905, 0.17973196506500244, -0.0723181888461113, 
    0.024842966347932816, -0.1278052031993866, -0.037225257605314255, 0.22492516040802002, 
    0.04462719336152077, 0.2173299789428711, -0.025001561269164085, -0.07959393411874771, 
    0.16239292919635773, 0.0328693613409996, -0.06466852128505707, -0.07649924606084824, 
    -0.09147150069475174, -0.040119268000125885, 0.18573085963726044, -0.022336885333061218, 
    -0.010613524354994297, -0.1446954905986786, 0.035256363451480865, 0.251655638217926, 
    0.027578191831707954, 0.17134062945842743, -0.08983765542507172, 0.06497833877801895, 
    -0.015212816186249256, -0.07102979719638824, -0.04683053866028786, -0.07295916974544525, 
    -0.04199299216270447, -0.024472912773489952, 0.03181798383593559, 0.11788366734981537, 
    0.15220390260219574, 0.21616600453853607, 0.05110764130949974, -0.10035105049610138, 
    0.10141955316066742, 0.05700216814875603, 0.07219133526086807, -0.1288967728614807, 
    -0.00763422017917037, -0.0834079310297966, -0.018738549202680588, -0.03959203511476517, 
    -0.008315344341099262, -0.057128291577100754, -0.28516170382499695, 0.10127165913581848, 
    0.008203653618693352, 0.15733084082603455, 0.0399896577000618, -0.06967569142580032, 
    0.006719539873301983, 0.02658556029200554, 0.32498857378959656, 0.07356390357017517, 
    0.06031698361039162, -0.0353691466152668, 0.029894616454839706, 0.013937615789473057, 
    -0.04988906905055046, 0.05070152506232262, -0.061954744160175323, 0.05892869457602501, 
    -0.026446884498000145, 0.014407201670110226, 0.18742580711841583, -0.11637483537197113, 
    0.039728906005620956, -0.015221275389194489, 0.0744817703962326, 0.02499457262456417, 
    0.06916184723377228, -0.05569940805435181, 0.1243492066860199, -0.00978782307356596, 
    -0.023099079728126526, 0.014916781336069107, -0.06000332906842232, 0.05556682497262955, 
    0.04338284581899643, 0.050165966153144836, 0.10031971335411072, 0.17816460132598877, 
    0.03640071302652359, -0.19908328354358673, 0.10737427324056625, 0.06829158961772919, 
    0.012638173066079617, -0.06592600792646408, -0.0500698946416378, -0.011692938394844532, 
    0.0855611190199852, 0.09238209575414658, -0.03373518958687782, -0.1267532855272293, 
    -0.0856715589761734, 0.006881720386445522, 0.07292220741510391, 0.07122048735618591, 
    0.0434623546898365, -0.018378203734755516, -0.03584117069840431, -0.01668694242835045, 
    -0.08668503910303116, -0.015914322808384895, 0.021574240177869797, 0.07954413443803787, 
    0.07162798196077347, 0.04598363861441612, 0.034297823905944824, -0.012385785579681396, 
    -0.14497429132461548, -0.016024576500058174, -0.04942435398697853, 0.17038226127624512, 
    0.13126002252101898, 0.12288942188024521, -0.08835625648498535, 0.16334055364131927, 
    0.06975135952234268, 0.016879236325621605, 0.015074278227984905, 0.1004595160484314, 
    0.045772552490234375, -0.04248438775539398, 0.05555932968854904, -0.09967441856861115, 
    -0.07577024400234222, 0.019860174506902695, -0.08481700718402863, 0.09341168403625488, 
    -0.014320622198283672, 0.05374130979180336, -0.010319357737898827, 0.09660159796476364, 
    0.1056523397564888, 0.027532042935490608, -0.07955614477396011, 0.054375723004341125, 
    0.07410227507352829, -0.06181327626109123, 0.05093731731176376, -0.011714114807546139, 
    0.021927589550614357, -0.05967666581273079, -0.15092897415161133, 0.07566367089748383, 
    0.051316361874341965, -0.05611956864595413, -0.09265303611755371, 0.023048996925354004, 
    0.16611668467521667, 0.035535965114831924, -0.1061389297246933, -0.10501231998205185, 
    -0.10894690454006195, -0.01446553599089384, 0.07425253838300705, -0.05230000615119934, 
    -0.06440126895904541, -0.11001133918762207, -0.14899611473083496, 0.14353741705417633, 
    -0.0672680139541626, 0.11929831653833389, -0.06171542406082153, 0.07051693648099899, 
    0.14419437944889069, 0.12153494358062744, -0.20303159952163696, -0.017672223970294, 
    -0.0501658096909523, 0.013981633819639683, 0.1378430277109146, 0.04919404536485672, 
    -0.017345137894153595, -0.16048941016197205, -0.09425044059753418, 0.09879499673843384, 
    -0.11662217974662781, 0.06268269568681717, 0.009526322595775127, 0.11161824315786362, 
    0.17690499126911163, -0.040653642266988754, -0.16002558171749115, -0.02988007478415966, 
    -0.019011523574590683, 0.021502330899238586, -0.03716270625591278, 0.04896390065550804, 
    0.008032243698835373, -0.2571812868118286, 0.016350962221622467, 0.046930424869060516, 
    -0.10493053495883942, 0.13351696729660034, 0.002014374127611518, 0.11434842646121979, 
    0.21424339711666107, 0.1194123849272728, -0.07330628484487534, 0.03750142082571983, 
    0.013413887470960617, 0.11484784632921219, -0.026889987289905548, 0.056664835661649704, 
    0.07095851749181747, -0.2078239619731903, 0.06585314124822617, 0.1587418019771576, 
    0.04301257058978081, 0.1482241302728653, 0.04084403067827225, -0.038342759013175964, 
    0.1822229027748108, 0.001430968171916902, -0.19594550132751465, 0.04728390648961067, 
    0.004727298393845558, 0.03244951739907265, 0.18236038088798523, 0.037301819771528244, 
    -0.07761181890964508, -0.08356332033872604, 0.08345123380422592, 0.09161265194416046, 
    0.09786666184663773, 0.1151316836476326, 0.03521835058927536, -0.06191457435488701, 
    -0.020464956760406494, -0.022018738090991974, 0.10084318369626999, -0.08707572519779205, 
    -0.02854124829173088, 0.001943556941114366, 0.008782683871686459, -0.10718253999948502, 
    0.10824909806251526, 0.06737697124481201, 0.05539729446172714, -0.07925625890493393, 
    0.13289783895015717, 0.10049142688512802, -0.1110273003578186, 0.049919769167900085, 
    0.03251108154654503, 0.005477110389620066, 0.04814022406935692, -0.0026183819863945246, 
    -0.1011311411857605, -0.02604956179857254, -0.09412725269794464, 0.035213764756917953, 
    0.04764798656105995, 0.04445764049887657, 0.17069227993488312, -0.04183189570903778, 
    0.033616188913583755, -0.015145091339945793, 0.0022198623046278954, 0.009212412871420383, 
    -0.001087111420929432, 0.045910272747278214, 0.08099015057086945, 0.025280563160777092, 
    -0.029127605259418488, 0.00158905319403857, 0.06579132378101349, 0.08842271566390991, 
    0.0994899570941925, 0.08224819600582123, 0.1264052838087082, -0.08983465284109116, 
