#include "mnist_model_dpw_model.h"
#include "embedia_debug.h"

// Initialization function prototypes
depthwise_conv2d_layer_t init_depthwise_conv2d_data(void);
conv2d_layer_t init_conv2d_data(void);
depthwise_conv2d_layer_t init_depthwise_conv2d_1_data(void);
conv2d_layer_t init_conv2d_1_data(void);
dense_layer_t init_dense_data(void);
dense_layer_t init_dense_1_data(void);


// Global Variables
depthwise_conv2d_layer_t depthwise_conv2d_data;
conv2d_layer_t conv2d_data;
depthwise_conv2d_layer_t depthwise_conv2d_1_data;
conv2d_layer_t conv2d_1_data;
dense_layer_t dense_data;
dense_layer_t dense_1_data;


void model_init(){
    depthwise_conv2d_data = init_depthwise_conv2d_data();
    conv2d_data = init_conv2d_data();
    depthwise_conv2d_1_data = init_depthwise_conv2d_1_data();
    conv2d_1_data = init_conv2d_1_data();
    dense_data = init_dense_data();
    dense_1_data = init_dense_1_data();

}

void model_predict(data3d_t input, data1d_t * output){
  
    prepare_buffers();
    
    //******************** LAYER 0 *******************//
    // Layer name: depthwise_conv2d
    data3d_t output0;
    depthwise_conv2d_layer(depthwise_conv2d_data, input, &output0);
    // Activation layer for depthwise_conv2d
    relu_activation(output0.data, 144);
    // Debug function for layer depthwise_conv2d
    print_data3d_t("depthwise_conv2d", output0);
    
    //******************** LAYER 1 *******************//
    // Layer name: conv2d
    input = output0;
    conv2d_layer(conv2d_data, input, &output0);
    // Activation layer for conv2d
    relu_activation(output0.data, 4608);
    // Debug function for layer conv2d
    print_data3d_t("conv2d", output0);
    
    //******************** LAYER 2 *******************//
    // Layer name: depthwise_conv2d_1
    input = output0;
    depthwise_conv2d_layer(depthwise_conv2d_1_data, input, &output0);
    // Activation layer for depthwise_conv2d_1
    relu_activation(output0.data, 3200);
    // Debug function for layer depthwise_conv2d_1
    print_data3d_t("depthwise_conv2d_1", output0);
    
    //******************** LAYER 3 *******************//
    // Layer name: conv2d_1
    input = output0;
    conv2d_layer(conv2d_1_data, input, &output0);
    // Activation layer for conv2d_1
    relu_activation(output0.data, 6400);
    // Debug function for layer conv2d_1
    print_data3d_t("conv2d_1", output0);
    
    //******************** LAYER 4 *******************//
    // Layer name: max_pooling2d
    input = output0;
    static const pooling2d_layer_t max_pooling2d_data = { 2, 2 };
    max_pooling2d_layer(max_pooling2d_data, input, &output0);
    // Debug function for layer max_pooling2d
    print_data3d_t("max_pooling2d", output0);
    
    //******************** LAYER 5 *******************//
    // Layer name: flatten
    input = output0;
    data1d_t output1;
    flatten3d_layer(input, &output1);
    // Debug function for layer flatten
    print_data1d_t("flatten", output1);
    
    //******************** LAYER 6 *******************//
    // Layer name: dense
    data1d_t input1;
    input1 = output1;
    dense_layer(dense_data, input1, &output1);
    
    // Activation layer for dense
    relu_activation(output1.data, 128);
    // Debug function for layer dense
    print_data1d_t("dense", output1);
    
    //******************** LAYER 7 *******************//
    // Layer name: dense_1
    input1 = output1;
    dense_layer(dense_1_data, input1, &output1);
    
    // Activation layer for dense_1
    softmax_activation(output1.data, 10);
    // Debug function for layer dense_1
    print_data1d_t("dense_1", output1);
    

    *output = output1;

}

int model_predict_class(data3d_t input, data1d_t * results){
  
   
    model_predict(input, results);
    
    return argmax(*results);
    //return argmax(data1d_t);

}

// Implementation of initialization functions


depthwise_conv2d_layer_t init_depthwise_conv2d_data(void){

    static const quant8 weights[]={
        155, 205, 21, /* [ 0.40377599  0.78499913 -0.61376262] */
        202, 255, 184, /* [0.75726229 1.15920484 0.62428325] */
        0, 120, 62 /* [-0.77906317  0.13452691 -0.30719715] */
    };
    static const quant8 biases[]={
        0 /* 0.306078165769577 */
    };

    depthwise_conv2d_layer_t layer = {1, 3, weights, biases,{ 0.00760105100332522, 102 },{ 0.0, 0 } };
        
    return layer;
}


conv2d_layer_t init_conv2d_data(void){

        static filter_t filters[32];
        
        static const quant8 weights0[]={
           62 /* [-0.07304457] */
        };
        static filter_t filter0 = {1, 1, weights0, 75};  //0.0
        filters[0]=filter0;
            
        static const quant8 weights1[]={
           0 /* [-0.4065564] */
        };
        static filter_t filter1 = {1, 1, weights1, 75};  //0.0
        filters[1]=filter1;
            
        static const quant8 weights2[]={
           207 /* [0.71500701] */
        };
        static filter_t filter2 = {1, 1, weights2, 76};  //0.005680910311639309
        filters[2]=filter2;
            
        static const quant8 weights3[]={
           170 /* [0.51353651] */
        };
        static filter_t filter3 = {1, 1, weights3, 65};  //-0.05179660767316818
        filters[3]=filter3;
            
        static const quant8 weights4[]={
           221 /* [0.78889102] */
        };
        static filter_t filter4 = {1, 1, weights4, 75};  //-0.0001968052820302546
        filters[4]=filter4;
            
        static const quant8 weights5[]={
           65 /* [-0.05414408] */
        };
        static filter_t filter5 = {1, 1, weights5, 75};  //0.0
        filters[5]=filter5;
            
        static const quant8 weights6[]={
           150 /* [0.40702835] */
        };
        static filter_t filter6 = {1, 1, weights6, 65};  //-0.054967284202575684
        filters[6]=filter6;
            
        static const quant8 weights7[]={
           45 /* [-0.16210458] */
        };
        static filter_t filter7 = {1, 1, weights7, 75};  //0.0
        filters[7]=filter7;
            
        static const quant8 weights8[]={
           210 /* [0.73320597] */
        };
        static filter_t filter8 = {1, 1, weights8, 72};  //-0.014934990555047989
        filters[8]=filter8;
            
        static const quant8 weights9[]={
           170 /* [0.51431781] */
        };
        static filter_t filter9 = {1, 1, weights9, 71};  //-0.023317473009228706
        filters[9]=filter9;
            
        static const quant8 weights10[]={
           133 /* [0.31436586] */
        };
        static filter_t filter10 = {1, 1, weights10, 63};  //-0.06669539958238602
        filters[10]=filter10;
            
        static const quant8 weights11[]={
           214 /* [0.75012857] */
        };
        static filter_t filter11 = {1, 1, weights11, 73};  //-0.013311302289366722
        filters[11]=filter11;
            
        static const quant8 weights12[]={
           109 /* [0.18164259] */
        };
        static filter_t filter12 = {1, 1, weights12, 73};  //-0.010295985266566277
        filters[12]=filter12;
            
        static const quant8 weights13[]={
           172 /* [0.52553099] */
        };
        static filter_t filter13 = {1, 1, weights13, 79};  //0.01956828683614731
        filters[13]=filter13;
            
        static const quant8 weights14[]={
           26 /* [-0.26342177] */
        };
        static filter_t filter14 = {1, 1, weights14, 75};  //0.0
        filters[14]=filter14;
            
        static const quant8 weights15[]={
           152 /* [0.41661611] */
        };
        static filter_t filter15 = {1, 1, weights15, 78};  //0.01892166957259178
        filters[15]=filter15;
            
        static const quant8 weights16[]={
           230 /* [0.84200466] */
        };
        static filter_t filter16 = {1, 1, weights16, 68};  //-0.03610896319150925
        filters[16]=filter16;
            
        static const quant8 weights17[]={
           10 /* [-0.34999156] */
        };
        static filter_t filter17 = {1, 1, weights17, 75};  //0.0
        filters[17]=filter17;
            
        static const quant8 weights18[]={
           216 /* [0.76468557] */
        };
        static filter_t filter18 = {1, 1, weights18, 73};  //-0.008412232622504234
        filters[18]=filter18;
            
        static const quant8 weights19[]={
           190 /* [0.62507361] */
        };
        static filter_t filter19 = {1, 1, weights19, 75};  //-0.0015533589757978916
        filters[19]=filter19;
            
        static const quant8 weights20[]={
           177 /* [0.54989409] */
        };
        static filter_t filter20 = {1, 1, weights20, 52};  //-0.1230369582772255
        filters[20]=filter20;
            
        static const quant8 weights21[]={
           196 /* [0.65430576] */
        };
        static filter_t filter21 = {1, 1, weights21, 72};  //-0.015836838632822037
        filters[21]=filter21;
            
        static const quant8 weights22[]={
           153 /* [0.42051369] */
        };
        static filter_t filter22 = {1, 1, weights22, 73};  //-0.011545288376510143
        filters[22]=filter22;
            
        static const quant8 weights23[]={
           255 /* [0.9743219] */
        };
        static filter_t filter23 = {1, 1, weights23, 66};  //-0.046149078756570816
        filters[23]=filter23;
            
        static const quant8 weights24[]={
           10 /* [-0.35114062] */
        };
        static filter_t filter24 = {1, 1, weights24, 75};  //0.0
        filters[24]=filter24;
            
        static const quant8 weights25[]={
           46 /* [-0.1568712] */
        };
        static filter_t filter25 = {1, 1, weights25, 75};  //0.0
        filters[25]=filter25;
            
        static const quant8 weights26[]={
           75 /* [-0.00067607] */
        };
        static filter_t filter26 = {1, 1, weights26, 75};  //0.0
        filters[26]=filter26;
            
        static const quant8 weights27[]={
           201 /* [0.68253553] */
        };
        static filter_t filter27 = {1, 1, weights27, 75};  //0.0004320912412367761
        filters[27]=filter27;
            
        static const quant8 weights28[]={
           162 /* [0.4729144] */
        };
        static filter_t filter28 = {1, 1, weights28, 73};  //-0.010907708667218685
        filters[28]=filter28;
            
        static const quant8 weights29[]={
           221 /* [0.78856826] */
        };
        static filter_t filter29 = {1, 1, weights29, 67};  //-0.044416893273591995
        filters[29]=filter29;
            
        static const quant8 weights30[]={
           42 /* [-0.18010353] */
        };
        static filter_t filter30 = {1, 1, weights30, 75};  //0.0
        filters[30]=filter30;
            
        static const quant8 weights31[]={
           23 /* [-0.28030711] */
        };
        static filter_t filter31 = {1, 1, weights31, 75};  //0.0
        filters[31]=filter31;
            
        conv2d_layer_t layer = {32, filters,{ 0.0054152090175479065, 75 } };
        return layer;
}
        
depthwise_conv2d_layer_t init_depthwise_conv2d_1_data(void){

    static const quant8 weights[]={
        129, 128, 108, /* [ 0.04744168  0.04358824 -0.05307896] */
        110, 114, 124, /* [-0.04190315 -0.02409627  0.02579254] */
        125, 96, 134, /* [ 0.02714556 -0.10874533  0.07051834] */

        124, 106, 121, /* [ 0.0259001  -0.06339356  0.01013455] */
        97, 107, 126, /* [-0.10486533 -0.05496836  0.0338722 ] */
        136, 91, 98, /* [ 0.07974291 -0.13253926 -0.09738128] */

        134, 142, 62, /* [ 0.07283755  0.10884561 -0.26881549] */
        79, 243, 224, /* [-0.18945068  0.58461237  0.49611568] */
        52, 94, 117, /* [-0.31484246 -0.11892265 -0.01074628] */

        76, 138, 124, /* [-0.20339935  0.09035398  0.02463812] */
        105, 163, 120, /* [-0.06426441  0.20712529  0.00528464] */
        175, 255, 179, /* [0.26482269 0.64286947 0.28451431] */

        119, 100, 154, /* [-0.00089892 -0.08962429  0.16597182] */
        169, 43, 5, /* [ 0.2374299  -0.35822001 -0.53600186] */
        185, 157, 129, /* [0.31308943 0.18062977 0.0486599 ] */

        104, 119, 94, /* [-0.06846558  0.00137159 -0.11727081] */
        108, 104, 136, /* [-0.05149307 -0.07021999  0.0822463 ] */
        134, 113, 141, /* [ 0.07176752 -0.030476    0.10460047] */

        71, 100, 167, /* [-0.22468463 -0.08914106  0.22687434] */
        54, 134, 156, /* [-0.30758515  0.06850165  0.17358595] */
        133, 128, 167, /* [0.0639727  0.04020794 0.2281874 ] */

        104, 120, 138, /* [-0.06912994  0.00303708  0.09042366] */
        119, 120, 119, /* [-5.80996275e-04  5.98755479e-03 -7.87228346e-05] */
        141, 133, 119, /* [ 0.10252249  0.06535842 -0.00199559] */

        173, 192, 90, /* [ 0.25506386  0.34512791 -0.13779333] */
        84, 90, 83, /* [-0.16690186 -0.13786168 -0.17051011] */
        136, 202, 174, /* [0.08120525 0.39271265 0.25809222] */

        99, 188, 168, /* [-0.09506328  0.32706884  0.23207225] */
        31, 104, 126, /* [-0.41523546 -0.06914219  0.03237659] */
        62, 177, 165, /* [-0.270643    0.27166802  0.21902741] */

        175, 187, 161, /* [0.26273018 0.31968546 0.19830714] */
        110, 128, 181, /* [-0.04331452  0.04125082  0.29157415] */
        153, 121, 202, /* [0.16008061 0.00874657 0.39232722] */

        26, 74, 217, /* [-0.4387497  -0.21014628  0.46499357] */
        103, 38, 83, /* [-0.07576814 -0.38226566 -0.16790107] */
        141, 151, 115, /* [ 0.10399693  0.15054044 -0.02107338] */

        96, 85, 103, /* [-0.10744546 -0.16160806 -0.07622071] */
        95, 158, 205, /* [-0.11289019  0.18279622  0.40836626] */
        165, 96, 145, /* [ 0.21597256 -0.11082863  0.12148354] */

        121, 73, 72, /* [ 0.00828103 -0.21514685 -0.22292382] */
        179, 134, 155, /* [0.28095433 0.07023463 0.17219326] */
        107, 117, 185, /* [-0.05584731 -0.00901475  0.31168696] */

        98, 99, 93, /* [-0.10070562 -0.09487165 -0.12149158] */
        106, 126, 133, /* [-0.06271991  0.03247316  0.06691337] */
        122, 137, 116, /* [ 0.01315439  0.08334164 -0.01452944] */

        115, 171, 198, /* [-0.01968631  0.2440279   0.37398368] */
        185, 130, 108, /* [ 0.30983138  0.05287047 -0.05048721] */
        142, 62, 72, /* [ 0.11052847 -0.26937172 -0.22125907] */

        107, 134, 196, /* [-0.05865991  0.07028559  0.36289021] */
        78, 88, 207, /* [-0.19445188 -0.14802147  0.41585439] */
        87, 72, 146, /* [-0.15081678 -0.22278096  0.12950146] */

        132, 117, 93, /* [ 0.06124477 -0.00939438 -0.12099022] */
        92, 121, 140, /* [-0.12667508  0.01146396  0.09815441] */
        146, 114, 99, /* [ 0.12647794 -0.02368556 -0.09386058] */

        132, 83, 164, /* [ 0.06309547 -0.17094533  0.21182428] */
        122, 40, 81, /* [ 0.01432176 -0.37260771 -0.18141466] */
        188, 191, 149, /* [0.32413781 0.34194997 0.14089338] */

        26, 112, 121, /* [-0.43902349 -0.03508706  0.00841552] */
        19, 73, 111, /* [-0.47214493 -0.21900435 -0.03957336] */
        150, 136, 186, /* [0.14842753 0.07993639 0.31786412] */

        202, 201, 125, /* [0.39327207 0.38529995 0.02863998] */
        122, 151, 102, /* [ 0.01189079  0.15309806 -0.0779264 ] */
        110, 38, 39, /* [-0.04242195 -0.38359317 -0.37881753] */

        151, 51, 0, /* [ 0.15229945 -0.32305142 -0.56102461] */
        127, 104, 110, /* [ 0.03896749 -0.07199679 -0.042011  ] */
        139, 219, 194, /* [0.09217429 0.47145641 0.35452914] */

        138, 147, 40, /* [ 0.08975427  0.13053212 -0.37208813] */
        164, 145, 132, /* [0.21322232 0.12292249 0.0628841 ] */
        160, 96, 171, /* [ 0.19328375 -0.11011347  0.2466512 ] */

        54, 42, 84, /* [-0.30758035 -0.36147839 -0.16621122] */
        68, 69, 173, /* [-0.24199438 -0.23391838  0.25518483] */
        145, 133, 213, /* [0.12057395 0.0675475  0.44541317] */

        106, 135, 94, /* [-0.06337444  0.07372086 -0.1199413 ] */
        144, 118, 93, /* [ 0.1163692  -0.00239065 -0.12443565] */
        113, 95, 90, /* [-0.02830959 -0.11294068 -0.13771759] */

        90, 125, 131, /* [-0.13911517  0.0263634   0.05631222] */
        134, 101, 141, /* [ 0.0721612  -0.08707403  0.10473663] */
        130, 103, 107, /* [ 0.05293989 -0.07460356 -0.05561174] */

        103, 92, 107, /* [-0.07361761 -0.12917855 -0.05834652] */
        104, 101, 117, /* [-0.06925333 -0.08551814 -0.00900312] */
        126, 102, 135, /* [ 0.03357819 -0.08095303  0.07557423] */

        190, 179, 168, /* [0.3344363  0.28429163 0.23163545] */
        127, 106, 88, /* [ 0.03847897 -0.06091912 -0.14580247] */
        144, 64, 2, /* [ 0.11868764 -0.25784078 -0.55443782] */

        120, 124, 132, /* [0.00478037 0.02562587 0.06100477] */
        223, 206, 99, /* [ 0.49064371  0.41223839 -0.09281532] */
        142, 113, 87, /* [ 0.10684896 -0.02810542 -0.15245974] */

        153, 174, 185, /* [0.15965798 0.25872424 0.31353873] */
        63, 87, 150, /* [-0.26514655 -0.15212889  0.14753954] */
        71, 71, 153, /* [-0.22454567 -0.22627309  0.16108242] */

        130, 136, 101, /* [ 0.05119483  0.08160028 -0.08412743] */
        105, 131, 107, /* [-0.06648219  0.05613588 -0.05601944] */
        140, 101, 113, /* [ 0.10124016 -0.08655149 -0.02991836] */

        108, 105, 129, /* [-0.05112539 -0.06452831  0.0457271 ] */
        128, 99, 93, /* [ 0.04417723 -0.09209414 -0.1220619 ] */
        137, 145, 130 /* [0.0839133  0.12185831 0.05373876] */
    };
    static const quant8 biases[]={
        69, /* 0.0 */
        69, /* 0.0 */
        179, /* 0.15176674723625183 */
        5, /* -0.08729144185781479 */
        231, /* 0.22255593538284302 */
        69, /* 0.0 */
        4, /* -0.08971580117940903 */
        69, /* 0.0 */
        70, /* 0.0013439190806820989 */
        62, /* -0.010254752822220325 */
        0, /* -0.0942789614200592 */
        255, /* 0.25621259212493896 */
        43, /* -0.035329364240169525 */
        91, /* 0.0300121009349823 */
        69, /* 0.0 */
        128, /* 0.08053611218929291 */
        114, /* 0.062216199934482574 */
        69, /* 0.0 */
        53, /* -0.022470321506261826 */
        158, /* 0.12200986593961716 */
        177, /* 0.14879398047924042 */
        170, /* 0.13834041357040405 */
        37, /* -0.04375731945037842 */
        246, /* 0.24312151968479156 */
        69, /* 0.0 */
        69, /* 0.0 */
        69, /* 0.0 */
        214, /* 0.1993577778339386 */
        58, /* -0.015084034763276577 */
        135, /* 0.09008825570344925 */
        69, /* 0.0 */
        69 /* 0.0 */
    };

    depthwise_conv2d_layer_t layer = {32, 3, weights, biases,{ 0.004721153249927596, 119 },{ 0.0013744766805686202, 69 } };
        
    return layer;
}


conv2d_layer_t init_conv2d_1_data(void){

        static filter_t filters[64];
        
        static const quant8 weights0[]={
           157, /* [-0.0132041] */
           174, /* [0.09328282] */
           169, /* [0.06216735] */
           32, /* [-0.79675055] */
           84, /* [-0.46963492] */
           153, /* [-0.0358662] */
           147, /* [-0.07722837] */
           122, /* [-0.23444343] */
           129, /* [-0.18615386] */
           187, /* [0.17758469] */
           126, /* [-0.20864604] */
           123, /* [-0.22486858] */
           77, /* [-0.51631385] */
           25, /* [-0.84530842] */
           180, /* [0.13200617] */
           188, /* [0.18196498] */
           165, /* [0.0359885] */
           195, /* [0.22613978] */
           106, /* [-0.332369] */
           146, /* [-0.08420219] */
           204, /* [0.28323689] */
           89, /* [-0.44127151] */
           96, /* [-0.39348328] */
           120, /* [-0.24304134] */
           131, /* [-0.17796421] */
           127, /* [-0.20068121] */
           150, /* [-0.05730182] */
           205, /* [0.2884576] */
           140, /* [-0.11756633] */
           201, /* [0.26243946] */
           160, /* [0.00350821] */
           148 /* [-0.07220227] */
        };
        static filter_t filter0 = {32, 1, weights0, 170};  //0.07136949896812439
        filters[0]=filter0;
            
        static const quant8 weights1[]={
           126, /* [-0.21048069] */
           196, /* [0.23185521] */
           137, /* [-0.13780272] */
           154, /* [-0.03334249] */
           139, /* [-0.12349672] */
           146, /* [-0.08216941] */
           146, /* [-0.08004611] */
           196, /* [0.23336965] */
           206, /* [0.2960203] */
           193, /* [0.2159047] */
           127, /* [-0.20341384] */
           110, /* [-0.30528015] */
           121, /* [-0.24096131] */
           120, /* [-0.24251793] */
           137, /* [-0.14034837] */
           170, /* [0.06643993] */
           57, /* [-0.64177662] */
           144, /* [-0.09601808] */
           165, /* [0.03521341] */
           149, /* [-0.0636843] */
           143, /* [-0.10254985] */
           179, /* [0.12621523] */
           146, /* [-0.08088933] */
           98, /* [-0.38429314] */
           129, /* [-0.19171137] */
           176, /* [0.10903084] */
           121, /* [-0.24139124] */
           157, /* [-0.01415382] */
           165, /* [0.03568488] */
           59, /* [-0.63004225] */
           196, /* [0.2356841] */
           148 /* [-0.06703722] */
        };
        static filter_t filter1 = {32, 1, weights1, 185};  //0.16511955857276917
        filters[1]=filter1;
            
        static const quant8 weights2[]={
           147, /* [-0.07850516] */
           183, /* [0.15302163] */
           96, /* [-0.39382386] */
           112, /* [-0.29788205] */
           229, /* [0.44222531] */
           179, /* [0.12280738] */
           59, /* [-0.6310885] */
           169, /* [0.06134999] */
           180, /* [0.13009453] */
           49, /* [-0.69136751] */
           99, /* [-0.37915078] */
           184, /* [0.16004461] */
           116, /* [-0.27122182] */
           153, /* [-0.03581911] */
           139, /* [-0.12691337] */
           135, /* [-0.14950408] */
           57, /* [-0.63987505] */
           190, /* [0.19476473] */
           199, /* [0.24903178] */
           112, /* [-0.29757124] */
           177, /* [0.11311571] */
           160, /* [0.00371584] */
           152, /* [-0.04208113] */
           108, /* [-0.32291323] */
           142, /* [-0.10783607] */
           157, /* [-0.01456904] */
           132, /* [-0.1717692] */
           207, /* [0.30095884] */
           193, /* [0.21608239] */
           42, /* [-0.73408294] */
           197, /* [0.23834169] */
           147 /* [-0.07809198] */
        };
        static filter_t filter2 = {32, 1, weights2, 167};  //0.05075214430689812
        filters[2]=filter2;
            
        static const quant8 weights3[]={
           159, /* [0.00030023] */
           174, /* [0.09524792] */
           176, /* [0.10925308] */
           101, /* [-0.36222404] */
           136, /* [-0.14613415] */
           152, /* [-0.04210573] */
           207, /* [0.30514282] */
           176, /* [0.1065551] */
           111, /* [-0.29965371] */
           142, /* [-0.10488383] */
           169, /* [0.06561443] */
           104, /* [-0.34375387] */
           141, /* [-0.11213003] */
           103, /* [-0.35353944] */
           142, /* [-0.1076529] */
           174, /* [0.09161252] */
           187, /* [0.17404513] */
           171, /* [0.07790786] */
           141, /* [-0.11205473] */
           100, /* [-0.3723945] */
           150, /* [-0.05612143] */
           69, /* [-0.56773359] */
           155, /* [-0.02563962] */
           105, /* [-0.33859968] */
           191, /* [0.20339382] */
           142, /* [-0.1073426] */
           124, /* [-0.21733755] */
           175, /* [0.10007876] */
           143, /* [-0.09809511] */
           219, /* [0.37857723] */
           127, /* [-0.20116371] */
           174 /* [0.09263074] */
        };
        static filter_t filter3 = {32, 1, weights3, 170};  //0.06822917610406876
        filters[3]=filter3;
            
        static const quant8 weights4[]={
           145, /* [-0.08957857] */
           128, /* [-0.19619715] */
           105, /* [-0.33768678] */
           97, /* [-0.38986146] */
           160, /* [0.00629695] */
           152, /* [-0.04551339] */
           165, /* [0.03875789] */
           144, /* [-0.09556365] */
           212, /* [0.3355523] */
           137, /* [-0.13558677] */
           176, /* [0.10546893] */
           147, /* [-0.07712749] */
           160, /* [0.00433322] */
           44, /* [-0.72180843] */
           192, /* [0.20813745] */
           157, /* [-0.01222156] */
           152, /* [-0.04561397] */
           130, /* [-0.18133014] */
           144, /* [-0.09150935] */
           154, /* [-0.02854107] */
           206, /* [0.29284638] */
           47, /* [-0.7018398] */
           141, /* [-0.11336097] */
           104, /* [-0.34803194] */
           189, /* [0.18718344] */
           137, /* [-0.13952124] */
           189, /* [0.18886322] */
           215, /* [0.35433078] */
           95, /* [-0.40268406] */
           157, /* [-0.01003867] */
           133, /* [-0.16098768] */
           187 /* [0.17434591] */
        };
        static filter_t filter4 = {32, 1, weights4, 177};  //0.11410397291183472
        filters[4]=filter4;
            
        static const quant8 weights5[]={
           158, /* [-0.00585622] */
           190, /* [0.19335335] */
           75, /* [-0.53066021] */
           175, /* [0.10184133] */
           152, /* [-0.04460213] */
           157, /* [-0.01473284] */
           173, /* [0.09103888] */
           179, /* [0.12601066] */
           125, /* [-0.21171454] */
           182, /* [0.14586364] */
           158, /* [-0.00741792] */
           248, /* [0.55894268] */
           148, /* [-0.07014711] */
           188, /* [0.18240938] */
           135, /* [-0.15293545] */
           193, /* [0.21233083] */
           133, /* [-0.1649116] */
           170, /* [0.07050323] */
           206, /* [0.2951571] */
           87, /* [-0.45601824] */
           96, /* [-0.3985016] */
           149, /* [-0.06236688] */
           154, /* [-0.02960628] */
           61, /* [-0.6151433] */
           162, /* [0.01973861] */
           154, /* [-0.02982169] */
           171, /* [0.07518858] */
           152, /* [-0.04367967] */
           183, /* [0.15302896] */
           98, /* [-0.38107252] */
           172, /* [0.08221757] */
           192 /* [0.20466816] */
        };
        static filter_t filter5 = {32, 1, weights5, 161};  //0.01566189154982567
        filters[5]=filter5;
            
        static const quant8 weights6[]={
           169, /* [0.06325471] */
           123, /* [-0.22958165] */
           175, /* [0.10103039] */
           201, /* [0.26519072] */
           164, /* [0.03355112] */
           191, /* [0.19970202] */
           190, /* [0.1963333] */
           120, /* [-0.24227083] */
           121, /* [-0.23741181] */
           162, /* [0.01719918] */
           135, /* [-0.14805678] */
           154, /* [-0.03185796] */
           151, /* [-0.05178461] */
           187, /* [0.17493947] */
           121, /* [-0.23971337] */
           209, /* [0.31458679] */
           138, /* [-0.13231665] */
           194, /* [0.21744704] */
           144, /* [-0.09200419] */
           197, /* [0.23987471] */
           85, /* [-0.46255413] */
           110, /* [-0.30635333] */
           143, /* [-0.10150937] */
           83, /* [-0.4796803] */
           134, /* [-0.15931159] */
           196, /* [0.23128384] */
           175, /* [0.1001631] */
           64, /* [-0.59486347] */
           203, /* [0.27819571] */
           155, /* [-0.02223606] */
           184, /* [0.15431231] */
           184 /* [0.15948266] */
        };
        static filter_t filter6 = {32, 1, weights6, 171};  //0.07741828262805939
        filters[6]=filter6;
            
        static const quant8 weights7[]={
           145, /* [-0.09122247] */
           182, /* [0.14176995] */
           168, /* [0.05637599] */
           189, /* [0.18800478] */
           94, /* [-0.40760058] */
           124, /* [-0.21761638] */
           168, /* [0.05426577] */
           149, /* [-0.06502044] */
           166, /* [0.04331493] */
           156, /* [-0.01988327] */
           197, /* [0.23845202] */
           163, /* [0.02297758] */
           171, /* [0.07732398] */
           164, /* [0.03400506] */
           180, /* [0.13233125] */
           122, /* [-0.23107339] */
           164, /* [0.03199943] */
           158, /* [-0.00904214] */
           147, /* [-0.07264709] */
           129, /* [-0.19157605] */
           61, /* [-0.6187194] */
           194, /* [0.21735474] */
           141, /* [-0.11073063] */
           125, /* [-0.21624477] */
           134, /* [-0.15832257] */
           157, /* [-0.0127477] */
           144, /* [-0.09449643] */
           117, /* [-0.26127449] */
           156, /* [-0.01726404] */
           132, /* [-0.17110798] */
           135, /* [-0.15325361] */
           153 /* [-0.0392192] */
        };
        static filter_t filter7 = {32, 1, weights7, 135};  //-0.1499253511428833
        filters[7]=filter7;
            
        static const quant8 weights8[]={
           188, /* [0.18262964] */
           189, /* [0.19175285] */
           143, /* [-0.1007041] */
           127, /* [-0.20038745] */
           101, /* [-0.36498454] */
           164, /* [0.03186738] */
           181, /* [0.14044669] */
           147, /* [-0.07345963] */
           146, /* [-0.08429015] */
           169, /* [0.0638224] */
           152, /* [-0.04150469] */
           138, /* [-0.13067412] */
           180, /* [0.12924002] */
           193, /* [0.21704297] */
           151, /* [-0.05232602] */
           156, /* [-0.01608033] */
           136, /* [-0.14421964] */
           180, /* [0.13129503] */
           160, /* [0.00430816] */
           193, /* [0.21405368] */
           123, /* [-0.228875] */
           198, /* [0.24324045] */
           184, /* [0.15485917] */
           182, /* [0.14610258] */
           123, /* [-0.22600853] */
           152, /* [-0.04090488] */
           149, /* [-0.06356102] */
           128, /* [-0.19482578] */
           162, /* [0.02187952] */
           57, /* [-0.64074242] */
           154, /* [-0.03252083] */
           145 /* [-0.09116691] */
        };
        static filter_t filter8 = {32, 1, weights8, 183};  //0.15237437188625336
        filters[8]=filter8;
            
        static const quant8 weights9[]={
           149, /* [-0.06091303] */
           185, /* [0.16246557] */
           203, /* [0.27850726] */
           197, /* [0.23980334] */
           41, /* [-0.74476582] */
           136, /* [-0.14281178] */
           176, /* [0.10892874] */
           133, /* [-0.16294062] */
           183, /* [0.15058081] */
           183, /* [0.15120138] */
           186, /* [0.16878378] */
           119, /* [-0.25397697] */
           151, /* [-0.04862992] */
           141, /* [-0.11230612] */
           171, /* [0.0739314] */
           183, /* [0.15239784] */
           158, /* [-0.00878501] */
           157, /* [-0.01489985] */
           180, /* [0.12936257] */
           138, /* [-0.13253248] */
           100, /* [-0.37270221] */
           82, /* [-0.4816615] */
           190, /* [0.19196981] */
           50, /* [-0.68509239] */
           176, /* [0.10450101] */
           193, /* [0.21587574] */
           173, /* [0.0910762] */
           113, /* [-0.29255638] */
           133, /* [-0.16261651] */
           136, /* [-0.14274612] */
           187, /* [0.1774441] */
           159 /* [-0.00152391] */
        };
        static filter_t filter9 = {32, 1, weights9, 153};  //-0.037698496133089066
        filters[9]=filter9;
            
        static const quant8 weights10[]={
           171, /* [0.07500005] */
           158, /* [-0.00875652] */
           183, /* [0.14901768] */
           137, /* [-0.1387326] */
           115, /* [-0.27882224] */
           152, /* [-0.04647303] */
           183, /* [0.15257652] */
           135, /* [-0.1513955] */
           115, /* [-0.27834496] */
           80, /* [-0.49808952] */
           166, /* [0.04360423] */
           122, /* [-0.23195446] */
           203, /* [0.27523464] */
           167, /* [0.048278] */
           153, /* [-0.03787184] */
           173, /* [0.09033637] */
           82, /* [-0.48742339] */
           197, /* [0.24008942] */
           186, /* [0.16918673] */
           178, /* [0.11912601] */
           130, /* [-0.18191896] */
           158, /* [-0.00483462] */
           157, /* [-0.01513773] */
           166, /* [0.044313] */
           163, /* [0.02708709] */
           123, /* [-0.22637022] */
           192, /* [0.20477414] */
           106, /* [-0.33194447] */
           199, /* [0.2516723] */
           75, /* [-0.53103667] */
           145, /* [-0.08702534] */
           164 /* [0.02888542] */
        };
        static filter_t filter10 = {32, 1, weights10, 183};  //0.14874309301376343
        filters[10]=filter10;
            
        static const quant8 weights11[]={
           141, /* [-0.11058629] */
           124, /* [-0.2222839] */
           169, /* [0.06010102] */
           86, /* [-0.46081063] */
           123, /* [-0.22685482] */
           159, /* [-0.00088811] */
           214, /* [0.3451359] */
           188, /* [0.18377602] */
           27, /* [-0.82824087] */
           130, /* [-0.18254906] */
           185, /* [0.16275613] */
           139, /* [-0.12462287] */
           185, /* [0.16504318] */
           181, /* [0.14058691] */
           138, /* [-0.13011986] */
           199, /* [0.25350487] */
           230, /* [0.44526187] */
           121, /* [-0.24125433] */
           33, /* [-0.78992867] */
           140, /* [-0.11891493] */
           125, /* [-0.21281886] */
           136, /* [-0.14654975] */
           150, /* [-0.05384348] */
           190, /* [0.19367467] */
           159, /* [0.00057334] */
           159, /* [-0.0019967] */
           134, /* [-0.15418983] */
           120, /* [-0.2422685] */
           140, /* [-0.12035875] */
           190, /* [0.19384117] */
           186, /* [0.16684753] */
           173 /* [0.09040141] */
        };
        static filter_t filter11 = {32, 1, weights11, 163};  //0.023773211985826492
        filters[11]=filter11;
            
        static const quant8 weights12[]={
           148, /* [-0.07216859] */
           137, /* [-0.13845158] */
           122, /* [-0.23539251] */
           181, /* [0.13825576] */
           129, /* [-0.18783607] */
           197, /* [0.24070174] */
           111, /* [-0.29990801] */
           178, /* [0.11724383] */
           168, /* [0.05725385] */
           110, /* [-0.30712304] */
           140, /* [-0.12148544] */
           175, /* [0.09832316] */
           143, /* [-0.09914846] */
           207, /* [0.30399951] */
           199, /* [0.24918115] */
           175, /* [0.09852505] */
           99, /* [-0.37622774] */
           120, /* [-0.24833453] */
           199, /* [0.25207412] */
           124, /* [-0.22310947] */
           75, /* [-0.53109741] */
           160, /* [0.00650535] */
           189, /* [0.18929781] */
           141, /* [-0.11204763] */
           190, /* [0.19615102] */
           181, /* [0.13848901] */
           169, /* [0.06384164] */
           56, /* [-0.64957654] */
           150, /* [-0.0571078] */
           121, /* [-0.23613277] */
           151, /* [-0.05093253] */
           162 /* [0.01996273] */
        };
        static filter_t filter12 = {32, 1, weights12, 175};  //0.09982756525278091
        filters[12]=filter12;
            
        static const quant8 weights13[]={
           125, /* [-0.21533287] */
           160, /* [0.00826722] */
           127, /* [-0.20030117] */
           176, /* [0.10694864] */
           172, /* [0.08202738] */
           159, /* [0.00270158] */
           155, /* [-0.02228376] */
           190, /* [0.19791251] */
           142, /* [-0.10700057] */
           129, /* [-0.18949802] */
           174, /* [0.09240706] */
           154, /* [-0.03257732] */
           115, /* [-0.27856222] */
           169, /* [0.0650816] */
           171, /* [0.07825118] */
           189, /* [0.1862856] */
           199, /* [0.25328529] */
           196, /* [0.23179626] */
           168, /* [0.05680709] */
           153, /* [-0.03889366] */
           179, /* [0.12343465] */
           54, /* [-0.66030377] */
           138, /* [-0.13370897] */
           132, /* [-0.16915113] */
           155, /* [-0.02721864] */
           149, /* [-0.06576848] */
           150, /* [-0.05365354] */
           162, /* [0.01612515] */
           128, /* [-0.19368574] */
           177, /* [0.11011904] */
           150, /* [-0.05611908] */
           140 /* [-0.11956763] */
        };
        static filter_t filter13 = {32, 1, weights13, 156};  //-0.01770983636379242
        filters[13]=filter13;
            
        static const quant8 weights14[]={
           145, /* [-0.08504462] */
           190, /* [0.19427496] */
           119, /* [-0.25232893] */
           179, /* [0.12808463] */
           206, /* [0.29814374] */
           128, /* [-0.1955725] */
           79, /* [-0.50529474] */
           186, /* [0.16702217] */
           175, /* [0.09912446] */
           105, /* [-0.33793607] */
           109, /* [-0.31407157] */
           141, /* [-0.11372416] */
           148, /* [-0.0711069] */
           153, /* [-0.03597407] */
           128, /* [-0.197806] */
           167, /* [0.04757322] */
           115, /* [-0.27660573] */
           194, /* [0.21749562] */
           168, /* [0.05692187] */
           120, /* [-0.24716578] */
           81, /* [-0.48884171] */
           157, /* [-0.01121671] */
           194, /* [0.21912549] */
           96, /* [-0.39919719] */
           159, /* [-0.00048566] */
           175, /* [0.10101473] */
           140, /* [-0.12094629] */
           128, /* [-0.19506] */
           192, /* [0.20859101] */
           0, /* [-1.00094163] */
           121, /* [-0.23984736] */
           185 /* [0.16129249] */
        };
        static filter_t filter14 = {32, 1, weights14, 175};  //0.10077831149101257
        filters[14]=filter14;
            
        static const quant8 weights15[]={
           188, /* [0.18368864] */
           183, /* [0.15066046] */
           180, /* [0.13118626] */
           142, /* [-0.10383023] */
           140, /* [-0.12179449] */
           190, /* [0.19250894] */
           177, /* [0.11503409] */
           173, /* [0.08981079] */
           148, /* [-0.06744922] */
           181, /* [0.13681586] */
           146, /* [-0.08089222] */
           114, /* [-0.28023264] */
           192, /* [0.20660816] */
           205, /* [0.28668845] */
           165, /* [0.03691626] */
           88, /* [-0.44904751] */
           165, /* [0.03970338] */
           183, /* [0.14803678] */
           180, /* [0.13516559] */
           177, /* [0.11042818] */
           103, /* [-0.35115752] */
           177, /* [0.11398522] */
           174, /* [0.09639727] */
           195, /* [0.22832403] */
           199, /* [0.24882752] */
           137, /* [-0.13529354] */
           151, /* [-0.05283445] */
           103, /* [-0.34953445] */
           105, /* [-0.33676267] */
           98, /* [-0.38272297] */
           138, /* [-0.13262045] */
           130 /* [-0.18346906] */
        };
        static filter_t filter15 = {32, 1, weights15, 129};  //-0.18608927726745605
        filters[15]=filter15;
            
        static const quant8 weights16[]={
           187, /* [0.1778425] */
           143, /* [-0.10115933] */
           186, /* [0.1707634] */
           167, /* [0.04773821] */
           195, /* [0.22460712] */
           188, /* [0.18200952] */
           132, /* [-0.16849601] */
           173, /* [0.08889037] */
           222, /* [0.3995229] */
           177, /* [0.11376351] */
           163, /* [0.02594694] */
           102, /* [-0.35890019] */
           190, /* [0.19717354] */
           173, /* [0.08692098] */
           189, /* [0.19063389] */
           108, /* [-0.32110545] */
           45, /* [-0.71816468] */
           125, /* [-0.21353585] */
           145, /* [-0.08579341] */
           123, /* [-0.2278599] */
           115, /* [-0.27809039] */
           170, /* [0.07069477] */
           162, /* [0.01818302] */
           98, /* [-0.38456708] */
           188, /* [0.18549401] */
           121, /* [-0.23728698] */
           184, /* [0.16025782] */
           99, /* [-0.37464017] */
           162, /* [0.02149736] */
           115, /* [-0.2751444] */
           165, /* [0.03608799] */
           139 /* [-0.1228205] */
        };
        static filter_t filter16 = {32, 1, weights16, 161};  //0.013164196163415909
        filters[16]=filter16;
            
        static const quant8 weights17[]={
           171, /* [0.07707518] */
           142, /* [-0.104146] */
           182, /* [0.14672585] */
           165, /* [0.03804974] */
           124, /* [-0.21985573] */
           129, /* [-0.188003] */
           208, /* [0.3094855] */
           144, /* [-0.09604591] */
           110, /* [-0.30560347] */
           99, /* [-0.37801561] */
           190, /* [0.19732383] */
           129, /* [-0.18658178] */
           165, /* [0.03511804] */
           191, /* [0.20219858] */
           137, /* [-0.13940507] */
           125, /* [-0.21178788] */
           153, /* [-0.03495114] */
           175, /* [0.10249001] */
           189, /* [0.18575104] */
           189, /* [0.18777475] */
           176, /* [0.1093931] */
           141, /* [-0.11202434] */
           191, /* [0.20127118] */
           209, /* [0.31738842] */
           124, /* [-0.21874768] */
           120, /* [-0.24710262] */
           168, /* [0.05609739] */
           175, /* [0.1032587] */
           164, /* [0.03324572] */
           117, /* [-0.26354986] */
           130, /* [-0.1827811] */
           149 /* [-0.06302422] */
        };
        static filter_t filter17 = {32, 1, weights17, 125};  //-0.21351021528244019
        filters[17]=filter17;
            
        static const quant8 weights18[]={
           159, /* [-0.00075394] */
           169, /* [0.06124121] */
           154, /* [-0.03145697] */
           134, /* [-0.15549888] */
           184, /* [0.15561491] */
           125, /* [-0.21275622] */
           145, /* [-0.08510713] */
           137, /* [-0.1361801] */
           187, /* [0.17927265] */
           95, /* [-0.40557882] */
           156, /* [-0.01729761] */
           149, /* [-0.06216265] */
           184, /* [0.15557434] */
           207, /* [0.2989043] */
           146, /* [-0.08424741] */
           166, /* [0.04692853] */
           101, /* [-0.36763811] */
           139, /* [-0.1281687] */
           202, /* [0.27084595] */
           113, /* [-0.28811491] */
           53, /* [-0.66540992] */
           159, /* [-0.00199557] */
           186, /* [0.16934328] */
           131, /* [-0.17457102] */
           170, /* [0.06990522] */
           140, /* [-0.11721981] */
           187, /* [0.17347693] */
           114, /* [-0.28118649] */
           145, /* [-0.0880191] */
           120, /* [-0.24823853] */
           131, /* [-0.17820251] */
           158 /* [-0.00445765] */
        };
        static filter_t filter18 = {32, 1, weights18, 161};  //0.009848206304013729
        filters[18]=filter18;
            
        static const quant8 weights19[]={
           185, /* [0.16495717] */
           199, /* [0.24873704] */
           60, /* [-0.62122238] */
           167, /* [0.04844999] */
           207, /* [0.29941878] */
           140, /* [-0.11643571] */
           183, /* [0.15114748] */
           162, /* [0.01573008] */
           131, /* [-0.17682847] */
           181, /* [0.1379368] */
           105, /* [-0.33846429] */
           220, /* [0.38598403] */
           152, /* [-0.04427753] */
           102, /* [-0.35855761] */
           143, /* [-0.10345745] */
           62, /* [-0.60758168] */
           177, /* [0.11219766] */
           147, /* [-0.07342976] */
           207, /* [0.30071959] */
           211, /* [0.3256498] */
           169, /* [0.06436133] */
           131, /* [-0.17909844] */
           70, /* [-0.56115472] */
           217, /* [0.36342853] */
           158, /* [-0.00711942] */
           193, /* [0.21457571] */
           180, /* [0.13258773] */
           54, /* [-0.66271263] */
           72, /* [-0.54952759] */
           172, /* [0.08236778] */
           176, /* [0.10449123] */
           135 /* [-0.15364361] */
        };
        static filter_t filter19 = {32, 1, weights19, 148};  //-0.07002772390842438
        filters[19]=filter19;
            
        static const quant8 weights20[]={
           133, /* [-0.16426599] */
           147, /* [-0.07588005] */
           67, /* [-0.58186197] */
           172, /* [0.08240332] */
           175, /* [0.09901199] */
           146, /* [-0.08453989] */
           199, /* [0.25218418] */
           180, /* [0.13323092] */
           184, /* [0.15510352] */
           217, /* [0.36352164] */
           146, /* [-0.08098286] */
           207, /* [0.30095682] */
           112, /* [-0.29553351] */
           188, /* [0.18172225] */
           121, /* [-0.23821944] */
           48, /* [-0.69886643] */
           138, /* [-0.13092306] */
           129, /* [-0.18942994] */
           140, /* [-0.12126098] */
           216, /* [0.36029083] */
           153, /* [-0.04048907] */
           152, /* [-0.04558302] */
           107, /* [-0.32848182] */
           217, /* [0.36770579] */
           188, /* [0.18220168] */
           138, /* [-0.1290189] */
           126, /* [-0.20969385] */
           103, /* [-0.35291901] */
           118, /* [-0.25597045] */
           158, /* [-0.00834462] */
           162, /* [0.02037948] */
           151 /* [-0.05245513] */
        };
        static filter_t filter20 = {32, 1, weights20, 127};  //-0.19862765073776245
        filters[20]=filter20;
            
        static const quant8 weights21[]={
           150, /* [-0.05931652] */
           178, /* [0.11742049] */
           136, /* [-0.1440074] */
           159, /* [0.00217371] */
           118, /* [-0.25651073] */
           183, /* [0.15307891] */
           131, /* [-0.17698722] */
           144, /* [-0.09658182] */
           169, /* [0.0611622] */
           112, /* [-0.29293019] */
           134, /* [-0.15993206] */
           172, /* [0.08328975] */
           163, /* [0.02264599] */
           180, /* [0.13082618] */
           120, /* [-0.24741107] */
           180, /* [0.13511224] */
           171, /* [0.07835168] */
           193, /* [0.21406996] */
           111, /* [-0.29992497] */
           163, /* [0.02411351] */
           148, /* [-0.06983241] */
           150, /* [-0.05477686] */
           144, /* [-0.09391247] */
           166, /* [0.04410212] */
           143, /* [-0.10230201] */
           136, /* [-0.14473844] */
           187, /* [0.17442614] */
           137, /* [-0.13934338] */
           156, /* [-0.01729872] */
           137, /* [-0.1354479] */
           146, /* [-0.08325046] */
           169 /* [0.06258023] */
        };
        static filter_t filter21 = {32, 1, weights21, 153};  //-0.04040040075778961
        filters[21]=filter21;
            
        static const quant8 weights22[]={
           123, /* [-0.22477829] */
           120, /* [-0.24759269] */
           107, /* [-0.32572782] */
           151, /* [-0.05133745] */
           191, /* [0.20073077] */
           164, /* [0.03282654] */
           167, /* [0.05259525] */
           124, /* [-0.21877337] */
           155, /* [-0.02304062] */
           136, /* [-0.14389247] */
           200, /* [0.25971967] */
           95, /* [-0.4026441] */
           149, /* [-0.06434678] */
           72, /* [-0.54452842] */
           159, /* [0.00208777] */
           187, /* [0.17659815] */
           151, /* [-0.05041575] */
           189, /* [0.19180787] */
           206, /* [0.29343659] */
           67, /* [-0.57811046] */
           192, /* [0.2104194] */
           58, /* [-0.63410133] */
           112, /* [-0.2977744] */
           88, /* [-0.4435811] */
           140, /* [-0.11718351] */
           125, /* [-0.21252781] */
           120, /* [-0.24282986] */
           199, /* [0.25176075] */
           134, /* [-0.16035503] */
           184, /* [0.15739807] */
           168, /* [0.05613625] */
           154 /* [-0.03225851] */
        };
        static filter_t filter22 = {32, 1, weights22, 159};  //-0.0022730249911546707
        filters[22]=filter22;
            
        static const quant8 weights23[]={
           189, /* [0.18882298] */
           158, /* [-0.00432736] */
           109, /* [-0.31510174] */
           161, /* [0.01211865] */
           177, /* [0.11359953] */
           140, /* [-0.12073267] */
           124, /* [-0.2232971] */
           135, /* [-0.15082943] */
           160, /* [0.00331632] */
           101, /* [-0.36217937] */
           180, /* [0.1349099] */
           87, /* [-0.45397222] */
           156, /* [-0.02150561] */
           129, /* [-0.19099563] */
           187, /* [0.17907447] */
           238, /* [0.49676755] */
           58, /* [-0.63363504] */
           157, /* [-0.01164776] */
           116, /* [-0.26924762] */
           108, /* [-0.32254717] */
           200, /* [0.25494587] */
           17, /* [-0.89073092] */
           165, /* [0.0397829] */
           59, /* [-0.62825286] */
           155, /* [-0.02232993] */
           155, /* [-0.02340001] */
           171, /* [0.07327867] */
           232, /* [0.45794889] */
           217, /* [0.36562654] */
           132, /* [-0.17029227] */
           144, /* [-0.09137547] */
           142 /* [-0.10839045] */
        };
        static filter_t filter23 = {32, 1, weights23, 177};  //0.11618433147668839
        filters[23]=filter23;
            
        static const quant8 weights24[]={
           166, /* [0.04204834] */
           154, /* [-0.03302783] */
           23, /* [-0.85793841] */
           175, /* [0.10289571] */
           196, /* [0.2297228] */
           153, /* [-0.03833735] */
           111, /* [-0.29899719] */
           187, /* [0.17342925] */
           206, /* [0.29640543] */
           126, /* [-0.2063863] */
           172, /* [0.08297396] */
           152, /* [-0.04381222] */
           109, /* [-0.31270584] */
           68, /* [-0.57222432] */
           145, /* [-0.0872786] */
           188, /* [0.1847754] */
           133, /* [-0.16211314] */
           143, /* [-0.09798831] */
           227, /* [0.42954195] */
           183, /* [0.15210114] */
           166, /* [0.04534892] */
           67, /* [-0.5768851] */
           109, /* [-0.31225407] */
           152, /* [-0.04368116] */
           167, /* [0.04719621] */
           132, /* [-0.17157871] */
           177, /* [0.11160266] */
           221, /* [0.38747004] */
           173, /* [0.08835393] */
           97, /* [-0.39162889] */
           126, /* [-0.20511615] */
           145 /* [-0.08536685] */
        };
        static filter_t filter24 = {32, 1, weights24, 127};  //-0.20330363512039185
        filters[24]=filter24;
            
        static const quant8 weights25[]={
           131, /* [-0.17402011] */
           139, /* [-0.12595969] */
           182, /* [0.14286916] */
           56, /* [-0.64646119] */
           158, /* [-0.00567104] */
           175, /* [0.10281235] */
           168, /* [0.05490855] */
           170, /* [0.06796324] */
           133, /* [-0.16470192] */
           74, /* [-0.531699] */
           126, /* [-0.20503838] */
           139, /* [-0.12877297] */
           176, /* [0.10767177] */
           164, /* [0.03006356] */
           198, /* [0.24273527] */
           138, /* [-0.13372822] */
           161, /* [0.00973113] */
           176, /* [0.10732627] */
           106, /* [-0.33335474] */
           47, /* [-0.70450079] */
           208, /* [0.30908597] */
           63, /* [-0.6009438] */
           140, /* [-0.11704756] */
           92, /* [-0.42308488] */
           191, /* [0.20208675] */
           127, /* [-0.20336652] */
           155, /* [-0.02500939] */
           215, /* [0.35311159] */
           199, /* [0.2548131] */
           159, /* [-0.00137833] */
           195, /* [0.22960156] */
           192 /* [0.20690274] */
        };
        static filter_t filter25 = {32, 1, weights25, 154};  //-0.029832128435373306
        filters[25]=filter25;
            
        static const quant8 weights26[]={
           187, /* [0.17866266] */
           161, /* [0.01202494] */
           110, /* [-0.31075686] */
           130, /* [-0.18461245] */
           183, /* [0.15329482] */
           143, /* [-0.10056597] */
           169, /* [0.06303838] */
           175, /* [0.10123706] */
           172, /* [0.07920875] */
           123, /* [-0.22577226] */
           227, /* [0.42817903] */
           85, /* [-0.46642777] */
           209, /* [0.3116084] */
           196, /* [0.23288107] */
           187, /* [0.17693996] */
           150, /* [-0.0578233] */
           153, /* [-0.03985528] */
           185, /* [0.16062599] */
           204, /* [0.28479406] */
           103, /* [-0.34944209] */
           81, /* [-0.48972222] */
           135, /* [-0.14949064] */
           187, /* [0.17694353] */
           164, /* [0.03416942] */
           162, /* [0.01852703] */
           131, /* [-0.17619652] */
           149, /* [-0.06190318] */
           89, /* [-0.43860659] */
           142, /* [-0.10817488] */
           105, /* [-0.33670431] */
           142, /* [-0.10836458] */
           198 /* [0.2472139] */
        };
        static filter_t filter26 = {32, 1, weights26, 151};  //-0.04734120890498161
        filters[26]=filter26;
            
        static const quant8 weights27[]={
           165, /* [0.03529638] */
           122, /* [-0.23129034] */
           92, /* [-0.42189464] */
           121, /* [-0.24131502] */
           199, /* [0.2499444] */
           180, /* [0.12959671] */
           134, /* [-0.15512174] */
           171, /* [0.0747183] */
           182, /* [0.14345762] */
           72, /* [-0.54986155] */
           111, /* [-0.304317] */
           77, /* [-0.51455104] */
           77, /* [-0.51607722] */
           172, /* [0.07964036] */
           168, /* [0.05859876] */
           168, /* [0.05437285] */
           35, /* [-0.78070778] */
           150, /* [-0.05768991] */
           127, /* [-0.19822711] */
           42, /* [-0.7388345] */
           235, /* [0.47579074] */
           78, /* [-0.50870901] */
           213, /* [0.33922777] */
           96, /* [-0.3977879] */
           192, /* [0.20460624] */
           156, /* [-0.01715559] */
           179, /* [0.12325346] */
           237, /* [0.48917195] */
           177, /* [0.11039372] */
           33, /* [-0.79293549] */
           197, /* [0.24041575] */
           135 /* [-0.15150696] */
        };
        static filter_t filter27 = {32, 1, weights27, 176};  //0.1093122810125351
        filters[27]=filter27;
            
        static const quant8 weights28[]={
           168, /* [0.05698562] */
           137, /* [-0.13561445] */
           147, /* [-0.0746266] */
           152, /* [-0.04480751] */
           131, /* [-0.17554478] */
           162, /* [0.01984084] */
           141, /* [-0.11138365] */
           190, /* [0.19452208] */
           175, /* [0.10271339] */
           102, /* [-0.35998303] */
           194, /* [0.22030476] */
           129, /* [-0.19123361] */
           181, /* [0.13690111] */
           188, /* [0.18199047] */
           124, /* [-0.2190913] */
           133, /* [-0.1639937] */
           143, /* [-0.10124718] */
           172, /* [0.08150643] */
           189, /* [0.18802355] */
           142, /* [-0.10387008] */
           91, /* [-0.42540395] */
           169, /* [0.06382448] */
           179, /* [0.12497085] */
           40, /* [-0.75082892] */
           196, /* [0.23288107] */
           188, /* [0.18026787] */
           161, /* [0.01161104] */
           155, /* [-0.02434383] */
           189, /* [0.19143873] */
           97, /* [-0.38953471] */
           150, /* [-0.05726433] */
           169 /* [0.06590146] */
        };
        static filter_t filter28 = {32, 1, weights28, 138};  //-0.13267318904399872
        filters[28]=filter28;
            
        static const quant8 weights29[]={
           168, /* [0.05740303] */
           133, /* [-0.1632396] */
           73, /* [-0.53857428] */
           183, /* [0.15354091] */
           212, /* [0.33282351] */
           137, /* [-0.13886988] */
           102, /* [-0.35806155] */
           139, /* [-0.1259042] */
           177, /* [0.1131788] */
           156, /* [-0.01745042] */
           113, /* [-0.29169399] */
           220, /* [0.38297623] */
           111, /* [-0.30491605] */
           142, /* [-0.10854238] */
           124, /* [-0.21811199] */
           148, /* [-0.07063931] */
           175, /* [0.09902632] */
           157, /* [-0.01184469] */
           152, /* [-0.04335864] */
           163, /* [0.02290285] */
           81, /* [-0.49324676] */
           171, /* [0.07505402] */
           130, /* [-0.1852545] */
           99, /* [-0.37858719] */
           165, /* [0.04024476] */
           137, /* [-0.13915581] */
           154, /* [-0.0293867] */
           92, /* [-0.42025334] */
           168, /* [0.05627561] */
           177, /* [0.1137532] */
           147, /* [-0.07303011] */
           167 /* [0.04888856] */
        };
        static filter_t filter29 = {32, 1, weights29, 175};  //0.0993167832493782
        filters[29]=filter29;
            
        static const quant8 weights30[]={
           186, /* [0.17238432] */
           189, /* [0.18706912] */
           52, /* [-0.67503351] */
           109, /* [-0.31207636] */
           251, /* [0.57930303] */
           151, /* [-0.05207789] */
           131, /* [-0.17843969] */
           192, /* [0.204575] */
           138, /* [-0.13353297] */
           132, /* [-0.17134768] */
           31, /* [-0.80326211] */
           255, /* [0.60347259] */
           107, /* [-0.32904041] */
           89, /* [-0.4373104] */
           147, /* [-0.0750103] */
           134, /* [-0.15857689] */
           125, /* [-0.21180809] */
           187, /* [0.17409515] */
           184, /* [0.15934102] */
           179, /* [0.12582339] */
           168, /* [0.05789436] */
           153, /* [-0.03984829] */
           110, /* [-0.30855522] */
           151, /* [-0.04751586] */
           127, /* [-0.19825196] */
           123, /* [-0.22783399] */
           159, /* [0.00126243] */
           177, /* [0.11246269] */
           114, /* [-0.28395098] */
           125, /* [-0.21335438] */
           193, /* [0.21251404] */
           137 /* [-0.13780528] */
        };
        static filter_t filter30 = {32, 1, weights30, 174};  //0.09724444895982742
        filters[30]=filter30;
            
        static const quant8 weights31[]={
           187, /* [0.17481738] */
           198, /* [0.24513263] */
           173, /* [0.09078603] */
           120, /* [-0.24456425] */
           106, /* [-0.33052665] */
           194, /* [0.22294587] */
           132, /* [-0.17260943] */
           136, /* [-0.14256704] */
           63, /* [-0.60251123] */
           101, /* [-0.36525738] */
           133, /* [-0.16069223] */
           149, /* [-0.06550906] */
           179, /* [0.12375984] */
           215, /* [0.35206357] */
           125, /* [-0.21175373] */
           222, /* [0.39818344] */
           136, /* [-0.14417841] */
           178, /* [0.11928338] */
           36, /* [-0.77423853] */
           102, /* [-0.3599703] */
           172, /* [0.07881213] */
           75, /* [-0.52581775] */
           151, /* [-0.05276558] */
           69, /* [-0.56727761] */
           176, /* [0.10872602] */
           160, /* [0.00520557] */
           186, /* [0.16748661] */
           181, /* [0.14108974] */
           248, /* [0.55791092] */
           120, /* [-0.24785165] */
           149, /* [-0.06497604] */
           161 /* [0.01523912] */
        };
        static filter_t filter31 = {32, 1, weights31, 179};  //0.12850546836853027
        filters[31]=filter31;
            
        static const quant8 weights32[]={
           164, /* [0.03158271] */
           166, /* [0.04631382] */
           202, /* [0.26881376] */
           102, /* [-0.35850453] */
           71, /* [-0.55103868] */
           160, /* [0.00864959] */
           130, /* [-0.18455188] */
           161, /* [0.01238459] */
           101, /* [-0.36672983] */
           143, /* [-0.09909979] */
           196, /* [0.23520827] */
           127, /* [-0.20243432] */
           204, /* [0.28584263] */
           124, /* [-0.21825588] */
           156, /* [-0.01622689] */
           183, /* [0.15144731] */
           205, /* [0.29091084] */
           184, /* [0.15485954] */
           74, /* [-0.53487879] */
           106, /* [-0.3329854] */
           188, /* [0.18278807] */
           57, /* [-0.64081168] */
           188, /* [0.18012357] */
           103, /* [-0.35203904] */
           187, /* [0.17572153] */
           147, /* [-0.0769673] */
           186, /* [0.17218518] */
           171, /* [0.07635368] */
           159, /* [-0.00182771] */
           151, /* [-0.04968929] */
           131, /* [-0.17726564] */
           170 /* [0.07228065] */
        };
        static filter_t filter32 = {32, 1, weights32, 168};  //0.05616335943341255
        filters[32]=filter32;
            
        static const quant8 weights33[]={
           178, /* [0.12041217] */
           194, /* [0.22042578] */
           208, /* [0.30604181] */
           112, /* [-0.29749817] */
           83, /* [-0.47549009] */
           137, /* [-0.13808793] */
           148, /* [-0.06616399] */
           152, /* [-0.04214114] */
           90, /* [-0.43597275] */
           161, /* [0.0116976] */
           177, /* [0.11510962] */
           119, /* [-0.24970378] */
           165, /* [0.03500151] */
           183, /* [0.14822717] */
           185, /* [0.16369492] */
           168, /* [0.0571915] */
           149, /* [-0.06594949] */
           184, /* [0.15936923] */
           114, /* [-0.28186512] */
           65, /* [-0.59322476] */
           188, /* [0.18447548] */
           118, /* [-0.25757945] */
           152, /* [-0.04383238] */
           139, /* [-0.12412158] */
           142, /* [-0.10383826] */
           157, /* [-0.0138284] */
           162, /* [0.01593256] */
           165, /* [0.03691379] */
           186, /* [0.16926467] */
           133, /* [-0.16473269] */
           162, /* [0.01625878] */
           149 /* [-0.06147867] */
        };
        static filter_t filter33 = {32, 1, weights33, 168};  //0.05745236575603485
        filters[33]=filter33;
            
        static const quant8 weights34[]={
           169, /* [0.06511235] */
           168, /* [0.05796587] */
           173, /* [0.09051139] */
           162, /* [0.02119497] */
           153, /* [-0.03697838] */
           132, /* [-0.16772991] */
           96, /* [-0.39816487] */
           188, /* [0.18103075] */
           173, /* [0.08815393] */
           149, /* [-0.06597427] */
           177, /* [0.11341388] */
           96, /* [-0.39757946] */
           159, /* [0.00147965] */
           197, /* [0.23760951] */
           150, /* [-0.05481416] */
           173, /* [0.08887406] */
           97, /* [-0.38720477] */
           177, /* [0.11570269] */
           174, /* [0.09610647] */
           136, /* [-0.14480014] */
           110, /* [-0.30756161] */
           159, /* [0.00201762] */
           180, /* [0.13268609] */
           108, /* [-0.3221094] */
           177, /* [0.11104941] */
           169, /* [0.06526732] */
           144, /* [-0.09129024] */
           93, /* [-0.41423267] */
           161, /* [0.01540107] */
           123, /* [-0.22614917] */
           190, /* [0.1931926] */
           170 /* [0.06819683] */
        };
        static filter_t filter34 = {32, 1, weights34, 163};  //0.02663133665919304
        filters[34]=filter34;
            
        static const quant8 weights35[]={
           170, /* [0.07059181] */
           160, /* [0.00902027] */
           130, /* [-0.18060416] */
           126, /* [-0.20730007] */
           123, /* [-0.2296415] */
           179, /* [0.12678421] */
           149, /* [-0.06248015] */
           130, /* [-0.18472189] */
           168, /* [0.05684566] */
           148, /* [-0.0718385] */
           157, /* [-0.01449239] */
           197, /* [0.23854083] */
           170, /* [0.06995535] */
           143, /* [-0.10025311] */
           138, /* [-0.13211495] */
           149, /* [-0.06362861] */
           142, /* [-0.10972261] */
           147, /* [-0.0743534] */
           123, /* [-0.22815144] */
           129, /* [-0.19084018] */
           138, /* [-0.13025957] */
           163, /* [0.02578616] */
           152, /* [-0.04426438] */
           120, /* [-0.24464566] */
           133, /* [-0.16601938] */
           124, /* [-0.22119117] */
           187, /* [0.17652941] */
           133, /* [-0.16443264] */
           138, /* [-0.13410008] */
           130, /* [-0.18343854] */
           127, /* [-0.19882196] */
           141 /* [-0.11224777] */
        };
        static filter_t filter35 = {32, 1, weights35, 159};  //0.0
        filters[35]=filter35;
            
        static const quant8 weights36[]={
           128, /* [-0.19788957] */
           185, /* [0.16378498] */
           85, /* [-0.46865535] */
           191, /* [0.20240255] */
           154, /* [-0.0341383] */
           121, /* [-0.24046546] */
           190, /* [0.19495052] */
           177, /* [0.11208367] */
           184, /* [0.15584068] */
           119, /* [-0.2506012] */
           201, /* [0.26621711] */
           166, /* [0.04677102] */
           158, /* [-0.00707382] */
           130, /* [-0.18118438] */
           159, /* [0.00188875] */
           177, /* [0.11621632] */
           156, /* [-0.01659137] */
           159, /* [-0.00036162] */
           206, /* [0.29557511] */
           167, /* [0.04720069] */
           151, /* [-0.05334782] */
           97, /* [-0.39061251] */
           181, /* [0.13850535] */
           156, /* [-0.01853713] */
           148, /* [-0.07142293] */
           159, /* [-0.00165492] */
           166, /* [0.04707694] */
           123, /* [-0.22364174] */
           186, /* [0.16998096] */
           137, /* [-0.13873763] */
           156, /* [-0.02073967] */
           183 /* [0.15113044] */
        };
        static filter_t filter36 = {32, 1, weights36, 128};  //-0.19800621271133423
        filters[36]=filter36;
            
        static const quant8 weights37[]={
           178, /* [0.12078702] */
           195, /* [0.22556704] */
           208, /* [0.30680922] */
           158, /* [-0.00512543] */
           163, /* [0.02203795] */
           126, /* [-0.20762253] */
           138, /* [-0.13205822] */
           133, /* [-0.16240489] */
           65, /* [-0.59102798] */
           141, /* [-0.11284628] */
           133, /* [-0.16075745] */
           74, /* [-0.53437084] */
           214, /* [0.34508103] */
           192, /* [0.20663688] */
           157, /* [-0.01499265] */
           164, /* [0.02894828] */
           178, /* [0.11789059] */
           137, /* [-0.14037949] */
           83, /* [-0.47913644] */
           172, /* [0.08083829] */
           127, /* [-0.20271118] */
           118, /* [-0.25768811] */
           184, /* [0.15825115] */
           160, /* [0.00678729] */
           172, /* [0.08303064] */
           181, /* [0.13544971] */
           125, /* [-0.21583992] */
           114, /* [-0.28236708] */
           196, /* [0.23180178] */
           111, /* [-0.30492491] */
           138, /* [-0.13154316] */
           176 /* [0.10490555] */
        };
        static filter_t filter37 = {32, 1, weights37, 179};  //0.12382031232118607
        filters[37]=filter37;
            
        static const quant8 weights38[]={
           161, /* [0.01184773] */
           172, /* [0.08297545] */
           182, /* [0.14421481] */
           1, /* [-0.99669111] */
           128, /* [-0.19467475] */
           157, /* [-0.0099777] */
           78, /* [-0.50706136] */
           140, /* [-0.11896324] */
           158, /* [-0.00725264] */
           141, /* [-0.11173973] */
           143, /* [-0.10043688] */
           144, /* [-0.09693734] */
           80, /* [-0.49390921] */
           98, /* [-0.3850565] */
           141, /* [-0.11488873] */
           201, /* [0.26111126] */
           106, /* [-0.33137009] */
           139, /* [-0.12509269] */
           92, /* [-0.4200018] */
           128, /* [-0.19699058] */
           190, /* [0.19251989] */
           111, /* [-0.30317464] */
           123, /* [-0.22776243] */
           39, /* [-0.75387836] */
           155, /* [-0.025653] */
           199, /* [0.24898952] */
           154, /* [-0.03201103] */
           227, /* [0.42640105] */
           157, /* [-0.01543705] */
           159, /* [0.00082264] */
           157, /* [-0.01521438] */
           124 /* [-0.22048807] */
        };
        static filter_t filter38 = {32, 1, weights38, 175};  //0.10212605446577072
        filters[38]=filter38;
            
        static const quant8 weights39[]={
           163, /* [0.02772224] */
           130, /* [-0.1836279] */
           116, /* [-0.27356237] */
           167, /* [0.05105218] */
           193, /* [0.21493375] */
           143, /* [-0.10171068] */
           110, /* [-0.31035188] */
           158, /* [-0.00818384] */
           142, /* [-0.10771748] */
           113, /* [-0.28678018] */
           96, /* [-0.39347622] */
           186, /* [0.16711915] */
           146, /* [-0.07999791] */
           194, /* [0.22091782] */
           175, /* [0.10369152] */
           79, /* [-0.50203496] */
           61, /* [-0.61850697] */
           130, /* [-0.18179137] */
           170, /* [0.07117406] */
           172, /* [0.08184223] */
           143, /* [-0.10378484] */
           194, /* [0.22050154] */
           189, /* [0.18985958] */
           210, /* [0.32103151] */
           162, /* [0.01694918] */
           163, /* [0.02240032] */
           198, /* [0.24801302] */
           103, /* [-0.35388562] */
           124, /* [-0.2201068] */
           116, /* [-0.27315712] */
           154, /* [-0.03124309] */
           166 /* [0.04343903] */
        };
        static filter_t filter39 = {32, 1, weights39, 174};  //0.09538886696100235
        filters[39]=filter39;
            
        static const quant8 weights40[]={
           193, /* [0.2165463] */
           136, /* [-0.14436644] */
           125, /* [-0.21242243] */
           135, /* [-0.15114796] */
           60, /* [-0.62212718] */
           195, /* [0.22572148] */
           191, /* [0.20230739] */
           164, /* [0.03129518] */
           109, /* [-0.31351602] */
           136, /* [-0.14461142] */
           162, /* [0.017994] */
           197, /* [0.237756] */
           183, /* [0.15224546] */
           182, /* [0.14320374] */
           142, /* [-0.10896873] */
           166, /* [0.04698513] */
           217, /* [0.36640397] */
           139, /* [-0.12879449] */
           134, /* [-0.1542276] */
           193, /* [0.21140967] */
           53, /* [-0.66555905] */
           136, /* [-0.14341852] */
           150, /* [-0.05904213] */
           236, /* [0.48408145] */
           165, /* [0.04038179] */
           152, /* [-0.04229587] */
           131, /* [-0.17439055] */
           61, /* [-0.61528277] */
           115, /* [-0.27928871] */
           178, /* [0.11649708] */
           128, /* [-0.19733953] */
           187 /* [0.1736688] */
        };
        static filter_t filter40 = {32, 1, weights40, 151};  //-0.05054077133536339
        filters[40]=filter40;
            
        static const quant8 weights41[]={
           166, /* [0.04238856] */
           182, /* [0.14629477] */
           97, /* [-0.38816229] */
           112, /* [-0.29428259] */
           214, /* [0.34798339] */
           138, /* [-0.1317175] */
           171, /* [0.07490762] */
           180, /* [0.13090473] */
           116, /* [-0.27290216] */
           161, /* [0.01082619] */
           146, /* [-0.08182984] */
           89, /* [-0.44159976] */
           166, /* [0.04533589] */
           149, /* [-0.06348208] */
           188, /* [0.18155509] */
           128, /* [-0.19228067] */
           173, /* [0.0872965] */
           131, /* [-0.17879832] */
           222, /* [0.39424238] */
           106, /* [-0.33136737] */
           132, /* [-0.16901049] */
           201, /* [0.26558369] */
           160, /* [0.00878245] */
           36, /* [-0.77598375] */
           186, /* [0.17099935] */
           160, /* [0.0068472] */
           194, /* [0.21864706] */
           189, /* [0.19048938] */
           155, /* [-0.02696396] */
           49, /* [-0.6895836] */
           157, /* [-0.01354957] */
           176 /* [0.10385197] */
        };
        static filter_t filter41 = {32, 1, weights41, 160};  //0.007179744075983763
        filters[41]=filter41;
            
        static const quant8 weights42[]={
           151, /* [-0.0473364] */
           133, /* [-0.16229248] */
           143, /* [-0.10228368] */
           143, /* [-0.09810103] */
           106, /* [-0.33464] */
           148, /* [-0.06634319] */
           189, /* [0.18708484] */
           155, /* [-0.02343744] */
           183, /* [0.15167952] */
           190, /* [0.19589734] */
           194, /* [0.22065665] */
           155, /* [-0.02786675] */
           192, /* [0.20808518] */
           157, /* [-0.01547301] */
           179, /* [0.12297159] */
           172, /* [0.08156231] */
           159, /* [0.00026849] */
           146, /* [-0.08198035] */
           163, /* [0.02241613] */
           156, /* [-0.01939417] */
           139, /* [-0.12580912] */
           40, /* [-0.74651283] */
           198, /* [0.2427406] */
           103, /* [-0.35051867] */
           137, /* [-0.13695604] */
           151, /* [-0.05196416] */
           138, /* [-0.13477176] */
           110, /* [-0.31023449] */
           139, /* [-0.12659147] */
           192, /* [0.2083288] */
           184, /* [0.15993798] */
           164 /* [0.03137112] */
        };
        static filter_t filter42 = {32, 1, weights42, 145};  //-0.08617610484361649
        filters[42]=filter42;
            
        static const quant8 weights43[]={
           184, /* [0.15661567] */
           171, /* [0.07440156] */
           175, /* [0.10152712] */
           133, /* [-0.16337803] */
           96, /* [-0.3942526] */
           153, /* [-0.03926587] */
           196, /* [0.23173554] */
           157, /* [-0.01046646] */
           160, /* [0.00417248] */
           143, /* [-0.09927405] */
           164, /* [0.02980928] */
           135, /* [-0.1512804] */
           163, /* [0.02328989] */
           195, /* [0.22732545] */
           134, /* [-0.15715599] */
           144, /* [-0.09685923] */
           109, /* [-0.31510746] */
           144, /* [-0.09588689] */
           150, /* [-0.05540602] */
           180, /* [0.13038857] */
           104, /* [-0.34453729] */
           162, /* [0.0206866] */
           122, /* [-0.23512006] */
           222, /* [0.39806783] */
           175, /* [0.09830898] */
           185, /* [0.16306424] */
           136, /* [-0.14350259] */
           141, /* [-0.11338575] */
           165, /* [0.0361539] */
           96, /* [-0.39793068] */
           147, /* [-0.07249236] */
           174 /* [0.09302032] */
        };
        static filter_t filter43 = {32, 1, weights43, 157};  //-0.013766396790742874
        filters[43]=filter43;
            
        static const quant8 weights44[]={
           185, /* [0.16575241] */
           171, /* [0.07343614] */
           198, /* [0.24522832] */
           121, /* [-0.23648384] */
           102, /* [-0.35572866] */
           154, /* [-0.03445947] */
           126, /* [-0.2059094] */
           124, /* [-0.22102737] */
           89, /* [-0.43850285] */
           181, /* [0.1370932] */
           164, /* [0.02908798] */
           208, /* [0.30658415] */
           129, /* [-0.19014202] */
           175, /* [0.10037186] */
           128, /* [-0.19768965] */
           142, /* [-0.10912083] */
           217, /* [0.36326748] */
           156, /* [-0.01651305] */
           148, /* [-0.069685] */
           221, /* [0.38843247] */
           134, /* [-0.16037484] */
           131, /* [-0.17677723] */
           92, /* [-0.42230743] */
           187, /* [0.17489898] */
           182, /* [0.14229238] */
           194, /* [0.21854788] */
           193, /* [0.21336907] */
           113, /* [-0.28651428] */
           79, /* [-0.50119847] */
           205, /* [0.286989] */
           144, /* [-0.09450907] */
           193 /* [0.21177548] */
        };
        static filter_t filter44 = {32, 1, weights44, 169};  //0.06360621005296707
        filters[44]=filter44;
            
        static const quant8 weights45[]={
           122, /* [-0.23258716] */
           176, /* [0.10513151] */
           228, /* [0.43423107] */
           126, /* [-0.20509276] */
           71, /* [-0.55572116] */
           140, /* [-0.12230551] */
           192, /* [0.20899856] */
           146, /* [-0.07979542] */
           229, /* [0.44243202] */
           156, /* [-0.01780738] */
           176, /* [0.10407285] */
           69, /* [-0.56444931] */
           143, /* [-0.10169341] */
           170, /* [0.06872364] */
           127, /* [-0.19842219] */
           114, /* [-0.28019378] */
           139, /* [-0.12640326] */
           172, /* [0.08291054] */
           62, /* [-0.61021465] */
           114, /* [-0.28217855] */
           203, /* [0.2750088] */
           185, /* [0.16345988] */
           183, /* [0.15023273] */
           73, /* [-0.54308558] */
           181, /* [0.13569057] */
           187, /* [0.17478693] */
           120, /* [-0.24300653] */
           108, /* [-0.32159579] */
           157, /* [-0.00996063] */
           121, /* [-0.23667084] */
           166, /* [0.04321378] */
           191 /* [0.20272607] */
        };
        static filter_t filter45 = {32, 1, weights45, 138};  //-0.13274021446704865
        filters[45]=filter45;
            
        static const quant8 weights46[]={
           195, /* [0.22920901] */
           127, /* [-0.19826138] */
           114, /* [-0.2802366] */
           154, /* [-0.0314941] */
           151, /* [-0.04908545] */
           136, /* [-0.14286047] */
           155, /* [-0.02745546] */
           139, /* [-0.12567365] */
           131, /* [-0.17652521] */
           111, /* [-0.30292851] */
           164, /* [0.02956145] */
           156, /* [-0.02087452] */
           120, /* [-0.24677683] */
           127, /* [-0.19983335] */
           132, /* [-0.17249656] */
           173, /* [0.08763531] */
           152, /* [-0.04175216] */
           136, /* [-0.14382392] */
           196, /* [0.23060428] */
           145, /* [-0.09095498] */
           136, /* [-0.14718878] */
           125, /* [-0.21485728] */
           193, /* [0.21190228] */
           167, /* [0.0476886] */
           159, /* [0.00152111] */
           160, /* [0.00358123] */
           170, /* [0.07196105] */
           137, /* [-0.13549377] */
           133, /* [-0.16308878] */
           158, /* [-0.00848681] */
           143, /* [-0.10101557] */
           196 /* [0.23160911] */
        };
        static filter_t filter46 = {32, 1, weights46, 160};  //0.007885195314884186
        filters[46]=filter46;
            
        static const quant8 weights47[]={
           196, /* [0.23274916] */
           163, /* [0.02337986] */
           137, /* [-0.13615912] */
           193, /* [0.21554086] */
           118, /* [-0.2552008] */
           174, /* [0.09198886] */
           182, /* [0.14307755] */
           186, /* [0.17181402] */
           124, /* [-0.22107928] */
           207, /* [0.30241182] */
           200, /* [0.25812951] */
           122, /* [-0.23369725] */
           209, /* [0.31598929] */
           167, /* [0.05282094] */
           176, /* [0.10623735] */
           121, /* [-0.23856449] */
           130, /* [-0.1855427] */
           170, /* [0.06759489] */
           157, /* [-0.01135556] */
           217, /* [0.36433306] */
           43, /* [-0.73220557] */
           148, /* [-0.06910169] */
           179, /* [0.12783717] */
           198, /* [0.24816497] */
           181, /* [0.14073676] */
           172, /* [0.0788731] */
           152, /* [-0.04639727] */
           83, /* [-0.48021156] */
           136, /* [-0.14240478] */
           84, /* [-0.47215599] */
           194, /* [0.22243369] */
           135 /* [-0.15020347] */
        };
        static filter_t filter47 = {32, 1, weights47, 182};  //0.14568039774894714
        filters[47]=filter47;
            
        static const quant8 weights48[]={
           158, /* [-0.00776917] */
           163, /* [0.02267593] */
           195, /* [0.22611496] */
           74, /* [-0.53259391] */
           109, /* [-0.31483796] */
           147, /* [-0.07743794] */
           137, /* [-0.13613328] */
           131, /* [-0.17625743] */
           105, /* [-0.33895615] */
           140, /* [-0.12208772] */
           83, /* [-0.48030221] */
           200, /* [0.25709626] */
           109, /* [-0.31230196] */
           37, /* [-0.7659781] */
           191, /* [0.19921088] */
           149, /* [-0.06158408] */
           198, /* [0.24719726] */
           191, /* [0.20298517] */
           48, /* [-0.6995185] */
           175, /* [0.10182393] */
           174, /* [0.09683339] */
           139, /* [-0.12524614] */
           44, /* [-0.72501087] */
           122, /* [-0.23560904] */
           155, /* [-0.02424729] */
           179, /* [0.12669522] */
           168, /* [0.05641621] */
           203, /* [0.2742655] */
           96, /* [-0.39588332] */
           146, /* [-0.08078512] */
           181, /* [0.13937891] */
           154 /* [-0.03255314] */
        };
        static filter_t filter48 = {32, 1, weights48, 188};  //0.1815287470817566
        filters[48]=filter48;
            
        static const quant8 weights49[]={
           195, /* [0.22955966] */
           145, /* [-0.0885666] */
           210, /* [0.31978434] */
           143, /* [-0.10375407] */
           109, /* [-0.31358516] */
           137, /* [-0.13582778] */
           149, /* [-0.06591654] */
           158, /* [-0.00356883] */
           192, /* [0.20651099] */
           202, /* [0.26868898] */
           202, /* [0.27157524] */
           53, /* [-0.66520107] */
           154, /* [-0.03376155] */
           178, /* [0.12126015] */
           132, /* [-0.16748548] */
           83, /* [-0.48099208] */
           125, /* [-0.2108974] */
           122, /* [-0.23064822] */
           112, /* [-0.29751533] */
           122, /* [-0.23386012] */
           88, /* [-0.44365424] */
           160, /* [0.00925397] */
           185, /* [0.16622412] */
           157, /* [-0.01344725] */
           166, /* [0.04711163] */
           175, /* [0.1025303] */
           192, /* [0.21022707] */
           59, /* [-0.63129359] */
           112, /* [-0.29300174] */
           175, /* [0.10380313] */
           147, /* [-0.07452172] */
           186 /* [0.16963041] */
        };
        static filter_t filter49 = {32, 1, weights49, 150};  //-0.0595681332051754
        filters[49]=filter49;
            
        static const quant8 weights50[]={
           124, /* [-0.21990228] */
           138, /* [-0.13517982] */
           201, /* [0.26189178] */
           154, /* [-0.03359098] */
           118, /* [-0.25606266] */
           149, /* [-0.06230593] */
           138, /* [-0.13343757] */
           173, /* [0.08627653] */
           96, /* [-0.39564785] */
           97, /* [-0.38952056] */
           145, /* [-0.0892375] */
           108, /* [-0.32184833] */
           151, /* [-0.05067012] */
           227, /* [0.42551067] */
           122, /* [-0.23476702] */
           164, /* [0.0297766] */
           108, /* [-0.32316273] */
           190, /* [0.19262886] */
           113, /* [-0.28654814] */
           162, /* [0.01626242] */
           173, /* [0.08912511] */
           155, /* [-0.02334219] */
           191, /* [0.19988972] */
           79, /* [-0.50434816] */
           170, /* [0.06616229] */
           161, /* [0.01075202] */
           163, /* [0.0265103] */
           110, /* [-0.3066223] */
           196, /* [0.23256984] */
           107, /* [-0.32599083] */
           145, /* [-0.08502191] */
           171 /* [0.07610297] */
        };
        static filter_t filter50 = {32, 1, weights50, 167};  //0.047963615506887436
        filters[50]=filter50;
            
        static const quant8 weights51[]={
           198, /* [0.2468493] */
           150, /* [-0.05654359] */
           220, /* [0.38648129] */
           119, /* [-0.25203323] */
           165, /* [0.03865212] */
           124, /* [-0.2190913] */
           170, /* [0.06803565] */
           151, /* [-0.04875678] */
           81, /* [-0.48801336] */
           154, /* [-0.02838669] */
           126, /* [-0.20565833] */
           35, /* [-0.77741081] */
           137, /* [-0.13633421] */
           167, /* [0.04891636] */
           177, /* [0.11372536] */
           113, /* [-0.28708443] */
           157, /* [-0.01444806] */
           157, /* [-0.01186335] */
           67, /* [-0.58156806] */
           97, /* [-0.38880143] */
           178, /* [0.12255011] */
           191, /* [0.20259809] */
           189, /* [0.19035572] */
           204, /* [0.28525361] */
           135, /* [-0.15327346] */
           160, /* [0.00708312] */
           180, /* [0.13214678] */
           160, /* [0.00397488] */
           205, /* [0.28727067] */
           173, /* [0.08717027] */
           122, /* [-0.23044616] */
           182 /* [0.14674854] */
        };
        static filter_t filter51 = {32, 1, weights51, 153};  //-0.03856442868709564
        filters[51]=filter51;
            
        static const quant8 weights52[]={
           169, /* [0.06284851] */
           143, /* [-0.09827507] */
           190, /* [0.19461189] */
           190, /* [0.19782652] */
           136, /* [-0.14566883] */
           166, /* [0.04451996] */
           220, /* [0.38498473] */
           166, /* [0.04127663] */
           188, /* [0.17974047] */
           202, /* [0.26999301] */
           141, /* [-0.11597698] */
           124, /* [-0.22279879] */
           141, /* [-0.11552679] */
           161, /* [0.01540968] */
           138, /* [-0.13151395] */
           93, /* [-0.41403311] */
           148, /* [-0.06849141] */
           188, /* [0.18091917] */
           113, /* [-0.2918714] */
           199, /* [0.25136125] */
           106, /* [-0.33584833] */
           175, /* [0.09842891] */
           170, /* [0.06878771] */
           81, /* [-0.48805979] */
           170, /* [0.06645226] */
           154, /* [-0.03142071] */
           128, /* [-0.1919356] */
           138, /* [-0.13313049] */
           175, /* [0.10010309] */
           173, /* [0.08753831] */
           181, /* [0.14028394] */
           189 /* [0.19109112] */
        };
        static filter_t filter52 = {32, 1, weights52, 121};  //-0.23754745721817017
        filters[52]=filter52;
            
        static const quant8 weights53[]={
           185, /* [0.16423303] */
           175, /* [0.09991437] */
           204, /* [0.28337798] */
           160, /* [0.00449553] */
           130, /* [-0.18195944] */
           159, /* [0.00037497] */
           182, /* [0.14353912] */
           159, /* [0.00290471] */
           185, /* [0.16483283] */
           154, /* [-0.03218983] */
           116, /* [-0.27015078] */
           142, /* [-0.10907976] */
           179, /* [0.12344613] */
           160, /* [0.00755731] */
           155, /* [-0.02766138] */
           105, /* [-0.33711636] */
           130, /* [-0.17995927] */
           183, /* [0.15311021] */
           123, /* [-0.227983] */
           115, /* [-0.27862856] */
           82, /* [-0.48711005] */
           214, /* [0.34718174] */
           122, /* [-0.23143855] */
           170, /* [0.07133611] */
           123, /* [-0.22781456] */
           169, /* [0.06416291] */
           181, /* [0.1404047] */
           64, /* [-0.60012597] */
           94, /* [-0.4075329] */
           174, /* [0.0952123] */
           125, /* [-0.211972] */
           175 /* [0.10010833] */
        };
        static filter_t filter53 = {32, 1, weights53, 176};  //0.10855988413095474
        filters[53]=filter53;
            
        static const quant8 weights54[]={
           192, /* [0.21042752] */
           182, /* [0.14589846] */
           89, /* [-0.43929243] */
           144, /* [-0.09350643] */
           202, /* [0.27075839] */
           192, /* [0.21054554] */
           216, /* [0.36175179] */
           174, /* [0.09692883] */
           139, /* [-0.12315482] */
           132, /* [-0.17245436] */
           143, /* [-0.09782042] */
           205, /* [0.28785828] */
           141, /* [-0.11434117] */
           206, /* [0.29855236] */
           160, /* [0.00747263] */
           201, /* [0.26150566] */
           167, /* [0.04731326] */
           141, /* [-0.11387318] */
           211, /* [0.32430261] */
           135, /* [-0.14894031] */
           16, /* [-0.8980183] */
           149, /* [-0.06438216] */
           131, /* [-0.17358914] */
           83, /* [-0.47826663] */
           129, /* [-0.19019037] */
           149, /* [-0.06131107] */
           161, /* [0.01224232] */
           84, /* [-0.47351742] */
           208, /* [0.30547494] */
           127, /* [-0.19927648] */
           148, /* [-0.06653482] */
           156 /* [-0.02156091] */
        };
        static filter_t filter54 = {32, 1, weights54, 165};  //0.03969606012105942
        filters[54]=filter54;
            
        static const quant8 weights55[]={
           135, /* [-0.14894456] */
           150, /* [-0.05794859] */
           177, /* [0.11272591] */
           128, /* [-0.1933894] */
           150, /* [-0.0588313] */
           153, /* [-0.03968203] */
           128, /* [-0.19519718] */
           144, /* [-0.09473151] */
           200, /* [0.25956967] */
           116, /* [-0.27107367] */
           181, /* [0.13767421] */
           78, /* [-0.50650787] */
           194, /* [0.22209971] */
           168, /* [0.05644027] */
           167, /* [0.05041945] */
           117, /* [-0.26703301] */
           87, /* [-0.45511925] */
           175, /* [0.0984937] */
           184, /* [0.15484203] */
           172, /* [0.08146122] */
           99, /* [-0.37746054] */
           160, /* [0.00743674] */
           198, /* [0.24586555] */
           173, /* [0.08663527] */
           132, /* [-0.17170793] */
           132, /* [-0.1729213] */
           154, /* [-0.03217465] */
           141, /* [-0.11384095] */
           141, /* [-0.11107644] */
           143, /* [-0.10373446] */
           143, /* [-0.09915328] */
           131 /* [-0.17848665] */
        };
        static filter_t filter55 = {32, 1, weights55, 163};  //0.023570844903588295
        filters[55]=filter55;
            
        static const quant8 weights56[]={
           174, /* [0.09231991] */
           185, /* [0.16354358] */
           78, /* [-0.50850296] */
           123, /* [-0.22679214] */
           241, /* [0.51387334] */
           133, /* [-0.16427022] */
           99, /* [-0.3766298] */
           180, /* [0.13247275] */
           133, /* [-0.16230786] */
           174, /* [0.09390377] */
           47, /* [-0.70368189] */
           193, /* [0.21605712] */
           136, /* [-0.14488818] */
           175, /* [0.10090322] */
           171, /* [0.0725919] */
           99, /* [-0.37925062] */
           89, /* [-0.44297439] */
           121, /* [-0.23871845] */
           198, /* [0.24396294] */
           151, /* [-0.04981833] */
           90, /* [-0.43534651] */
           210, /* [0.31799632] */
           132, /* [-0.17013149] */
           195, /* [0.22831328] */
           123, /* [-0.22785842] */
           186, /* [0.16854811] */
           120, /* [-0.24428326] */
           128, /* [-0.1927278] */
           114, /* [-0.28186235] */
           161, /* [0.01319343] */
           146, /* [-0.0844121] */
           145 /* [-0.09121984] */
        };
        static filter_t filter56 = {32, 1, weights56, 171};  //0.07523126155138016
        filters[56]=filter56;
            
        static const quant8 weights57[]={
           121, /* [-0.2398876] */
           145, /* [-0.08853942] */
           166, /* [0.04212124] */
           155, /* [-0.02702126] */
           137, /* [-0.1371633] */
           170, /* [0.06792933] */
           194, /* [0.21934262] */
           185, /* [0.16360867] */
           171, /* [0.07493214] */
           209, /* [0.31443673] */
           169, /* [0.06412407] */
           163, /* [0.02279833] */
           124, /* [-0.21866126] */
           164, /* [0.03235282] */
           191, /* [0.20425642] */
           187, /* [0.17347208] */
           139, /* [-0.12496302] */
           151, /* [-0.04929054] */
           119, /* [-0.25168872] */
           156, /* [-0.02132484] */
           157, /* [-0.01412083] */
           109, /* [-0.31441483] */
           195, /* [0.22813898] */
           63, /* [-0.60429978] */
           165, /* [0.0347423] */
           194, /* [0.22321332] */
           156, /* [-0.02135241] */
           89, /* [-0.44341907] */
           192, /* [0.20980886] */
           122, /* [-0.23079264] */
           134, /* [-0.15752637] */
           134 /* [-0.15588945] */
        };
        static filter_t filter57 = {32, 1, weights57, 139};  //-0.12546534836292267
        filters[57]=filter57;
            
        static const quant8 weights58[]={
           172, /* [0.08408052] */
           193, /* [0.21214962] */
           200, /* [0.25507936] */
           187, /* [0.1768216] */
           136, /* [-0.14638619] */
           153, /* [-0.03947926] */
           212, /* [0.33218446] */
           159, /* [-0.00148314] */
           131, /* [-0.17763178] */
           188, /* [0.18413097] */
           172, /* [0.08394492] */
           90, /* [-0.43201056] */
           179, /* [0.12578797] */
           142, /* [-0.10896625] */
           131, /* [-0.17896491] */
           146, /* [-0.08395788] */
           176, /* [0.10630456] */
           167, /* [0.04720116] */
           194, /* [0.21804348] */
           84, /* [-0.47215161] */
           133, /* [-0.16314419] */
           64, /* [-0.5984692] */
           115, /* [-0.27818671] */
           111, /* [-0.30023372] */
           124, /* [-0.21718603] */
           160, /* [0.00594139] */
           171, /* [0.07387865] */
           128, /* [-0.19576523] */
           196, /* [0.23573437] */
           135, /* [-0.15019877] */
           165, /* [0.03700584] */
           137 /* [-0.13682902] */
        };
        static filter_t filter58 = {32, 1, weights58, 125};  //-0.2142498940229416
        filters[58]=filter58;
            
        static const quant8 weights59[]={
           197, /* [0.23663563] */
           138, /* [-0.129116] */
           99, /* [-0.37676498] */
           192, /* [0.20867994] */
           123, /* [-0.22424166] */
           120, /* [-0.24416387] */
           129, /* [-0.18893437] */
           135, /* [-0.14900804] */
           190, /* [0.19461854] */
           90, /* [-0.43564463] */
           173, /* [0.09076397] */
           98, /* [-0.38673887] */
           187, /* [0.17720567] */
           183, /* [0.14871871] */
           185, /* [0.16655928] */
           161, /* [0.0122507] */
           79, /* [-0.50430006] */
           150, /* [-0.05421638] */
           183, /* [0.15057053] */
           192, /* [0.20606601] */
           133, /* [-0.1640255] */
           147, /* [-0.07470699] */
           203, /* [0.27415168] */
           130, /* [-0.18267193] */
           169, /* [0.05980021] */
           145, /* [-0.0883444] */
           162, /* [0.02078736] */
           178, /* [0.12151119] */
           185, /* [0.16351311] */
           133, /* [-0.16082621] */
           129, /* [-0.18965507] */
           193 /* [0.21414793] */
        };
        static filter_t filter59 = {32, 1, weights59, 116};  //-0.26968303322792053
        filters[59]=filter59;
            
        static const quant8 weights60[]={
           196, /* [0.23507071] */
           194, /* [0.21759683] */
           29, /* [-0.81630421] */
           129, /* [-0.18614036] */
           211, /* [0.32493839] */
           198, /* [0.24280334] */
           148, /* [-0.07045133] */
           148, /* [-0.06710553] */
           222, /* [0.39666292] */
           212, /* [0.33347055] */
           152, /* [-0.04417133] */
           250, /* [0.57103902] */
           110, /* [-0.30773851] */
           94, /* [-0.40903628] */
           140, /* [-0.11853278] */
           209, /* [0.31392518] */
           209, /* [0.31491402] */
           176, /* [0.10853517] */
           223, /* [0.40125498] */
           162, /* [0.01990754] */
           103, /* [-0.35404059] */
           78, /* [-0.51040655] */
           110, /* [-0.31000096] */
           89, /* [-0.43758899] */
           151, /* [-0.04939651] */
           172, /* [0.08229381] */
           172, /* [0.08390695] */
           176, /* [0.10607868] */
           118, /* [-0.26091218] */
           168, /* [0.05758191] */
           159, /* [0.00113517] */
           146 /* [-0.08026165] */
        };
        static filter_t filter60 = {32, 1, weights60, 166};  //0.04162955656647682
        filters[60]=filter60;
            
        static const quant8 weights61[]={
           193, /* [0.2110911] */
           198, /* [0.24610281] */
           148, /* [-0.06786309] */
           30, /* [-0.81104422] */
           116, /* [-0.27365634] */
           190, /* [0.19518882] */
           198, /* [0.248509] */
           177, /* [0.11347151] */
           100, /* [-0.37279412] */
           140, /* [-0.11757301] */
           104, /* [-0.34367922] */
           177, /* [0.11584833] */
           97, /* [-0.39212838] */
           126, /* [-0.20886044] */
           172, /* [0.08178651] */
           180, /* [0.13408186] */
           193, /* [0.21141987] */
           154, /* [-0.03209126] */
           74, /* [-0.53739685] */
           82, /* [-0.48441783] */
           199, /* [0.25186324] */
           92, /* [-0.4239656] */
           94, /* [-0.40674427] */
           60, /* [-0.6223439] */
           153, /* [-0.03682214] */
           193, /* [0.21347797] */
           159, /* [-0.00273448] */
           201, /* [0.26260865] */
           166, /* [0.04444658] */
           183, /* [0.15344478] */
           157, /* [-0.0095734] */
           125 /* [-0.21112168] */
        };
        static filter_t filter61 = {32, 1, weights61, 177};  //0.11384835839271545
