#include "cifar10_model_dpw_model.h"
#include "embedia_debug.h"

// Initialization function prototypes
conv2d_layer_t init_conv2d_data(void);
depthwise_conv2d_layer_t init_depthwise_conv2d_data(void);
conv2d_layer_t init_conv2d_1_data(void);
depthwise_conv2d_layer_t init_depthwise_conv2d_1_data(void);
dense_layer_t init_dense_data(void);
dense_layer_t init_dense_1_data(void);


// Global Variables
conv2d_layer_t conv2d_data;
depthwise_conv2d_layer_t depthwise_conv2d_data;
conv2d_layer_t conv2d_1_data;
depthwise_conv2d_layer_t depthwise_conv2d_1_data;
dense_layer_t dense_data;
dense_layer_t dense_1_data;


void model_init(){
    conv2d_data = init_conv2d_data();
    depthwise_conv2d_data = init_depthwise_conv2d_data();
    conv2d_1_data = init_conv2d_1_data();
    depthwise_conv2d_1_data = init_depthwise_conv2d_1_data();
    dense_data = init_dense_data();
    dense_1_data = init_dense_1_data();

}

void model_predict(data3d_t input, data1d_t * output){
  
    prepare_buffers();
    
    //*************** LAYER 0 **************//
    // Layer name: conv2d
    data3d_t output0;
    // convert image for first EmbedIA Conv2d layer
    channel_adapt_layer(input, &output0);
    input = output0;
    
     conv2d_layer(conv2d_data, input, &output0);
    // Activation layer for conv2d
    relu_activation(output0.data, 3136);
    // Debug function for layer conv2d
    print_data3d_t("conv2d", output0);
    
    //*************** LAYER 1 **************//
    // Layer name: depthwise_conv2d
    input = output0;
    // convert image for first EmbedIA Conv2d layer
    channel_adapt_layer(input, &output0);
    input = output0;
    
    depthwise_conv2d_layer(depthwise_conv2d_data, input, &output0);
    // Activation layer for depthwise_conv2d
    relu_activation(output0.data, 2304);
    // Debug function for layer depthwise_conv2d
    print_data3d_t("depthwise_conv2d", output0);
    
    //*************** LAYER 2 **************//
    // Layer name: conv2d_1
    input = output0;
    conv2d_layer(conv2d_1_data, input, &output0);
    // Activation layer for conv2d_1
    relu_activation(output0.data, 3200);
    // Debug function for layer conv2d_1
    print_data3d_t("conv2d_1", output0);
    
    //*************** LAYER 3 **************//
    // Layer name: depthwise_conv2d_1
    input = output0;
    depthwise_conv2d_layer(depthwise_conv2d_1_data, input, &output0);
    // Activation layer for depthwise_conv2d_1
    relu_activation(output0.data, 2048);
    // Debug function for layer depthwise_conv2d_1
    print_data3d_t("depthwise_conv2d_1", output0);
    
    //*************** LAYER 4 **************//
    // Layer name: flatten
    input = output0;
    data1d_t output1;
    flatten3d_layer(input, &output1);
    // Debug function for layer flatten
    print_data1d_t("flatten", output1);
    
    //*************** LAYER 5 **************//
    // Layer name: dense
    data1d_t input1;
    input1 = output1;
    dense_layer(dense_data, input1, &output1);
    
    // Activation layer for dense
    relu_activation(output1.data, 64);
    // Debug function for layer dense
    print_data1d_t("dense", output1);
    
    //*************** LAYER 6 **************//
    // Layer name: dense_1
    input1 = output1;
    dense_layer(dense_1_data, input1, &output1);
    
    // Activation layer for dense_1
    softmax_activation(output1.data, 10);
    // Debug function for layer dense_1
    print_data1d_t("dense_1", output1);
    

    *output = output1;

}

int model_predict_class(data3d_t input, data1d_t * results){
  
   
    model_predict(input, results);
    
    return argmax(*results);
    //return argmax(data1d_t);

}

// Implementation of initialization functions



conv2d_layer_t init_conv2d_data(void){

        static filter_t filters[16];
        
        static const float weights0[]={
           0.003118937136605382,    -0.08082438260316849,    -0.13867461681365967, //0,0,0..2=>  0.003118937136605382,   -0.08082438260316849,   -0.13867461681365967, 
           -0.14286230504512787,    0.13385333120822906,    -0.17487800121307373, //0,1,0..2=>  -0.14286230504512787,   0.13385333120822906,   -0.17487800121307373, 
           -0.1704123616218567,    -0.12271518260240555,    -0.12128685414791107, //0,2,0..2=>  -0.1704123616218567,   -0.12271518260240555,   -0.12128685414791107, 
           -0.11370600759983063,    0.1774444580078125,    -0.03806227073073387, //1,0,0..2=>  -0.11370600759983063,   0.1774444580078125,   -0.03806227073073387, 
           -0.08380201458930969,    -0.17752483487129211,    -0.0900101587176323, //1,1,0..2=>  -0.08380201458930969,   -0.17752483487129211,   -0.0900101587176323, 
           -0.31309694051742554,    -0.23972313106060028,    -0.021427081897854805, //1,2,0..2=>  -0.31309694051742554,   -0.23972313106060028,   -0.021427081897854805, 
           -0.06518330425024033,    0.2143135666847229,    -0.03559209406375885, //2,0,0..2=>  -0.06518330425024033,   0.2143135666847229,   -0.03559209406375885, 
           0.22305218875408173,    0.09568213671445847,    0.3189008831977844, //2,1,0..2=>  0.22305218875408173,   0.09568213671445847,   0.3189008831977844, 
           0.39199239015579224,    0.26329290866851807,    0.33952412009239197, //2,2,0..2=>  0.39199239015579224,   0.26329290866851807,   0.33952412009239197, 
        
        };
        static filter_t filter0 = {3, 3, weights0, 0.07068096846342087}; 
        filters[0]=filter0;
            
        static const float weights1[]={
           -0.024668194353580475,    -0.367562472820282,    -0.3676323890686035, //0,0,0..2=>  -0.024668194353580475,   -0.367562472820282,   -0.3676323890686035, 
           -0.2438659816980362,    -0.33706769347190857,    -0.18532340228557587, //0,1,0..2=>  -0.2438659816980362,   -0.33706769347190857,   -0.18532340228557587, 
           0.16572809219360352,    0.07335545122623444,    0.3027638792991638, //0,2,0..2=>  0.16572809219360352,   0.07335545122623444,   0.3027638792991638, 
           -0.06747599691152573,    0.05473271384835243,    0.17674517631530762, //1,0,0..2=>  -0.06747599691152573,   0.05473271384835243,   0.17674517631530762, 
           0.05149233713746071,    -0.03447716310620308,    -0.013662801124155521, //1,1,0..2=>  0.05149233713746071,   -0.03447716310620308,   -0.013662801124155521, 
           -0.039095669984817505,    -0.08297161012887955,    0.0031204787082970142, //1,2,0..2=>  -0.039095669984817505,   -0.08297161012887955,   0.0031204787082970142, 
           0.36594462394714355,    0.44908732175827026,    0.32106807827949524, //2,0,0..2=>  0.36594462394714355,   0.44908732175827026,   0.32106807827949524, 
           0.15924498438835144,    0.3666972517967224,    0.3301946222782135, //2,1,0..2=>  0.15924498438835144,   0.3666972517967224,   0.3301946222782135, 
           0.1315310150384903,    -0.26296380162239075,    -0.2630518674850464, //2,2,0..2=>  0.1315310150384903,   -0.26296380162239075,   -0.2630518674850464, 
        
        };
        static filter_t filter1 = {3, 3, weights1, 0.40146130323410034}; 
        filters[1]=filter1;
            
        static const float weights2[]={
           -0.18859277665615082,    -0.2853601276874542,    0.40867331624031067, //0,0,0..2=>  -0.18859277665615082,   -0.2853601276874542,   0.40867331624031067, 
           -0.3151645362377167,    0.5574415326118469,    0.07223031669855118, //0,1,0..2=>  -0.3151645362377167,   0.5574415326118469,   0.07223031669855118, 
           0.40766820311546326,    0.24326597154140472,    -0.37056469917297363, //0,2,0..2=>  0.40766820311546326,   0.24326597154140472,   -0.37056469917297363, 
           -0.21590398252010345,    -0.2682303786277771,    0.37193939089775085, //1,0,0..2=>  -0.21590398252010345,   -0.2682303786277771,   0.37193939089775085, 
           -0.35785990953445435,    0.543048620223999,    0.068288654088974, //1,1,0..2=>  -0.35785990953445435,   0.543048620223999,   0.068288654088974, 
           0.4613577127456665,    0.2569354772567749,    -0.4802411198616028, //1,2,0..2=>  0.4613577127456665,   0.2569354772567749,   -0.4802411198616028, 
           -0.2118481546640396,    -0.30460941791534424,    0.6538560390472412, //2,0,0..2=>  -0.2118481546640396,   -0.30460941791534424,   0.6538560390472412, 
           -0.3563767671585083,    0.5429447293281555,    0.3790293335914612, //2,1,0..2=>  -0.3563767671585083,   0.5429447293281555,   0.3790293335914612, 
           0.5690597295761108,    0.5937829613685608,    -0.08902020007371902, //2,2,0..2=>  0.5690597295761108,   0.5937829613685608,   -0.08902020007371902, 
        
        };
        static filter_t filter2 = {3, 3, weights2, 0.14384974539279938}; 
        filters[2]=filter2;
            
        static const float weights3[]={
           -0.07162636518478394,    -0.08822737634181976,    0.12647897005081177, //0,0,0..2=>  -0.07162636518478394,   -0.08822737634181976,   0.12647897005081177, 
           -0.04784974083304405,    -0.029804514721035957,    0.07160132378339767, //0,1,0..2=>  -0.04784974083304405,   -0.029804514721035957,   0.07160132378339767, 
           0.03023648075759411,    -0.1099093109369278,    0.16730773448944092, //0,2,0..2=>  0.03023648075759411,   -0.1099093109369278,   0.16730773448944092, 
           0.20417310297489166,    0.05843884497880936,    -0.18093405663967133, //1,0,0..2=>  0.20417310297489166,   0.05843884497880936,   -0.18093405663967133, 
           0.10266394913196564,    0.06195008009672165,    0.01738712750375271, //1,1,0..2=>  0.10266394913196564,   0.06195008009672165,   0.01738712750375271, 
           0.1070948988199234,    -0.07789895683526993,    -0.022322621196508408, //1,2,0..2=>  0.1070948988199234,   -0.07789895683526993,   -0.022322621196508408, 
           0.2568420469760895,    0.06559877097606659,    0.02909213677048683, //2,0,0..2=>  0.2568420469760895,   0.06559877097606659,   0.02909213677048683, 
           0.2238541841506958,    0.009844908490777016,    -0.002944921376183629, //2,1,0..2=>  0.2238541841506958,   0.009844908490777016,   -0.002944921376183629, 
           0.18301014602184296,    0.14110954105854034,    -0.1455257087945938, //2,2,0..2=>  0.18301014602184296,   0.14110954105854034,   -0.1455257087945938, 
        
        };
        static filter_t filter3 = {3, 3, weights3, -0.2064265012741089}; 
        filters[3]=filter3;
            
        static const float weights4[]={
           -0.017459724098443985,    0.5551729798316956,    -0.2928248345851898, //0,0,0..2=>  -0.017459724098443985,   0.5551729798316956,   -0.2928248345851898, 
           -0.4928569197654724,    0.6893138289451599,    -0.03412340581417084, //0,1,0..2=>  -0.4928569197654724,   0.6893138289451599,   -0.03412340581417084, 
           -0.013283709064126015,    -0.13992808759212494,    0.29535114765167236, //0,2,0..2=>  -0.013283709064126015,   -0.13992808759212494,   0.29535114765167236, 
           -0.5573121309280396,    0.7409714460372925,    -0.1306471824645996, //1,0,0..2=>  -0.5573121309280396,   0.7409714460372925,   -0.1306471824645996, 
           -0.745945394039154,    0.7267800569534302,    -0.2556624412536621, //1,1,0..2=>  -0.745945394039154,   0.7267800569534302,   -0.2556624412536621, 
           -0.09389150887727737,    0.08582809567451477,    0.19479505717754364, //1,2,0..2=>  -0.09389150887727737,   0.08582809567451477,   0.19479505717754364, 
           -0.17039985954761505,    0.5387998223304749,    -0.1129818707704544, //2,0,0..2=>  -0.17039985954761505,   0.5387998223304749,   -0.1129818707704544, 
           -0.6151959896087646,    0.36100250482559204,    -0.34597188234329224, //2,1,0..2=>  -0.6151959896087646,   0.36100250482559204,   -0.34597188234329224, 
           0.20789925754070282,    -0.1190776601433754,    -0.023141568526625633, //2,2,0..2=>  0.20789925754070282,   -0.1190776601433754,   -0.023141568526625633, 
        
        };
        static filter_t filter4 = {3, 3, weights4, 0.3594094216823578}; 
        filters[4]=filter4;
            
        static const float weights5[]={
           -0.21043696999549866,    -0.37215158343315125,    0.27902892231941223, //0,0,0..2=>  -0.21043696999549866,   -0.37215158343315125,   0.27902892231941223, 
           -0.022642649710178375,    -0.17425082623958588,    0.18034957349300385, //0,1,0..2=>  -0.022642649710178375,   -0.17425082623958588,   0.18034957349300385, 
           -0.33022478222846985,    0.0368834026157856,    0.10729905217885971, //0,2,0..2=>  -0.33022478222846985,   0.0368834026157856,   0.10729905217885971, 
           0.1518361121416092,    -0.3105608820915222,    0.06839548051357269, //1,0,0..2=>  0.1518361121416092,   -0.3105608820915222,   0.06839548051357269, 
           0.3092515766620636,    -0.2125198245048523,    -0.04198480397462845, //1,1,0..2=>  0.3092515766620636,   -0.2125198245048523,   -0.04198480397462845, 
           0.1499803513288498,    0.3833717405796051,    0.13042251765727997, //1,2,0..2=>  0.1499803513288498,   0.3833717405796051,   0.13042251765727997, 
           0.29131489992141724,    -0.3313032388687134,    -0.39475756883621216, //2,0,0..2=>  0.29131489992141724,   -0.3313032388687134,   -0.39475756883621216, 
           0.7261282205581665,    -0.16456513106822968,    -0.5323953628540039, //2,1,0..2=>  0.7261282205581665,   -0.16456513106822968,   -0.5323953628540039, 
           0.41050389409065247,    0.22383369505405426,    -0.05508152022957802, //2,2,0..2=>  0.41050389409065247,   0.22383369505405426,   -0.05508152022957802, 
        
        };
        static filter_t filter5 = {3, 3, weights5, 0.18140770494937897}; 
        filters[5]=filter5;
            
        static const float weights6[]={
           -0.06552665680646896,    0.09028837084770203,    0.1509494036436081, //0,0,0..2=>  -0.06552665680646896,   0.09028837084770203,   0.1509494036436081, 
           -0.17487286031246185,    -0.16411009430885315,    0.10333479195833206, //0,1,0..2=>  -0.17487286031246185,   -0.16411009430885315,   0.10333479195833206, 
           -0.24311524629592896,    0.024829411879181862,    -0.12338919937610626, //0,2,0..2=>  -0.24311524629592896,   0.024829411879181862,   -0.12338919937610626, 
           0.09966593980789185,    -0.16387926042079926,    0.07468672841787338, //1,0,0..2=>  0.09966593980789185,   -0.16387926042079926,   0.07468672841787338, 
           0.08842648565769196,    0.10277017951011658,    0.08431195467710495, //1,1,0..2=>  0.08842648565769196,   0.10277017951011658,   0.08431195467710495, 
           0.14275789260864258,    -0.10234872251749039,    0.0625317245721817, //1,2,0..2=>  0.14275789260864258,   -0.10234872251749039,   0.0625317245721817, 
           0.1252472698688507,    0.27209535241127014,    0.25530844926834106, //2,0,0..2=>  0.1252472698688507,   0.27209535241127014,   0.25530844926834106, 
           -0.1166924312710762,    0.0681450292468071,    -0.0095631442964077, //2,1,0..2=>  -0.1166924312710762,   0.0681450292468071,   -0.0095631442964077, 
           -0.10129605233669281,    -0.013036686927080154,    0.2155691236257553, //2,2,0..2=>  -0.10129605233669281,   -0.013036686927080154,   0.2155691236257553, 
        
        };
        static filter_t filter6 = {3, 3, weights6, -0.0035981452092528343}; 
        filters[6]=filter6;
            
        static const float weights7[]={
           -0.43761134147644043,    0.714466392993927,    0.7747852206230164, //0,0,0..2=>  -0.43761134147644043,   0.714466392993927,   0.7747852206230164, 
           0.23686465620994568,    -0.39871013164520264,    -0.6512467265129089, //0,1,0..2=>  0.23686465620994568,   -0.39871013164520264,   -0.6512467265129089, 
           0.11219187825918198,    0.001589512568898499,    0.12085873633623123, //0,2,0..2=>  0.11219187825918198,   0.001589512568898499,   0.12085873633623123, 
           -0.4970758855342865,    0.49043139815330505,    0.665350615978241, //1,0,0..2=>  -0.4970758855342865,   0.49043139815330505,   0.665350615978241, 
           0.2213279753923416,    -0.2926486134529114,    -0.37892836332321167, //1,1,0..2=>  0.2213279753923416,   -0.2926486134529114,   -0.37892836332321167, 
           -0.030775897204875946,    0.03556930646300316,    0.12238916009664536, //1,2,0..2=>  -0.030775897204875946,   0.03556930646300316,   0.12238916009664536, 
           2.524141746107489e-05,    0.7308821678161621,    0.7396069765090942, //2,0,0..2=>  2.524141746107489e-05,   0.7308821678161621,   0.7396069765090942, 
           0.29931867122650146,    -0.32192865014076233,    -0.3546273708343506, //2,1,0..2=>  0.29931867122650146,   -0.32192865014076233,   -0.3546273708343506, 
           -0.10403506457805634,    -0.027169905602931976,    0.015529455617070198, //2,2,0..2=>  -0.10403506457805634,   -0.027169905602931976,   0.015529455617070198, 
        
        };
        static filter_t filter7 = {3, 3, weights7, -0.02892034687101841}; 
        filters[7]=filter7;
            
        static const float weights8[]={
           -0.10790315270423889,    -0.20270675420761108,    0.11138661205768585, //0,0,0..2=>  -0.10790315270423889,   -0.20270675420761108,   0.11138661205768585, 
           -0.2876047194004059,    0.011958231218159199,    0.20113125443458557, //0,1,0..2=>  -0.2876047194004059,   0.011958231218159199,   0.20113125443458557, 
           0.12514571845531464,    0.40960201621055603,    0.29903674125671387, //0,2,0..2=>  0.12514571845531464,   0.40960201621055603,   0.29903674125671387, 
           -0.23174123466014862,    -0.1623866707086563,    0.05151798203587532, //1,0,0..2=>  -0.23174123466014862,   -0.1623866707086563,   0.05151798203587532, 
           -0.46132245659828186,    0.16367295384407043,    0.04235001653432846, //1,1,0..2=>  -0.46132245659828186,   0.16367295384407043,   0.04235001653432846, 
           -0.16084522008895874,    0.43676918745040894,    0.3009989857673645, //1,2,0..2=>  -0.16084522008895874,   0.43676918745040894,   0.3009989857673645, 
           -0.3002157211303711,    0.17926111817359924,    0.16310004889965057, //2,0,0..2=>  -0.3002157211303711,   0.17926111817359924,   0.16310004889965057, 
           -0.2928127646446228,    0.31242796778678894,    0.2554723620414734, //2,1,0..2=>  -0.2928127646446228,   0.31242796778678894,   0.2554723620414734, 
           -0.18412303924560547,    0.4539312720298767,    0.0600198395550251, //2,2,0..2=>  -0.18412303924560547,   0.4539312720298767,   0.0600198395550251, 
        
        };
        static filter_t filter8 = {3, 3, weights8, -0.06637007743120193}; 
        filters[8]=filter8;
            
        static const float weights9[]={
           0.08337031304836273,    0.1163109689950943,    0.1435789167881012, //0,0,0..2=>  0.08337031304836273,   0.1163109689950943,   0.1435789167881012, 
           -0.034031592309474945,    -0.10450730472803116,    0.006927081849426031, //0,1,0..2=>  -0.034031592309474945,   -0.10450730472803116,   0.006927081849426031, 
           0.005424420349299908,    0.16454823315143585,    0.1743696630001068, //0,2,0..2=>  0.005424420349299908,   0.16454823315143585,   0.1743696630001068, 
           0.05494767799973488,    0.1376863718032837,    0.031544312834739685, //1,0,0..2=>  0.05494767799973488,   0.1376863718032837,   0.031544312834739685, 
           0.04729536175727844,    0.0412103496491909,    0.027199363335967064, //1,1,0..2=>  0.04729536175727844,   0.0412103496491909,   0.027199363335967064, 
           0.2520732283592224,    0.18089628219604492,    0.07298485934734344, //1,2,0..2=>  0.2520732283592224,   0.18089628219604492,   0.07298485934734344, 
           0.034026969224214554,    -0.06103302165865898,    -0.18612518906593323, //2,0,0..2=>  0.034026969224214554,   -0.06103302165865898,   -0.18612518906593323, 
           -0.23249733448028564,    -0.14502006769180298,    -0.20996931195259094, //2,1,0..2=>  -0.23249733448028564,   -0.14502006769180298,   -0.20996931195259094, 
           -0.1564091145992279,    -0.16295385360717773,    -0.1692712903022766, //2,2,0..2=>  -0.1564091145992279,   -0.16295385360717773,   -0.1692712903022766, 
        
        };
        static filter_t filter9 = {3, 3, weights9, 0.010031556710600853}; 
        filters[9]=filter9;
            
        static const float weights10[]={
           -0.16656766831874847,    0.7151507139205933,    -0.24514508247375488, //0,0,0..2=>  -0.16656766831874847,   0.7151507139205933,   -0.24514508247375488, 
           0.1577388346195221,    0.3417140543460846,    -0.3870222270488739, //0,1,0..2=>  0.1577388346195221,   0.3417140543460846,   -0.3870222270488739, 
           0.3859241008758545,    -0.2579941749572754,    0.2426460236310959, //0,2,0..2=>  0.3859241008758545,   -0.2579941749572754,   0.2426460236310959, 
           -0.3793071210384369,    0.5925058722496033,    -0.17866404354572296, //1,0,0..2=>  -0.3793071210384369,   0.5925058722496033,   -0.17866404354572296, 
           0.16286803781986237,    0.13728460669517517,    -0.22640493512153625, //1,1,0..2=>  0.16286803781986237,   0.13728460669517517,   -0.22640493512153625, 
           -0.06538765132427216,    -0.20447739958763123,    0.09753105789422989, //1,2,0..2=>  -0.06538765132427216,   -0.20447739958763123,   0.09753105789422989, 
           0.0749165341258049,    0.570501983165741,    -0.4560834765434265, //2,0,0..2=>  0.0749165341258049,   0.570501983165741,   -0.4560834765434265, 
           0.3457906246185303,    -0.06827373057603836,    -0.4652021825313568, //2,1,0..2=>  0.3457906246185303,   -0.06827373057603836,   -0.4652021825313568, 
           0.22671645879745483,    -0.5945809483528137,    0.054833922535181046, //2,2,0..2=>  0.22671645879745483,   -0.5945809483528137,   0.054833922535181046, 
        
        };
        static filter_t filter10 = {3, 3, weights10, 0.3567727208137512}; 
        filters[10]=filter10;
            
        static const float weights11[]={
           -0.036849748343229294,    -0.43183061480522156,    -0.06638211011886597, //0,0,0..2=>  -0.036849748343229294,   -0.43183061480522156,   -0.06638211011886597, 
           0.4318994879722595,    0.06688645482063293,    -0.4148666262626648, //0,1,0..2=>  0.4318994879722595,   0.06688645482063293,   -0.4148666262626648, 
           -0.23842748999595642,    0.3412730395793915,    0.22937539219856262, //0,2,0..2=>  -0.23842748999595642,   0.3412730395793915,   0.22937539219856262, 
           0.1326088011264801,    -0.3044762909412384,    0.04805893823504448, //1,0,0..2=>  0.1326088011264801,   -0.3044762909412384,   0.04805893823504448, 
           0.4979420304298401,    0.11441091448068619,    -0.3112611770629883, //1,1,0..2=>  0.4979420304298401,   0.11441091448068619,   -0.3112611770629883, 
           -0.2364596277475357,    0.554311990737915,    0.2688750624656677, //1,2,0..2=>  -0.2364596277475357,   0.554311990737915,   0.2688750624656677, 
           -0.3238227963447571,    -0.3179226815700531,    0.17674696445465088, //2,0,0..2=>  -0.3238227963447571,   -0.3179226815700531,   0.17674696445465088, 
           0.4683995544910431,    -0.28338053822517395,    -0.3825043737888336, //2,1,0..2=>  0.4683995544910431,   -0.28338053822517395,   -0.3825043737888336, 
           -0.020996499806642532,    0.5306030511856079,    -0.08286091685295105, //2,2,0..2=>  -0.020996499806642532,   0.5306030511856079,   -0.08286091685295105, 
        
        };
        static filter_t filter11 = {3, 3, weights11, 0.4087461531162262}; 
        filters[11]=filter11;
            
        static const float weights12[]={
           0.07666929811239243,    0.28177544474601746,    0.1948789805173874, //0,0,0..2=>  0.07666929811239243,   0.28177544474601746,   0.1948789805173874, 
           -0.17061293125152588,    0.052665628492832184,    0.14835457503795624, //0,1,0..2=>  -0.17061293125152588,   0.052665628492832184,   0.14835457503795624, 
           -0.2864314615726471,    0.08250431716442108,    -0.08520939201116562, //0,2,0..2=>  -0.2864314615726471,   0.08250431716442108,   -0.08520939201116562, 
           -0.040039096027612686,    -0.08229746669530869,    -0.20584037899971008, //1,0,0..2=>  -0.040039096027612686,   -0.08229746669530869,   -0.20584037899971008, 
           -0.07772878557443619,    -0.0823252946138382,    -0.05741241201758385, //1,1,0..2=>  -0.07772878557443619,   -0.0823252946138382,   -0.05741241201758385, 
           0.15982383489608765,    0.07857537269592285,    -0.148999884724617, //1,2,0..2=>  0.15982383489608765,   0.07857537269592285,   -0.148999884724617, 
           -0.06802362948656082,    -0.18221844732761383,    -0.046687643975019455, //2,0,0..2=>  -0.06802362948656082,   -0.18221844732761383,   -0.046687643975019455, 
           0.20623968541622162,    -0.009750648401677608,    0.04146590828895569, //2,1,0..2=>  0.20623968541622162,   -0.009750648401677608,   0.04146590828895569, 
           0.15189920365810394,    -0.04355679452419281,    0.07795317471027374, //2,2,0..2=>  0.15189920365810394,   -0.04355679452419281,   0.07795317471027374, 
        
        };
        static filter_t filter12 = {3, 3, weights12, 0.03462950885295868}; 
        filters[12]=filter12;
            
        static const float weights13[]={
           0.13118353486061096,    -0.06192249059677124,    -0.06738557666540146, //0,0,0..2=>  0.13118353486061096,   -0.06192249059677124,   -0.06738557666540146, 
           -0.07285648584365845,    -0.014084631577134132,    0.1425703912973404, //0,1,0..2=>  -0.07285648584365845,   -0.014084631577134132,   0.1425703912973404, 
           0.04825487732887268,    0.13320693373680115,    0.13542897999286652, //0,2,0..2=>  0.04825487732887268,   0.13320693373680115,   0.13542897999286652, 
           0.1261378973722458,    0.0674595907330513,    0.008391044102609158, //1,0,0..2=>  0.1261378973722458,   0.0674595907330513,   0.008391044102609158, 
           -0.005883056204766035,    0.07016582787036896,    0.15105988085269928, //1,1,0..2=>  -0.005883056204766035,   0.07016582787036896,   0.15105988085269928, 
           0.09816120564937592,    0.04690024256706238,    0.05727541074156761, //1,2,0..2=>  0.09816120564937592,   0.04690024256706238,   0.05727541074156761, 
           -0.14045877754688263,    -0.13254041969776154,    0.18769998848438263, //2,0,0..2=>  -0.14045877754688263,   -0.13254041969776154,   0.18769998848438263, 
           -0.1414092779159546,    0.013910260051488876,    -0.000626028107944876, //2,1,0..2=>  -0.1414092779159546,   0.013910260051488876,   -0.000626028107944876, 
           0.0965735986828804,    0.008224117569625378,    0.021126752719283104, //2,2,0..2=>  0.0965735986828804,   0.008224117569625378,   0.021126752719283104, 
        
        };
        static filter_t filter13 = {3, 3, weights13, 0.02143368497490883}; 
        filters[13]=filter13;
            
        static const float weights14[]={
           -0.31950119137763977,    -0.37866896390914917,    -0.3580062985420227, //0,0,0..2=>  -0.31950119137763977,   -0.37866896390914917,   -0.3580062985420227, 
           0.18169504404067993,    0.4326956272125244,    0.4435174763202667, //0,1,0..2=>  0.18169504404067993,   0.4326956272125244,   0.4435174763202667, 
           0.17334415018558502,    0.1780610978603363,    0.3272063434123993, //0,2,0..2=>  0.17334415018558502,   0.1780610978603363,   0.3272063434123993, 
           0.05579793080687523,    0.07046692818403244,    0.13527311384677887, //1,0,0..2=>  0.05579793080687523,   0.07046692818403244,   0.13527311384677887, 
           -0.08192591369152069,    0.5740846395492554,    0.34511569142341614, //1,1,0..2=>  -0.08192591369152069,   0.5740846395492554,   0.34511569142341614, 
           -0.24426184594631195,    0.2780570685863495,    0.008307850919663906, //1,2,0..2=>  -0.24426184594631195,   0.2780570685863495,   0.008307850919663906, 
           -0.07756751030683517,    -0.14482471346855164,    -0.1115841493010521, //2,0,0..2=>  -0.07756751030683517,   -0.14482471346855164,   -0.1115841493010521, 
           -0.02856912463903427,    0.1838764250278473,    -0.14914709329605103, //2,1,0..2=>  -0.02856912463903427,   0.1838764250278473,   -0.14914709329605103, 
           -0.16143953800201416,    -0.18074384331703186,    0.14186342060565948, //2,2,0..2=>  -0.16143953800201416,   -0.18074384331703186,   0.14186342060565948, 
        
        };
        static filter_t filter14 = {3, 3, weights14, 0.05793634429574013}; 
        filters[14]=filter14;
            
        static const float weights15[]={
           0.22479496896266937,    0.06843467056751251,    0.14118027687072754, //0,0,0..2=>  0.22479496896266937,   0.06843467056751251,   0.14118027687072754, 
           0.3713151216506958,    0.142826110124588,    0.36812344193458557, //0,1,0..2=>  0.3713151216506958,   0.142826110124588,   0.36812344193458557, 
           0.17836815118789673,    0.18013529479503632,    0.08132568001747131, //0,2,0..2=>  0.17836815118789673,   0.18013529479503632,   0.08132568001747131, 
           0.00992363691329956,    -0.04728279635310173,    0.12644901871681213, //1,0,0..2=>  0.00992363691329956,   -0.04728279635310173,   0.12644901871681213, 
           -0.1478690505027771,    0.014330382458865643,    -0.16725607216358185, //1,1,0..2=>  -0.1478690505027771,   0.014330382458865643,   -0.16725607216358185, 
           -0.12479745596647263,    -0.16312049329280853,    0.2289169430732727, //1,2,0..2=>  -0.12479745596647263,   -0.16312049329280853,   0.2289169430732727, 
           -0.0167239923030138,    0.04761635512113571,    0.014759472571313381, //2,0,0..2=>  -0.0167239923030138,   0.04761635512113571,   0.014759472571313381, 
           -0.07176035642623901,    0.12060558050870895,    0.07796131819486618, //2,1,0..2=>  -0.07176035642623901,   0.12060558050870895,   0.07796131819486618, 
           0.01900367997586727,    0.10895285755395889,    0.08018776029348373, //2,2,0..2=>  0.01900367997586727,   0.10895285755395889,   0.08018776029348373, 
        
        };
        static filter_t filter15 = {3, 3, weights15, -0.22829915583133698}; 
        filters[15]=filter15;
            
        conv2d_layer_t layer = {16, filters };
        return layer;
}
        

depthwise_conv2d_layer_t init_depthwise_conv2d_data(void){

        
    static const float weights[]={
        -0.39348798990249634, -0.1584145575761795, -0.1549043357372284, 
        -0.03760292008519173, 0.22123105823993683, 0.3215439021587372, 
        0.19765330851078033, 0.21231965720653534, 0.4044915735721588, 

        0.22940069437026978, 0.274158775806427, 0.13029955327510834, 
        -0.09333332628011703, 0.16891881823539734, -0.17212285101413727, 
        -0.1313081532716751, -0.15385949611663818, -0.2936553955078125, 

        0.05644574761390686, -0.1591617614030838, -0.2918567359447479, 
        -0.16208621859550476, -0.04464026913046837, 0.12683670222759247, 
        -0.1255594938993454, 0.2834635376930237, 0.27500981092453003, 

        0.10669459402561188, 0.048999276012182236, 0.12245159596204758, 
        0.24597148597240448, 0.0791068822145462, -0.1564990133047104, 
        0.09175420552492142, 0.1009344607591629, -0.04312986508011818, 

        0.040107645094394684, -0.19815900921821594, 0.1911604404449463, 
        0.12127118557691574, -0.422866553068161, 0.26069313287734985, 
        0.07590514421463013, -0.16134819388389587, 0.07650391012430191, 

        -0.2449934482574463, 0.028697621077299118, 0.36487236618995667, 
        -0.26305994391441345, -0.18224266171455383, 0.27057820558547974, 
        -0.04274936392903328, -0.11946427822113037, 0.10188233107328415, 

        0.21982476115226746, 0.014310871250927448, 0.2034817636013031, 
        0.1543467491865158, 0.0965576022863388, 0.14027689397335052, 
        0.024995774030685425, -0.1028696745634079, -0.051041606813669205, 

        -0.04584900662302971, 0.16468442976474762, -0.06083018705248833, 
        -0.22243495285511017, -0.3297736942768097, -0.07994700968265533, 
        0.20085465908050537, 0.39857926964759827, -0.05598541721701622, 

        0.07460242509841919, 0.05350194498896599, -0.3057120144367218, 
        0.15705308318138123, 0.05407729744911194, -0.25359979271888733, 
        0.15208198130130768, 0.07510717213153839, -0.04698311910033226, 

        0.2689332067966461, 0.04902210459113121, 0.169376403093338, 
        0.12650910019874573, -0.14880862832069397, -0.06491171568632126, 
        0.09272396564483643, 0.13935618102550507, 0.2041831612586975, 

        -0.12602852284908295, -0.1101384237408638, 0.17016920447349548, 
        -0.27350613474845886, 0.12968406081199646, 0.0776834562420845, 
        -0.09168320149183273, 0.30822858214378357, -0.11331936717033386, 

        -0.21290485560894012, -0.29499849677085876, 0.4283692240715027, 
        0.18724390864372253, -0.03973613306879997, -0.5071869492530823, 
        0.23467567563056946, 0.09806173294782639, -0.0586220808327198, 

        0.18949753046035767, 0.21078535914421082, 0.3165871202945709, 
        0.25575777888298035, 0.30959174036979675, 0.36079269647598267, 
        0.4229873716831207, 0.18665289878845215, 0.07645251601934433, 

        -0.17089244723320007, 0.09736054390668869, -0.09799150377511978, 
        -0.1407933086156845, 0.04509963467717171, -0.03915959224104881, 
        -0.023806245997548103, -0.16520999372005463, 0.020951375365257263, 

        0.12470950931310654, 0.212846040725708, -0.014346068724989891, 
        -0.04190349951386452, 0.20104339718818665, 0.1400107890367508, 
        -0.23349063098430634, -0.13555800914764404, -0.3011642396450043, 

        -0.13393951952457428, -0.21524417400360107, 0.18755248188972473, 
        0.038575682789087296, -0.03928077593445778, -0.010657936334609985, 
        -0.10783345252275467, 0.1513953059911728, 0.3116625249385834
    };
    static const float biases[]={
        -0.028501270338892937,
        0.012971948832273483,
        0.038516122847795486,
        -0.13358700275421143,
        -0.004400906153023243,
        0.0010003559291362762,
        -0.01756228506565094,
        0.0198857132345438,
        0.03054320253431797,
        0.0006524467607960105,
        0.001982232788577676,
        0.051685500890016556,
        -0.002122488571330905,
        -0.023822151124477386,
        0.028679484501481056,
        -0.02969897724688053
    };

    depthwise_conv2d_layer_t layer = {16, 3, weights, biases};
        
    return layer;
}


conv2d_layer_t init_conv2d_1_data(void){

        static filter_t filters[32];
        
        static const float weights0[]={
           0.0009785338770598173,    0.03076757676899433,    -0.08937617391347885, //0,0,0..2=>  0.0009785338770598173,   0.03076757676899433,   -0.08937617391347885, 
           0.060007039457559586,    -0.0032995755318552256,    -0.11710459738969803, //0,1,0..2=>  0.060007039457559586,   -0.0032995755318552256,   -0.11710459738969803, 
           0.07534825056791306,    0.020007682964205742,    -0.055006008595228195, //0,2,0..2=>  0.07534825056791306,   0.020007682964205742,   -0.055006008595228195, 
           -0.019136272370815277,    -0.11708708852529526,    0.020342059433460236, //1,0,0..2=>  -0.019136272370815277,   -0.11708708852529526,   0.020342059433460236, 
           -0.0669485554099083,    -0.010417714715003967,    -0.07276169955730438, //1,1,0..2=>  -0.0669485554099083,   -0.010417714715003967,   -0.07276169955730438, 
           -0.09793427586555481,    0.05222610384225845,    -0.03452877700328827, //1,2,0..2=>  -0.09793427586555481,   0.05222610384225845,   -0.03452877700328827, 
           -0.0068765487521886826,    0.056404367089271545,    -0.10580015182495117, //2,0,0..2=>  -0.0068765487521886826,   0.056404367089271545,   -0.10580015182495117, 
           0.05627255141735077,    0.04119891673326492,    0.003099089488387108, //2,1,0..2=>  0.05627255141735077,   0.04119891673326492,   0.003099089488387108, 
           -0.10990443825721741,    -0.014901808463037014,    -0.10106652230024338, //2,2,0..2=>  -0.10990443825721741,   -0.014901808463037014,   -0.10106652230024338, 
           -0.06627605110406876,    0.0030001127161085606,    0.02018164098262787, //3,0,0..2=>  -0.06627605110406876,   0.0030001127161085606,   0.02018164098262787, 
           0.006960378028452396,    0.078178271651268,    -0.09411724656820297, //3,1,0..2=>  0.006960378028452396,   0.078178271651268,   -0.09411724656820297, 
           -0.0873340368270874,    0.029771363362669945,    -0.08542019873857498, //3,2,0..2=>  -0.0873340368270874,   0.029771363362669945,   -0.08542019873857498, 
           -0.06162847578525543,    -0.034031905233860016,    0.08571963012218475, //4,0,0..2=>  -0.06162847578525543,   -0.034031905233860016,   0.08571963012218475, 
           0.0014119913103058934,    -0.014707215130329132,    -0.06696490198373795, //4,1,0..2=>  0.0014119913103058934,   -0.014707215130329132,   -0.06696490198373795, 
           0.04672139137983322,    0.05491494759917259,    0.03290749341249466, //4,2,0..2=>  0.04672139137983322,   0.05491494759917259,   0.03290749341249466, 
           -0.04658966884016991,    -0.0746946781873703,    0.01895575225353241, //5,0,0..2=>  -0.04658966884016991,   -0.0746946781873703,   0.01895575225353241, 
           0.006844181101769209,    0.02824602648615837,    0.08166903257369995, //5,1,0..2=>  0.006844181101769209,   0.02824602648615837,   0.08166903257369995, 
           0.08048436045646667,    -0.006111918017268181,    0.010757504031062126, //5,2,0..2=>  0.08048436045646667,   -0.006111918017268181,   0.010757504031062126, 
           -0.08905316144227982,    0.05674847215414047,    -0.064714714884758, //6,0,0..2=>  -0.08905316144227982,   0.05674847215414047,   -0.064714714884758, 
           -0.025826530531048775,    -0.11803773045539856,    -0.0477394238114357, //6,1,0..2=>  -0.025826530531048775,   -0.11803773045539856,   -0.0477394238114357, 
           -0.08131159096956253,    -0.13803187012672424,    0.046655237674713135, //6,2,0..2=>  -0.08131159096956253,   -0.13803187012672424,   0.046655237674713135, 
           0.07435740530490875,    0.08998597413301468,    0.018188942223787308, //7,0,0..2=>  0.07435740530490875,   0.08998597413301468,   0.018188942223787308, 
           0.02120751328766346,    -0.08246194571256638,    -0.029197515919804573, //7,1,0..2=>  0.02120751328766346,   -0.08246194571256638,   -0.029197515919804573, 
           -0.10551108419895172,    -0.11454210430383682,    0.001537480391561985, //7,2,0..2=>  -0.10551108419895172,   -0.11454210430383682,   0.001537480391561985, 
           0.09629101306200027,    0.010544347576797009,    -0.03048105351626873, //8,0,0..2=>  0.09629101306200027,   0.010544347576797009,   -0.03048105351626873, 
           -0.03383560851216316,    0.0688379555940628,    -0.0885850116610527, //8,1,0..2=>  -0.03383560851216316,   0.0688379555940628,   -0.0885850116610527, 
           -0.023608742281794548,    0.1011737510561943,    0.0034613963216543198, //8,2,0..2=>  -0.023608742281794548,   0.1011737510561943,   0.0034613963216543198, 
           -0.08890148997306824,    0.10227721929550171,    -0.08523010462522507, //9,0,0..2=>  -0.08890148997306824,   0.10227721929550171,   -0.08523010462522507, 
           -0.12019488215446472,    0.06971551477909088,    -0.09919589757919312, //9,1,0..2=>  -0.12019488215446472,   0.06971551477909088,   -0.09919589757919312, 
           -0.050672389566898346,    0.05769388750195503,    0.018486443907022476, //9,2,0..2=>  -0.050672389566898346,   0.05769388750195503,   0.018486443907022476, 
           0.096844382584095,    -0.07261911779642105,    -0.09977508336305618, //10,0,0..2=>  0.096844382584095,   -0.07261911779642105,   -0.09977508336305618, 
           -0.09699036180973053,    -0.05174015834927559,    -0.10179876536130905, //10,1,0..2=>  -0.09699036180973053,   -0.05174015834927559,   -0.10179876536130905, 
           0.07184591889381409,    -0.11665467917919159,    0.00715356832370162, //10,2,0..2=>  0.07184591889381409,   -0.11665467917919159,   0.00715356832370162, 
           0.09087207913398743,    -0.06274085491895676,    0.04101839289069176, //11,0,0..2=>  0.09087207913398743,   -0.06274085491895676,   0.04101839289069176, 
           0.04534272477030754,    -0.1065477803349495,    0.06324362754821777, //11,1,0..2=>  0.04534272477030754,   -0.1065477803349495,   0.06324362754821777, 
           0.04123028740286827,    -0.049302250146865845,    0.008251402527093887, //11,2,0..2=>  0.04123028740286827,   -0.049302250146865845,   0.008251402527093887, 
           0.041716061532497406,    -0.11816588789224625,    -0.06663267314434052, //12,0,0..2=>  0.041716061532497406,   -0.11816588789224625,   -0.06663267314434052, 
           0.06629882007837296,    0.036595139652490616,    -0.06542053818702698, //12,1,0..2=>  0.06629882007837296,   0.036595139652490616,   -0.06542053818702698, 
           0.06232845410704613,    -0.12102261185646057,    -0.1024557426571846, //12,2,0..2=>  0.06232845410704613,   -0.12102261185646057,   -0.1024557426571846, 
           -0.06734330207109451,    -0.060310229659080505,    0.003894902765750885, //13,0,0..2=>  -0.06734330207109451,   -0.060310229659080505,   0.003894902765750885, 
           0.00980355590581894,    -0.08679994940757751,    0.054016612470149994, //13,1,0..2=>  0.00980355590581894,   -0.08679994940757751,   0.054016612470149994, 
           0.00025906413793563843,    0.03083299845457077,    0.05549626797437668, //13,2,0..2=>  0.00025906413793563843,   0.03083299845457077,   0.05549626797437668, 
           -0.0744556188583374,    -0.009164211340248585,    -0.09307586401700974, //14,0,0..2=>  -0.0744556188583374,   -0.009164211340248585,   -0.09307586401700974, 
           0.012756872922182083,    0.03225893899798393,    -0.006682173814624548, //14,1,0..2=>  0.012756872922182083,   0.03225893899798393,   -0.006682173814624548, 
           -0.008566283620893955,    -0.06546178460121155,    -0.04607762023806572, //14,2,0..2=>  -0.008566283620893955,   -0.06546178460121155,   -0.04607762023806572, 
           -0.020483065396547318,    0.09752298891544342,    0.087851881980896, //15,0,0..2=>  -0.020483065396547318,   0.09752298891544342,   0.087851881980896, 
           -0.11094744503498077,    0.03681240603327751,    0.004196143709123135, //15,1,0..2=>  -0.11094744503498077,   0.03681240603327751,   0.004196143709123135, 
           0.006882540415972471,    -0.06270144134759903,    -0.11114377528429031, //15,2,0..2=>  0.006882540415972471,   -0.06270144134759903,   -0.11114377528429031, 
        
        };
        static filter_t filter0 = {16, 3, weights0, -0.01723785325884819}; 
        filters[0]=filter0;
            
        static const float weights1[]={
           -0.34740760922431946,    -0.11229271441698074,    -0.10605411976575851, //0,0,0..2=>  -0.34740760922431946,   -0.11229271441698074,   -0.10605411976575851, 
           -0.01147320307791233,    0.14257754385471344,    0.32233667373657227, //0,1,0..2=>  -0.01147320307791233,   0.14257754385471344,   0.32233667373657227, 
           0.3132573664188385,    0.5145160555839539,    0.3462320864200592, //0,2,0..2=>  0.3132573664188385,   0.5145160555839539,   0.3462320864200592, 
           -0.3135283291339874,    -0.2005455493927002,    -0.3647243082523346, //1,0,0..2=>  -0.3135283291339874,   -0.2005455493927002,   -0.3647243082523346, 
           0.010016717948019505,    0.013749690726399422,    -0.011794251389801502, //1,1,0..2=>  0.010016717948019505,   0.013749690726399422,   -0.011794251389801502, 
           0.09197048097848892,    -0.11242087930440903,    -0.27074429392814636, //1,2,0..2=>  0.09197048097848892,   -0.11242087930440903,   -0.27074429392814636, 
           0.10938291251659393,    0.17607571184635162,    -0.0644482672214508, //2,0,0..2=>  0.10938291251659393,   0.17607571184635162,   -0.0644482672214508, 
           0.4077730178833008,    0.20822502672672272,    0.42653775215148926, //2,1,0..2=>  0.4077730178833008,   0.20822502672672272,   0.42653775215148926, 
           -0.017098722979426384,    0.3142358958721161,    0.2214549034833908, //2,2,0..2=>  -0.017098722979426384,   0.3142358958721161,   0.2214549034833908, 
           -0.12665700912475586,    -0.11009690165519714,    0.10949420928955078, //3,0,0..2=>  -0.12665700912475586,   -0.11009690165519714,   0.10949420928955078, 
           -0.15752573311328888,    -0.044849034398794174,    0.05701581761240959, //3,1,0..2=>  -0.15752573311328888,   -0.044849034398794174,   0.05701581761240959, 
           -0.08493834733963013,    0.09546098113059998,    -0.0017739443574100733, //3,2,0..2=>  -0.08493834733963013,   0.09546098113059998,   -0.0017739443574100733, 
           0.07247801125049591,    -0.18144546449184418,    0.014698457904160023, //4,0,0..2=>  0.07247801125049591,   -0.18144546449184418,   0.014698457904160023, 
           0.3253401219844818,    -0.1586875319480896,    0.253366082906723, //4,1,0..2=>  0.3253401219844818,   -0.1586875319480896,   0.253366082906723, 
           -0.1712464839220047,    0.04738008230924606,    -0.15031388401985168, //4,2,0..2=>  -0.1712464839220047,   0.04738008230924606,   -0.15031388401985168, 
           -0.07975009083747864,    -0.37133416533470154,    0.0470784455537796, //5,0,0..2=>  -0.07975009083747864,   -0.37133416533470154,   0.0470784455537796, 
           -0.09843654185533524,    -0.12050662934780121,    -0.3498384654521942, //5,1,0..2=>  -0.09843654185533524,   -0.12050662934780121,   -0.3498384654521942, 
           -0.07271576672792435,    0.34151577949523926,    0.14339815080165863, //5,2,0..2=>  -0.07271576672792435,   0.34151577949523926,   0.14339815080165863, 
           0.06577333062887192,    0.09275370091199875,    0.18557164072990417, //6,0,0..2=>  0.06577333062887192,   0.09275370091199875,   0.18557164072990417, 
           0.009973096661269665,    -0.035714585334062576,    0.12843285501003265, //6,1,0..2=>  0.009973096661269665,   -0.035714585334062576,   0.12843285501003265, 
           -0.15201659500598907,    0.04355001449584961,    0.027507614344358444, //6,2,0..2=>  -0.15201659500598907,   0.04355001449584961,   0.027507614344358444, 
           -0.3753887414932251,    -0.5231024622917175,    -0.5266163349151611, //7,0,0..2=>  -0.3753887414932251,   -0.5231024622917175,   -0.5266163349151611, 
           -0.3145114779472351,    0.108609639108181,    -0.40624314546585083, //7,1,0..2=>  -0.3145114779472351,   0.108609639108181,   -0.40624314546585083, 
           0.40269050002098083,    0.2806600332260132,    0.28134167194366455, //7,2,0..2=>  0.40269050002098083,   0.2806600332260132,   0.28134167194366455, 
           0.2710201144218445,    0.27269330620765686,    0.06532591581344604, //8,0,0..2=>  0.2710201144218445,   0.27269330620765686,   0.06532591581344604, 
           0.040141306817531586,    0.15542151033878326,    0.13985703885555267, //8,1,0..2=>  0.040141306817531586,   0.15542151033878326,   0.13985703885555267, 
           -0.4692552387714386,    -0.3201431334018707,    -0.0828891322016716, //8,2,0..2=>  -0.4692552387714386,   -0.3201431334018707,   -0.0828891322016716, 
           -0.1470802277326584,    -0.17208610475063324,    -0.01763973943889141, //9,0,0..2=>  -0.1470802277326584,   -0.17208610475063324,   -0.01763973943889141, 
           -0.22252382338047028,    -0.08243120461702347,    -0.2558040916919708, //9,1,0..2=>  -0.22252382338047028,   -0.08243120461702347,   -0.2558040916919708, 
           0.07300931960344315,    -0.20643089711666107,    -0.04813477024435997, //9,2,0..2=>  0.07300931960344315,   -0.20643089711666107,   -0.04813477024435997, 
           0.043504614382982254,    0.07116971164941788,    -0.0886404737830162, //10,0,0..2=>  0.043504614382982254,   0.07116971164941788,   -0.0886404737830162, 
           0.14261570572853088,    0.4950072467327118,    0.28458985686302185, //10,1,0..2=>  0.14261570572853088,   0.4950072467327118,   0.28458985686302185, 
           0.4868995249271393,    0.06774730235338211,    -0.0374484583735466, //10,2,0..2=>  0.4868995249271393,   0.06774730235338211,   -0.0374484583735466, 
           0.15160013735294342,    0.1830579936504364,    -0.024161282926797867, //11,0,0..2=>  0.15160013735294342,   0.1830579936504364,   -0.024161282926797867, 
           0.24356035888195038,    0.13325075805187225,    -0.00979603175073862, //11,1,0..2=>  0.24356035888195038,   0.13325075805187225,   -0.00979603175073862, 
           -0.04291313514113426,    0.477317750453949,    -0.13731694221496582, //11,2,0..2=>  -0.04291313514113426,   0.477317750453949,   -0.13731694221496582, 
           -0.05694593861699104,    0.038254670798778534,    0.07171931862831116, //12,0,0..2=>  -0.05694593861699104,   0.038254670798778534,   0.07171931862831116, 
           0.18322403728961945,    0.31319788098335266,    0.21675589680671692, //12,1,0..2=>  0.18322403728961945,   0.31319788098335266,   0.21675589680671692, 
           0.3327307105064392,    0.17355020344257355,    0.23703113198280334, //12,2,0..2=>  0.3327307105064392,   0.17355020344257355,   0.23703113198280334, 
           -0.07856549322605133,    -0.033191464841365814,    -0.05935852229595184, //13,0,0..2=>  -0.07856549322605133,   -0.033191464841365814,   -0.05935852229595184, 
           0.10992038995027542,    0.05325111001729965,    -0.08023606240749359, //13,1,0..2=>  0.10992038995027542,   0.05325111001729965,   -0.08023606240749359, 
           -0.0239542368799448,    -0.023679500445723534,    0.09893839061260223, //13,2,0..2=>  -0.0239542368799448,   -0.023679500445723534,   0.09893839061260223, 
           -0.0791749656200409,    -0.13889656960964203,    -0.27721258997917175, //14,0,0..2=>  -0.0791749656200409,   -0.13889656960964203,   -0.27721258997917175, 
           -0.007232735399156809,    0.3448578715324402,    -0.0882258340716362, //14,1,0..2=>  -0.007232735399156809,   0.3448578715324402,   -0.0882258340716362, 
           -0.32063570618629456,    -0.2616439759731293,    -0.35050275921821594, //14,2,0..2=>  -0.32063570618629456,   -0.2616439759731293,   -0.35050275921821594, 
           -0.054790861904621124,    0.1520991027355194,    0.27665603160858154, //15,0,0..2=>  -0.054790861904621124,   0.1520991027355194,   0.27665603160858154, 
           0.13798946142196655,    0.11806385964155197,    0.4727039635181427, //15,1,0..2=>  0.13798946142196655,   0.11806385964155197,   0.4727039635181427, 
           0.05673069879412651,    0.22338645160198212,    0.17315948009490967, //15,2,0..2=>  0.05673069879412651,   0.22338645160198212,   0.17315948009490967, 
        
        };
        static filter_t filter1 = {16, 3, weights1, 0.054868992418050766}; 
        filters[1]=filter1;
            
        static const float weights2[]={
           -0.1750979870557785,    -0.050973206758499146,    0.09685532748699188, //0,0,0..2=>  -0.1750979870557785,   -0.050973206758499146,   0.09685532748699188, 
           -0.16787488758563995,    -0.05331824719905853,    0.2757679224014282, //0,1,0..2=>  -0.16787488758563995,   -0.05331824719905853,   0.2757679224014282, 
           -0.2919406592845917,    0.07206793874502182,    0.09309566766023636, //0,2,0..2=>  -0.2919406592845917,   0.07206793874502182,   0.09309566766023636, 
           -0.1612969934940338,    0.06422749161720276,    0.05670025199651718, //1,0,0..2=>  -0.1612969934940338,   0.06422749161720276,   0.05670025199651718, 
           -0.18337149918079376,    0.056064434349536896,    0.031469136476516724, //1,1,0..2=>  -0.18337149918079376,   0.056064434349536896,   0.031469136476516724, 
           -0.2295704483985901,    -0.3565835952758789,    -0.8042284250259399, //1,2,0..2=>  -0.2295704483985901,   -0.3565835952758789,   -0.8042284250259399, 
           0.2843458652496338,    0.12522700428962708,    -0.20126202702522278, //2,0,0..2=>  0.2843458652496338,   0.12522700428962708,   -0.20126202702522278, 
           0.13721610605716705,    -0.0003726807772181928,    0.0005938849062658846, //2,1,0..2=>  0.13721610605716705,   -0.0003726807772181928,   0.0005938849062658846, 
           0.05233495309948921,    0.0801151841878891,    0.22804635763168335, //2,2,0..2=>  0.05233495309948921,   0.0801151841878891,   0.22804635763168335, 
           -0.1332271844148636,    -0.04095146432518959,    0.06758377701044083, //3,0,0..2=>  -0.1332271844148636,   -0.04095146432518959,   0.06758377701044083, 
           0.01910068653523922,    0.010164787992835045,    0.19360898435115814, //3,1,0..2=>  0.01910068653523922,   0.010164787992835045,   0.19360898435115814, 
           0.06126624718308449,    -0.020273271948099136,    0.04055384173989296, //3,2,0..2=>  0.06126624718308449,   -0.020273271948099136,   0.04055384173989296, 
           -0.19150905311107635,    -0.051693569868803024,    0.09768545627593994, //4,0,0..2=>  -0.19150905311107635,   -0.051693569868803024,   0.09768545627593994, 
           -0.24205993115901947,    -0.27908459305763245,    0.045560695230960846, //4,1,0..2=>  -0.24205993115901947,   -0.27908459305763245,   0.045560695230960846, 
           -0.08611614257097244,    0.026168212294578552,    0.11354894936084747, //4,2,0..2=>  -0.08611614257097244,   0.026168212294578552,   0.11354894936084747, 
           0.02249976433813572,    -0.37211844325065613,    -0.4820174276828766, //5,0,0..2=>  0.02249976433813572,   -0.37211844325065613,   -0.4820174276828766, 
           0.02828923426568508,    -0.0922483280301094,    -0.3908964991569519, //5,1,0..2=>  0.02828923426568508,   -0.0922483280301094,   -0.3908964991569519, 
           0.08831509947776794,    0.29702287912368774,    0.42350679636001587, //5,2,0..2=>  0.08831509947776794,   0.29702287912368774,   0.42350679636001587, 
           -0.165004163980484,    -0.22383379936218262,    -0.1696975976228714, //6,0,0..2=>  -0.165004163980484,   -0.22383379936218262,   -0.1696975976228714, 
           -0.22039322555065155,    -0.26865750551223755,    -0.020507127046585083, //6,1,0..2=>  -0.22039322555065155,   -0.26865750551223755,   -0.020507127046585083, 
           -1.5257421182468534e-05,    -0.10237892717123032,    0.0832386165857315, //6,2,0..2=>  -1.5257421182468534e-05,   -0.10237892717123032,   0.0832386165857315, 
           0.3061690926551819,    -0.03963688388466835,    -0.6782622933387756, //7,0,0..2=>  0.3061690926551819,   -0.03963688388466835,   -0.6782622933387756, 
           0.4863671362400055,    0.105558380484581,    -0.2414889931678772, //7,1,0..2=>  0.4863671362400055,   0.105558380484581,   -0.2414889931678772, 
           0.34223559498786926,    0.18168778717517853,    -0.009944499470293522, //7,2,0..2=>  0.34223559498786926,   0.18168778717517853,   -0.009944499470293522, 
           0.053667034953832626,    -0.011855595745146275,    -0.1384759247303009, //8,0,0..2=>  0.053667034953832626,   -0.011855595745146275,   -0.1384759247303009, 
           0.18674980103969574,    0.21221648156642914,    0.12372495234012604, //8,1,0..2=>  0.18674980103969574,   0.21221648156642914,   0.12372495234012604, 
           0.2763873338699341,    0.27136221528053284,    0.38003361225128174, //8,2,0..2=>  0.2763873338699341,   0.27136221528053284,   0.38003361225128174, 
           -0.09955759346485138,    -0.04175327345728874,    -0.16715414822101593, //9,0,0..2=>  -0.09955759346485138,   -0.04175327345728874,   -0.16715414822101593, 
           0.006448367144912481,    0.0032351366244256496,    -0.030632128939032555, //9,1,0..2=>  0.006448367144912481,   0.0032351366244256496,   -0.030632128939032555, 
           0.03210124373435974,    -0.011821077205240726,    0.013587890192866325, //9,2,0..2=>  0.03210124373435974,   -0.011821077205240726,   0.013587890192866325, 
           -0.2215767800807953,    -0.3682924807071686,    -0.21308179199695587, //10,0,0..2=>  -0.2215767800807953,   -0.3682924807071686,   -0.21308179199695587, 
           0.26950860023498535,    -0.17791640758514404,    -0.09412933886051178, //10,1,0..2=>  0.26950860023498535,   -0.17791640758514404,   -0.09412933886051178, 
           0.23068641126155853,    0.22683313488960266,    0.1422850638628006, //10,2,0..2=>  0.23068641126155853,   0.22683313488960266,   0.1422850638628006, 
           -0.1392364650964737,    0.1233237162232399,    0.2040441930294037, //11,0,0..2=>  -0.1392364650964737,   0.1233237162232399,   0.2040441930294037, 
           -0.21891909837722778,    0.06270909309387207,    0.021354569122195244, //11,1,0..2=>  -0.21891909837722778,   0.06270909309387207,   0.021354569122195244, 
           0.049636274576187134,    0.13875821232795715,    0.17929501831531525, //11,2,0..2=>  0.049636274576187134,   0.13875821232795715,   0.17929501831531525, 
           -0.14942072331905365,    0.020277997478842735,    0.013680043630301952, //12,0,0..2=>  -0.14942072331905365,   0.020277997478842735,   0.013680043630301952, 
           -0.07627810537815094,    0.10646496713161469,    0.03052930161356926, //12,1,0..2=>  -0.07627810537815094,   0.10646496713161469,   0.03052930161356926, 
           -0.0021732081659138203,    -0.002300810534507036,    0.03710474818944931, //12,2,0..2=>  -0.0021732081659138203,   -0.002300810534507036,   0.03710474818944931, 
           0.0441264845430851,    0.07665285468101501,    -0.1081182137131691, //13,0,0..2=>  0.0441264845430851,   0.07665285468101501,   -0.1081182137131691, 
           0.05866467207670212,    -0.03708269074559212,    0.05951666459441185, //13,1,0..2=>  0.05866467207670212,   -0.03708269074559212,   0.05951666459441185, 
           0.07534707337617874,    0.044547032564878464,    -0.017260372638702393, //13,2,0..2=>  0.07534707337617874,   0.044547032564878464,   -0.017260372638702393, 
           -0.057260870933532715,    -0.49820005893707275,    -0.26125475764274597, //14,0,0..2=>  -0.057260870933532715,   -0.49820005893707275,   -0.26125475764274597, 
           0.22182661294937134,    0.08918208628892899,    -0.10873731970787048, //14,1,0..2=>  0.22182661294937134,   0.08918208628892899,   -0.10873731970787048, 
           0.16988451778888702,    0.06431911885738373,    -0.02088523656129837, //14,2,0..2=>  0.16988451778888702,   0.06431911885738373,   -0.02088523656129837, 
           0.11967446655035019,    -0.0826401636004448,    0.033076826483011246, //15,0,0..2=>  0.11967446655035019,   -0.0826401636004448,   0.033076826483011246, 
           -0.027033064514398575,    0.04057314619421959,    0.11088647693395615, //15,1,0..2=>  -0.027033064514398575,   0.04057314619421959,   0.11088647693395615, 
           -0.1299947053194046,    -0.08944202959537506,    0.06876939535140991, //15,2,0..2=>  -0.1299947053194046,   -0.08944202959537506,   0.06876939535140991, 
        
        };
        static filter_t filter2 = {16, 3, weights2, -0.020399048924446106}; 
        filters[2]=filter2;
            
        static const float weights3[]={
           0.030517086386680603,    -0.059446197003126144,    0.03916317969560623, //0,0,0..2=>  0.030517086386680603,   -0.059446197003126144,   0.03916317969560623, 
           -0.09859507530927658,    0.04551764205098152,    -0.2517833709716797, //0,1,0..2=>  -0.09859507530927658,   0.04551764205098152,   -0.2517833709716797, 
           0.15049970149993896,    0.027876826003193855,    -0.04957342520356178, //0,2,0..2=>  0.15049970149993896,   0.027876826003193855,   -0.04957342520356178, 
           0.2142045795917511,    0.014987194910645485,    0.10681192576885223, //1,0,0..2=>  0.2142045795917511,   0.014987194910645485,   0.10681192576885223, 
           -0.04785175994038582,    -0.015086994506418705,    0.05443478375673294, //1,1,0..2=>  -0.04785175994038582,   -0.015086994506418705,   0.05443478375673294, 
           -0.10179093480110168,    -0.12270081788301468,    0.005003587808459997, //1,2,0..2=>  -0.10179093480110168,   -0.12270081788301468,   0.005003587808459997, 
           -0.31940358877182007,    -0.09892220795154572,    -0.1130208745598793, //2,0,0..2=>  -0.31940358877182007,   -0.09892220795154572,   -0.1130208745598793, 
           -0.04472416639328003,    -0.2152135968208313,    -0.0656532496213913, //2,1,0..2=>  -0.04472416639328003,   -0.2152135968208313,   -0.0656532496213913, 
           0.1445532590150833,    0.22317816317081451,    0.2138310819864273, //2,2,0..2=>  0.1445532590150833,   0.22317816317081451,   0.2138310819864273, 
           0.02563137747347355,    -0.11378315091133118,    0.002951298374682665, //3,0,0..2=>  0.02563137747347355,   -0.11378315091133118,   0.002951298374682665, 
           0.03919678181409836,    0.08286058157682419,    -0.03310627490282059, //3,1,0..2=>  0.03919678181409836,   0.08286058157682419,   -0.03310627490282059, 
           0.16063733398914337,    0.09901113063097,    0.04895118623971939, //3,2,0..2=>  0.16063733398914337,   0.09901113063097,   0.04895118623971939, 
           0.1401737779378891,    0.13344638049602509,    0.20327936112880707, //4,0,0..2=>  0.1401737779378891,   0.13344638049602509,   0.20327936112880707, 
           0.13471080362796783,    0.1304711550474167,    0.16522546112537384, //4,1,0..2=>  0.13471080362796783,   0.1304711550474167,   0.16522546112537384, 
           0.5865753293037415,    0.45785707235336304,    0.3975338339805603, //4,2,0..2=>  0.5865753293037415,   0.45785707235336304,   0.3975338339805603, 
           0.12728901207447052,    0.1044248566031456,    0.4097665846347809, //5,0,0..2=>  0.12728901207447052,   0.1044248566031456,   0.4097665846347809, 
           0.11821366101503372,    -0.02149304747581482,    0.24163918197155, //5,1,0..2=>  0.11821366101503372,   -0.02149304747581482,   0.24163918197155, 
           0.26235058903694153,    0.1505020558834076,    0.2360745668411255, //5,2,0..2=>  0.26235058903694153,   0.1505020558834076,   0.2360745668411255, 
           -0.05052373185753822,    -0.087816521525383,    -0.07893028110265732, //6,0,0..2=>  -0.05052373185753822,   -0.087816521525383,   -0.07893028110265732, 
           0.08795806765556335,    0.06557168811559677,    0.12038228660821915, //6,1,0..2=>  0.08795806765556335,   0.06557168811559677,   0.12038228660821915, 
           -0.07132931798696518,    -0.12065975368022919,    -0.07923908531665802, //6,2,0..2=>  -0.07132931798696518,   -0.12065975368022919,   -0.07923908531665802, 
           -0.5790987610816956,    -0.4051339030265808,    -0.28134697675704956, //7,0,0..2=>  -0.5790987610816956,   -0.4051339030265808,   -0.28134697675704956, 
           -0.3564065396785736,    -0.1782631129026413,    0.1411457061767578, //7,1,0..2=>  -0.3564065396785736,   -0.1782631129026413,   0.1411457061767578, 
           -0.4470430016517639,    -0.25902071595191956,    -0.2470933049917221, //7,2,0..2=>  -0.4470430016517639,   -0.25902071595191956,   -0.2470933049917221, 
           -0.020483920350670815,    -0.010760507546365261,    0.03602559491991997, //8,0,0..2=>  -0.020483920350670815,   -0.010760507546365261,   0.03602559491991997, 
           0.05969711393117905,    0.04785681888461113,    0.11928373575210571, //8,1,0..2=>  0.05969711393117905,   0.04785681888461113,   0.11928373575210571, 
           0.22555238008499146,    -0.004739999305456877,    0.18242855370044708, //8,2,0..2=>  0.22555238008499146,   -0.004739999305456877,   0.18242855370044708, 
           -0.0886945128440857,    -0.01885255053639412,    -0.031171830371022224, //9,0,0..2=>  -0.0886945128440857,   -0.01885255053639412,   -0.031171830371022224, 
           0.05724768713116646,    -0.1008915975689888,    0.036433059722185135, //9,1,0..2=>  0.05724768713116646,   -0.1008915975689888,   0.036433059722185135, 
           0.0030761926900595427,    0.00652386574074626,    -0.026380091905593872, //9,2,0..2=>  0.0030761926900595427,   0.00652386574074626,   -0.026380091905593872, 
           -0.08736304938793182,    -0.0003184454399161041,    0.23810458183288574, //10,0,0..2=>  -0.08736304938793182,   -0.0003184454399161041,   0.23810458183288574, 
           0.004750930238515139,    0.16077083349227905,    0.20371977984905243, //10,1,0..2=>  0.004750930238515139,   0.16077083349227905,   0.20371977984905243, 
           -0.020438015460968018,    0.14665420353412628,    0.4258594810962677, //10,2,0..2=>  -0.020438015460968018,   0.14665420353412628,   0.4258594810962677, 
           -0.03841759264469147,    -0.07023299485445023,    0.050910767167806625, //11,0,0..2=>  -0.03841759264469147,   -0.07023299485445023,   0.050910767167806625, 
           0.03523612022399902,    -0.14402909576892853,    -0.15760883688926697, //11,1,0..2=>  0.03523612022399902,   -0.14402909576892853,   -0.15760883688926697, 
           0.26640674471855164,    0.06817229837179184,    -0.06145354360342026, //11,2,0..2=>  0.26640674471855164,   0.06817229837179184,   -0.06145354360342026, 
           0.04142811894416809,    -0.041129812598228455,    0.08400020003318787, //12,0,0..2=>  0.04142811894416809,   -0.041129812598228455,   0.08400020003318787, 
           0.12113315612077713,    0.1696794629096985,    0.12107217311859131, //12,1,0..2=>  0.12113315612077713,   0.1696794629096985,   0.12107217311859131, 
           0.045184001326560974,    0.04852963611483574,    0.01859726943075657, //12,2,0..2=>  0.045184001326560974,   0.04852963611483574,   0.01859726943075657, 
           0.08974258601665497,    -0.010682826861739159,    -0.06225316599011421, //13,0,0..2=>  0.08974258601665497,   -0.010682826861739159,   -0.06225316599011421, 
           -0.10829689353704453,    0.0048680673353374004,    -0.05656914785504341, //13,1,0..2=>  -0.10829689353704453,   0.0048680673353374004,   -0.05656914785504341, 
           -0.05289662256836891,    -0.1139826700091362,    -0.007517398335039616, //13,2,0..2=>  -0.05289662256836891,   -0.1139826700091362,   -0.007517398335039616, 
           -0.312811940908432,    -0.09197501838207245,    0.09616585075855255, //14,0,0..2=>  -0.312811940908432,   -0.09197501838207245,   0.09616585075855255, 
           -0.11506468802690506,    -0.13075317442417145,    0.025289736688137054, //14,1,0..2=>  -0.11506468802690506,   -0.13075317442417145,   0.025289736688137054, 
           0.21233738958835602,    -0.027591528370976448,    0.03822841867804527, //14,2,0..2=>  0.21233738958835602,   -0.027591528370976448,   0.03822841867804527, 
           -0.2196633368730545,    0.05720950663089752,    -0.05430953949689865, //15,0,0..2=>  -0.2196633368730545,   0.05720950663089752,   -0.05430953949689865, 
           -0.1238257959485054,    -0.09184861928224564,    -0.02912593074142933, //15,1,0..2=>  -0.1238257959485054,   -0.09184861928224564,   -0.02912593074142933, 
           -0.13884596526622772,    0.02066141925752163,    0.05245835334062576, //15,2,0..2=>  -0.13884596526622772,   0.02066141925752163,   0.05245835334062576, 
        
        };
        static filter_t filter3 = {16, 3, weights3, 0.019317282363772392}; 
        filters[3]=filter3;
            
        static const float weights4[]={
           -0.21516606211662292,    0.13075795769691467,    0.3848220705986023, //0,0,0..2=>  -0.21516606211662292,   0.13075795769691467,   0.3848220705986023, 
           -0.16132429242134094,    0.1898842602968216,    0.28726500272750854, //0,1,0..2=>  -0.16132429242134094,   0.1898842602968216,   0.28726500272750854, 
           -0.1329633742570877,    0.0800839439034462,    0.18699318170547485, //0,2,0..2=>  -0.1329633742570877,   0.0800839439034462,   0.18699318170547485, 
           -0.05394303798675537,    0.015399038791656494,    0.13147816061973572, //1,0,0..2=>  -0.05394303798675537,   0.015399038791656494,   0.13147816061973572, 
           0.05793791636824608,    0.13217689096927643,    0.15948805212974548, //1,1,0..2=>  0.05793791636824608,   0.13217689096927643,   0.15948805212974548, 
           -0.0739947035908699,    -0.03262333571910858,    -0.003976654727011919, //1,2,0..2=>  -0.0739947035908699,   -0.03262333571910858,   -0.003976654727011919, 
           0.38697704672813416,    0.1084979996085167,    -0.09279021620750427, //2,0,0..2=>  0.38697704672813416,   0.1084979996085167,   -0.09279021620750427, 
           0.143474742770195,    -0.09008832275867462,    -0.26498496532440186, //2,1,0..2=>  0.143474742770195,   -0.09008832275867462,   -0.26498496532440186, 
           0.2389664649963379,    -0.02222057804465294,    -0.2725389003753662, //2,2,0..2=>  0.2389664649963379,   -0.02222057804465294,   -0.2725389003753662, 
           -0.025044817477464676,    -0.13707777857780457,    -0.028636358678340912, //3,0,0..2=>  -0.025044817477464676,   -0.13707777857780457,   -0.028636358678340912, 
           -0.21991366147994995,    0.09802647680044174,    0.03148980811238289, //3,1,0..2=>  -0.21991366147994995,   0.09802647680044174,   0.03148980811238289, 
           -0.012548808939754963,    0.1271987408399582,    0.07944092154502869, //3,2,0..2=>  -0.012548808939754963,   0.1271987408399582,   0.07944092154502869, 
           -0.11658395826816559,    0.057500336319208145,    -0.006829995196312666, //4,0,0..2=>  -0.11658395826816559,   0.057500336319208145,   -0.006829995196312666, 
           -0.05646389722824097,    0.08438156545162201,    0.20563292503356934, //4,1,0..2=>  -0.05646389722824097,   0.08438156545162201,   0.20563292503356934, 
           0.45391276478767395,    0.11778785288333893,    0.3002600073814392, //4,2,0..2=>  0.45391276478767395,   0.11778785288333893,   0.3002600073814392, 
           -0.1714375764131546,    -0.17384590208530426,    0.2926926910877228, //5,0,0..2=>  -0.1714375764131546,   -0.17384590208530426,   0.2926926910877228, 
           -0.09916406869888306,    -0.09968552738428116,    0.2042185515165329, //5,1,0..2=>  -0.09916406869888306,   -0.09968552738428116,   0.2042185515165329, 
           0.1186913475394249,    0.24556446075439453,    0.13296958804130554, //5,2,0..2=>  0.1186913475394249,   0.24556446075439453,   0.13296958804130554, 
           -0.09177974611520767,    -0.037274979054927826,    0.018005594611167908, //6,0,0..2=>  -0.09177974611520767,   -0.037274979054927826,   0.018005594611167908, 
           -0.058956291526556015,    0.022772889584302902,    0.08902862668037415, //6,1,0..2=>  -0.058956291526556015,   0.022772889584302902,   0.08902862668037415, 
           -0.3079361021518707,    -0.21592193841934204,    -0.023151060566306114, //6,2,0..2=>  -0.3079361021518707,   -0.21592193841934204,   -0.023151060566306114, 
           0.29964250326156616,    0.23287466168403625,    0.21018563210964203, //7,0,0..2=>  0.29964250326156616,   0.23287466168403625,   0.21018563210964203, 
           0.223735973238945,    0.11014208942651749,    -0.16176316142082214, //7,1,0..2=>  0.223735973238945,   0.11014208942651749,   -0.16176316142082214, 
           0.14142976701259613,    -0.02434356138110161,    0.06008564308285713, //7,2,0..2=>  0.14142976701259613,   -0.02434356138110161,   0.06008564308285713, 
           -0.1079137846827507,    -0.31162455677986145,    -0.0841260775923729, //8,0,0..2=>  -0.1079137846827507,   -0.31162455677986145,   -0.0841260775923729, 
           0.11489982903003693,    -0.21903738379478455,    0.07249792665243149, //8,1,0..2=>  0.11489982903003693,   -0.21903738379478455,   0.07249792665243149, 
           -0.059383608400821686,    -0.06781170517206192,    0.16745761036872864, //8,2,0..2=>  -0.059383608400821686,   -0.06781170517206192,   0.16745761036872864, 
           0.18038871884346008,    0.05913063511252403,    -0.22846874594688416, //9,0,0..2=>  0.18038871884346008,   0.05913063511252403,   -0.22846874594688416, 
           0.026944976300001144,    -0.08072177320718765,    0.006691398564726114, //9,1,0..2=>  0.026944976300001144,   -0.08072177320718765,   0.006691398564726114, 
           0.1790456771850586,    -0.037883955985307693,    -0.08331430703401566, //9,2,0..2=>  0.1790456771850586,   -0.037883955985307693,   -0.08331430703401566, 
           0.48357677459716797,    0.42877915501594543,    0.3492054343223572, //10,0,0..2=>  0.48357677459716797,   0.42877915501594543,   0.3492054343223572, 
           0.4489792287349701,    0.15338310599327087,    0.1479787677526474, //10,1,0..2=>  0.4489792287349701,   0.15338310599327087,   0.1479787677526474, 
           0.14190027117729187,    0.06930754333734512,    0.16597528755664825, //10,2,0..2=>  0.14190027117729187,   0.06930754333734512,   0.16597528755664825, 
           -0.30064040422439575,    -0.4094630777835846,    -0.23900938034057617, //11,0,0..2=>  -0.30064040422439575,   -0.4094630777835846,   -0.23900938034057617, 
           -0.18810008466243744,    -0.017429586499929428,    -0.02149883471429348, //11,1,0..2=>  -0.18810008466243744,   -0.017429586499929428,   -0.02149883471429348, 
           -0.12531635165214539,    0.03818454593420029,    -0.26174092292785645, //11,2,0..2=>  -0.12531635165214539,   0.03818454593420029,   -0.26174092292785645, 
           0.14266617596149445,    0.11496728658676147,    0.43797817826271057, //12,0,0..2=>  0.14266617596149445,   0.11496728658676147,   0.43797817826271057, 
           -0.05844622105360031,    -0.0006586045492440462,    0.1808861792087555, //12,1,0..2=>  -0.05844622105360031,   -0.0006586045492440462,   0.1808861792087555, 
           -0.15404240787029266,    0.009378892369568348,    0.04156053811311722, //12,2,0..2=>  -0.15404240787029266,   0.009378892369568348,   0.04156053811311722, 
           0.05427120625972748,    -0.03524375334382057,    -0.0659073144197464, //13,0,0..2=>  0.05427120625972748,   -0.03524375334382057,   -0.0659073144197464, 
           -0.04142911732196808,    -0.025568125769495964,    0.04074813798069954, //13,1,0..2=>  -0.04142911732196808,   -0.025568125769495964,   0.04074813798069954, 
           -0.10694275051355362,    0.04345936328172684,    0.022580962628126144, //13,2,0..2=>  -0.10694275051355362,   0.04345936328172684,   0.022580962628126144, 
           0.2088310718536377,    0.20189344882965088,    0.125618577003479, //14,0,0..2=>  0.2088310718536377,   0.20189344882965088,   0.125618577003479, 
           -0.2587646245956421,    -0.025696581229567528,    -0.04601506516337395, //14,1,0..2=>  -0.2587646245956421,   -0.025696581229567528,   -0.04601506516337395, 
           -0.3354009985923767,    -0.3985288739204407,    -0.4061509966850281, //14,2,0..2=>  -0.3354009985923767,   -0.3985288739204407,   -0.4061509966850281, 
           -0.22792187333106995,    0.04453514143824577,    -0.06800418347120285, //15,0,0..2=>  -0.22792187333106995,   0.04453514143824577,   -0.06800418347120285, 
           -0.02251272462308407,    -0.11510132253170013,    0.008163189515471458, //15,1,0..2=>  -0.02251272462308407,   -0.11510132253170013,   0.008163189515471458, 
           0.04953841492533684,    -0.09051342308521271,    0.021875491365790367, //15,2,0..2=>  0.04953841492533684,   -0.09051342308521271,   0.021875491365790367, 
        
        };
        static filter_t filter4 = {16, 3, weights4, 0.05434077978134155}; 
        filters[4]=filter4;
            
        static const float weights5[]={
           -0.09792949259281158,    0.01704498566687107,    0.11930123716592789, //0,0,0..2=>  -0.09792949259281158,   0.01704498566687107,   0.11930123716592789, 
           -0.08671523630619049,    0.017062870785593987,    0.10591476410627365, //0,1,0..2=>  -0.08671523630619049,   0.017062870785593987,   0.10591476410627365, 
           0.11784747987985611,    -0.07896314561367035,    0.010743559338152409, //0,2,0..2=>  0.11784747987985611,   -0.07896314561367035,   0.010743559338152409, 
           -0.10970089584589005,    0.10301186144351959,    -0.10864558815956116, //1,0,0..2=>  -0.10970089584589005,   0.10301186144351959,   -0.10864558815956116, 
           0.04136842489242554,    -0.08149217069149017,    0.11819707602262497, //1,1,0..2=>  0.04136842489242554,   -0.08149217069149017,   0.11819707602262497, 
           0.00413160165771842,    0.15856003761291504,    -0.02264946885406971, //1,2,0..2=>  0.00413160165771842,   0.15856003761291504,   -0.02264946885406971, 
           0.06941865384578705,    -0.05907431244850159,    0.05817908048629761, //2,0,0..2=>  0.06941865384578705,   -0.05907431244850159,   0.05817908048629761, 
           -0.09454827010631561,    -0.05730026215314865,    0.09097893536090851, //2,1,0..2=>  -0.09454827010631561,   -0.05730026215314865,   0.09097893536090851, 
           -0.05002538859844208,    -0.027329599484801292,    -0.07214337587356567, //2,2,0..2=>  -0.05002538859844208,   -0.027329599484801292,   -0.07214337587356567, 
           0.08493076264858246,    0.027373306453227997,    -0.07119929045438766, //3,0,0..2=>  0.08493076264858246,   0.027373306453227997,   -0.07119929045438766, 
           0.11212504655122757,    0.025814063847064972,    0.07196921110153198, //3,1,0..2=>  0.11212504655122757,   0.025814063847064972,   0.07196921110153198, 
           -0.10694336891174316,    -0.058394938707351685,    -0.08397287130355835, //3,2,0..2=>  -0.10694336891174316,   -0.058394938707351685,   -0.08397287130355835, 
           -0.04504534602165222,    0.12080543488264084,    0.017346736043691635, //4,0,0..2=>  -0.04504534602165222,   0.12080543488264084,   0.017346736043691635, 
           0.07741251587867737,    0.10755734890699387,    -0.027222968637943268, //4,1,0..2=>  0.07741251587867737,   0.10755734890699387,   -0.027222968637943268, 
           0.08370061963796616,    -0.027007529512047768,    0.03891049325466156, //4,2,0..2=>  0.08370061963796616,   -0.027007529512047768,   0.03891049325466156, 
           0.06892053782939911,    -0.027870630845427513,    0.047085512429475784, //5,0,0..2=>  0.06892053782939911,   -0.027870630845427513,   0.047085512429475784, 
           -0.02827303297817707,    0.1598089337348938,    -0.07422106713056564, //5,1,0..2=>  -0.02827303297817707,   0.1598089337348938,   -0.07422106713056564, 
           0.1417509913444519,    -0.038222212344408035,    0.016612838953733444, //5,2,0..2=>  0.1417509913444519,   -0.038222212344408035,   0.016612838953733444, 
           0.015090016648173332,    -0.013088637962937355,    -0.05060531571507454, //6,0,0..2=>  0.015090016648173332,   -0.013088637962937355,   -0.05060531571507454, 
           0.03675331175327301,    0.08417604863643646,    -0.007916944101452827, //6,1,0..2=>  0.03675331175327301,   0.08417604863643646,   -0.007916944101452827, 
           -0.08807048201560974,    0.154749795794487,    -0.05221308022737503, //6,2,0..2=>  -0.08807048201560974,   0.154749795794487,   -0.05221308022737503, 
           0.05237368121743202,    0.08688078820705414,    0.12025590986013412, //7,0,0..2=>  0.05237368121743202,   0.08688078820705414,   0.12025590986013412, 
           0.10662539303302765,    -0.017705149948596954,    0.03809131681919098, //7,1,0..2=>  0.10662539303302765,   -0.017705149948596954,   0.03809131681919098, 
           -0.11943169683218002,    -0.06443394720554352,    0.09338907152414322, //7,2,0..2=>  -0.11943169683218002,   -0.06443394720554352,   0.09338907152414322, 
           0.10854596644639969,    -0.012818857096135616,    0.04887155443429947, //8,0,0..2=>  0.10854596644639969,   -0.012818857096135616,   0.04887155443429947, 
           -0.05662110075354576,    0.057709064334630966,    0.10132890939712524, //8,1,0..2=>  -0.05662110075354576,   0.057709064334630966,   0.10132890939712524, 
           0.08924363553524017,    0.14046208560466766,    -0.058692071586847305, //8,2,0..2=>  0.08924363553524017,   0.14046208560466766,   -0.058692071586847305, 
           0.07929103076457977,    -0.01468720380216837,    0.1328636109828949, //9,0,0..2=>  0.07929103076457977,   -0.01468720380216837,   0.1328636109828949, 
           -0.00022310858184937388,    0.11245740950107574,    -0.09255567938089371, //9,1,0..2=>  -0.00022310858184937388,   0.11245740950107574,   -0.09255567938089371, 
           0.06201303005218506,    0.08543773740530014,    0.12637430429458618, //9,2,0..2=>  0.06201303005218506,   0.08543773740530014,   0.12637430429458618, 
           -0.003993712831288576,    0.08340420573949814,    0.10667714476585388, //10,0,0..2=>  -0.003993712831288576,   0.08340420573949814,   0.10667714476585388, 
           0.12277820706367493,    0.00369087141007185,    0.03828345984220505, //10,1,0..2=>  0.12277820706367493,   0.00369087141007185,   0.03828345984220505, 
           0.019410770386457443,    -0.024612033739686012,    -0.04316936805844307, //10,2,0..2=>  0.019410770386457443,   -0.024612033739686012,   -0.04316936805844307, 
           0.048478156328201294,    0.027787571772933006,    -0.025700481608510017, //11,0,0..2=>  0.048478156328201294,   0.027787571772933006,   -0.025700481608510017, 
           0.05333397909998894,    0.07508726418018341,    0.00293456157669425, //11,1,0..2=>  0.05333397909998894,   0.07508726418018341,   0.00293456157669425, 
           0.10560964047908783,    0.012957632541656494,    0.03845977783203125, //11,2,0..2=>  0.10560964047908783,   0.012957632541656494,   0.03845977783203125, 
           0.037999752908945084,    0.004635138437151909,    0.07169151306152344, //12,0,0..2=>  0.037999752908945084,   0.004635138437151909,   0.07169151306152344, 
           0.14904236793518066,    0.10682712495326996,    0.12295939028263092, //12,1,0..2=>  0.14904236793518066,   0.10682712495326996,   0.12295939028263092, 
           -0.050153132528066635,    -0.05749749764800072,    0.10793426632881165, //12,2,0..2=>  -0.050153132528066635,   -0.05749749764800072,   0.10793426632881165, 
           0.0177798792719841,    -0.07051591575145721,    -0.011223718523979187, //13,0,0..2=>  0.0177798792719841,   -0.07051591575145721,   -0.011223718523979187, 
           0.04454008489847183,    0.027621157467365265,    0.00965392030775547, //13,1,0..2=>  0.04454008489847183,   0.027621157467365265,   0.00965392030775547, 
           0.0279163159430027,    -0.10366585105657578,    0.07673696428537369, //13,2,0..2=>  0.0279163159430027,   -0.10366585105657578,   0.07673696428537369, 
           -0.09932392090559006,    0.04571592062711716,    0.14036458730697632, //14,0,0..2=>  -0.09932392090559006,   0.04571592062711716,   0.14036458730697632, 
           0.1539515107870102,    -0.030915170907974243,    0.03005758300423622, //14,1,0..2=>  0.1539515107870102,   -0.030915170907974243,   0.03005758300423622, 
           0.11297145485877991,    0.0815710797905922,    -0.027109403163194656, //14,2,0..2=>  0.11297145485877991,   0.0815710797905922,   -0.027109403163194656, 
           0.011786319315433502,    0.0034889979287981987,    0.1369975209236145, //15,0,0..2=>  0.011786319315433502,   0.0034889979287981987,   0.1369975209236145, 
           -0.03808700665831566,    0.07213898748159409,    0.053555697202682495, //15,1,0..2=>  -0.03808700665831566,   0.07213898748159409,   0.053555697202682495, 
           0.1303560882806778,    0.08575598895549774,    0.021853584796190262, //15,2,0..2=>  0.1303560882806778,   0.08575598895549774,   0.021853584796190262, 
        
        };
        static filter_t filter5 = {16, 3, weights5, 0.037236664444208145}; 
        filters[5]=filter5;
            
        static const float weights6[]={
           0.2581475079059601,    0.008414014242589474,    0.2953864336013794, //0,0,0..2=>  0.2581475079059601,   0.008414014242589474,   0.2953864336013794, 
           0.1322478950023651,    -0.0646585077047348,    0.39229607582092285, //0,1,0..2=>  0.1322478950023651,   -0.0646585077047348,   0.39229607582092285, 
           -0.500856876373291,    -0.23971515893936157,    -0.40571850538253784, //0,2,0..2=>  -0.500856876373291,   -0.23971515893936157,   -0.40571850538253784, 
           -0.0569271594285965,    -0.3259689509868622,    0.4551713764667511, //1,0,0..2=>  -0.0569271594285965,   -0.3259689509868622,   0.4551713764667511, 
           -0.33270901441574097,    -0.369771808385849,    0.6728149652481079, //1,1,0..2=>  -0.33270901441574097,   -0.369771808385849,   0.6728149652481079, 
           -0.39079558849334717,    -0.18569853901863098,    0.29849690198898315, //1,2,0..2=>  -0.39079558849334717,   -0.18569853901863098,   0.29849690198898315, 
           -0.5279868245124817,    0.1669536530971527,    -0.138625830411911, //2,0,0..2=>  -0.5279868245124817,   0.1669536530971527,   -0.138625830411911, 
           0.17242932319641113,    0.0359528511762619,    -0.912108302116394, //2,1,0..2=>  0.17242932319641113,   0.0359528511762619,   -0.912108302116394, 
           -0.2889132797718048,    -0.6742990016937256,    -0.6133337616920471, //2,2,0..2=>  -0.2889132797718048,   -0.6742990016937256,   -0.6133337616920471, 
           -0.10206855833530426,    -0.03543921560049057,    0.012779195792973042, //3,0,0..2=>  -0.10206855833530426,   -0.03543921560049057,   0.012779195792973042, 
           0.15812130272388458,    0.016594596207141876,    0.16613712906837463, //3,1,0..2=>  0.15812130272388458,   0.016594596207141876,   0.16613712906837463, 
           0.19227777421474457,    0.1668625921010971,    0.16230498254299164, //3,2,0..2=>  0.19227777421474457,   0.1668625921010971,   0.16230498254299164, 
           0.37272217869758606,    0.14764243364334106,    0.42915084958076477, //4,0,0..2=>  0.37272217869758606,   0.14764243364334106,   0.42915084958076477, 
           0.34800010919570923,    0.09299007803201675,    0.4421054422855377, //4,1,0..2=>  0.34800010919570923,   0.09299007803201675,   0.4421054422855377, 
           0.18915200233459473,    -0.014641574583947659,    0.09036972373723984, //4,2,0..2=>  0.18915200233459473,   -0.014641574583947659,   0.09036972373723984, 
           -0.2324955016374588,    0.36971014738082886,    0.4727622866630554, //5,0,0..2=>  -0.2324955016374588,   0.36971014738082886,   0.4727622866630554, 
           0.2637152075767517,    0.39061281085014343,    -0.2660420536994934, //5,1,0..2=>  0.2637152075767517,   0.39061281085014343,   -0.2660420536994934, 
           0.07753384858369827,    0.25220969319343567,    -0.28330206871032715, //5,2,0..2=>  0.07753384858369827,   0.25220969319343567,   -0.28330206871032715, 
           -0.2982054352760315,    -0.1813044399023056,    -0.02144153229892254, //6,0,0..2=>  -0.2982054352760315,   -0.1813044399023056,   -0.02144153229892254, 
           0.1623513251543045,    0.3596021234989166,    0.07173508405685425, //6,1,0..2=>  0.1623513251543045,   0.3596021234989166,   0.07173508405685425, 
           0.42571836709976196,    0.4022364914417267,    -0.061204299330711365, //6,2,0..2=>  0.42571836709976196,   0.4022364914417267,   -0.061204299330711365, 
           0.3117772042751312,    0.05198707431554794,    -0.30551591515541077, //7,0,0..2=>  0.3117772042751312,   0.05198707431554794,   -0.30551591515541077, 
           -0.1345207691192627,    -0.1566331833600998,    0.05109430477023125, //7,1,0..2=>  -0.1345207691192627,   -0.1566331833600998,   0.05109430477023125, 
           0.666832447052002,    0.13360871374607086,    -0.2814444303512573, //7,2,0..2=>  0.666832447052002,   0.13360871374607086,   -0.2814444303512573, 
           -0.18397945165634155,    -0.2910554111003876,    -0.8904039859771729, //8,0,0..2=>  -0.18397945165634155,   -0.2910554111003876,   -0.8904039859771729, 
           -0.2915901839733124,    -0.4316512942314148,    0.15601278841495514, //8,1,0..2=>  -0.2915901839733124,   -0.4316512942314148,   0.15601278841495514, 
           -0.1532258540391922,    0.3494911789894104,    0.6661657094955444, //8,2,0..2=>  -0.1532258540391922,   0.3494911789894104,   0.6661657094955444, 
           -0.048703230917453766,    0.22838643193244934,    0.516136646270752, //9,0,0..2=>  -0.048703230917453766,   0.22838643193244934,   0.516136646270752, 
           0.26116999983787537,    0.47676223516464233,    1.0120494365692139, //9,1,0..2=>  0.26116999983787537,   0.47676223516464233,   1.0120494365692139, 
           0.6252597570419312,    0.6412904858589172,    0.7493860721588135, //9,2,0..2=>  0.6252597570419312,   0.6412904858589172,   0.7493860721588135, 
           0.1500239372253418,    -0.17491458356380463,    -0.7735445499420166, //10,0,0..2=>  0.1500239372253418,   -0.17491458356380463,   -0.7735445499420166, 
           -0.31051623821258545,    -0.47491455078125,    0.11076822876930237, //10,1,0..2=>  -0.31051623821258545,   -0.47491455078125,   0.11076822876930237, 
           -0.25169938802719116,    0.26284217834472656,    0.2662494480609894, //10,2,0..2=>  -0.25169938802719116,   0.26284217834472656,   0.2662494480609894, 
           -0.0545499250292778,    0.5554746389389038,    -0.15958265960216522, //11,0,0..2=>  -0.0545499250292778,   0.5554746389389038,   -0.15958265960216522, 
           0.16257283091545105,    0.604167103767395,    -0.14980530738830566, //11,1,0..2=>  0.16257283091545105,   0.604167103767395,   -0.14980530738830566, 
           0.30520233511924744,    0.36873310804367065,    -0.49856647849082947, //11,2,0..2=>  0.30520233511924744,   0.36873310804367065,   -0.49856647849082947, 
           -0.09881015866994858,    -0.287502259016037,    -0.2647249698638916, //12,0,0..2=>  -0.09881015866994858,   -0.287502259016037,   -0.2647249698638916, 
           -0.13892489671707153,    0.2699631452560425,    0.08157753944396973, //12,1,0..2=>  -0.13892489671707153,   0.2699631452560425,   0.08157753944396973, 
           0.5937129259109497,    0.4148021340370178,    0.188528910279274, //12,2,0..2=>  0.5937129259109497,   0.4148021340370178,   0.188528910279274, 
           0.010302064009010792,    0.05908910557627678,    0.10175001621246338, //13,0,0..2=>  0.010302064009010792,   0.05908910557627678,   0.10175001621246338, 
           0.0049017732962965965,    -0.0987730324268341,    -0.09705951809883118, //13,1,0..2=>  0.0049017732962965965,   -0.0987730324268341,   -0.09705951809883118, 
           -0.07035398483276367,    0.11822979897260666,    0.03858517110347748, //13,2,0..2=>  -0.07035398483276367,   0.11822979897260666,   0.03858517110347748, 
           0.08277006447315216,    -0.006501021329313517,    0.358345627784729, //14,0,0..2=>  0.08277006447315216,   -0.006501021329313517,   0.358345627784729, 
           -0.6790555715560913,    -0.18527956306934357,    0.5181093811988831, //14,1,0..2=>  -0.6790555715560913,   -0.18527956306934357,   0.5181093811988831, 
           -0.2488212287425995,    0.35483381152153015,    0.6997488141059875, //14,2,0..2=>  -0.2488212287425995,   0.35483381152153015,   0.6997488141059875, 
           0.38129445910453796,    0.3212561309337616,    0.4182565212249756, //15,0,0..2=>  0.38129445910453796,   0.3212561309337616,   0.4182565212249756, 
           0.46358001232147217,    0.33927541971206665,    0.08146408945322037, //15,1,0..2=>  0.46358001232147217,   0.33927541971206665,   0.08146408945322037, 
           0.7463526129722595,    0.21350115537643433,    -0.23515473306179047, //15,2,0..2=>  0.7463526129722595,   0.21350115537643433,   -0.23515473306179047, 
        
        };
        static filter_t filter6 = {16, 3, weights6, 0.503957986831665}; 
        filters[6]=filter6;
            
        static const float weights7[]={
           -0.3396099805831909,    -0.021385742351412773,    -0.3303041458129883, //0,0,0..2=>  -0.3396099805831909,   -0.021385742351412773,   -0.3303041458129883, 
           -0.2203771024942398,    -0.0713784322142601,    -0.09792253375053406, //0,1,0..2=>  -0.2203771024942398,   -0.0713784322142601,   -0.09792253375053406, 
           -0.10554969310760498,    -0.1623915135860443,    -0.21836483478546143, //0,2,0..2=>  -0.10554969310760498,   -0.1623915135860443,   -0.21836483478546143, 
           0.2529589533805847,    0.16651196777820587,    0.13371066749095917, //1,0,0..2=>  0.2529589533805847,   0.16651196777820587,   0.13371066749095917, 
           0.2157645970582962,    -0.11642485111951828,    0.04780913516879082, //1,1,0..2=>  0.2157645970582962,   -0.11642485111951828,   0.04780913516879082, 
           -0.21852447092533112,    -0.4760889708995819,    -0.43978601694107056, //1,2,0..2=>  -0.21852447092533112,   -0.4760889708995819,   -0.43978601694107056, 
           0.08889887481927872,    0.16407981514930725,    0.17401593923568726, //2,0,0..2=>  0.08889887481927872,   0.16407981514930725,   0.17401593923568726, 
           -0.009936965070664883,    -0.17248398065567017,    -0.05315164476633072, //2,1,0..2=>  -0.009936965070664883,   -0.17248398065567017,   -0.05315164476633072, 
           -0.1037459522485733,    0.06273097544908524,    -0.12346533685922623, //2,2,0..2=>  -0.1037459522485733,   0.06273097544908524,   -0.12346533685922623, 
           0.13262015581130981,    -0.11041145026683807,    0.08546179533004761, //3,0,0..2=>  0.13262015581130981,   -0.11041145026683807,   0.08546179533004761, 
           0.11808749288320541,    -0.05854349210858345,    0.04526111111044884, //3,1,0..2=>  0.11808749288320541,   -0.05854349210858345,   0.04526111111044884, 
           0.06555590033531189,    -0.06395934522151947,    -0.08215904980897903, //3,2,0..2=>  0.06555590033531189,   -0.06395934522151947,   -0.08215904980897903, 
           0.29687660932540894,    0.10660097002983093,    0.13101188838481903, //4,0,0..2=>  0.29687660932540894,   0.10660097002983093,   0.13101188838481903, 
           -0.03475562483072281,    -0.039965368807315826,    -0.0004819164169020951, //4,1,0..2=>  -0.03475562483072281,   -0.039965368807315826,   -0.0004819164169020951, 
           0.06955983489751816,    -0.044102802872657776,    -0.058428265154361725, //4,2,0..2=>  0.06955983489751816,   -0.044102802872657776,   -0.058428265154361725, 
           0.0626446083188057,    -0.08105101436376572,    0.012050200253725052, //5,0,0..2=>  0.0626446083188057,   -0.08105101436376572,   0.012050200253725052, 
           0.12440206855535507,    -0.13571840524673462,    0.14038562774658203, //5,1,0..2=>  0.12440206855535507,   -0.13571840524673462,   0.14038562774658203, 
           0.13733582198619843,    -0.1074979230761528,    0.1698036640882492, //5,2,0..2=>  0.13733582198619843,   -0.1074979230761528,   0.1698036640882492, 
           -0.06132429093122482,    0.07328679412603378,    0.18191465735435486, //6,0,0..2=>  -0.06132429093122482,   0.07328679412603378,   0.18191465735435486, 
           -0.06296711415052414,    -0.11093733459711075,    -0.08495937287807465, //6,1,0..2=>  -0.06296711415052414,   -0.11093733459711075,   -0.08495937287807465, 
           0.011652006767690182,    -0.056776877492666245,    -0.12846121191978455, //6,2,0..2=>  0.011652006767690182,   -0.056776877492666245,   -0.12846121191978455, 
           0.18901701271533966,    0.14124760031700134,    0.03885778412222862, //7,0,0..2=>  0.18901701271533966,   0.14124760031700134,   0.03885778412222862, 
           -0.4122660458087921,    -0.06426505744457245,    -0.08059601485729218, //7,1,0..2=>  -0.4122660458087921,   -0.06426505744457245,   -0.08059601485729218, 
           -0.49483710527420044,    -0.3117349445819855,    -0.08111239224672318, //7,2,0..2=>  -0.49483710527420044,   -0.3117349445819855,   -0.08111239224672318, 
           0.264584481716156,    0.051645051687955856,    -0.28288689255714417, //8,0,0..2=>  0.264584481716156,   0.051645051687955856,   -0.28288689255714417, 
           0.2104109823703766,    -0.007036839611828327,    -0.33654850721359253, //8,1,0..2=>  0.2104109823703766,   -0.007036839611828327,   -0.33654850721359253, 
           0.03423899784684181,    -0.12949487566947937,    -0.2516172230243683, //8,2,0..2=>  0.03423899784684181,   -0.12949487566947937,   -0.2516172230243683, 
           0.0214872807264328,    -0.03523983806371689,    0.0823308601975441, //9,0,0..2=>  0.0214872807264328,   -0.03523983806371689,   0.0823308601975441, 
           -0.18885061144828796,    -0.13941572606563568,    -0.025312695652246475, //9,1,0..2=>  -0.18885061144828796,   -0.13941572606563568,   -0.025312695652246475, 
           -0.18078795075416565,    -0.06962750107049942,    -0.055209070444107056, //9,2,0..2=>  -0.18078795075416565,   -0.06962750107049942,   -0.055209070444107056, 
           0.18508809804916382,    0.13620741665363312,    0.35504987835884094, //10,0,0..2=>  0.18508809804916382,   0.13620741665363312,   0.35504987835884094, 
           0.21117109060287476,    0.00023121805861592293,    0.16355711221694946, //10,1,0..2=>  0.21117109060287476,   0.00023121805861592293,   0.16355711221694946, 
           0.23566125333309174,    0.07598008960485458,    0.16065862774848938, //10,2,0..2=>  0.23566125333309174,   0.07598008960485458,   0.16065862774848938, 
           0.1809924840927124,    0.2672272026538849,    0.554282009601593, //11,0,0..2=>  0.1809924840927124,   0.2672272026538849,   0.554282009601593, 
           -0.14155270159244537,    -0.05225013568997383,    0.38132479786872864, //11,1,0..2=>  -0.14155270159244537,   -0.05225013568997383,   0.38132479786872864, 
           -0.11616571247577667,    -0.05210195481777191,    0.22920285165309906, //11,2,0..2=>  -0.11616571247577667,   -0.05210195481777191,   0.22920285165309906, 
           0.26683133840560913,    0.10613693296909332,    -0.05577664077281952, //12,0,0..2=>  0.26683133840560913,   0.10613693296909332,   -0.05577664077281952, 
           0.02824808470904827,    -0.06709874421358109,    0.05408036336302757, //12,1,0..2=>  0.02824808470904827,   -0.06709874421358109,   0.05408036336302757, 
           0.20528647303581238,    -0.005607898347079754,    0.12554922699928284, //12,2,0..2=>  0.20528647303581238,   -0.005607898347079754,   0.12554922699928284, 
           0.09570864588022232,    -0.0978047326207161,    -0.04601748287677765, //13,0,0..2=>  0.09570864588022232,   -0.0978047326207161,   -0.04601748287677765, 
           -0.09484608471393585,    -0.04339340329170227,    0.060047294944524765, //13,1,0..2=>  -0.09484608471393585,   -0.04339340329170227,   0.060047294944524765, 
           0.10127163678407669,    0.020306497812271118,    0.013839886523783207, //13,2,0..2=>  0.10127163678407669,   0.020306497812271118,   0.013839886523783207, 
           -0.06291239708662033,    0.2123691737651825,    0.13569039106369019, //14,0,0..2=>  -0.06291239708662033,   0.2123691737651825,   0.13569039106369019, 
           -0.3833848237991333,    -0.02914813533425331,    -0.15325923264026642, //14,1,0..2=>  -0.3833848237991333,   -0.02914813533425331,   -0.15325923264026642, 
           -0.439512699842453,    -0.12099608778953552,    0.04065859317779541, //14,2,0..2=>  -0.439512699842453,   -0.12099608778953552,   0.04065859317779541, 
           0.11620398610830307,    0.2861526310443878,    0.21361559629440308, //15,0,0..2=>  0.11620398610830307,   0.2861526310443878,   0.21361559629440308, 
           -0.02021784521639347,    0.19065029919147491,    0.0659988522529602, //15,1,0..2=>  -0.02021784521639347,   0.19065029919147491,   0.0659988522529602, 
           -0.05055168643593788,    0.07378828525543213,    0.07236302644014359, //15,2,0..2=>  -0.05055168643593788,   0.07378828525543213,   0.07236302644014359, 
        
        };
        static filter_t filter7 = {16, 3, weights7, 0.036457665264606476}; 
        filters[7]=filter7;
            
        static const float weights8[]={
           0.19353780150413513,    0.18308274447917938,    0.19009433686733246, //0,0,0..2=>  0.19353780150413513,   0.18308274447917938,   0.19009433686733246, 
           0.07680044323205948,    0.0726594626903534,    -0.022009126842021942, //0,1,0..2=>  0.07680044323205948,   0.0726594626903534,   -0.022009126842021942, 
           0.188445582985878,    -0.03136800229549408,    -0.1381838619709015, //0,2,0..2=>  0.188445582985878,   -0.03136800229549408,   -0.1381838619709015, 
           -0.05863357335329056,    -0.21565203368663788,    -0.17188356816768646, //1,0,0..2=>  -0.05863357335329056,   -0.21565203368663788,   -0.17188356816768646, 
